tree
version=v3
num_class=1
num_tree_per_iteration=1
label_index=0
max_feature_idx=80
objective=lambdarank
feature_names=srch_id site_id visitor_location_country_id prop_country_id prop_id prop_starrating prop_review_score prop_brand_bool prop_location_score1 prop_location_score2 prop_log_historical_price price_usd promotion_flag srch_destination_id srch_length_of_stay srch_booking_window srch_adults_count srch_children_count srch_room_count srch_saturday_night_bool orig_destination_distance random_bool comp2_rate comp2_inv comp3_rate comp3_inv comp5_rate comp5_inv comp5_rate_percent_diff comp8_rate comp8_inv mean_prop_location_score1 std_dev_prop_location_score1 mean_prop_location_score2 std_dev_prop_location_score2 mean_orig_destination_distance std_dev_orig_destination_distance mean_comp5_rate_percent_diff std_dev_comp5_rate_percent_diff median_prop_review_score std_dev_prop_review_score median_comp2_rate std_dev_comp2_rate median_comp2_inv std_dev_comp2_inv median_comp3_rate std_dev_comp3_rate median_comp3_inv std_dev_comp3_inv median_comp5_rate std_dev_comp5_rate median_comp5_inv std_dev_comp5_inv median_comp8_rate std_dev_comp8_rate median_comp8_inv std_dev_comp8_inv mean_prop_starrating median_prop_starrating std_dev_prop_starrating mean_prop_log_historical_price median_prop_log_historical_price std_dev_prop_log_historical_price mean_price_usd median_price_usd std_dev_price_usd mean_srch_length_of_stay median_srch_length_of_stay std_dev_srch_length_of_stay mean_srch_booking_window median_srch_booking_window std_dev_srch_booking_window mean_srch_adults_count median_srch_adults_count std_dev_srch_adults_count mean_srch_children_count median_srch_children_count std_dev_srch_children_count mean_srch_room_count median_srch_room_count std_dev_srch_room_count
feature_infos=[1:332784] [1:34] [1:231] [1:230] [1:140816] [0:5] [0:5] [0:1] [0:6.9800000000000004] [0:1] [0:6.21] [0.01:2085957] [0:1] [5:28411] [1:34] [0:482] [1:9] [0:9] [1:8] [0:1] [0.01:11640.57] [0:1] [-1:1] [-1:1] [-1:1] [-1:1] [-1:1] [-1:1] [2:127400] [-1:1] [-1:1] [0:6.9800000000000013] [0:4.4408920985006246e-15] [0:1] [0:0.49346372460394711] [0:11232.379999999999] [0:5196.3850000000002] [0:20671.338842975205] [0:45137.949798551213] [0:5] none [-1:1] [0:1] [-1:1] [0:1] [-1:1] [0:1] [-1:1] [0:1] [-1:1] [0:1] [-1:1] [0:1] [-1:1] [0:1] [-1:1] [0:1] [0:5] [0:5] none [0:6.2100000000000026] [0:6.21] [0:3.0995287819860802] [10.066421568627453:233985.0392857143] [8.3300000000000001:4700] [0:842842.14358579088] [1:18] [1:18] [0:15.704776343520464] [0:315] [0:315] [0:180.5] [1:4.5] [1:4.5] [0:3.0912061651652349] [0:3] [0:3] [0:3.771236166328253] [1:3] [1:3] [0:2.565800719723442]
tree_sizes=3521 3513 3522 3535 3519 3522 3527 3534 3506 3531 3537 3525 3515 3513 3538 3511 3510 3513 3514 3516 3521 3515 3489 3510 3513 3537 3523 3535 3517 3512 3519 3519 3516 3528 3522 3528 3536 3529 3512 3525 3539 3546 3524 3498 3536 3542 3502 3515 3523 3543 3520 3543 3532 3522 3514 3500 3538 3521 3555 3509 3522 3508 3524 3549 3531 3521 3518 3554 3512 3519 3528 3527 3508 3540 3538 3530 3527 3514 3517 3495 3527 3522 3525 3524 3524 3523 3524 3523 3531 3546 3519 3527 3527 3526 3520 3546 3540 3530 3513 3525 3510 3510 3517 3525 3522 3524 3517 3501 3518 3469 3547 3529 3532 3521 3524 3499 3530 3514 3536 3525 3492 3517 3493 3491 3494 3525 3476 3510 3495 3502 3460 3517 3491 3498 3494 3469 3457 3508 3480 3518 3476 3485 3472 3508 3495 3465 3495 3449 3493 3503 3514 3511 3522 3518 3505 3521 3515 3492 3519 3497 3455 3487 3511 3491 3497

Tree=0
num_leaves=31
num_cat=0
split_feature=4 9 9 9 9 11 8 9 9 31 12 9 12 12 6 4 4 11 11 6 11 4 5 5 11 5 11 9 4 12
split_gain=24798.7 9364.39 5249.71 3800.03 3080.04 1954.19 1784.79 1422.67 1310.39 890.115 885.42 834.492 770.222 666.679 620.463 569.815 541.865 511.28 448.432 373.272 392.144 371.733 362.461 356.928 350.058 339.234 317.884 300.044 297.665 267.388
threshold=20391.500000000004 0.13215000000000002 0.13040948511787467 0.13595000000000004 0.019850000000000003 199.00500000000002 2.6750000000000003 0.13040948511787467 0.032550000000000003 1.9499999999999995 1.0000000180025095e-35 1.0000000180025095e-35 1.0000000180025095e-35 1.0000000180025095e-35 3.2500000000000004 8918.5000000000018 41585.500000000007 248.00500000000002 299.00500000000005 3.2500000000000004 169.01000000000002 40493.000000000007 2.5000000000000004 2.5000000000000004 161.00500000000002 3.5000000000000004 154.00500000000002 1.0000000180025095e-35 11132.500000000002 1.0000000180025095e-35
decision_type=2 2 2 2 2 2 2 2 2 2 2 2 2 2 2 2 2 2 2 2 2 2 2 2 2 2 2 2 2 2
left_child=3 2 4 7 11 9 -5 8 27 -3 16 -2 23 22 -11 -10 -6 -8 -7 -18 25 -16 -13 -4 -12 -21 -25 -1 -29 -9
right_child=1 5 12 6 10 18 17 29 15 14 24 13 -14 -15 21 -17 19 -19 -20 20 -22 -23 -24 26 -26 -27 -28 28 -30 -31
leaf_value=0.084305102970161971 0.17073579312120565 0.15013168594997492 -0.093804376864539754 0.052841907517055121 0.0020373956130440192 0.05229282098075843 -0.033221901685321999 -0.14672308884172847 -0.075882541318933891 0.031322655672709143 0.096558136685217247 -0.074324925070715309 0.0073336291201307711 0.026418445165167774 0.066472442600244541 -0.022110466794103771 -0.0015494822392726627 -0.10321821849519187 -0.011328831090860659 0.051235158486893369 0.023011028220244634 0.10761770554567621 -0.023531366212693333 -0.035508336556559543 0.04315147787987729 0.097400745593575894 -0.082139889537883051 -0.12702067233344061 -0.083824818754450151 -0.088339309044080175
leaf_weight=110.03182280645706 329.22413137892727 4578.8881127367204 3890.484334640234 3536.6714664144674 5041.848463585251 4865.5098239505023 7790.0701134565752 7455.7549893056275 6612.5698760636151 2205.8515669893968 6346.6599991491239 2677.1658095240564 2675.6733319284976 3183.0339700625482 4067.2133037149324 4987.466768090846 2021.7607499722508 1864.6188077126862 2368.0660494631156 7383.3994824030524 4387.0658861565316 14707.623710972126 8331.6676291790209 6513.3564479034685 2469.2736742644338 3345.6038000798435 3125.26314328218 7179.2415889441036 3437.1753972314764 1358.244380426826
leaf_count=692 3638 52924 174782 24163 127537 140693 77508 98148 55790 67171 153923 128694 90934 113094 73136 72658 79562 23449 84938 249682 162974 352970 345708 261721 76899 89555 134677 73526 64588 15918
internal_value=0 0.289437 0.0599757 -0.617059 0.234004 0.721256 -0.167096 -0.807613 -0.673094 0.851134 0.412054 -0.145984 -0.428749 -0.182642 0.763686 -0.439844 0.305368 -0.389761 0.262091 0.39014 0.444109 0.822657 -0.299214 -0.525699 0.680218 0.547146 -0.422122 -0.925118 -0.942211 -1.14801
internal_weight=0 94514.6 61721.5 44331.8 45516.7 32793.2 13191.4 31140.5 22326.5 25559.6 30995.6 14521.1 16204.8 14191.9 20980.7 11600 22179.7 9654.69 7233.58 17137.8 15116.1 18774.8 11008.8 13529.1 8815.93 10729 9638.62 10726.4 10616.4 8814
internal_count=3471652 2965212 2193380 506440 1531266 771832 125120 381320 267254 546201 940132 591134 662114 587496 493277 128448 709310 100957 225631 581773 502211 426106 474402 571180 230822 339237 396398 138806 138114 114066
shrinkage=0.12


Tree=1
num_leaves=31
num_cat=0
split_feature=4 12 11 4 4 9 5 8 9 12 11 4 9 9 9 4 6 5 11 5 4 66 9 11 31 8 9 9 9 64
split_gain=18403.3 6485.34 3172 2973.61 3953.66 3273.37 2172.95 1887.14 1893.04 1808.03 1390.12 1365.65 1356.78 1666.32 1176.37 1156.72 1135.01 1115.85 1589.33 1097.47 882.385 865.838 861.202 808.076 801.781 793.189 712.516 701.105 683.424 651.476
threshold=20391.500000000004 1.0000000180025095e-35 136.00500000000002 78753.000000000015 40493.000000000007 0.21855000000000002 2.5000000000000004 2.5200000000000005 0.13405000000000003 1.0000000180025095e-35 200.00500000000002 85017.000000000015 0.13040948511787467 0.047450000000000006 0.13045948511787467 79750.500000000015 3.2500000000000004 3.5000000000000004 215.00500000000002 2.5000000000000004 63721.500000000007 2.3929459843638949 0.20265000000000002 209.00500000000002 1.9499999999999995 2.3500000000000001 0.31915000000000004 1.0000000180025095e-35 0.18965000000000001 105.92250000000001
decision_type=2 2 2 2 2 2 2 2 2 2 2 2 2 2 2 2 2 2 2 2 2 2 2 2 2 2 2 2 2 2
left_child=9 3 6 4 17 12 22 26 -9 19 16 21 13 27 -14 -4 -10 23 -19 -1 -18 -8 -3 24 -2 -7 -6 -5 -21 -13
right_child=1 2 15 5 7 25 11 8 10 -11 -12 29 14 -15 -16 -17 20 18 -20 28 -22 -23 -24 -25 -26 -27 -28 -29 -30 -31
leaf_value=0.021774836952940132 -0.031521924489031815 -0.032235961902940043 -0.025782917382435003 0.11317465805462235 -0.028402637702489839 0.057994302421475942 0.047118520967741218 -0.030467420806154343 0.026259193343416296 0.12977835995519754 -0.020774895398412523 0.045085024135916661 -0.052713942649916336 0.018643244808115873 -0.012632546086020168 0.013704163127028471 -0.10426494945670339 0.059738998138315909 -0.019687386365820205 0.066113138554645165 -0.057515051594010894 0.0068980845554126062 0.055710035918654671 -0.089873547712059673 0.013736747904506586 0.016613277013979976 0.019871968238978306 -0.024289560975972575 0.11412796852193487 0.085425633663370221
leaf_weight=5987.5994642661826 10383.486784659181 8542.5009072887769 23552.10873196373 541.29706477606669 38155.651958411792 9348.7331157294102 15687.609682334296 24736.658082421607 1263.2764086020761 8813.3606624784006 5882.234780904022 11188.975836702622 20034.164415951935 26785.022857271193 22282.487965360138 19543.136679951596 19045.927213923307 9152.2164465147071 6005.0978938034386 14670.382145569747 8401.654713803553 15166.549419536081 1971.1066698666546 1827.434881715104 12321.012727432448 23325.998498269182 4972.5268513467163 31370.790186991973 6046.0091848752636 11951.145830017165
leaf_count=99911 93553 64569 141189 1495 345140 22815 72316 248516 14461 107735 52341 71424 289599 219534 119325 139431 48058 81739 57923 243625 32370 82386 7985 16399 140703 146955 9709 383664 55169 61613
internal_value=0 -0.0637889 0.144429 -0.145018 -0.24571 -0.0379457 0.284762 -0.349509 -0.46523 0.688618 -0.616298 0.365753 -0.126947 -0.0285221 -0.263441 -0.0656121 -0.707042 0.0222235 0.235543 0.558847 -0.749704 0.227946 -0.131074 -0.109546 -0.0579762 0.237163 -0.190278 -0.182893 0.667846 0.54942
internal_weight=0 383439 107603 275836 142147 133688 64507.9 102458 59329.8 35517.4 34593.1 53994.3 101014 58697.1 42316.7 43095.2 28710.9 39689.2 15157.3 26704 27447.6 30854.2 10513.6 24531.9 22704.5 32674.7 43128.2 31912.1 20716.4 23140.1
internal_count=3471652 2965212 640913 2324299 1140912 1183387 360293 750595 395746 506440 147230 287739 1013617 604693 408924 280620 94889 390317 139662 398705 80428 154702 72554 250655 234256 169770 354849 385159 298794 133037
shrinkage=0.12


Tree=2
num_leaves=31
num_cat=0
split_feature=9 9 4 9 4 31 5 9 11 9 11 5 11 11 12 64 11 5 12 9 5 8 6 4 9 31 11 5 63 61
split_gain=7351.1 6281.02 4302.64 2929.91 2870.82 2002.21 2226.5 1927.47 1507.56 1447.68 1219.71 1169.35 1111.43 963.61 789.152 782.832 990.169 749.608 727.064 696.086 673.23 672.321 639.128 626.223 586.633 572.543 558.224 682.065 472.824 443.672
threshold=0.13045948511787467 0.13040948511787467 78753.000000000015 0.0074500000000000009 78327.500000000015 2.6400000000000001 3.5000000000000004 1.0000000180025095e-35 143.00500000000002 0.051050000000000005 296.98500000000007 3.5000000000000004 307.61500000000007 119.99500000000002 1.0000000180025095e-35 158.30500000000004 109.00500000000001 3.5000000000000004 1.0000000180025095e-35 0.0029500000000000004 1.0000000180025095e-35 3.7950000000000004 3.7500000000000004 40493.000000000007 0.27225000000000005 1.9500000000000004 245.02000000000001 3.5000000000000004 96.099808673469383 5.3325000000000014
decision_type=2 2 2 2 2 2 2 2 2 2 2 2 2 2 2 2 2 2 2 2 2 2 2 2 2 2 2 2 2 2
left_child=1 3 8 7 9 11 13 -1 17 -5 15 18 22 -7 23 16 28 24 -4 -9 -3 -8 -11 25 -2 -10 27 -22 -6 -27
right_child=2 20 5 4 10 6 21 19 14 12 -12 -13 -14 -15 -16 -17 -18 -19 -20 -21 26 -23 -24 -25 -26 29 -28 -29 -30 -31
leaf_value=0.092300549073962748 0.028391066871526274 -0.10687017669384631 0.0023777613184499829 0.0027773342398588158 -0.018281503078861113 -0.016918331408250355 0.037724446821043381 -0.068412506530759837 0.059847644466068724 0.01491391688881325 -0.066585961872628038 0.072244891423722993 -0.045304251284523013 -0.064615724350457371 0.05035825162335416 0.012326812936850664 -0.03641434312444098 0.076914429463875209 0.066658499709141172 -0.027923291787385125 -0.05188793394823786 -0.0020761348245912628 0.049747406786087356 0.032275888644430456 0.061574478894473927 -0.045363414072695007 -0.08860922816384964 -0.018849004050152055 0.011469530798266179 0.0014574926268775058
leaf_weight=1487.7528906893276 16679.488631965418 2841.1699180433643 15344.36215362302 38830.303235851694 14728.474195312941 12940.63775579806 8598.3560394247761 12301.983849434386 1620.5092954053544 10482.169759242795 5721.1361218391685 6494.9611290339381 2322.4022092667874 11552.958101157332 9207.1070254765218 18358.217304785037 21252.833207017393 14327.475640160032 3034.0897201357875 12191.343103143212 33098.289452692727 21102.967068164144 27566.63990355219 9815.1557797425194 14246.330534707056 4631.5623988413136 4209.5330371726304 12378.969676055887 16094.474542167154 7841.8468464851612
leaf_count=4330 107897 49939 50565 448757 141851 74324 37584 188513 4708 99525 51326 17765 26108 69671 71278 144513 170673 69172 7860 177593 491318 137405 230101 96093 70700 32004 68694 153325 115230 62830
internal_value=0 -0.112458 0.167049 -0.0242473 0.0277293 0.00245251 -0.10534 -0.335064 0.333097 0.16103 -0.110891 0.237344 0.293619 -0.328535 0.170901 -0.0747977 -0.1374 0.451756 0.108354 -0.402235 -0.416947 0.0786968 0.334629 0.0750416 0.364035 -0.0599574 -0.389809 -0.357488 -0.0228592 -0.132689
internal_weight=0 233866 157438 181338 155357 79068.3 54194.9 25981.1 78369.5 79201.5 76155.1 24873.4 40371.2 24493.6 33116.2 70434 52075.8 45253.3 18378.5 24493.3 52528 29701.3 38048.8 23909.1 30925.8 14093.9 49686.8 45477.3 30822.9 12473.4
internal_count=3471652 2561796 909856 1798520 1428084 395174 318984 370436 514682 804491 623593 76190 355734 143995 266913 572267 427754 247769 58425 366106 763276 174989 329626 195635 178597 99542 713337 644643 257081 94834
shrinkage=0.12


Tree=3
num_leaves=31
num_cat=0
split_feature=9 9 11 5 9 5 11 11 8 11 8 61 11 64 64 9 9 12 33 61 64 11 8 64 80 11 64 61 31 11
split_gain=5028.03 4556.55 2185.26 1903.92 1454.39 1142.32 1085.22 1084.4 1048.84 1040.39 1017.97 914.138 880.619 1116.85 717.936 605.278 760.572 455.661 442.189 434.75 419.1 450.592 408.825 358.881 346.725 345.745 490.234 415.653 342.24 361.194
threshold=0.13045948511787467 0.13040948511787467 178.59500000000003 2.5000000000000004 0.092750000000000013 3.5000000000000004 369.03000000000003 152.00500000000002 1.5000000000000002 197.00500000000002 2.4400000000000004 5.4025000000000007 99.00500000000001 149.00500000000002 104.01500000000001 1.0000000180025095e-35 0.0090500000000000025 1.0000000180025095e-35 0.13500246800731266 5.9825000000000008 178.99750000000003 99.00500000000001 4.0000000000000009 99.795000000000016 0.13502190644446369 89.995000000000019 93.002500000000012 4.7625000000000002 3.8100000000000009 119.00500000000001
decision_type=2 2 2 2 2 2 2 2 2 2 2 2 2 2 2 2 2 2 2 2 2 2 2 2 2 2 2 2 2 2
left_child=1 4 3 18 5 7 11 15 -5 20 -6 -4 14 23 22 -1 -17 28 -2 -13 21 -7 -10 -14 -18 26 -26 -27 29 -3
right_child=2 17 6 8 10 9 -8 -9 12 -11 -12 19 13 -15 -16 16 24 -19 -20 -21 -22 -23 -24 -25 25 27 -28 -29 -30 -31
leaf_value=0.093751462689636453 0.022721667014604319 -0.044065630945462626 -0.026992473178302074 0.071733206172402281 0.052500777156453418 0.029835884715042102 -0.058435451922195951 -0.048869113699627424 0.042503234112299108 -0.017948330883775235 0.0064901214301395322 0.0067664976740469439 -0.028194441728034821 0.040697247143104062 0.071611914174233321 -0.038146606690034487 -0.045701606496969666 -0.020175364900942388 -0.015835090982308123 0.051208610179449929 0.039073885232696115 -0.00060634422032764359 0.0039453013337739009 0.0098605198770804273 -0.0025745961149463816 -0.038954377661413263 0.037964554465395706 -0.004263028727585598 -0.019225523332339813 -0.069268708186690425
leaf_weight=780.85114382111351 5744.3641313232947 20724.494087631057 11948.892860112828 9040.9269331467804 9763.93362351018 10340.898967393907 5120.2104769807192 13100.975807113457 14568.775259651477 19869.892350100621 23826.638051853981 22032.89809439244 4106.9111612376291 20899.973635237897 9852.3249170752242 13211.157934403163 2986.575809603557 9169.5289072318119 16805.657673185924 3702.6402964039007 8603.5079280916834 21649.516735005833 5447.8553068940528 27088.05290946411 19132.905844242661 6741.9259094363078 5535.4459012377192 18984.226776545634 4620.5630870811001 13615.095649627096
leaf_count=2620 29445 343698 87447 20569 54538 81685 53761 161373 62185 233633 192289 165332 23260 113705 41759 243813 35600 102397 100007 29243 68599 195717 38743 144400 221025 74814 44185 188629 92599 224582
internal_value=0 -0.0965185 0.137443 0.210027 -0.0213881 -0.0659593 -0.0550877 -0.143997 0.274483 0.0378898 0.165585 0.00358759 0.238796 0.160266 0.375709 -0.0927826 -0.10307 -0.368925 -0.0500561 0.109739 0.129675 0.07693 0.266804 0.0403761 -0.0498761 -0.0302273 0.0543304 -0.111345 -0.416147 -0.450543
internal_weight=0 222658 156359 113555 174528 140938 42804.6 80474.1 91004.8 60463.8 33590.6 37684.4 81963.9 52094.9 29869 67373.1 66592.2 48129.7 22550 25735.5 40593.9 31990.4 20016.6 31195 53381.1 50394.5 24668.4 25726.2 38960.2 34339.6
internal_count=3471652 2561796 909856 574073 1798520 1551693 335783 972059 444621 579634 246827 282022 424052 281365 142687 810686 808066 763276 129452 194575 346001 277402 100928 167660 564253 528653 265210 263443 660879 568280
shrinkage=0.12


Tree=4
num_leaves=31
num_cat=0
split_feature=9 9 8 11 9 11 5 5 11 64 61 61 11 5 11 9 11 64 8 9 6 64 11 64 61 67 61 9 61 11
split_gain=4264.52 2715.11 2037.66 1656.47 1401.73 1245.25 1432.58 958.234 883.776 1662.95 1133.22 580.166 544.479 532.511 702.477 515.783 504.659 517.203 456.897 417.643 399.394 386.257 370.898 367.178 353.217 325.371 309.654 303.578 292.376 282.414
threshold=0.14845000000000003 0.13040948511787467 1.7000000000000004 239.00500000000002 0.13045948511787467 245.02000000000001 2.5000000000000004 3.5000000000000004 119.99500000000002 125.00250000000001 5.2425000000000006 5.5225000000000009 89.00500000000001 2.5000000000000004 99.00500000000001 0.47445000000000004 79.995000000000019 78.995000000000019 4.1650000000000009 0.064150000000000013 2.7500000000000004 198.00500000000002 399.01500000000004 241.97500000000005 4.6025000000000009 1.7500000000000002 4.9225000000000003 1.0000000180025095e-35 6.0225000000000009 59.995000000000012
decision_type=2 2 2 2 2 2 2 2 2 2 2 2 2 2 2 2 2 2 2 2 2 2 2 2 2 2 2 2 2 2
left_child=1 5 15 7 13 6 29 12 9 16 26 -7 20 -3 -15 -2 17 -8 -9 27 -4 -20 28 -12 -14 -16 -10 -18 -13 -1
right_child=2 4 3 -5 -6 11 8 18 10 -11 23 22 24 14 25 -17 19 -19 21 -21 -22 -23 -24 -25 -26 -27 -28 -29 -30 -31
leaf_value=-0.0025554239746066491 0.044208098090658572 -0.06451876331688465 -0.034785712729140626 -0.02351057550148377 0.001923658543687097 -0.066486514426592536 0.0039458488389197775 0.039965155880977328 -0.042115729437430666 0.054182442199993575 0.0068233727646073092 -0.018136558166704654 -0.045421801945585892 -0.010556239098233014 -0.064295902998082896 0.09386896097426313 0.11142358041409875 0.043876501018610681 0.0059881193988682354 0.015557062569254855 0.025964631402187979 0.038651692493375828 -0.04992939364073623 0.045045192769414648 0.00018787064416088636 -0.035208468315930171 -0.01360215643655084 -0.015073619163740174 0.03063054592169933 -0.030440901236273007
leaf_weight=7017.7726236302697 12561.069748531561 11364.13067445741 1690.0239023535978 16973.064026053995 13555.693035790464 5055.6672965164762 10268.005574739771 26045.59176364087 7525.2478736080229 13440.096820612816 27660.362513082626 6884.1762041106122 2648.7334597499575 11676.747504539322 9144.325867325766 3973.1004682513885 274.89690259331837 8579.118470750167 15668.445591862779 11383.81652149919 19544.115467812866 7820.0193268896546 3847.1560318289557 4164.8642881148844 31448.25992995227 14152.348732201615 20308.333798003441 19480.534938131226 2379.9408472240902 20642.485437951691
leaf_count=100888 33949 222715 15833 164422 90501 61697 108951 108837 90926 99365 260276 82379 17125 163736 150116 7563 874 67136 99108 75832 108138 54726 50232 37490 209654 226709 218410 230615 28320 285129
internal_value=0 -0.0838083 0.13858 0.0938627 -0.266743 -0.0189347 0.0108671 0.140778 0.0570867 0.139268 -0.03027 -0.266253 0.0503069 -0.349485 -0.288285 0.467988 0.0552768 0.184426 0.241812 -0.0228661 0.176009 0.140586 -0.155134 0.0985969 -0.0279511 -0.388629 -0.17765 -0.110802 -0.0465957 -0.194759
internal_weight=0 228806 138372 121838 59893.2 168912 150746 104865 123085 63426.5 59658.8 18166.9 55331.1 46337.6 34973.4 16534.2 49986.4 18847.1 49534.1 31139.2 21234.1 23488.5 13111.3 31825.2 34097 23296.7 27833.6 19755.4 9264.12 27660.3
internal_count=3471652 2652297 819355 777843 853777 1798520 1575892 613421 1189875 582773 607102 222628 350750 763276 540561 41512 483408 176087 262671 307321 123971 153834 160931 297766 226779 376825 309336 231489 110699 386017
shrinkage=0.12


Tree=5
num_leaves=31
num_cat=0
split_feature=9 9 11 9 8 6 9 9 11 5 8 8 61 11 63 11 11 5 5 65 11 61 66 11 8 8 64 11 70 12
split_gain=3287.44 3421.09 1754.48 1464.01 1092.87 1004.22 835.207 831.125 695.658 642.037 566.355 488.337 479.927 524.65 472.678 528.279 399.998 593.506 393.03 388.935 557.71 369.187 316.86 282.906 270.524 264.634 256.745 254.612 251.449 246.102
threshold=0.13045948511787467 0.13040948511787467 158.83500000000004 0.036350000000000007 1.7000000000000004 3.7500000000000004 1.0000000180025095e-35 0.0032500000000000007 153.11000000000004 3.5000000000000004 2.1400000000000006 1.2450000000000003 5.5925000000000002 345.02000000000004 137.02268953366323 119.00500000000001 208.00500000000002 3.5000000000000004 1.5000000000000002 25.671934882672794 168.99500000000003 5.4425000000000017 2.6007046449466658 129.00500000000002 4.2700000000000005 1.2450000000000003 171.31250000000003 350.00500000000005 15.250000000000002 1.0000000180025095e-35
decision_type=2 2 2 2 2 2 2 2 2 2 2 2 2 2 2 2 2 2 2 2 2 2 2 2 2 2 2 2 2 2
left_child=1 3 5 6 -5 18 -1 -8 9 -6 26 -7 -12 -14 15 24 17 28 -2 -9 -21 -10 -11 -16 29 -20 -4 -23 -3 -13
right_child=2 16 10 4 8 11 7 19 21 22 12 14 13 -15 23 -17 -18 -19 25 20 -22 27 -24 -25 -26 -27 -28 -29 -30 -31
leaf_value=0.08350102896658948 -0.063176072394176455 -0.051615437534548968 0.0029774478616888234 0.037687663793684288 0.00029382149573737676 0.065226845144591081 -0.048174203941333947 -0.025989777853040331 -0.029242649881306544 0.039392098071733828 -0.019714429579686516 0.022751802400987311 0.013804779769402625 -0.034516861242670595 0.050554289458560539 -0.013623223014303033 -0.070155186061310923 -0.0089904886360682081 0.04690674956500434 0.0058617400618705164 -0.023560051107035847 0.0055437551997880898 0.0077450009357762977 0.025884835976481096 -0.0038634694652639762 0.0044368240957197436 0.058099150162924607 -0.036753673487108833 -0.02819295251005469 0.049688301380129675
leaf_weight=1215.7143675198604 1167.3489599272725 19226.216086605331 2155.5240266930778 14948.866543002427 33615.160594796587 5604.5995081656147 10294.592788468988 17732.781006560719 11767.10362793738 12286.49040301342 25046.37135596486 17348.783368041739 17332.448802248808 3975.3658489509253 15595.93215778895 5977.9857363365591 5347.6931806869688 9477.3783044940792 2290.9499491681345 25920.405266945716 14443.660025587596 13111.165230969375 7258.4218463550787 11789.157778002904 3848.756576458225 27058.688498283387 2807.0020972420461 2426.7373649546644 10107.85324748882 6820.1904442294035
leaf_count=4330 9226 353276 7789 102447 318976 13082 202725 276960 118939 71173 200645 82930 133522 53834 70649 35730 107494 133128 6167 300998 197532 122584 48400 65448 28717 168949 9043 33456 169378 24125
internal_value=0 -0.0808267 0.11361 -0.0146641 0.0657781 0.192381 -0.124943 -0.139568 0.0196323 0.08628 -0.0360391 0.260882 -0.0704333 0.0398455 0.235038 0.156207 -0.32804 -0.292631 0.0419803 -0.0931334 -0.0388672 -0.110084 0.230395 0.332844 0.213798 0.064658 0.284929 -0.00882076 -0.362926 0.253012
internal_weight=0 209180 148819 165021 95413.9 97502.4 69607.2 68391.4 80465.1 53160.1 51316.7 66985.4 46354.2 21307.8 61380.8 33995.7 44159.1 38811.4 30517 58096.8 40364.1 27305 19544.9 27385.1 28017.7 29349.6 4962.53 15537.9 29334.1 24169
internal_count=3471652 2561796 909856 1798520 815975 505023 982545 978215 713528 438549 404833 320681 388001 187356 307599 171502 763276 655782 184342 775490 498530 274979 119573 136097 135772 175116 16832 156040 522654 107055
shrinkage=0.12


Tree=6
num_leaves=31
num_cat=0
split_feature=9 6 8 11 64 61 11 64 11 11 9 11 61 34 12 5 69 11 61 8 11 80 11 63 63 5 11 11 11 33
split_gain=2976.39 1820.05 1475.72 1297.31 1465.95 1022.92 842.979 920.424 695.641 683.794 513.165 475.49 465.827 387.607 363.404 340.045 332.529 308.652 304.059 278.201 271.349 269.661 259.659 254.454 244.029 223.898 216.669 215.097 189.126 182.297
threshold=0.19765000000000002 3.2500000000000004 3.0650000000000004 141.28500000000005 140.00500000000002 5.1525000000000007 89.00500000000001 85.00500000000001 269.00500000000005 269.00500000000005 0.35855000000000004 69.995000000000019 4.7825000000000015 0.022138273488945263 1.0000000180025095e-35 1.0000000180025095e-35 51.095839311334295 69.995000000000019 5.4525000000000015 1.2450000000000003 109.00500000000001 0.17696146528312101 109.99500000000002 109.79689252679491 161.87845514828453 2.5000000000000004 39.755000000000003 194.00500000000002 206.00500000000002 0.42966663187195558
decision_type=2 2 2 2 2 2 2 2 2 2 2 2 2 2 2 2 2 2 2 2 2 2 2 2 2 2 2 2 2 2
left_child=1 15 10 4 6 27 7 11 13 18 25 -3 -8 -4 19 -1 -11 -9 -7 -12 -6 -15 23 -23 -24 -2 -17 -5 -20 -26
right_child=2 3 8 5 20 9 12 17 -10 16 14 -13 -14 21 -16 26 -18 -19 28 -21 -22 22 24 -25 29 -27 -28 -29 -30 -31
leaf_value=-0.083643182624057497 0.0010745998067650819 0.0089362809777736463 -0.032415592777808103 -0.032527210931793588 0.053156757592327276 -0.010964143177476954 -0.027716817038510581 0.058488822977932779 -0.02795083178310754 -0.042257971192366232 0.077722661309034158 -0.022256102821967369 -0.0042004616900180435 -0.026879705656259741 0.086333787585647428 0.010422926642447488 -0.0071255667115626533 0.022082236133349184 0.017472820408089684 0.034055909684144917 0.023961802623007317 0.009588561075379802 -0.0075983104475693189 0.04102489974330998 0.01961976987940427 0.029940458493586626 -0.032715450625193619 -0.063138810817659416 -0.0030323048145746148 -0.0087879976501081935
leaf_weight=1821.038473390654 4992.7152800564654 17583.84105859563 2859.8588264755672 14122.137826786871 6750.7743577136425 21514.843806568882 16829.884135175496 4181.0276959126932 7705.6077794001612 10122.352884341002 2602.8046003484633 11727.81371700298 43481.520092327613 2333.8627526133787 3393.8624804511201 1771.7477897641365 6305.8250923714368 17071.983716129151 14458.910226416978 11055.645924099954 14390.752936981386 6400.3158017792739 9272.6239018371562 8854.6688260739902 20952.749817195814 17332.99356605811 29666.816873668227 4336.400015418476 11715.758842593204 3843.087754441367
leaf_count=41221 25888 209052 22817 177280 42767 245188 212088 29957 91011 149490 5345 142545 449920 20262 7497 27167 82672 154110 128496 39032 116759 46567 69417 45199 143632 65883 459543 63975 125410 31462
internal_value=0 -0.0590882 0.144143 -0.0253459 0.036141 -0.123658 -0.00986616 0.0853501 0.0482455 -0.0639162 0.295639 -0.029505 -0.0897116 0.0880122 0.426309 -0.276752 -0.239854 0.24379 -0.00328023 0.353301 0.27745 0.107869 0.123601 0.232054 0.0749978 0.19576 -0.252334 -0.331094 0.0690886 0.126764
internal_weight=0 247853 101601 214594 132018 82576.2 110876 50564.7 62222.8 64117.7 39378 29311.7 60311.4 54517.2 17052.3 33259.6 16428.2 21253 47689.5 13658.5 21141.5 51657.3 49323.4 15255 34068.5 22325.7 31438.6 18458.5 26174.7 24795.8
internal_count=3471652 2857640 614012 2329709 1357198 972511 1197672 535664 470367 731256 143645 351597 662008 379356 51874 527931 232162 184067 499094 44377 159526 356539 336277 91766 244511 91771 486710 241255 253906 175094
shrinkage=0.12


Tree=7
num_leaves=31
num_cat=0
split_feature=9 9 9 8 11 9 5 11 63 34 66 9 12 6 35 31 34 5 78 31 5 46 7 5 11 7 11 11 63 11
split_gain=2866.21 2813.58 1336.86 1297.5 943.308 891.919 695.944 600.884 615.807 548.363 490.556 463.171 409.837 309.751 325.152 309.443 275.504 263.939 253.665 252.675 241.131 237.647 222.844 222.703 269.425 216.042 214.875 209.041 206.798 203.665
threshold=0.13045948511787467 0.13040948511787467 0.011550000000000001 2.2500000000000004 189.00500000000002 1.0000000180025095e-35 3.5000000000000004 189.00500000000002 166.53385983447791 0.074280381704781392 2.3846708046996237 0.080650000000000013 1.0000000180025095e-35 3.7500000000000004 1335.1713016795868 2.8300000000000001 0.055559688631601906 3.5000000000000004 1.0588611885215038 3.1400000000000001 3.5000000000000004 0.29641062706441895 1.0000000180025095e-35 2.5000000000000004 109.99500000000002 1.0000000180025095e-35 468.75500000000005 115.00500000000001 176.21125296912118 129.00500000000002
decision_type=2 2 2 2 2 2 2 2 2 2 2 2 2 2 2 2 2 2 2 2 2 2 2 2 2 2 2 2 2 2
left_child=1 2 5 9 6 -1 21 8 11 -2 18 16 23 -6 -15 -13 -4 -9 -7 -19 -11 -5 -10 -3 -25 -8 -16 -27 -29 -24
right_child=3 12 7 4 13 10 25 17 22 20 -12 15 -14 14 26 -17 -18 19 -20 -21 -22 -23 29 24 -26 27 -28 28 -30 -31
leaf_value=0.078291921102837586 0.018698442743169574 -0.059108889144079989 0.0016018848493471653 -0.0035281453330117357 -0.044608015093020002 -0.082751517842474337 0.014702830843734853 -0.037465266365188099 0.0086578593221442058 0.040850674218669746 -0.01115662802530273 0.027781676378489679 -0.012104838311893459 -0.022688392111775389 0.0084476275528487729 0.00080489248872875493 -0.01667818293201458 0.00911373682723602 -0.037812849698374604 -0.018077590792694782 0.073505776022650196 0.014956832847993025 0.047797166417582429 -0.022375843167298293 -0.047553499596061158 0.048919167531672997 -0.046170078311872934 0.0064648278330995349 0.03566843624432512 0.020639627763432995
leaf_weight=1138.4746172704909 15251.650203857571 8811.6457942560664 36194.700070579653 27516.161550489021 3540.8633979430306 2095.5545672806911 16068.31175694312 5191.8415521593415 9811.4254887379939 10772.369151809951 11467.367362205114 13405.878528182511 7780.6078420296544 10845.648996229575 14211.565956938633 11286.845123286359 17658.26405198162 8213.2230637578759 13520.37627019803 12257.243132428615 4698.0095447334461 15738.310595664778 6634.1616533052875 10650.215212312934 14484.761396400689 7747.6795467268676 1116.4937374634319 5649.073667662451 9192.9395657932619 10000.491379541461
leaf_count=4330 56847 204197 415455 213777 32007 53553 85544 65528 81686 34169 185045 90846 102397 107395 131449 104948 185934 84135 250665 152342 11553 104294 40347 174884 281798 32952 15227 33430 51212 83706
internal_value=0 -0.0770094 -0.016308 0.108524 0.0584242 -0.213675 0.113796 0.0263189 0.0598529 0.29051 -0.250165 0.0153984 -0.308093 -0.0941803 -0.0565683 0.128806 -0.0365856 -0.110833 -0.365507 -0.0596843 0.423194 0.0266274 0.191835 -0.35555 -0.307438 0.211297 0.0371329 0.274382 0.204697 0.262351
internal_weight=0 200603 158876 142349 111627 28221.8 81912.5 130654 104992 30722 27083.3 78545.7 41727.2 29714.6 26173.7 24692.7 53853 25662.3 15615.9 20470.5 15470.4 43254.5 26446.1 33946.6 25135 38658 15328.1 22589.7 14842 16634.7
internal_count=3471652 2561796 1798520 909856 807287 493593 521209 1304927 1002922 102569 489263 797183 763276 286078 254071 195794 601389 302005 304218 236477 45722 318071 205739 660879 456682 203138 146676 117594 84642 124053
shrinkage=0.12


Tree=8
num_leaves=31
num_cat=0
split_feature=9 9 11 9 9 9 61 8 11 8 64 12 5 8 11 61 5 11 11 65 34 8 64 64 12 31 61 61 11 64
split_gain=2464.79 2414.7 1105.92 1037.99 592.175 573.832 536.859 502.051 488.369 471.167 493.102 335.736 317.934 296.802 288.416 282.675 282.158 514.34 278.518 435.421 261.199 256.201 241.151 225.472 224.281 213.247 249.259 204.914 203.625 201.285
threshold=0.13045948511787467 0.13040948511787467 129.00500000000002 0.045650000000000003 1.0000000180025095e-35 0.0014500000000000001 4.9525000000000015 2.3500000000000001 257.02000000000004 1.7000000000000004 123.22750000000001 1.0000000180025095e-35 2.5000000000000004 1.2450000000000003 420.03000000000003 6.0225000000000009 2.5000000000000004 104.99500000000002 169.01000000000002 27.042057267161734 0.066258399030396889 3.3850000000000002 188.51250000000002 108.93750000000001 1.0000000180025095e-35 3.8100000000000009 6.2075000000000005 4.8900000000000015 99.00500000000001 103.00250000000001
decision_type=2 2 2 2 2 2 2 2 2 2 2 2 2 2 2 2 2 2 2 2 2 2 2 2 2 2 2 2 2 2
left_child=1 3 9 4 -1 -6 -4 24 13 20 11 -11 -9 -8 25 -10 -7 23 19 -3 -2 -13 -15 -18 -5 26 28 -19 29 -14
right_child=2 18 6 7 5 16 8 12 15 10 -12 21 14 22 -16 -17 17 27 -20 -21 -22 -23 -24 -25 -26 -27 -28 -29 -30 -31
leaf_value=0.076940712104961187 0.022452566932848129 -0.041806618331823371 -0.03379326991843605 0.015484116235304581 -0.053682367377021645 -0.027282192808670676 0.0561685681674787 -0.023255348202603682 -0.026238750900019949 0.0038393807714291153 0.035012338707876144 0.04332387140514133 0.01327827234648709 0.00035439382107287174 -0.05545938263995815 0.01326245610238469 2.8988939378318111e-05 -0.038563156344209877 -0.055104884199140371 -0.01349210249389955 0.05912452859293401 0.011501980653213815 0.017926156315522017 0.027551985624104342 0.042375698362378346 -0.0027516794409354634 0.11786800103506408 -0.011883463448973888 0.0047574135354245851 0.052311981906011183
leaf_weight=1062.5456439629197 4681.4449417851865 18696.645690646488 5821.3413673648611 18703.750091392547 4719.8170125819743 11932.984623381868 1926.7991271167994 6669.34950596001 9912.8764699846506 29085.218545542099 17794.675861421041 6736.4662190265954 5169.0708119794726 25547.262997153215 1119.2893883772194 3534.3032572492957 13949.426092323847 4732.6089075859636 7919.755335820606 13474.979348000139 7008.3512124419212 7965.429165808484 20109.540095485747 6190.7962105693296 5879.6004823558033 21418.159126845188 323.16725518088788 33687.848275089636 17465.389023133554 3020.9924408607185
leaf_count=2250 11768 69414 18931 55968 18919 42105 4052 21212 32837 88160 48271 17034 15283 77594 4124 10918 43445 16502 32132 46379 14040 24102 57879 17540 16000 66090 686 107540 52547 7765
internal_value=0 -0.0721575 0.101499 -0.0159084 -0.0993175 -0.109809 0.00847509 0.0638366 0.0361692 0.186356 0.151382 0.0942956 0.0108654 0.0837359 0.0390268 -0.132061 -0.0871824 -0.0585961 -0.291055 -0.249604 0.370459 0.217458 0.0674746 0.0708083 0.182697 0.0509026 0.11181 -0.126457 0.100731 0.230835
internal_weight=0 196136 140124 156045 76276 75213.5 66852.1 79768.8 61030.8 73271.6 61581.8 43787.1 55185.4 47583.6 48516.1 13447.2 70493.7 58560.7 40091.4 32171.6 11689.8 14701.9 45656.8 20140.2 24583.4 47396.8 25978.6 38420.5 25655.5 8190.06
internal_count=1041487 635901 405586 487976 248301 246051 202211 239675 183280 203375 177567 129296 167707 139525 146495 43755 227132 185027 147925 115793 25808 41136 135473 60985 71968 142371 76281 124042 75595 23048
shrinkage=0.12


Tree=9
num_leaves=31
num_cat=0
split_feature=9 9 31 9 9 21 11 11 5 12 5 9 9 12 21 5 11 64 64 66 44 35 11 11 5 61 9 33 78 4
split_gain=2106.49 1982.81 1087.36 804.076 700.493 598.67 594.439 561.407 557.193 551.476 457.485 385.47 378.12 338.269 436.509 314.296 273.981 350.425 282.292 286.463 257.075 253.181 228.385 224.769 214.739 214.283 205.315 192.675 186.469 185.515
threshold=0.13045948511787467 0.13040948511787467 3.2599999999999998 0.013250000000000001 1.0000000180025095e-35 1.0000000180025095e-35 310.01500000000004 159.00500000000002 3.5000000000000004 1.0000000180025095e-35 2.5000000000000004 0.48655000000000009 0.0026500000000000004 1.0000000180025095e-35 1.0000000180025095e-35 3.5000000000000004 166.58500000000004 239.03250000000003 175.00250000000003 2.0466384180790964 0.13081431310407718 1594.826716493191 78.995000000000019 109.99500000000002 1.0000000180025095e-35 4.9525000000000015 0.26745000000000008 0.22850260822510821 1.0370943699117074 8918.5000000000018
decision_type=2 2 2 2 2 2 2 2 2 2 2 2 2 2 2 2 2 2 2 2 2 2 2 2 2 2 2 2 2 2
left_child=1 3 9 4 -1 12 10 8 20 11 -4 15 -6 14 24 23 18 -18 19 -12 -5 -10 -21 -2 -3 -9 -11 -27 -14 -23
right_child=2 13 6 7 5 -7 -8 25 21 26 16 -13 28 -15 -16 -17 17 -19 -20 22 -22 29 -24 -25 -26 27 -28 -29 -30 -31
leaf_value=0.079334019877003822 0.013466210419726836 -0.097630333077545511 -0.028745661296954265 -0.0060348546819215714 -0.069638704530575288 -0.00098254674735215016 -0.036570406660755332 -0.047793361044630112 0.030871938179291996 0.030954655924761917 0.026569222905332861 0.041895203347657534 -0.080676200875625728 -0.0090200493828771228 -0.017512700287448908 0.028193686753945856 -0.011102287192888626 0.020725162457142138 0.034931593552498356 0.023403070120495823 0.010574409623810226 0.064447232602266799 -0.0049587669509788069 -0.0086444696503425993 -0.044636186687144877 -0.0055884555140475389 0.060048822429206693 -0.040124324237509577 -0.023756391606192365 0.0061577746813305072
leaf_weight=986.04511322826147 17879.347117727622 1169.2441310007125 5475.0549836554565 35399.219809935894 3974.3472997555509 10642.344182545785 5453.5719507820904 2086.8141901288182 15809.537565605715 8006.6816483642906 9279.4804717190564 7476.3178686937317 887.71537412703037 7290.7302548079751 10372.956146200886 12388.406180294231 18278.726857723668 6844.224379572086 7285.7468210030347 5314.1005835477263 21608.154290571343 829.44966474175453 17693.9099541381 10504.75714286603 20097.289321695687 31208.318658994511 6245.5974839888513 2513.5935417860746 12656.654932074249 14704.900600598194
leaf_count=2039 52892 5578 18468 112540 17027 37298 19367 7415 44639 21949 26426 16825 3819 24486 39861 33529 58673 19873 19949 15507 65014 2067 56550 32829 76858 98446 13573 8541 43685 45764
internal_value=0 -0.0680235 0.0938651 -0.0168372 -0.166307 -0.195359 0.0131892 0.0182455 0.061061 0.191461 0.0379213 0.140365 -0.308992 -0.269558 -0.314313 0.102045 0.0614248 -0.0202152 0.113277 0.0731055 0.00215658 0.168156 0.0132345 0.0439912 -0.39637 -0.0873634 0.364327 -0.0680709 -0.229227 0.0773811
internal_weight=0 192237 138126 153307 29147.1 28161.1 75624.8 124160 88351.3 62501.1 70171.2 48248.8 17518.7 38930.2 31639.5 40772.5 64696.2 25123 39573.2 32287.5 57007.4 31343.9 23008 28384.1 21266.5 35808.7 14252.3 33721.9 13544.4 15534.4
internal_count=1041487 635077 406410 488294 103868 101829 234813 384426 270024 171597 215446 136075 64531 146783 122297 119250 196978 78546 118432 98483 177554 92470 72057 85721 82436 114402 35522 106987 47504 47831
shrinkage=0.12


Tree=10
num_leaves=31
num_cat=0
split_feature=9 9 11 9 9 8 6 9 9 21 9 33 11 6 21 12 65 33 5 11 64 11 61 11 11 64 44 11 33 21
split_gain=1777.74 1147.47 854.871 786.998 650.102 602.441 452.619 445.8 377.618 388.555 349.973 336.971 324.476 361.9 270.569 339.004 249.446 244.948 232.377 223.534 203.897 202.244 270.24 192.855 190.189 232.398 195.622 188.788 187.896 185.455
threshold=0.14845000000000003 0.13040948511787467 215.00500000000002 0.06235000000000001 0.13045948511787467 1.2450000000000003 3.2500000000000004 1.0000000180025095e-35 0.0060500000000000007 1.0000000180025095e-35 0.36695000000000011 0.14721124718014825 139.00500000000002 3.7500000000000004 1.0000000180025095e-35 1.0000000180025095e-35 36.855849783122814 0.050493270270270278 2.5000000000000004 99.995000000000019 117.82250000000001 409.01000000000005 5.8725000000000014 223.00500000000002 89.995000000000019 78.00500000000001 0.20025288682677042 174.25500000000002 1.0000000180025095e-35 1.0000000180025095e-35
decision_type=2 2 2 2 2 2 2 2 2 2 2 2 2 2 2 2 2 2 2 2 2 2 2 2 2 2 2 2 2 2
left_child=1 3 5 7 14 -2 -7 -1 9 -9 24 -12 13 -10 15 27 -15 -5 -19 20 -20 22 -4 -17 25 -8 -26 -3 -16 -14
right_child=2 4 21 17 -6 6 10 8 12 -11 11 -13 29 16 28 23 -18 18 19 -21 -22 -23 -24 -25 26 -27 -28 -29 -30 -31
leaf_value=0.073798483733113721 0.049205543746885974 -0.039361213305000788 -0.015138840347853937 0.032762200183848379 0.0015079438156047522 -0.012950232159153738 0.0049165004484272726 -0.044804916428416795 -0.014411961761478603 -0.0049864236904540631 0.062022938920974026 0.021968335687939482 -0.023530791036115314 -0.0030255097509188163 0.015531627144880242 -0.0015206173599157558 0.018417722781345194 -0.013117082591419159 0.014848475228843867 0.0043308735552544022 0.050666760665607255 -0.043410983226081432 0.018249165306500358 -0.086228375649183758 0.0020467807610998964 0.033443977288079685 0.021228490632549803 -0.070967091324404055 -0.022881490872679343 -0.0028660871251896375
leaf_weight=929.76620176807046 7198.1238802615553 17222.633086706512 13681.677571658045 5644.6115753846243 12045.183452674188 8659.9020902402699 7100.4964490756392 8106.5726120448671 16929.751242805272 6262.3032218469307 3466.5730346478522 23926.342325469013 18483.062329305336 16097.893590306863 2220.4093884211034 4402.707401256077 15159.512672629673 7490.9499368080869 10395.435336347669 32802.216875921935 2940.8075319174677 2437.5937091140077 4681.9832178228535 422.70356501452625 33338.372112751938 9807.0634142141789 9943.7137985536829 3250.752472933149 10407.264177365229 9473.5005395207554
leaf_count=1868 15024 67041 44891 16268 38445 28668 22124 33406 57090 22955 7481 66912 61857 51605 9020 14441 45573 24644 31852 102236 7851 8910 14182 1779 104041 27328 29086 14822 39223 30864
internal_value=0 -0.0584284 0.0937776 -0.01488 -0.189746 0.130979 0.110089 -0.0730638 -0.0801561 -0.228854 0.131658 0.225382 -0.0520773 -0.00233275 -0.254022 -0.313725 0.0614242 0.0748629 0.0539786 0.0805149 0.189686 -0.0911642 -0.0551556 -0.0749874 0.0889806 0.178939 0.0538098 -0.369932 -0.134301 -0.137777
internal_weight=0 200688 124242 150716 49971.7 103441 96242.5 91442.4 90512.6 14368.9 87582.6 27392.9 76143.7 48187.2 37926.5 25298.8 31257.4 59274 53629.4 46138.5 13336.2 20801.3 18363.7 4825.41 60189.6 16907.6 43282.1 20473.4 12627.7 27956.6
internal_count=1041487 672840 368647 488069 184771 300664 285640 305218 303350 56361 256972 74393 246989 154268 146326 98083 97178 182851 166583 141939 39703 67983 59073 16220 182579 49452 133127 81863 48243 92721
shrinkage=0.12


Tree=11
num_leaves=31
num_cat=0
split_feature=9 9 11 9 11 33 9 5 21 12 64 9 8 21 12 5 8 8 11 61 9 9 78 35 5 11 5 31 63 11
split_gain=1647.46 1416.43 827.129 580.704 465.834 417.939 411.847 411.159 340.797 472.875 310.398 307.556 306.118 277.243 299.821 273.117 249.723 218.111 216.988 232.326 204.842 193.374 186.682 184.665 165.673 163.555 162.174 160.369 155.473 160.767
threshold=0.13045948511787467 0.13040948511787467 149.00500000000002 0.030550000000000004 223.00500000000002 0.09705950430321085 1.0000000180025095e-35 3.5000000000000004 1.0000000180025095e-35 1.0000000180025095e-35 201.88500000000002 0.00125 2.2500000000000004 1.0000000180025095e-35 1.0000000180025095e-35 2.5000000000000004 3.4500000000000006 2.1400000000000006 357.71000000000009 5.3725000000000014 0.29675000000000007 0.092750000000000013 1.0350535872755822 1224.3740437317786 3.5000000000000004 279.01000000000005 3.5000000000000004 3.8100000000000009 293.04034226190481 520.72500000000002
decision_type=2 2 2 2 2 2 2 2 2 2 2 2 2 2 2 2 2 2 2 2 2 2 2 2 2 2 2 2 2 2
left_child=1 3 5 6 10 -2 -1 20 9 11 12 -8 -5 14 25 -4 -17 -9 19 -18 -7 -14 -13 -19 -23 26 -3 -22 -6 -30
right_child=2 13 15 4 28 7 8 17 -10 -11 -12 22 21 -15 -16 16 18 23 -20 -21 27 24 -24 -25 -26 -27 -28 -29 29 -31
leaf_value=0.069372853057865058 0.038976221378827301 -0.045794172951717942 -0.043758494452766944 0.015749870900133307 -0.029980575399817903 7.1887206192338646e-05 -0.085017548526605161 0.057141486750342571 -0.00033281243108508303 0.00072567432017707381 0.032832193941353123 -0.065910551039807502 -0.0056176027556226714 -0.01362502415873173 -0.0082919484308059451 0.013157866059959366 -0.019726032543597755 0.033541133499403811 -0.036939086923888857 0.0036311496764972364 0.023419979580021757 -0.00060032906414621105 -0.023398430884990114 0.012695585410286002 0.023149761159297087 -0.093248977587797099 -0.019369731239009629 -0.00048213915910754981 0.0048660525765799045 -0.055912248097413263
leaf_weight=878.9599675051868 11289.611697256565 14647.890356662683 2153.1072822441347 24833.646083840169 6925.1106233121827 25742.881977118552 1372.9260928118601 2850.1494345106184 18742.59891341906 10478.156033977401 6145.191823925823 1605.8653523609973 34608.933540774975 12432.030558599159 4684.0026123784482 14363.907552991994 8441.2719492036849 11127.331939520314 2928.5792978852987 22386.250689983368 13736.065098455176 9478.5507751740515 20650.335448534228 13664.209882540628 7621.3523837719113 862.94667346403003 4362.5094860375393 5713.2989921998233 4829.5386193892919 717.86026122514158
leaf_count=1728 29179 60126 7767 77121 23887 83026 6883 6099 64241 33768 17426 7183 111907 47960 16014 42460 28585 31396 11073 70502 36646 30073 74572 41441 22597 4472 16691 18456 15411 2797
internal_value=0 -0.060243 0.0850878 -0.0167245 0.0301944 0.145734 -0.0998401 0.117955 -0.111156 -0.170681 0.0573773 -0.249085 0.039998 -0.235376 -0.296998 -0.0163748 -0.000755961 0.214035 -0.0477688 -0.0230129 0.0591595 -0.00381015 -0.220641 0.183822 0.083162 -0.35065 -0.331161 0.13661 -0.149917 -0.0249554
internal_weight=0 185878 134397 148889 95160.2 84123.5 53728.8 72833.9 52849.9 34107.3 82687.7 23629.1 76542.5 36989.4 24557.3 50273.1 48120 27641.7 33756.1 30827.5 45192.2 51708.8 22256.2 24791.5 17099.9 19873.3 19010.4 19449.4 12472.5 5547.4
internal_count=1041487 634857 406630 489594 301219 246243 188375 217064 186647 122406 259124 88638 241698 145263 97303 160387 152620 78936 110160 99087 138128 164577 81755 72837 52670 81289 76817 55102 42095 18208
shrinkage=0.12


Tree=12
num_leaves=31
num_cat=0
split_feature=9 12 9 8 11 11 5 11 78 61 11 9 21 34 6 55 63 64 11 6 11 64 66 11 64 35 67 11 11 5
split_gain=1435.85 933.27 735.651 688.49 468.356 382.082 362.436 530.18 299.128 277.081 270.93 261.728 274.876 246.329 222.304 217.343 216.991 213.422 216.729 195.287 242.313 212.725 191.928 188.267 189.192 171.524 167.277 166.669 158.736 159.425
threshold=0.14845000000000003 1.0000000180025095e-35 0.13040948511787467 2.1400000000000006 229.00500000000002 237.01000000000002 2.5000000000000004 109.00500000000001 1.0517476275486237 4.9225000000000003 339.01000000000005 0.13045948511787467 1.0000000180025095e-35 0.084430691961212459 4.2500000000000009 0.75000000000000011 103.4665020790021 238.46500000000003 180.00500000000002 3.7500000000000004 71.00500000000001 108.00250000000001 3.0653010033444823 89.995000000000019 281.11500000000007 2522.7516042780749 3.2500000000000004 115.00500000000001 154.00500000000002 2.5000000000000004
decision_type=2 2 2 2 2 2 2 2 2 2 2 2 2 2 2 2 2 2 2 2 2 2 2 2 2 2 2 2 2 2
left_child=1 2 6 13 8 19 -1 16 -5 -9 17 12 28 -2 15 22 -8 18 -11 25 -21 -22 -10 -23 -25 -3 -6 -16 29 -4
right_child=3 5 11 4 26 -7 7 9 14 10 -12 -13 -14 -15 27 -17 -18 -19 -20 20 21 23 -24 24 -26 -27 -28 -29 -30 -31
leaf_value=-0.021587440193209448 0.016660692316091158 0.0056984264577513606 -0.05250602400091961 -0.01166175165617349 -0.01733539978709716 -0.023314283079014498 -0.001399110039554732 -0.031333393307066686 0.0095120708436744038 -0.00066219365637025334 -0.035407251455513045 -0.0066889613074131169 -0.015299968593793185 0.041686321062361413 0.035655985197342213 0.071336867366444595 0.019531649068985652 0.01760753832234099 -0.020422144473322038 0.039316978724136212 -0.0074802239195652315 0.050928150992065879 -0.011076854483179768 0.01098310096863237 0.079240879850835458 -0.024349801656634026 0.026876799588205522 0.014450920597303735 -0.060612523444078588 -0.025768279934720185
leaf_weight=18514.029179755133 11476.684294441715 10888.882353042252 4661.2193067024928 8680.0074289487675 13947.419598639477 5529.3715201038867 12928.277035946026 7553.5141863967292 41422.745267948136 24701.406816835981 4257.233360176906 7888.2318428391591 10127.52480478771 11232.465385025367 7829.9692711252719 749.00712714716792 15879.166048327927 5855.5666398787871 11824.216528997757 4941.0968951079994 7134.3495852965862 2045.6407987978309 7730.8655233141035 21410.307869147509 599.92901718337089 3650.3249404961243 1347.9380593262613 16888.051624588668 4138.631187974941 10463.869205313735
leaf_count=69018 31720 35118 21223 29010 48165 19373 43467 28013 129023 80907 16161 26347 40247 24831 22048 1770 49257 18230 40452 14273 24031 5523 25957 67398 1498 13207 4368 51187 19260 40405
internal_value=0 -0.0534888 -0.0975139 0.0850753 0.0489042 0.0552186 -0.0533798 -0.0251433 0.0784449 -0.0834235 -0.0546138 -0.217657 -0.261072 0.242057 0.0988895 0.0604409 0.0844557 -0.0304244 -0.0588585 0.0824719 0.121854 0.0892028 0.0522591 0.134188 0.107134 -0.0153314 -0.111902 0.176461 -0.331222 -0.283517
internal_weight=0 194993 138793 121305 98596 56199.9 101513 82999.4 83300.6 54191.9 46638.4 37279.5 29391.2 22709.1 74620.6 49902.6 28807.4 42381.2 36525.6 50670.5 36131.3 31190.2 49153.6 24055.9 22010.2 14539.2 15295.4 24718 19263.7 15125.1
internal_count=1041487 673408 492987 368079 311528 180421 345505 276487 258995 183763 155750 147482 121135 56551 229985 156750 92724 139589 121359 161048 112723 98450 154980 74419 68896 48325 52533 73235 80888 61628
shrinkage=0.12


Tree=13
num_leaves=31
num_cat=0
split_feature=9 5 11 11 65 31 61 11 12 11 11 46 11 46 64 61 8 63 7 62 5 61 6 61 11 60 11 63 11 61
split_gain=1190.82 800.922 763.781 757.409 740.845 566.219 563.727 366.407 347.848 265.525 265.225 260.012 290.856 258.913 258.468 245.888 236.775 227.088 209.05 185.855 183.015 165.109 163.843 157.115 143.332 142.807 136.927 146.373 133.206 130.791
threshold=0.23065000000000002 3.5000000000000004 206.00500000000002 94.00500000000001 12.045297731214687 3.6600000000000006 4.6325000000000012 168.99500000000003 1.0000000180025095e-35 202.01500000000001 384.47500000000008 0.13048657948482825 104.99500000000002 0.21543681775678761 188.51250000000002 6.0750000000000011 1.2450000000000003 157.96813445378152 1.0000000180025095e-35 1.4731711083832415 2.5000000000000004 6.0750000000000011 2.7500000000000004 5.2825000000000015 117.00500000000001 3.9277695480631274 520.72500000000002 288.52203826955082 138.99500000000003 4.9825000000000008
decision_type=2 2 2 2 2 2 2 2 2 2 2 2 2 2 2 2 2 2 2 2 2 2 2 2 2 2 2 2 2 2
left_child=1 3 11 4 22 8 -5 17 16 19 15 18 -13 -6 -14 -4 -2 24 -3 -7 -18 -12 -1 -9 -8 -15 27 -11 29 -22
right_child=5 2 10 6 13 9 7 23 -10 26 21 12 14 25 -16 -17 20 -19 -20 -21 28 -23 -24 -25 -26 -27 -28 -29 -30 -31
leaf_value=-0.045302442566639893 0.044090813405183081 -0.0069255870916000266 -0.012258471990440263 -0.050852685881085123 -0.0016692575605451534 -0.016444614385317483 -0.0072164884208767242 -0.044273963153174618 0.043467419841068444 -0.020651401777710104 -0.05974989319105415 0.033072015141662282 0.0026802439260961365 0.0054044992612710934 0.026359727170711132 0.024848988331788276 -0.0059396193489813908 0.0051118623496339893 0.012032123396019567 0.012737678538145742 0.017526514143656493 -0.01742752172221523 -0.015772435868545549 -0.018944361800520556 -0.021779280121074898 0.025260476647646999 -0.073467262735800107 0.0077815890281836692 0.0057554146654829018 0.044647053890545886
leaf_weight=3364.909214700805 3943.815801165998 17712.834458486643 20454.753875002265 7183.2137619266286 20601.723824824672 3604.2922529969364 18901.387921036687 7529.1647295898292 9175.3288739956915 6853.7218365501612 2497.9571733577177 10902.533735737205 20834.014768376015 8858.1535469144583 9749.2825308218598 2937.5314705644269 5946.9494423177093 10536.019730453845 15881.902914344333 24301.805415724404 8256.4603960923851 2857.7926253266633 13955.929650662467 6683.9002855452709 20138.014991512289 12749.936980694532 508.40265227109194 4198.2633063811809 7728.3293745592237 3731.0344037376344
leaf_count=14436 7840 61386 71196 29113 72537 12618 65674 29749 22549 23722 10280 31531 68578 29773 29090 9370 19086 35065 50500 75926 23284 10983 51413 24136 72534 39845 2197 13914 23747 9415
internal_value=0 -0.0362403 0.0292959 -0.0883886 -0.00518875 0.106237 -0.15816 -0.128221 0.192051 0.0218817 -0.109291 0.0823752 0.135333 0.0662555 0.0852825 -0.0632648 0.139256 -0.0876041 0.016944 0.0746946 0.104127 -0.310036 -0.179339 -0.269793 -0.122769 0.142728 -0.10551 -0.0820033 0.150516 0.216531
internal_weight=0 234331 103829 130502 59530.7 78248.4 70971.7 63788.5 38781.9 39466.5 28748 75080.6 41485.8 42209.8 30583.3 23392.3 29606.6 49575.4 33594.7 27906.1 25662.8 5355.75 17320.8 14213.1 39039.4 21608.1 11560.4 11052 19715.8 11987.5
internal_count=1041487 807189 342914 464275 208004 234298 256271 227158 105921 128377 101829 241085 129199 142155 97668 80566 83372 173273 111886 88544 75532 21263 65849 53885 138208 69618 39833 37636 56446 32699
shrinkage=0.12


Tree=14
num_leaves=31
num_cat=0
split_feature=9 9 9 11 5 8 31 9 12 33 61 11 21 12 9 33 80 33 65 33 34 65 80 6 11 21 11 8 70 5
split_gain=1182.91 1063.7 719.643 629.009 391.058 376.661 344.057 305.513 300.787 267.29 263.813 306.652 223.766 322.956 219.629 211.659 227.861 218.198 205.736 192.52 254.839 183.256 178.604 176.363 172.748 158.457 155.18 165.084 154.846 153.829
threshold=0.13045948511787467 0.13040948511787467 0.035550000000000005 141.28500000000005 2.5000000000000004 3.2400000000000007 2.6400000000000001 1.0000000180025095e-35 1.0000000180025095e-35 0.077093662391365322 5.1525000000000007 289.00500000000005 1.0000000180025095e-35 1.0000000180025095e-35 0.0029500000000000004 1.0000000180025095e-35 0.16858608025590152 0.022066290935672521 16.905625408009225 0.24391773584905663 0.11403255862080335 25.120016734513467 0.21295885499998005 3.2500000000000004 257.02000000000004 1.0000000180025095e-35 296.98500000000007 4.6250000000000009 39.750000000000007 4.5000000000000009
decision_type=2 2 2 2 2 2 2 2 2 2 2 2 2 2 2 2 2 2 2 2 2 2 2 2 2 2 2 2 2 2
left_child=1 2 7 4 -2 8 21 -1 23 12 -5 19 13 14 -9 16 -3 25 -8 20 -12 -6 -7 -4 -24 -17 27 -19 -13 -25
right_child=3 15 5 10 6 22 18 9 -10 -11 11 28 -14 -15 -16 17 -18 26 -20 -21 -22 -23 24 29 -26 -27 -28 -29 -30 -31
leaf_value=0.060143503340857621 -0.0012200815938452857 -0.029597243823990833 -0.01805402265411863 -0.019659826017220994 0.022159624676047211 -0.042437117130355702 -0.011268473018950866 -0.057302918884325996 0.028014332619291892 -0.030276867313090997 0.005944539963130842 -0.027879418015508126 0.0020197364222124289 0.0027133249604877783 -0.019216114476899464 -0.063620324786716934 0.021778241669680308 -0.024404702719611138 0.016361798231772837 -0.002001600157451963 0.035627056618780975 0.044342899155795777 0.00097012713608885318 0.0076021651279202674 -0.024812679881002362 -0.022339690048283421 -0.069082700566080554 0.017831851692103776 0.01244933287852268 0.04785940740190877
leaf_weight=829.42951468750834 15707.913724125363 2338.3131227181293 3762.9661306664348 9309.0319309765473 12004.657657882199 1666.6298207808286 4358.8702873550355 2481.1843830961734 12631.082643669099 10638.809486708604 12902.418239883147 6124.367043685168 16546.377443250269 9718.8502547368407 18190.589499439346 3937.4190343543887 2648.7415638965322 21281.863918121438 34933.104549027048 17047.475770678371 6158.6239379029721 9753.6809883415699 30123.47567118099 31540.975280082785 4269.8327092570253 2049.1566640269011 1045.1423085881397 1416.8460122502875 1760.3526386199519 1428.3650496639311
leaf_count=1779 51202 10496 13415 31600 32683 6333 15166 12979 38564 38336 41543 22485 58227 31956 67644 18036 11625 84450 108744 56088 17320 24439 98901 102962 15183 8372 5172 5515 6048 4224
internal_value=0 -0.0528438 -0.0149138 0.0725362 0.130488 0.0435667 0.166693 -0.100463 0.100324 -0.109165 -0.0109002 0.0214436 -0.0766891 -0.127638 -0.198321 -0.209943 -0.0190723 -0.241923 0.110776 0.0604786 0.129533 0.267604 -0.0341038 0.0545082 -0.0185709 -0.412688 -0.198794 -0.181347 -0.157162 0.0779392
internal_weight=0 178546 143829 130060 76758.2 85423.3 61050.3 58405.2 49363.4 57575.8 53302.3 43993.2 46937 30390.6 20671.8 34717.5 4987.05 29730.4 39292 36108.5 19061 21758.3 36059.9 36732.3 34393.3 5986.58 23743.9 22698.7 7884.72 32969.3
internal_count=1041487 634169 490503 407318 232234 279582 181032 210921 159165 209142 175084 143484 170806 112579 80623 143666 22121 121545 123910 114951 58863 57122 120417 120601 114084 26408 95137 89965 28533 107186
shrinkage=0.12


Tree=15
num_leaves=31
num_cat=0
split_feature=9 9 9 11 9 11 64 5 11 8 61 21 61 11 9 46 5 11 56 9 66 8 72 63 12 8 9 11 64 61
split_gain=1055.43 1044.94 567.284 519.996 354.413 352.827 447.889 288.089 321.221 303.885 292.653 215.047 213.39 246.62 198.738 195.707 178.452 297.124 161.541 161.354 159.228 157.152 150.604 149.398 149.065 148.909 148.62 146.559 195.644 141.65
threshold=0.13045948511787467 0.13040948511787467 0.010750000000000001 169.01000000000002 1.0000000180025095e-35 135.00500000000002 148.99750000000003 3.5000000000000004 79.00500000000001 3.0200000000000005 4.5500000000000016 1.0000000180025095e-35 5.2925000000000013 286.02000000000004 0.074750000000000025 0.25034551118191001 2.5000000000000004 89.995000000000019 0.042689334752764603 0.36695000000000011 2.117906734740334 3.4150000000000005 1.9873216797267437 80.169500000000014 1.0000000180025095e-35 1.2450000000000003 0.0010500000000000004 299.00500000000005 208.41000000000003 6.0950000000000006
decision_type=2 2 2 2 2 2 2 2 2 2 2 2 2 2 2 2 2 2 2 2 2 2 2 2 2 2 2 2 2 2
left_child=1 2 4 7 -1 6 14 8 15 19 -10 26 -7 -14 -4 23 -3 -18 -15 -9 -16 24 -19 -2 -12 -5 -6 28 -27 -29
right_child=3 16 5 25 11 12 -8 9 10 -11 21 -13 13 18 20 -17 17 22 -20 -21 -22 -23 -24 -25 -26 27 -28 29 -30 -31
leaf_value=0.06032766297361896 -0.0011568196426787576 -0.040440862013315121 -0.0013523660684450548 0.036220054168494532 -0.071259932199690873 -0.01685419226237107 0.033073683055292305 0.030622221891099883 -0.030869480236068701 0.014587622501852185 0.0066239559327401342 -0.007982411219103638 0.0057455647635935407 0.0025028207795409567 0.020939974528349677 0.035935389770829197 0.0019596388440722705 -0.036339450981221245 -0.034664739579892759 0.066466327587317992 0.0003324217247133469 -0.0058982619560008862 -0.015024568309800103 0.028685310463443282 0.03380094364584954 -0.010617475765304142 -0.027683476886843788 -0.032870539280721277 0.0089916745389749617 0.0052928796620168419
leaf_weight=781.34060306102037 6318.1603472363204 8077.8583136959933 40747.659898514394 1296.7107888236642 1257.022682887502 17277.711051506922 8441.2175602093339 7747.7991660386324 3669.1998603399843 26461.834503624588 17691.944219618104 9322.4539656466804 23451.091489755549 2786.3213452794589 13498.129643912427 7341.0907283881679 6616.2879050606862 11434.434952590615 4231.0129497968592 2373.3818253874779 9017.709494705312 12416.1303313151 8243.8310071576852 3901.7658501174301 3481.0936604104936 15762.80806310568 11235.005254011601 4604.1058141146787 13683.355959383305 2004.4268574528396
leaf_count=1655 20929 37798 138376 3347 6757 61446 25180 20956 12786 83400 54407 34482 76647 10000 43178 21120 24560 48003 15647 4785 30309 42414 33431 11532 9422 53779 46529 17526 43920 7166
internal_value=0 -0.0504368 -0.0125698 0.0686414 -0.157866 0.0149089 0.0592635 0.109268 0.0633738 0.178006 0.0107895 -0.181617 -0.0516812 -0.00130355 0.0303723 0.174869 -0.206886 -0.166852 -0.165777 0.325424 0.105772 0.0401123 -0.228488 0.085233 0.0925051 -0.03075 -0.267406 -0.0427553 -0.0125102 -0.177325
internal_weight=0 176419 142047 128754 22595.8 119451 71704.7 91402.4 54819.4 36583 37258.4 21814.5 47746.1 30468.4 63263.5 17561 34372.4 26294.6 7017.33 10121.2 22515.8 33589.2 19678.3 10219.9 21173 37351.4 12492 36054.7 29446.2 6608.53
internal_count=1041487 633998 490206 407489 89423 400783 237043 281751 172610 109141 119029 87768 163740 102294 211863 53581 143792 105994 25647 25741 73487 106243 81434 32461 63829 125738 53286 122391 97699 24692
shrinkage=0.12


Tree=16
num_leaves=31
num_cat=0
split_feature=6 11 64 61 11 11 61 64 64 21 12 11 61 9 11 11 21 11 20 61 9 11 64 11 9 8 71 9 6 9
split_gain=952.113 970.13 740.757 650.777 549.511 529.387 461.5 384.997 366.181 337.975 302.72 286.466 363.437 266.479 223.645 220.458 177.629 170.319 164.422 176.651 160.267 157.296 144.487 137.236 128.275 128.962 125.351 125.021 120.225 119.814
threshold=3.2500000000000004 119.99500000000002 115.00250000000001 5.0325000000000015 195.36500000000004 69.995000000000019 4.4925000000000006 73.00500000000001 209.03500000000003 1.0000000180025095e-35 1.0000000180025095e-35 520.72500000000002 5.5825000000000005 0.28215000000000007 87.00500000000001 83.00500000000001 1.0000000180025095e-35 66.00500000000001 744.43500000000006 6.182500000000001 0.21155000000000004 51.07500000000001 178.99750000000003 307.61500000000007 0.14625000000000002 2.5200000000000005 54.043540685501021 0.057950000000000008 2.7500000000000004 0.32525000000000004
decision_type=2 2 2 2 2 2 2 2 2 2 2 2 2 2 2 2 2 2 2 2 2 2 2 2 2 2 2 2 2 2
left_child=9 2 5 29 8 7 -7 20 24 10 17 12 -6 14 -8 -4 -13 28 -14 23 21 -2 27 -20 -5 -26 -21 -17 -1 -3
right_child=1 3 15 4 11 6 13 -9 -10 -11 -12 16 18 -15 -16 22 -18 -19 19 26 -22 -23 -24 -25 25 -27 -28 -29 -30 -31
leaf_value=-0.036535483947782436 0.019810529821971515 -0.025445734469971445 0.046973630241082358 -0.002306550340621345 -0.02040428849720859 -0.028345960299054656 0.0093959214781958889 0.039512820484349363 0.027893383819610179 -0.0028007363529964141 -0.0023297946255906488 -0.079580722824029893 -0.015389705772278729 0.021641946884114673 -0.0080894683669831269 0.004752668266562116 -0.016078272105494867 -0.04417185647930736 0.007621610897996252 -0.017259900610169396 0.026354348814929856 -0.0083114224693146572 0.042749002883225487 -0.015623329727265219 0.028910663487041941 0.0053850680689932085 0.04691867350302957 0.022191343031222849 -0.00059334957997748776 -5.1877018151019185e-05
leaf_weight=2623.3898978633806 4307.2400498487987 21477.325678977184 5118.5483889011666 31174.141610406339 20029.860539394431 8386.6767246737145 16590.165791953914 8309.9665875369683 9839.7178321883548 11892.44003673899 5089.4713058900088 1328.8839180059731 6994.2610077401623 8331.4727562051266 28834.689069813583 8141.9578822944313 1225.0373134096153 11289.755764763337 14253.067892349092 542.6643292773515 5049.1562333162874 8535.4694499485195 3660.3195195626467 4916.3288688154425 4045.0954456180334 19781.527081984095 2203.9332363242283 21889.33809745498 2751.7616110173985 3067.06370336283
leaf_count=11711 14620 81365 14040 109131 72738 31310 56141 24821 30170 45368 17509 5891 25678 23483 102966 27541 4790 47503 47642 2184 14638 30798 10396 18321 10822 64902 7075 68090 10569 9274
internal_value=0 0.0194674 0.0827944 -0.0376837 -0.00645496 0.0321905 -0.0180609 0.151402 0.0547827 -0.158992 -0.233094 -0.083583 -0.0665108 0.0159631 -0.014172 0.197952 -0.410033 -0.298282 0.00518642 0.0478239 0.0687059 0.00927088 0.168505 0.0137731 0.0229732 0.0782182 0.284929 0.145567 -0.151372 -0.185647
internal_weight=0 268034 127155 140879 116335 88344.8 62143 26201.8 64840.5 33646.8 21754.4 51494 48940.1 53756.3 45424.9 38810.2 2553.92 16664.9 28910.3 21916 17891.9 12842.7 33691.6 19169.4 55000.8 23826.6 2746.6 30031.3 5375.15 24544.4
internal_count=1041487 908827 418844 489983 399344 298777 213900 84877 215025 132660 87292 184319 173638 182590 159107 120067 10681 69783 100900 75222 60056 45418 106027 65963 184855 75724 9259 95631 22280 90639
shrinkage=0.12


Tree=17
num_leaves=31
num_cat=0
split_feature=9 9 9 8 11 8 12 5 9 66 11 63 36 9 11 80 33 8 64 66 9 8 64 34 62 11 5 10 21 5
split_gain=929.342 961.855 516.32 498.936 335.529 270.984 269.965 258.161 218.596 212.632 200.51 256.711 189.515 173.839 172.783 165.182 160.734 181.072 158.169 149.48 146.994 146.697 149.688 139.175 136.491 132.32 199.147 123.792 123.289 123.051
threshold=0.13045948511787467 0.13040948511787467 0.025450000000000004 2.6000000000000005 242.00500000000002 1.7000000000000004 1.0000000180025095e-35 3.5000000000000004 1.0000000180025095e-35 2.1037749287749294 149.00500000000002 131.21287477954147 1573.7765113160342 0.0047500000000000007 179.00500000000002 0.19246854488797685 1.0000000180025095e-35 2.6000000000000005 171.31250000000003 2.4406667067000947 0.43375000000000002 4.1500000000000012 254.27000000000001 0.059099786916663392 1.4314914705555957 178.59500000000003 3.5000000000000004 5.8550000000000013 1.0000000180025095e-35 1.5000000000000002
decision_type=2 2 2 2 2 2 2 2 2 2 2 2 2 2 2 2 2 2 2 2 2 2 2 2 2 2 2 2 2 2
left_child=1 2 8 6 7 -4 12 15 28 13 11 29 20 -10 18 -5 17 -3 -11 -13 -2 -9 -23 -15 -19 26 -18 -16 -1 -7
right_child=3 16 5 4 -6 10 -8 21 9 14 -12 19 -14 23 27 -17 25 24 -20 -21 -22 22 -24 -25 -26 -27 -28 -29 -30 -31
leaf_value=0.087371177146164186 0.0053162936944050254 -0.020722910260518528 0.01760975626057628 -0.028479885030024164 -0.015060733356769353 -0.053880679079846068 0.039802970010012449 0.020018699387736389 -0.044918784828349406 -0.0038845160414101663 -0.0076478811549291941 0.023677318250737645 0.036476975118259057 -0.0087139737373675905 -0.03185800313094251 0.00080212299407990092 -0.02974022895290029 -0.022442705309681895 0.031517028085493247 0.002825155064316289 0.028339484162963707 0.0029724483156764962 0.037368055000639201 -0.035108018941306565 0.050573064784368085 -0.045453251557953329 -0.003605490151401883 0.0020665957193031007 -0.014668071167168008 -0.00072454736791847864
leaf_weight=490.16534808464348 19289.86140768975 3204.8130177161656 16502.674568009563 3045.3398809237406 12706.627100188285 638.50251060537994 7580.9161475524306 19093.689816094004 4115.3929115633946 16120.135269897059 27157.765834444435 12515.367157000583 4679.3995043560863 9487.469145941548 5156.7081102179363 30874.311342799105 18221.246725821402 533.56710344867315 2046.2094629732892 8213.4436788791791 5041.5032406970859 21679.39181652572 1988.6248137634248 4139.9272851739079 1171.2024828994181 4880.1484213315416 5470.3317276188172 2203.9618288022466 257.31173938140273 30342.000090201385
leaf_count=919 61480 14279 54488 11447 46918 2669 19472 59046 19843 59646 95188 39285 12312 35672 20043 104670 78077 2780 6569 27929 12122 73162 5845 16000 5384 22978 20426 8111 741 103986
internal_value=0 -0.0476833 -0.0111162 0.0652448 0.0249656 0.0302238 0.163607 0.0499155 -0.100705 -0.109994 0.00582575 0.0423781 0.11963 -0.194092 -0.0514906 -0.0152069 -0.199877 -0.032477 0.000828723 0.128515 0.0841134 0.101594 0.04892 -0.139543 0.23042 -0.228603 -0.197597 -0.180717 0.434497 -0.0152281
internal_weight=0 172868 139387 125980 89388 95369.8 36591.7 76681.4 44017.3 43269.8 78867.1 51709.3 29010.8 17742.8 25527 33919.7 33481.3 4909.58 18166.3 20728.8 24331.4 42761.7 23668 13627.4 1704.77 28571.7 23691.6 7360.67 747.477 30980.5
internal_count=1041487 635013 491089 406474 301088 323545 105386 254170 167544 165884 269057 173869 85914 71515 94369 116117 143924 22443 66215 67214 73602 138053 79007 51672 8164 121481 98503 28154 1660 106655
shrinkage=0.12


Tree=18
num_leaves=31
num_cat=0
split_feature=12 9 5 11 8 11 65 64 10 64 66 11 11 11 64 64 11 11 5 11 5 72 11 80 61 11 64 4 34 49
split_gain=853.752 589.325 438.674 404.442 348.186 338.185 331.428 324.695 233.625 225.877 224.158 211.15 194.251 185.163 184.748 166.041 174.031 159.994 159.26 149.96 142.316 142.157 137.054 135.632 133.475 132.106 139.865 130.57 126.682 120.934
threshold=1.0000000180025095e-35 0.15285000000000001 2.5000000000000004 140.00500000000002 2.5200000000000005 104.99500000000002 25.120016734513467 94.995000000000019 5.3750000000000009 134.00500000000002 2.3758465701487519 161.00500000000002 71.995000000000019 420.03000000000003 163.88250000000002 60.002500000000005 50.005000000000003 99.00500000000001 3.5000000000000004 362.02000000000004 2.5000000000000004 2.3151278409090912 88.00500000000001 0.13502190644446369 4.9225000000000003 109.00500000000001 129.95000000000002 40493.000000000007 0.084430691961212459 -0.74999999999999989
decision_type=2 2 2 2 2 2 2 2 2 2 2 2 2 2 2 2 2 2 2 2 2 2 2 2 2 2 2 2 2 2
left_child=1 2 23 6 18 7 28 12 24 -7 22 -11 15 -10 17 -2 -17 -8 -3 20 -6 25 -9 -1 -5 27 -27 -22 -4 -28
right_child=5 4 3 8 19 9 14 10 13 11 -12 -13 -14 -15 -16 16 -18 -19 -20 -21 21 -23 -24 -25 -26 26 29 -29 -30 -31
leaf_value=-0.043240562395078438 0.001743797619521676 0.010627430665011997 -0.0053637675636096964 -0.044143642073589048 -0.0171301599666949 -0.010457440915032638 0.014430461146084679 0.057927867653418202 -0.0011695829257329878 0.018472717408902585 0.015663956790932843 0.00053179912591002829 -0.0071931395071760914 -0.039350414942792525 0.031638428308649338 0.073553513277080984 0.021186454081716544 -0.0030078472386612094 0.033430648250402456 -0.032712442392024296 -0.0045955493191299594 -0.047651300136344527 0.028843387422854017 -0.019386122917025864 -0.018795437690277632 -0.018811553960110035 -0.052180400889434327 0.023386595785509598 -0.026233854920302137 0.0041447745264557396
leaf_weight=4107.9664797706064 5970.8912547854707 17642.685513421893 21238.249266695231 3528.585291180294 6077.6662187683396 12710.772754447535 14069.720402524341 4565.274549048394 18208.995648995508 16126.537758363411 8043.1817976636812 22835.173074133229 7520.2776980474591 2032.331801708322 4292.8094482515007 1060.9884018395096 6670.6256112817209 16393.388319845544 5893.4390438608825 2093.0344131747261 3484.8519695466384 797.46103767305613 4837.2017511408776 21253.037523932988 20021.791614107788 5070.5704435845837 558.60340647306293 7670.538450082764 5223.6457893522456 25836.007620888762
leaf_count=19877 20255 53027 80051 15318 22354 44721 48176 11938 66094 51607 25946 78436 26277 9041 13666 2859 21312 59397 15234 8688 12038 3054 14564 88219 76417 18249 2234 24444 20350 87644
internal_value=0 -0.0351188 -0.0757725 -0.0472511 0.0354178 0.0815202 0.00522312 0.152251 -0.120626 0.0285666 0.253334 0.0663444 0.0690947 -0.0417714 0.0694392 0.139985 0.236711 0.0420226 0.136207 -0.0105489 0.000523057 0.0206073 0.358226 -0.193816 -0.188349 0.0284645 -0.00465637 0.12196 -0.0790815 0.024536
internal_weight=0 205495 130371 105010 75124.9 90340.9 61217.8 38668.4 43791.7 51672.5 17445.7 38961.7 21222.8 20241.3 34755.9 13702.5 7731.61 30463.1 23536.1 51588.7 49495.7 43418 9402.48 25361 23550.4 42620.6 31465.2 11155.4 26461.9 26394.6
internal_count=1041487 743572 496606 388510 246966 297915 221640 123151 166870 174764 52448 130043 70703 75135 121239 44426 24171 107573 68261 178705 170017 147663 26502 108096 91735 144609 108127 36482 100401 89878
shrinkage=0.12


Tree=19
num_leaves=31
num_cat=0
split_feature=9 9 11 9 8 31 64 5 11 5 12 8 21 5 11 61 11 65 21 11 9 11 63 5 11 10 33 60 66 61
split_gain=774.339 767.427 537.906 499.74 267.357 252.369 250.441 227.624 181.969 221.604 175.932 219.115 168.414 168.079 165.882 171.976 159.097 161.081 158.027 154.448 140.932 122.53 119.491 119.099 118.81 126.135 115.773 115.282 114.509 114.295
threshold=0.13045948511787467 0.13040948511787467 161.00500000000002 0.047450000000000006 3.3150000000000004 1.3900000000000003 167.00250000000003 3.5000000000000004 286.02000000000004 3.5000000000000004 1.0000000180025095e-35 4.0700000000000012 1.0000000180025095e-35 3.5000000000000004 59.995000000000012 4.6325000000000012 124.00500000000001 13.931789279295971 1.0000000180025095e-35 99.00500000000001 0.0074500000000000009 96.00500000000001 3582.5046554159144 3.5000000000000004 134.99500000000003 5.5550000000000006 0.10371249392318914 4.9521034783711988 2.5334305150631686 4.7025000000000015
decision_type=2 2 2 2 2 2 2 2 2 2 2 2 2 2 2 2 2 2 2 2 2 2 2 2 2 2 2 2 2 2
left_child=1 3 5 8 7 23 10 19 9 14 26 18 16 -4 -1 -16 17 -3 -12 -5 21 -17 -9 -2 -11 -26 -7 -10 -13 -21
right_child=2 12 13 4 -6 6 -8 22 27 24 11 28 -14 -15 15 20 -18 -19 -20 29 -22 -23 -24 -25 25 -27 -28 -29 -30 -31
leaf_value=0.0072266443633182773 0.024818762622160501 -0.038489445424568614 -0.017901704375112317 0.013806927857432495 -0.003066761099919321 0.019052442809165099 0.027838323362662617 0.022715097418119563 -0.057601734521272693 0.010469016971461062 0.033478450948975801 0.019755514964658383 -0.010015110219755451 0.000192810340162494 -0.031087366838479014 0.000644654885675352 -0.041998939015723019 -0.010776172927109477 0.0027179571943524218 -0.037379227003579124 -0.0055858944172570467 -0.036764078570997713 0.13562143684524605 0.059558664928687069 -0.014494664536901351 0.010344409751201955 0.00076977282099709892 -0.017837381185681817 -0.0084218742116012029 -0.00059142362819307112
leaf_weight=5166.1005624597892 6791.7737540397793 4607.0577135134954 9812.7850001100451 13764.114832788706 28449.598453620449 5758.7028600489721 10300.370568972081 15021.925255926326 1601.2101500350982 11934.658199564554 10110.504629589617 3267.2395132668316 11293.256216574926 29899.484948932193 8085.0159063059837 1735.3164525814354 7668.5931872974616 8821.5409647771157 3167.2861733995378 1376.2631104961038 18364.709279757459 4548.5854215882719 134.74628442898393 1807.9000838771462 8680.5301135592163 4447.0468482337892 37295.208270838484 3090.9193122438155 5687.9320337874815 10402.343476521783
leaf_count=19729 17490 21824 35368 46469 99395 18111 31475 48574 6887 41311 28449 10435 47890 103508 34027 6991 36471 36703 10534 5365 66072 20210 243 4049 32072 15190 126988 12257 20544 36856
internal_value=0 -0.0437667 0.0602825 -0.0109871 0.0487866 0.105539 0.0870469 0.100777 -0.072096 -0.0579129 0.064158 0.136403 -0.182173 -0.0356329 -0.106158 -0.132449 -0.234954 -0.169144 0.217928 0.0431126 -0.0908607 -0.220146 0.197871 0.267902 0.0150073 -0.0505904 0.0268228 -0.262096 0.0153933 -0.0408806
internal_weight=0 169194 123899 136803 69149 84186.9 75587.2 40699.4 67654.1 62962 65286.9 22233 32390.4 39712.3 37899.7 32733.6 21097.2 13428.6 13277.8 25542.7 24648.6 6283.9 15156.7 8599.67 25062.2 13127.6 43053.9 4692.13 8955.17 11778.6
internal_count=1041487 634536 406951 491648 236902 268075 246536 137507 254746 235602 215061 69962 142888 138876 147029 127300 94998 58527 38983 88690 93273 27201 48817 21539 88573 47262 145099 19144 30979 42221
shrinkage=0.12


Tree=20
num_leaves=31
num_cat=0
split_feature=6 11 63 11 11 64 61 5 11 61 3 64 70 65 9 67 11 61 11 11 66 64 80 63 11 21 42 6 21 10
split_gain=731.655 773.898 521.972 537.853 341.985 326.596 312.957 307.127 237.287 236.932 232.529 225.869 221.696 199.311 188.538 160.598 161.532 156.097 155.677 148.324 152.093 146.299 129.349 126.365 121.689 120.286 119.739 117.791 128.339 112.672
threshold=3.7500000000000004 178.59500000000003 167.69762519201231 92.00500000000001 59.995000000000012 90.002500000000012 5.2625000000000002 2.5000000000000004 339.01000000000005 4.7425000000000006 218.00000000000003 285.01500000000004 40.750000000000007 8.5273481975812224 0.17955000000000002 2.7500000000000004 115.00500000000001 4.2200000000000015 251.12500000000003 79.995000000000019 2.4109768342537481 184.02750000000003 0.48922848858440521 401.16105730736359 129.00500000000002 1.0000000180025095e-35 0.24964067509163793 2.7500000000000004 1.0000000180025095e-35 4.3850000000000007
decision_type=2 2 2 2 2 2 2 2 2 2 2 2 2 2 2 2 2 2 2 2 2 2 2 2 2 2 2 2 2 2
left_child=4 2 3 5 13 19 -3 17 11 -5 22 18 25 29 24 16 -4 -6 -8 20 26 -18 -9 -13 -11 -10 -2 28 -19 -1
right_child=1 6 15 9 7 -7 8 10 12 14 -12 23 -14 -15 -16 -17 21 27 -20 -21 -22 -23 -24 -25 -26 -27 -28 -29 -30 -31
leaf_value=-0.007797451997832678 0.0094678782957461471 -0.028208697833484356 0.036948256848082922 -0.019956273757347143 -0.058893336199715221 0.026715196848588807 0.00069687963370871383 -0.022454939498672465 -0.04643688063038643 0.00066198779427272382 0.00052020036219111831 0.0078226716136210322 0.010360772315014196 0.015248732698032058 0.010612452267274274 0.0041876806041933673 0.010243142328857686 -0.057983809422724505 -0.017229746942179831 -0.010616047674815539 -0.0058388388056215467 0.028897004845819956 -7.6932156295143224e-05 0.043185486694751279 -0.012983193264745566 -0.013123169554014344 0.033830977004649543 -0.01746758721847444 -0.01386807296731264 -0.065393711529880966
leaf_weight=3647.1055026212707 8271.3584890719503 9226.2971411100589 9084.5806600386277 9810.9267899887636 1862.4629583698697 18096.372638864908 25812.657220040914 15670.663017979823 3951.0504462006502 25966.050607232843 22447.4446042981 4110.6112746736035 2252.2581552937627 10654.676734571345 17509.20922912471 7860.9337856182829 14203.099230010994 2432.4507163213566 9551.1193272629753 6181.5923419706523 5470.6140786898322 10593.529119272716 4891.035325543955 2260.8299812539481 14746.064301741309 2602.1008644541726 4494.7692803051323 14790.08703999687 1572.9860835662112 564.48569831065834
leaf_count=14701 28675 36817 27266 37254 8741 57202 90585 61418 17147 93908 79201 14513 8596 38180 55270 27359 48182 11845 35884 22644 19934 33301 17768 7086 55841 10442 14150 58228 6564 2785
internal_value=0 0.0307106 0.0685589 0.0325711 -0.0822784 0.120808 -0.0657112 -0.11417 -0.0347661 -0.0225571 -0.0659959 -0.00326549 -0.183922 0.0542332 0.00165318 0.163836 0.193719 -0.214403 -0.0345174 0.0452977 0.0906987 0.151824 -0.142818 0.169993 -0.0356483 -0.27696 0.150493 -0.186914 -0.339204 -0.129775
internal_weight=0 212056 152289 110547 78533.4 42514.7 59766.9 63667.1 50540.6 68032.3 43009.1 41735.2 8805.41 14866.3 58221.3 41742.1 33881.2 20658 35363.8 24418.3 18236.7 24796.6 20561.7 6371.44 40712.1 6553.15 12766.1 18795.5 4005.44 4211.59
internal_count=1041487 742056 520986 384878 299431 142605 221070 243765 184253 242273 158387 148068 36185 55666 205019 136108 108749 85378 126469 85403 62759 81483 79186 21599 149749 27589 42825 76637 18409 17486
shrinkage=0.12


Tree=21
num_leaves=31
num_cat=0
split_feature=9 11 5 33 61 11 65 61 11 54 11 6 6 56 11 61 63 49 9 64 55 36 11 5 9 11 66 11 8 11
split_gain=751.651 514.141 698.841 344.543 296.308 282.021 358.206 295.889 224.351 190.797 316.6 261.418 188.798 165.166 145.442 193.09 126.035 125.234 125.987 125.17 136.556 121.884 117.29 117.231 116.82 115.244 108.655 107.325 101.571 98.6441
threshold=0.26745000000000008 220.79500000000004 3.5000000000000004 0.1520215319706118 5.4825000000000008 109.99500000000002 11.578137089201254 4.8525000000000009 141.28500000000005 0.19736890930082918 119.00500000000001 4.2500000000000009 4.2500000000000009 0.042689334752764603 59.995000000000012 4.3625000000000016 127.95773437500002 -0.74999999999999989 0.013250000000000001 251.62500000000003 1.0000000180025095e-35 2200.0192770437666 94.995000000000019 1.0000000180025095e-35 0.011550000000000001 71.00500000000001 2.3758465701487519 485.01000000000005 4.3650000000000011 79.995000000000019
decision_type=2 2 2 2 2 2 2 2 2 2 2 2 2 2 2 2 2 2 2 2 2 2 2 2 2 2 2 2 2 2
left_child=1 2 5 -2 -3 6 23 -7 16 11 26 -4 14 -6 -8 -16 22 -17 -19 20 -12 24 -5 -1 -9 -14 29 -15 -18 -11
right_child=3 4 9 8 13 7 12 21 -10 10 19 -13 25 27 15 17 28 18 -20 -21 -22 -23 -24 -25 -26 -27 -28 -29 -30 -31
leaf_value=-0.058898549694610364 0.031978925840005688 -0.037731566852106081 -0.0058636280466993788 0.015727292935159877 0.0030358731912710417 -0.032127852147694987 0.011778036598447518 -0.034522649199764943 -0.0009437698825473784 0.063898525534021727 0.0016366427936597111 0.01357270628009034 0.039984235187836864 -0.015411272091000435 -0.032059519066778841 -0.031721009672075404 0.034866549630962293 -0.021390743245969644 0.0024249875785184749 0.034921327825531881 0.082560952649796612 0.0092095784119048674 -0.0064765909081012226 -0.015189463927227566 -0.009231035274763778 0.0096114383875868185 0.014971888431428935 -0.053142642284386157 0.011936934502654749 0.030231286448005594
leaf_weight=934.82344699557871 10287.283218543977 7999.4523293501697 24508.894616416888 10039.608043516055 7954.2095720050856 10413.343080327148 9167.2685896763578 2936.5072938865051 22652.316069470486 1526.2951314710081 21885.649267225526 16785.584217565134 2123.2830400709063 11780.283057959867 3468.0912921233103 1953.3209963371046 6402.1136249452829 3626.2431846526451 26996.989316457883 1889.686852844432 302.5557026900351 4589.1124000595883 5189.3196527585387 16376.76414842857 25481.960269716568 11890.510143553838 5876.1084994999692 1198.213517437689 4959.3813410922885 7278.1896582264453
leaf_count=5111 27918 33879 89617 31359 30132 43900 33476 13157 79317 3880 77121 57486 6724 45273 14547 8086 18308 15502 97778 5911 767 16434 17013 67297 95229 41986 19492 5441 16706 22640
internal_value=0 -0.0261013 -0.00807185 0.10003 -0.150697 -0.0563635 -0.0198261 -0.120741 0.0652249 0.0642797 0.114674 0.0169527 0.0171464 -0.0880549 -0.0142686 -0.0428918 0.127523 -0.0189704 -0.00327034 0.0440433 0.0229406 -0.0743234 0.0679458 -0.14636 -0.0987576 0.118558 0.230427 -0.157597 0.207267 0.300787
internal_weight=0 228943 200011 59530 28932.2 119958 76537.3 43420.9 49242.7 80053 38758.5 41294.5 59225.7 20932.7 45211.9 36044.6 26590.4 32576.6 30623.2 24077.9 22188.2 33007.6 15228.9 17311.6 28418.5 14013.8 14680.6 12978.5 11361.5 8804.48
internal_count=1041487 850866 736141 190621 114725 459227 290507 168720 162703 276914 129811 147103 218099 80846 169389 135913 83386 121366 113280 83799 77888 124820 48372 72408 108386 48710 46012 50714 35014 26520
shrinkage=0.12


Tree=22
num_leaves=31
num_cat=0
split_feature=9 9 9 11 64 63 8 9 8 11 9 21 11 33 74 33 80 60 61 67 66 31 21 11 64 5 68 9 33 33
split_gain=712.068 711.618 457.281 451.707 224.405 217.783 200.818 183.122 181.712 176.563 168.956 162.231 155.405 152.177 143.692 144.012 160.319 139.725 136.691 134.602 132.282 130.13 128.847 127.617 189.165 123.828 120.275 117.792 112.023 111.397
threshold=0.13045948511787467 0.13040948511787467 0.06235000000000001 129.00500000000002 128.56750000000002 109.25149877411791 2.6000000000000005 0.010350000000000002 2.7400000000000007 265.00500000000005 1.0000000180025095e-35 1.0000000180025095e-35 89.995000000000019 1.0000000180025095e-35 0.95385107721276163 0.11014874709228679 0.13502190644446369 1.0000000180025095e-35 4.8425000000000002 1.7500000000000002 2.3519259259259262 1.95 1.0000000180025095e-35 178.59500000000003 157.33250000000001 4.5000000000000009 2.8683079691436544 0.00125 0.4077558239595051 0.090509134615384637
decision_type=2 2 2 2 2 2 2 2 2 2 2 2 2 2 2 2 2 2 2 2 2 2 2 2 2 2 2 2 2 2
left_child=1 2 7 5 -5 8 -4 10 -2 25 22 27 20 17 15 16 -9 -3 -14 -15 -7 -19 -1 24 -8 26 -6 -12 -20 -29
right_child=3 13 6 4 9 12 23 14 -10 -11 11 -13 18 19 -16 -17 -18 21 28 -21 -22 -23 -24 -25 -26 -27 -28 29 -30 -31
leaf_value=0.078595347955382325 0.014596572135416283 -0.064747783681374987 0.017080479650060813 -0.021732978082160199 0.004507683510966338 0.048046534687884168 0.0004841079028445649 -0.030888905655824781 -0.0041302410323250209 -0.012315917407989711 -0.0615328016161035 -0.0063810701525040007 -0.0075974299041349563 -0.033970003314599012 -0.014979579398405045 -0.015492294193540332 0.0040565044355836367 -0.01512672047451083 0.022069130350245637 -0.016899034917657773 0.017365649122931596 0.026827341069727381 -0.025431554008304668 -0.010051424281549303 0.025509052167368134 0.023088815771814136 -0.028910409142763563 -0.019497201736155375 -0.008157389106385967 -0.062182086569961853
leaf_weight=457.84597841463983 17656.45310864225 451.12790692644194 19440.665609123185 6479.6078378977254 34238.098954426125 4759.9543013470247 18476.357223333325 1987.3103292752057 12906.039187860675 9997.8652061526664 1357.8717339141294 8534.662009079475 3093.5073526240885 12420.968299195636 12695.045030626003 7827.0399518758059 37862.644440382719 2176.1482542026788 19593.230311527848 14428.353684032336 3551.9764462802559 2077.7776468880475 269.88532336056232 9463.5358372211922 5691.1727870963514 5036.9013418229297 1621.7508999621496 8876.7883623633534 1933.2939599249512 979.94616478122771
leaf_count=951 54826 2572 66536 23803 116540 13052 65265 8538 46594 38117 7907 34030 10500 56892 47887 28999 135440 10160 61204 63674 11460 9860 935 34604 18344 16188 6234 39285 6802 4288
internal_value=0 -0.0425229 -0.010682 0.0584438 -0.00585023 0.116555 0.0614304 -0.0580315 0.0557072 0.0164492 -0.139758 -0.157239 0.172987 -0.177619 -0.0302911 -0.00509297 0.0192442 -0.011494 0.132979 -0.20669 0.291311 0.0445 0.332397 0.0146262 0.0531982 0.0455887 0.0249291 -0.236322 0.161237 -0.19804
internal_weight=0 165475 133921 120869 57374.2 63494.5 53071.7 80849 30562.5 50894.6 20477 19749.3 32932 31554.4 60372 47677 39850 4705.05 24620 26849.3 8311.93 4253.93 727.731 33631.1 24167.5 40896.8 35859.8 11214.6 21526.5 9856.73
internal_count=1041487 636167 493009 405320 200882 204438 184749 308260 101420 177079 87396 85510 103018 143158 220864 172977 143978 22592 78506 120566 24512 20020 1886 118213 83609 138962 122774 51480 68006 43573
shrinkage=0.12


Tree=23
num_leaves=31
num_cat=0
split_feature=5 11 65 11 61 11 64 6 11 54 11 9 14 64 11 9 21 9 3 11 9 63 10 44 69 8 77 56 63 10
split_gain=644.659 766.572 440.263 317.373 276.756 312.111 232.51 226.192 221.102 210.43 187.461 174.662 164.013 163.954 217.752 150.81 150.401 147.616 145.557 139.873 134.992 130.218 121.688 116.141 110.602 108.654 105.92 170.203 102.588 125.661
threshold=2.5000000000000004 154.00500000000002 34.483418215818482 84.00500000000001 5.4525000000000015 296.98500000000007 174.00500000000002 2.7500000000000004 65.00500000000001 0.2291528424945867 98.00500000000001 0.13045948511787467 2.5000000000000004 104.01500000000001 113.00500000000001 0.13040948511787467 1.0000000180025095e-35 0.4159500000000001 215.50000000000003 310.01500000000004 0.011950000000000002 288.52203826955082 4.7650000000000006 0.13827448064622003 61.895644283121591 2.7400000000000007 0.62864545487493328 0.18672306211119619 87.863340239410689 4.7650000000000006
decision_type=2 2 2 2 2 2 2 2 2 2 2 2 2 2 2 2 2 2 2 2 2 2 2 2 2 2 2 2 2 2
left_child=7 2 3 9 19 21 8 16 18 28 17 15 -7 -10 -15 20 -1 -9 -4 26 -5 -6 -12 -8 -14 -22 -3 -28 29 -2
right_child=1 4 6 11 5 12 23 10 13 -11 22 -13 24 14 -16 -17 -18 -19 -20 -21 25 -23 -24 -25 -26 -27 27 -29 -30 -31
leaf_value=-0.04792034521866595 0.0010141594825248039 -0.0056000541147289825 0.012706151849770824 -0.024681929049368407 -0.0003826627729381232 -0.031028148888388583 0.017965237443843214 -0.0069133838100728495 -0.0029416054141937478 0.025217608027111916 -0.035616445810786095 0.0042951673584376796 -0.01544736566857491 0.020227703449173965 0.0040326388221983778 -0.025194413304161604 -0.01101558160615336 0.02473783333691695 0.047469798487553318 -0.047513017481543289 0.0052860465537544268 0.014666859475786784 -0.011055674735363044 0.040575517716027125 0.016071920859404704 -0.014473032970807567 -0.025865355787555364 2.0129706848385846e-05 0.018964051189080438 -0.039121922024279297
leaf_weight=4137.7449463704834 8370.386429246515 15243.346592228394 3343.0551784876734 4346.137262920849 24763.151447062381 6209.3367626401596 7510.692159704864 23108.70269350009 14355.045574596152 9950.4204549780115 5387.6672859881073 18051.144837926142 4493.3107380187139 22631.607312871609 25390.940357214771 7640.488296572119 2600.1179333892651 2333.2337673921138 3633.2992489291355 1786.4183011064306 12298.349847426638 12424.373133008368 6348.6563699315302 5843.4996841605753 2487.3968000067398 5940.6214488921687 13909.685438599437 4950.0187503108755 3774.1700946157798 1294.5228128116578
leaf_count=20960 30963 56966 11850 19119 89042 26582 24890 91507 52206 32217 22875 58766 18162 74294 89753 33161 11226 6649 10683 8105 44162 42554 24861 17613 9192 21893 54802 18104 12780 5550
internal_value=0 0.0194977 0.0616921 0.00430706 -0.055997 -0.00816773 0.111403 -0.11225 0.0881087 0.099921 -0.0816509 -0.0419982 -0.140336 0.0691991 0.0972326 -0.0884887 -0.280869 -0.033369 0.256973 -0.123102 -0.0473382 0.038689 -0.186207 0.232271 -0.0349808 -0.00953327 -0.108759 -0.158881 0.0182153 -0.0363021
internal_weight=0 240641 154374 71666.2 86267 50377.6 82708.1 43916.1 69353.9 23389.5 37178.3 48276.7 13190 62377.6 48022.5 30225.6 6737.86 25441.9 6976.35 35889.5 22585.1 37187.5 11736.3 13354.2 6980.71 18239 34103.1 18859.7 13439.1 9664.91
internal_count=1041487 863409 539900 258611 323509 185532 281289 178078 238786 81510 145892 177101 53936 216253 164047 118335 32186 98156 22533 137977 85174 131596 47736 42503 27354 66055 129872 72906 49293 36513
shrinkage=0.12


Tree=24
num_leaves=31
num_cat=0
split_feature=9 9 9 11 33 9 9 33 21 70 34 11 8 33 49 33 44 64 11 11 5 9 5 6 11 10 11 64 64 70
split_gain=673.542 595.936 385.532 362.858 214.484 190.352 184.266 151.804 140.304 133.921 129.962 129.757 139.462 124.764 121.239 119.208 111.388 108.764 113.709 108.615 109.46 116.409 108.438 106.52 106.341 116.097 102.121 101.912 101.59 99.7667
threshold=0.13045948511787467 0.13040948511787467 0.080650000000000013 187.00500000000002 0.080793335623497095 0.35855000000000004 0.01685 0.088285281385281397 1.0000000180025095e-35 25.750000000000004 0.057031647361769987 169.01000000000002 3.8800000000000003 0.059397222222222219 -1.0000000180025095e-35 0.25527732907033945 0.14357571953012047 189.00750000000002 107.00500000000001 265.00500000000005 3.5000000000000004 0.10495 4.5000000000000009 3.7500000000000004 170.00500000000002 5.0550000000000006 269.00500000000005 105.92250000000001 65.002500000000012 15.250000000000002
decision_type=2 2 2 2 2 2 2 2 2 2 2 2 2 2 2 2 2 2 2 2 2 2 2 2 2 2 2 2 2 2
left_child=1 2 6 4 -2 14 9 -4 11 10 24 12 -3 16 -6 -7 -8 18 28 20 -9 -22 26 -5 25 -1 -15 -20 -16 -10
right_child=3 8 7 23 5 15 13 19 29 -11 -12 -13 -14 22 17 -17 -18 -19 27 -21 21 -23 -24 -25 -26 -27 -28 -29 -30 -31
leaf_value=-0.013173713841031892 0.029449797867672232 -0.025327130474311677 0.021239340400240649 -0.025976596400493157 -0.022407180678242468 0.029491057033816333 -0.0015485562748098712 -0.0014360052559926229 -0.021206928652028369 0.00066363466981925038 -0.030855388040685341 -0.047722698301301554 0.010584052163302356 -0.0073857870487331187 -0.005269206092709075 0.011792608938029372 0.013466076747366827 0.022677241640575198 -0.023009357360978842 -0.021789806687433598 0.0012315498143533944 0.026099440786273957 0.013009825091310434 -0.0024270794894902439 -0.033550873155587912 0.014358379440057524 -0.036326355783506424 0.0012064441349170655 0.013353666850966124 0.0017933342774332653
leaf_weight=9511.0867390811909 7904.060993457213 15094.296714646043 10572.940942996647 3110.7981757419184 2237.7804458877072 8063.4315725751221 21002.134634046815 11968.847442789935 5100.4273710479029 7453.5619806540199 7443.2787301936187 3291.9630830648821 1730.2703165607527 29457.959017396905 5232.2364703891799 17245.139426718932 10749.3515258478 5147.6850858293474 2841.9231390543282 2132.5743472562172 4864.0933446362615 6151.2337462985888 3544.6784106637351 24998.572896683589 2588.4183768329676 2865.6802338771522 1868.2107957936823 20801.98280902952 21563.474859914277 5786.5378416394815
leaf_count=41824 23037 69670 35991 12108 8458 22935 77837 43499 22802 29773 31393 17959 7512 107548 18932 55720 37986 16644 10692 8432 17326 19872 12629 90867 11600 10843 7315 72931 72365 24987
internal_value=0 -0.0416019 -0.0123241 0.0572947 0.0879627 0.0729751 -0.0451779 0.076463 -0.166378 -0.110455 -0.149077 -0.215891 -0.180217 -0.0159012 0.0412917 0.145317 0.0294279 0.0504954 0.0363357 0.0340936 0.0541625 0.126096 -0.0572034 -0.0419932 -0.0952407 -0.0565669 -0.0759814 -0.0141737 0.0809391 -0.0747745
internal_weight=0 163178 132174 119147 91037.7 83133.7 96484.4 35689.7 31003.5 29862 22408.5 20116.5 16824.6 66622.3 57825.1 25308.6 31751.5 55587.3 50439.6 25116.7 22984.2 11015.3 34870.8 28109.4 14965.2 12376.8 31326.2 23643.9 26795.7 10887
internal_count=1041487 636798 493868 404689 301714 278677 368748 125120 142930 125433 95660 95141 77182 243315 200022 78655 115823 191564 174920 89129 80697 37198 127492 102975 64267 52667 114863 83623 91297 47789
shrinkage=0.12


Tree=25
num_leaves=31
num_cat=0
split_feature=12 5 11 11 21 11 9 11 64 54 61 9 5 61 49 11 56 70 11 11 21 64 6 65 11 78 7 5 61 39
split_gain=624.619 408.802 400.884 343.191 258.992 283.382 240.717 194.391 193.855 189.501 158.94 154.749 153.039 151.016 142.375 138.926 126.309 125.697 125.268 118.462 116.215 110.596 110.377 103.564 99.0747 95.1249 94.6239 94.2765 93.7249 93.2784
threshold=1.0000000180025095e-35 3.5000000000000004 139.00500000000002 143.00500000000002 1.0000000180025095e-35 115.00500000000001 0.17685000000000003 442.02000000000004 127.00250000000001 0.23863745591763522 6.0225000000000009 0.18965000000000001 1.0000000180025095e-35 4.8225000000000007 -0.74999999999999989 307.61500000000007 0.2179521885946972 40.750000000000007 231.66500000000002 307.61500000000007 1.0000000180025095e-35 190.01500000000001 4.2500000000000009 41.281549577137149 177.00500000000002 1.1899367088607595 1.0000000180025095e-35 3.5000000000000004 5.2725000000000009 3.2500000000000004
decision_type=2 2 2 2 2 2 2 2 2 2 2 2 2 2 2 2 2 2 2 2 2 2 2 2 2 2 2 2 2 2
left_child=1 3 9 6 5 8 12 10 11 26 19 25 -1 -5 -14 21 22 -18 23 28 -9 24 -16 -15 -7 29 -3 -6 -4 -2
right_child=4 2 7 13 27 15 -8 20 -10 -11 -12 -13 14 18 16 -17 17 -19 -20 -21 -22 -23 -24 -25 -26 -27 -28 -29 -30 -31
leaf_value=-0.038002095007225609 -0.0094657014912825719 -0.0032002638922792835 -0.011712211305344247 -0.047373970886691583 -0.011624428376536877 0.0047159364161660109 0.0048114431296985031 -0.056048362996391862 0.038976500276803848 0.025780218981422538 0.02069398682040386 0.029855178842085769 -0.031445978033741905 -0.023694395525253324 -0.012443657378763996 -0.026983179473699354 0.0032295418911919478 0.066739371154548588 -0.03659098434341395 -0.024268638755641159 -0.0083925729399131569 0.015552279793566291 6.5171580262511912e-05 -0.0049400736709214292 -0.018144780489788421 -0.017731589685687249 0.013590355841990948 0.0039098327653710454 0.0014464953094877305 0.016030026784575716
leaf_weight=2509.5336537861731 2406.5571517534554 8537.6131728249602 10809.512756534386 2800.211513672024 9397.9929007142782 13801.089435404632 25569.293803569395 1575.7926191608422 6391.64542292431 11340.621772409417 4030.5642630930524 7766.9662638548762 3453.0229424526915 7593.6115093491971 34736.676510041114 1935.4345778282732 8774.8067258619703 471.38538190349936 4091.8902635029517 3861.777758045122 1396.7065041218884 11114.7041793596 14328.864529347047 9647.0347568802536 3400.7607971951365 1658.2256045183167 11106.548265612684 13995.557175788097 27891.530829059426 14342.337753774598
leaf_count=13230 9390 31996 41326 13412 35624 48018 85443 7767 19194 36741 14671 22994 15705 31240 143745 7803 34178 1451 17577 16401 6057 37110 55615 36690 12816 6327 38026 50348 101866 48726
internal_value=0 -0.0318601 0.0226608 -0.0704001 0.0703944 0.103844 -0.0419441 -0.0331009 0.168584 0.111891 -0.0172545 0.130376 -0.0745964 -0.176285 -0.0647342 0.0341123 -0.0530241 0.0541173 -0.147523 -0.0352497 -0.280976 0.051863 -0.0732362 -0.110076 0.00156561 0.0803329 0.0523937 -0.0193845 -0.0185513 0.10299
internal_weight=0 194527 80550.7 113976 86211.3 62817.7 89843.6 49565.9 32565.7 30984.8 46593.4 26174.1 64274.3 24132.7 61764.8 30252 58311.7 9246.19 21332.5 42562.8 2972.5 28316.6 49065.5 17240.6 17201.9 18407.1 19644.2 23393.6 38701 16748.9
internal_count=1041487 743137 294851 448286 298350 212378 349367 188088 106631 106763 174264 87437 263924 98919 250694 105747 234989 35629 85507 159593 13824 97944 199360 67930 60834 64443 70022 85972 143192 58116
shrinkage=0.12


Tree=26
num_leaves=31
num_cat=0
split_feature=9 9 9 31 33 11 12 61 21 9 9 11 5 48 61 11 66 39 64 11 21 6 11 11 69 64 78 63 61 4
split_gain=630.701 473.05 405.902 315.241 216.402 201.696 193.166 182.173 150.189 177.323 216.633 149.272 143.065 140.616 136.115 150.537 135.276 128.88 124.336 120.986 119.68 116.799 115.513 111.055 119.585 105.762 100.29 96.1988 93.295 93.373
threshold=0.13045948511787467 0.13040948511787467 0.038750000000000007 3.6600000000000006 0.20649512914302781 209.00500000000002 1.0000000180025095e-35 5.3625000000000016 1.0000000180025095e-35 1.0000000180025095e-35 0.0038500000000000006 169.01000000000002 3.5000000000000004 0.12320982546139446 4.5500000000000016 79.00500000000001 2.9445213911972918 1.0000000180025095e-35 91.00500000000001 129.00500000000002 1.0000000180025095e-35 3.7500000000000004 71.995000000000019 119.00500000000001 33.758027691854473 132.00750000000002 1.0290276373441187 61.623952608522508 6.2025000000000015 95620.500000000015
decision_type=2 2 2 2 2 2 2 2 2 2 2 2 2 2 2 2 2 2 2 2 2 2 2 2 2 2 2 2 2 2
left_child=1 2 8 6 11 7 12 16 9 -1 -11 14 -2 -12 22 18 -5 26 -16 -14 -8 -19 27 -23 -25 -17 -3 -4 -13 -30
right_child=3 17 4 5 -6 -7 20 -9 -10 10 13 28 19 -15 15 25 -18 21 -20 -21 -22 23 -24 24 -26 -27 -28 -29 29 -31
leaf_value=0.06230678246165481 0.0038849386519381568 -0.020791352288062247 -0.013045329450940338 0.0028634532674308281 -0.018063908521201138 -0.012391145517766407 0.03033520038886954 0.015143264498071522 -0.001127583761583761 -0.040572264175150349 -0.020368837135213234 -0.0065309215470213244 0.030899549008241527 -0.0043231257343131629 0.013653074389616252 0.0033823829294488059 -0.017889620670366126 -0.033207191713995519 0.046775887389513368 0.0093757221350189018 0.0061324739295283703 -0.006607120431627693 -0.023147428476327829 -0.041257766844177091 -0.013091696486562445 0.016566702485061126 0.017371625040402655 0.017643951618394386 -0.0017584266127793355 0.065905954104370917
leaf_weight=429.31537849083543 31245.318095688708 1704.3820066605695 2452.4045320274308 20804.735383951105 5919.0583906474058 14144.660984678194 11417.764945756644 14318.652211815119 19748.905176301952 4228.1966870909091 14477.863914421294 15472.270532360766 6244.8048632740974 17269.761681606993 3668.0842397236265 21367.484852695838 5775.6872421381995 8446.756781802047 2961.7048088237643 9514.5316684413701 3982.6391351930797 8958.2179901804775 3087.8218248253688 3913.3586664339527 4916.7143378914334 14885.483961870894 2363.9402491361834 3660.1590257380158 652.25473035313189 527.11577788461
leaf_count=987 106629 9040 9371 74714 22388 54930 32771 48721 77212 22548 59637 58009 18060 65655 13104 77621 22323 41341 8951 32073 13317 38205 12282 19509 22947 50795 11330 12747 2662 1608
internal_value=0 -0.0415273 -0.0154371 0.054829 0.0328655 -0.000316923 0.103484 0.0352639 -0.0796696 -0.117761 -0.125419 0.0486772 0.0716001 -0.0970421 0.0750325 0.0987169 -0.0136875 -0.154107 0.237314 0.149293 0.200714 -0.179788 -0.035249 -0.133675 -0.213288 0.0733316 0.011265 0.0442611 -0.0336962 0.237023
internal_weight=0 161111 130808 117449 74653.8 55043.7 62405.1 40899.1 56154 36405.1 35975.8 68734.8 47004.7 31747.6 52083.1 42882.8 26580.4 30303.4 6629.79 15759.3 15400.4 26235 9200.39 17788.3 8830.07 36253 4068.32 6112.56 16651.6 1179.37
internal_count=1041487 637949 495577 403538 269538 200688 202850 145758 226039 148827 147840 247150 156762 125292 184871 150471 97037 142372 22055 50133 46088 122002 34400 80661 42456 128416 20370 22118 62279 4270
shrinkage=0.12


Tree=27
num_leaves=31
num_cat=0
split_feature=9 9 9 8 11 8 11 63 34 80 11 8 12 80 66 61 11 63 33 72 29 61 42 70 72 5 42 60 60 33
split_gain=508.97 426.179 316.303 291.931 197.138 164.795 161.128 224.074 156.75 140.231 127.609 123.614 123.442 146.845 126.071 111.8 107.568 120.463 107.117 106.974 104.725 104.048 103.609 102.652 100.396 100.333 99.7341 96.7683 93.4301 86.6847
threshold=0.13045948511787467 0.13040948511787467 0.06235000000000001 2.9700000000000002 237.01000000000002 2.1400000000000006 153.11000000000004 145.5390923507463 0.030143153913144042 0.35810652334130827 45.005000000000003 0.89500000000000013 1.0000000180025095e-35 0.2374868417407584 2.1037749287749294 4.2525000000000013 108.00500000000001 97.419777419354844 1.0000000180025095e-35 2.3031544957774472 -1.0000000180025095e-35 4.2125000000000012 0.16257113777642193 18.250000000000004 2.3031544957774472 1.5000000000000002 0.31745044773894687 4.5692800811176211 4.7902356279299285 0.022066290935672521
decision_type=2 2 2 2 2 2 2 2 2 2 2 2 2 2 2 2 2 2 2 2 2 2 2 2 2 2 2 2 2 2
left_child=1 2 6 8 9 -4 7 10 -2 -5 -1 -10 13 -7 -14 -12 17 -17 26 21 -15 -11 -13 -8 -22 -20 -3 -9 -25 -27
right_child=3 18 5 4 -6 12 23 27 11 19 15 22 14 20 -16 16 -18 -19 25 -21 24 -23 -24 28 -26 29 -28 -29 -30 -31
