tree
version=v3
num_class=1
num_tree_per_iteration=1
label_index=0
max_feature_idx=80
objective=lambdarank
feature_names=srch_id site_id visitor_location_country_id prop_country_id prop_id prop_starrating prop_review_score prop_brand_bool prop_location_score1 prop_location_score2 prop_log_historical_price price_usd promotion_flag srch_destination_id srch_length_of_stay srch_booking_window srch_adults_count srch_children_count srch_room_count srch_saturday_night_bool orig_destination_distance random_bool comp2_rate comp2_inv comp3_rate comp3_inv comp5_rate comp5_inv comp5_rate_percent_diff comp8_rate comp8_inv mean_prop_location_score1 std_dev_prop_location_score1 mean_prop_location_score2 std_dev_prop_location_score2 mean_orig_destination_distance std_dev_orig_destination_distance mean_comp5_rate_percent_diff std_dev_comp5_rate_percent_diff median_prop_review_score std_dev_prop_review_score median_comp2_rate std_dev_comp2_rate median_comp2_inv std_dev_comp2_inv median_comp3_rate std_dev_comp3_rate median_comp3_inv std_dev_comp3_inv median_comp5_rate std_dev_comp5_rate median_comp5_inv std_dev_comp5_inv median_comp8_rate std_dev_comp8_rate median_comp8_inv std_dev_comp8_inv mean_prop_starrating median_prop_starrating std_dev_prop_starrating mean_prop_log_historical_price median_prop_log_historical_price std_dev_prop_log_historical_price mean_price_usd median_price_usd std_dev_price_usd mean_srch_length_of_stay median_srch_length_of_stay std_dev_srch_length_of_stay mean_srch_booking_window median_srch_booking_window std_dev_srch_booking_window mean_srch_adults_count median_srch_adults_count std_dev_srch_adults_count mean_srch_children_count median_srch_children_count std_dev_srch_children_count mean_srch_room_count median_srch_room_count std_dev_srch_room_count
feature_infos=[1:332784] [1:34] [1:231] [1:230] [1:140816] [0:5] [0:5] [0:1] [0:6.9800000000000004] [0:1] [0:6.21] [0.01:2085957] [0:1] [5:28411] [1:34] [0:482] [1:9] [0:9] [1:8] [0:1] [0.01:11640.57] [0:1] [-1:1] [-1:1] [-1:1] [-1:1] [-1:1] [-1:1] [2:127400] [-1:1] [-1:1] [0:6.9800000000000013] [0:4.4408920985006246e-15] [0:1] [0:0.49346372460394711] [0:11232.379999999999] [0:5196.3850000000002] [0:20671.338842975205] [0:45137.949798551213] [0:5] none [-1:1] [0:1] [-1:1] [0:1] [-1:1] [0:1] [-1:1] [0:1] [-1:1] [0:1] [-1:1] [0:1] [-1:1] [0:1] [-1:1] [0:1] [0:5] [0:5] none [0:6.2100000000000026] [0:6.21] [0:3.0995287819860802] [10.066421568627453:233985.0392857143] [8.3300000000000001:4700] [0:842842.14358579088] [1:18] [1:18] [0:15.704776343520464] [0:315] [0:315] [0:180.5] [1:4.5] [1:4.5] [0:3.0912061651652349] [0:3] [0:3] [0:3.771236166328253] [1:3] [1:3] [0:2.565800719723442]
tree_sizes=3515 3505 3520 3531 3517 3518 3531 3539 3514 3539 3507 3529 3518 3520 3504 3515 3504 3500 3516 3515 3535 3506 3532 3530 3542 3508 3528 3522 3531 3531 3520 3509 3500 3532 3518 3538 3517 3539 3519 3479 3512 3537 3526 3546 3529 3506 3523 3506 3516 3513 3507 3531 3543 3521 3523 3525 3524 3551 3526 3515 3531 3524 3544 3518 3508 3525 3515 3521 3517 3518 3530 3547 3528 3536 3555 3523 3526 3518 3553 3519 3528 3537 3512 3520 3532 3530 3505 3541 3511 3528 3509 3535 3521 3509 3497 3530 3500 3496 3486 3501 3522 3518 3507 3510 3520 3538 3501 3492 3493 3538 3502 3485 3527 3479 3510 3512 3514 3506 3488 3506 3488 3501 3476 3511 3524 3486 3519 3489 3492 3501 3463 3497 3505 3491 3499 3489 3517 3487 3472 3508 3491 3507 3475 3487 3514 3490 3474 3492 3464 3480 3510 3514 3505 3479 3516 3490 3480 3438 3496 3472 3525 3486 3530 3481 3503 3491 3494 3470 3497 3486 3497 3499 3469 3512 3467 3488 3463 3477 3445 3507 3449 3458 3469 3444 3472 3481 3480 3506 3455 3449 3508 3479 3461 3461 3421 3503 3465 3489 3450 3449 3445 3535 3404 3470 3529 3425 3475 3451 3461 3457 3444 3488 3464 3453 3445 3419 3487 3466 3480 3479 3381 3480 3435 3446 3454 3473 3459 3477 3427 3475 3442 3405 3466 3475

Tree=0
num_leaves=31
num_cat=0
split_feature=4 9 9 9 9 11 8 9 9 31 12 9 12 12 6 4 4 11 11 6 11 4 5 5 11 5 11 9 4 12
split_gain=24799.1 9364.83 5249.94 3800.33 3080.17 1954.46 1785.11 1423.78 1310.99 891.539 885.807 836.534 770.318 666.784 620.625 570.055 541.924 511.945 448.562 373.317 392.283 372.168 362.794 357.441 350.372 339.776 318.262 300.574 298.386 268.107
threshold=20391.500000000004 0.13215000000000002 0.13040948511787467 0.13595000000000004 0.019850000000000003 199.00500000000002 2.6750000000000003 0.13040948511787467 0.032550000000000003 1.9499999999999995 1.0000000180025095e-35 1.0000000180025095e-35 1.0000000180025095e-35 1.0000000180025095e-35 3.2500000000000004 8918.5000000000018 41585.500000000007 248.00500000000002 299.00500000000005 3.2500000000000004 169.01000000000002 40493.000000000007 2.5000000000000004 2.5000000000000004 161.00500000000002 3.5000000000000004 154.00500000000002 1.0000000180025095e-35 11132.500000000002 1.0000000180025095e-35
decision_type=2 2 2 2 2 2 2 2 2 2 2 2 2 2 2 2 2 2 2 2 2 2 2 2 2 2 2 2 2 2
left_child=3 2 4 7 11 9 -5 8 27 -3 16 -2 23 22 -11 -10 -6 -8 -7 -18 25 -16 -13 -4 -12 -21 -25 -1 -29 -9
right_child=1 5 12 6 10 18 17 29 15 14 24 13 -14 -15 21 -17 19 -19 -20 20 -22 -23 -24 26 -26 -27 -28 28 -30 -31
leaf_value=0.08506439072063976 0.17125282315292459 0.15016446659488467 -0.0938284819023089 0.052856844434747655 0.0020377996298666058 0.052303566427263727 -0.03322616578527253 -0.14674276537516048 -0.07589401508314006 0.031336849040374301 0.096573348296535147 -0.074352677245284354 0.0073363689498412753 0.02642674232701139 0.066488782068614971 -0.022114899111250905 -0.0015502482627577901 -0.10327354502710101 -0.011333613072812335 0.05124209678412512 0.023016272222686082 0.10762502218574128 -0.023534190202231842 -0.035513787338511758 0.043168946178361554 0.097429849948740765 -0.08216616368237227 -0.12703836263964552 -0.083849199365986712 -0.088404300527816421
leaf_weight=110.03182280645706 329.22413137892727 4578.8881127367204 3890.484334640234 3536.6714664144674 5041.848463585251 4865.5098239505023 7790.0701134565752 7455.7549893056275 6612.5698760636151 2205.8515669893968 6346.6599991491239 2677.1658095240564 2675.6733319284976 3183.0339700625482 4067.2133037149324 4987.466768090846 2021.7607499722508 1864.6188077126862 2368.0660494631156 7383.3994824030524 4387.0658861565316 14707.623710972126 8331.6676291790209 6513.3564479034685 2469.2736742644338 3345.6038000798435 3125.26314328218 7179.2415889441036 3437.1753972314764 1358.244380426826
leaf_count=692 3638 52924 174782 24163 127537 140693 77508 98148 55790 67171 153923 128694 90934 113094 73136 72658 79562 23449 84938 249682 162974 352970 345708 261721 76899 89555 134677 73526 64588 15918
internal_value=0 0.28944 0.0599767 -0.617073 0.234009 0.721278 -0.167108 -0.807638 -0.673124 0.851167 0.412067 -0.145994 -0.428776 -0.182655 0.763722 -0.439882 0.305382 -0.389802 0.262127 0.390163 0.444138 0.8227 -0.299241 -0.525738 0.680295 0.547197 -0.422166 -0.925204 -0.942299 -1.14815
internal_weight=0 94514.6 61721.5 44331.8 45516.7 32793.2 13191.4 31140.5 22326.5 25559.6 30995.6 14521.1 16204.8 14191.9 20980.7 11600 22179.7 9654.69 7233.58 17137.8 15116.1 18774.8 11008.8 13529.1 8815.93 10729 9638.62 10726.4 10616.4 8814
internal_count=3471652 2965212 2193380 506440 1531266 771832 125120 381320 267254 546201 940132 591134 662114 587496 493277 128448 709310 100957 225631 581773 502211 426106 474402 571180 230822 339237 396398 138806 138114 114066
shrinkage=0.12


Tree=1
num_leaves=31
num_cat=0
split_feature=4 12 11 4 4 9 5 8 9 12 11 4 9 9 9 4 6 5 11 5 4 66 9 11 31 8 9 9 9 64
split_gain=18404.5 6484.49 3171.98 2973.84 3953.89 3272.8 2172.87 1887.45 1894.03 1809.26 1390.47 1365.99 1357.01 1666.53 1175.83 1156.78 1135.2 1115.89 1589.57 1097.62 882.797 866.07 861.419 808.644 801.879 793.296 712.362 702.621 684.255 651.813
threshold=20391.500000000004 1.0000000180025095e-35 136.00500000000002 78753.000000000015 40493.000000000007 0.21855000000000002 2.5000000000000004 2.5200000000000005 0.13405000000000003 1.0000000180025095e-35 200.00500000000002 85017.000000000015 0.13040948511787467 0.047450000000000006 0.13045948511787467 79750.500000000015 3.2500000000000004 3.5000000000000004 215.00500000000002 2.5000000000000004 63721.500000000007 2.3929459843638949 0.20265000000000002 209.00500000000002 1.9499999999999995 2.3500000000000001 0.31915000000000004 1.0000000180025095e-35 0.18965000000000001 105.92250000000001
decision_type=2 2 2 2 2 2 2 2 2 2 2 2 2 2 2 2 2 2 2 2 2 2 2 2 2 2 2 2 2 2
left_child=9 3 6 4 17 12 22 26 -9 19 16 21 13 27 -14 -4 -10 23 -19 -1 -18 -8 -3 24 -2 -7 -6 -5 -21 -13
right_child=1 2 15 5 7 25 11 8 10 -11 -12 29 14 -15 -16 -17 20 18 -20 28 -22 -23 -24 -25 -26 -27 -28 -29 -30 -31
leaf_value=0.021780918266315098 -0.031524465990384554 -0.032240114297858377 -0.025785528210201001 0.11350602395855428 -0.028401857223617686 0.057996705938646864 0.047120565785205654 -0.03046349891524017 0.02628079581829745 0.12980282657692577 -0.020777819486572258 0.045088314788362838 -0.052710839144366362 0.018648197779361164 -0.01263833749738612 0.013703562753463105 -0.10427433006060215 0.059747542850682324 -0.019690403452577963 0.066120295142207283 -0.057526928272347462 0.0068944463348545948 0.055735366259721898 -0.089923284745164159 0.013739765192238244 0.016612410369877876 0.019870763922138504 -0.024288955967820051 0.11415357082655496 0.085432235133468704
leaf_weight=5987.2522557494813 10383.032233544509 8542.2939969252329 23551.838588795974 540.81148392800242 38154.133893166611 9348.6421316605993 15687.291793224955 24735.36762341662 1263.2545242713531 8812.6045567814144 5882.0979226520285 11188.729425856553 20033.063581305265 26783.976684707217 22282.85115353085 19542.881313962891 19046.652998237638 9151.8967258456978 6004.8930650437833 14669.459491435467 8401.952529050759 15166.566503291018 1971.1088206421118 1827.382361675438 12320.61683336721 23326.046194988478 4972.5236913929693 31369.549953451089 6045.5680726470018 11950.849736534059
leaf_count=99911 93553 64569 141189 1495 345140 22815 72316 248516 14461 107735 52341 71424 289599 219534 119325 139431 48058 81739 57923 243625 32370 82386 7985 16399 140703 146955 9709 383664 55169 61613
internal_value=0 -0.0637896 0.144417 -0.145015 -0.245713 -0.0379374 0.284752 -0.349515 -0.465246 0.688676 -0.616349 0.365743 -0.126934 -0.0284985 -0.263441 -0.0656255 -0.707102 0.0222345 0.235569 0.558896 -0.749767 0.227931 -0.13109 -0.10954 -0.0579672 0.237151 -0.190274 -0.182887 0.66791 0.549439
internal_weight=0 383430 107602 275829 142144 133685 64506.8 102456 59329.3 35514.9 34594 53993.4 101010 58694.3 42315.9 43094.7 28711.9 39687.8 15156.8 26702.3 27448.6 30853.9 10513.4 24531 22703.6 32674.7 43126.7 31910.4 20715 23139.6
internal_count=3471652 2965212 640913 2324299 1140912 1183387 360293 750595 395746 506440 147230 287739 1013617 604693 408924 280620 94889 390317 139662 398705 80428 154702 72554 250655 234256 169770 354849 385159 298794 133037
shrinkage=0.12


Tree=2
num_leaves=31
num_cat=0
split_feature=9 9 4 9 4 31 5 9 11 9 11 5 11 11 12 64 11 5 12 9 5 8 6 4 9 8 11 5 63 4
split_gain=7350.31 6279.92 4304.44 2930.03 2870.58 2002.27 2226.64 1930.73 1507.33 1447.71 1219.95 1169.72 1111.38 963.789 789.801 782.938 990.125 750.208 727.441 696.393 673.951 672.378 639.154 626.105 586.736 572.764 558.721 682.165 472.857 419.941
threshold=0.13045948511787467 0.13040948511787467 78753.000000000015 0.0074500000000000009 78327.500000000015 2.6400000000000001 3.5000000000000004 1.0000000180025095e-35 143.00500000000002 0.051050000000000005 296.98500000000007 3.5000000000000004 307.61500000000007 119.99500000000002 1.0000000180025095e-35 158.30500000000004 109.00500000000001 3.5000000000000004 1.0000000180025095e-35 0.0029500000000000004 1.0000000180025095e-35 3.7950000000000004 3.7500000000000004 40493.000000000007 0.27225000000000005 1.8700000000000003 245.02000000000001 3.5000000000000004 96.099808673469383 21009.500000000004
decision_type=2 2 2 2 2 2 2 2 2 2 2 2 2 2 2 2 2 2 2 2 2 2 2 2 2 2 2 2 2 2
left_child=1 3 8 7 9 11 13 -1 17 -5 15 18 22 -7 23 16 28 24 -4 -9 -3 -8 -11 25 -2 -10 27 -22 -6 -16
right_child=2 20 5 4 10 6 21 19 14 12 -12 -13 -14 -15 29 -17 -18 -19 -20 -21 26 -23 -24 -25 -26 -27 -28 -29 -30 -31
leaf_value=0.092532841710524005 0.028393870699338752 -0.10690346651156478 0.0023724756244422676 0.0027762463813608335 -0.018284088347663995 -0.016924654308807328 0.037723793140015803 -0.068422702877080202 0.066502145991039596 0.014914271164182754 -0.066597220796248982 0.072252859786776619 -0.045319235703812376 -0.064625527021602042 0.014708390679201011 0.012329018260894446 -0.03641563683485316 0.076926581036001168 0.066678847204616795 -0.027927241839091926 -0.051886407379048892 -0.0020802747839835998 0.049747200966879963 0.032277901001274756 0.061577976349384812 -0.015136926976883937 -0.088626959496029376 -0.018846380247406334 0.011469258489624462 0.068826001400513662
leaf_weight=1485.9946423191577 16678.964896133577 2841.0470537476067 15344.303347554523 38829.265709715313 14728.166649692226 12940.760536849964 8598.3193806110648 12301.865418830275 1369.4910917766392 10481.907790470985 5720.9506899676053 6494.8270620587282 2322.2719262075843 11553.073263115948 3140.659046620247 18357.562843438005 21252.230013714987 14326.73830925487 3034.0611125659198 12191.025786154612 33097.128155638929 21102.8806752112 27566.2170744373 9814.8969715301646 14246.009948713938 12724.0693788387 4209.3467224449269 12378.454164439114 16094.133962188382 6065.4347630268894
leaf_count=4330 107897 49939 50565 448757 141851 74324 37584 188513 3870 99525 51326 17765 26108 69671 20759 144513 170673 69172 7860 177593 491318 137405 230101 96093 70700 95672 68694 153325 115230 50519
internal_value=0 -0.112454 0.167042 -0.0242511 0.0277253 0.00241318 -0.105381 -0.335095 0.333131 0.161022 -0.110892 0.237315 0.293617 -0.328587 0.170951 -0.0747988 -0.137406 0.451784 0.108319 -0.402279 -0.416926 0.0786634 0.334624 0.0750605 0.36405 -0.0599273 -0.389789 -0.357468 -0.0228696 0.419837
internal_weight=0 233858 157434 181332 155353 79068.2 54195 25978.9 78366.3 79199.7 76153 24873.2 40370.4 24493.8 33114.6 70432.1 52074.5 45251.7 18378.4 24492.9 52526 29701.2 38048.1 23908.5 30925 14093.6 49684.9 45475.6 30822.3 9206.09
internal_count=3471652 2561796 909856 1798520 1428084 395174 318984 370436 514682 804491 623593 76190 355734 143995 266913 572267 427754 247769 58425 366106 763276 174989 329626 195635 178597 99542 713337 644643 257081 71278
shrinkage=0.12


Tree=3
num_leaves=31
num_cat=0
split_feature=9 9 11 5 9 5 11 8 8 11 11 61 11 64 64 9 9 12 33 31 64 11 8 61 11 80 64 11 64 12
split_gain=5056.14 4507.77 2104 1866.66 1443.58 1121.34 1083.95 1038.77 1029.46 1028.27 975.373 1236.63 842.556 1138.36 708.013 606.6 759.066 459.747 421.7 409.037 405.61 457.193 393.094 387.515 401.423 349.061 345.132 344.953 489.159 446.76
threshold=0.13045948511787467 0.13040948511787467 168.00500000000002 2.5000000000000004 0.092750000000000013 3.5000000000000004 152.00500000000002 2.4400000000000004 1.5000000000000002 197.00500000000002 377.22500000000008 5.4025000000000007 99.00500000000001 149.00500000000002 104.01500000000001 1.0000000180025095e-35 0.0090500000000000025 1.0000000180025095e-35 0.13500246800731266 2.0800000000000005 178.99750000000003 99.00500000000001 4.0000000000000009 6.0150000000000006 239.00500000000002 0.13502190644446369 99.795000000000016 89.995000000000019 93.002500000000012 1.0000000180025095e-35
decision_type=2 2 2 2 2 2 2 2 2 2 2 2 2 2 2 2 2 2 2 2 2 2 2 2 2 2 2 2 2 2
left_child=1 4 3 18 5 6 15 -6 -5 20 11 19 14 26 22 -1 -17 -3 -2 -4 21 -7 -10 24 -13 -18 -14 28 -27 -29
right_child=2 17 10 8 7 9 -8 -9 12 -11 -12 23 13 -15 -16 16 25 -19 -20 -21 -22 -23 -24 -25 -26 27 -28 29 -30 -31
leaf_value=0.094000426567550158 0.023038243488605975 -0.049837091693513011 0.019576276012183428 0.072865955594092716 0.052680515156560831 0.029823756289403112 -0.048861249994535026 0.0061969985964541296 0.042490455020647154 -0.018005046010117223 -0.056004500414509752 0.023625439366732934 -0.027513418469593758 0.043920650656690458 0.071538940447076108 -0.038113713458990749 -0.045845650505237749 -0.0199268316124614 -0.014882992737380751 -0.034112453510758228 0.038385908276089391 -0.00083629062436966996 0.0046314851491973162 0.054915362967337553 -0.0076941447282725429 -0.002564825178175197 0.010357372439299595 -0.0038246872811140919 0.037931976453744208 -0.039652041738910258
leaf_weight=780.02598878461868 5669.4377565566683 38936.067205276369 2415.5539868683554 8745.9534217827022 9754.760839756811 10341.56477027596 13092.916881224781 23867.536017329432 14569.402975342935 19882.91318138194 4737.1572670010501 14887.851237046882 3995.3670287877321 17361.810637759161 9857.3636390940519 13208.308412702056 2985.2326583431568 9157.0038595471415 16526.919006885728 13153.220649395138 8630.5735805620498 21670.809858344845 5428.3224275343819 3319.7325121699832 9745.0792625389295 19126.190278857131 26025.887160274084 18892.068485608266 5536.3025625159498 6825.468403082341
leaf_count=2620 29117 660879 7718 19836 54538 81685 161373 192289 62185 233633 50875 98827 22537 91254 41759 243813 35600 102397 97822 100527 68599 195717 38743 26454 85902 221025 136300 222226 44185 41217
internal_value=0 -0.0967924 0.137782 0.21524 -0.0221134 -0.0665256 -0.143888 0.164066 0.281981 0.0362828 -0.0358351 0.0110501 0.245133 0.162186 0.376737 -0.0926867 -0.102978 -0.367876 -0.0432589 -0.214783 0.127461 0.075544 0.268504 0.136871 0.0935863 -0.0498296 0.0442717 -0.0301172 0.0543526 -0.11116
internal_weight=0 222688 156439 108180 174595 140972 80446.5 33622.3 85984.1 60525.9 48258.6 43521.4 77238.2 47383.1 29855.1 67353.6 66573.6 48093.1 22196.4 15568.8 40642.9 32012.4 19997.7 27952.7 24632.9 53365.3 30021.3 50380 24662.5 25717.5
internal_count=3471652 2561796 909856 539553 1798520 1551693 972059 246827 412614 579634 370303 319428 392778 250091 142687 810686 808066 763276 126939 108245 346001 277402 100928 211183 184729 564253 158837 528653 265210 263443
shrinkage=0.12


Tree=4
num_leaves=31
num_cat=0
split_feature=9 9 8 9 11 5 11 11 64 61 6 61 9 11 64 5 11 11 64 9 63 11 64 67 11 61 11 6 9 61
split_gain=4311.32 2740.27 1979.17 1347.48 1307.82 1539.28 1141.57 893.34 1773.65 1060.02 833.476 566.754 524.106 497.524 510.238 449.441 830.189 437.577 514.513 399.14 388.099 365.252 357.543 354.906 353.895 348.861 315.35 305.594 304.273 301.834
threshold=0.14845000000000003 0.13040948511787467 1.7000000000000004 0.13045948511787467 245.02000000000001 2.5000000000000004 259.00500000000005 119.99500000000002 125.00250000000001 5.2525000000000013 3.7500000000000004 5.5225000000000009 0.47445000000000004 79.995000000000019 78.995000000000019 2.5000000000000004 99.00500000000001 119.99500000000002 201.88500000000002 0.064150000000000013 135.53396416974172 399.01500000000004 241.97500000000005 1.7500000000000002 89.00500000000001 4.9225000000000003 59.995000000000012 2.7500000000000004 1.0000000180025095e-35 6.0225000000000009
decision_type=2 2 2 2 2 2 2 2 2 2 2 2 2 2 2 2 2 2 2 2 2 2 2 2 2 2 2 2 2 2
left_child=1 4 12 15 5 26 10 8 13 25 24 -6 -2 14 -7 -3 -17 20 -19 28 -12 29 -11 -18 27 -9 -1 -4 -15 -13
right_child=2 3 6 -5 11 7 -8 9 -10 22 17 21 -14 19 -16 16 23 18 -20 -21 -22 -23 -24 -25 -26 -27 -28 -29 -30 -31
leaf_value=-0.0020531330930882415 0.043619951620160323 -0.062850322922242019 -0.031843047561774467 0.0010458574515982352 -0.066720643994474901 0.0040070085419374847 -0.022363264117099501 -0.042192557634127638 0.055889667557383005 0.0068654243623097388 0.023077945388245674 -0.019294040262358647 0.09363039313929801 0.11228433457331757 0.043635119371103134 -0.0088140000316386889 -0.066265518493424339 0.0059950396770173647 0.033951101773270383 0.015233236951473975 0.05041241641043568 -0.050538620617046247 0.044600765551564912 -0.036163040095574833 -0.013662788730713934 -0.012118641193843396 -0.031510661689293257 0.02083489125833286 -0.014677878548505444 0.030158693881752963
leaf_weight=7001.103669778473 12608.557592826895 11181.33183464731 1856.9565177303739 13619.370175674791 5069.9702231797855 10272.771751561086 12865.453628440213 7552.6024895320297 13366.664448787866 26925.606564232148 22671.757368933409 6945.2741715876618 3977.2793104124721 274.46539356466383 8602.6575363499578 11542.82446985651 9360.4762927438715 32604.449851980899 13374.264694343379 11452.62971263146 11187.086827456718 3860.0762267817627 4178.3675584926968 14283.112677589816 16340.128416001098 21067.36016391404 20828.787988113123 10775.500123117119 19533.978703138302 2386.1852454351611
leaf_count=100888 33949 222715 16877 90501 61697 108951 135087 90926 99365 251923 111149 82379 7563 874 67136 163736 150116 206812 89215 75832 48046 50232 37449 226709 106314 226804 285129 64343 230615 28320
internal_value=0 -0.0840968 0.139474 -0.267755 -0.0190222 0.0115298 0.095288 0.0595087 0.142082 -0.0282741 0.1286 -0.271786 0.463538 0.0557638 0.183963 -0.348982 -0.293402 0.181324 0.11775 -0.0216145 0.267618 -0.162441 0.0994979 -0.400733 -0.0166534 -0.167169 -0.200873 0.108999 -0.107559 -0.0552796
internal_weight=0 229306 138261 59987.1 169319 151057 121676 123227 63503.2 59723.9 108810 18261.5 16585.8 50136.5 18875.4 46367.7 35186.4 79837.6 45978.7 31261.1 33858.8 13191.5 31104 23643.6 28972.6 28620 27829.9 12632.5 19808.4 9331.46
internal_count=3471652 2652297 819355 853777 1798520 1575892 777843 1189875 582773 607102 642756 222628 41512 483408 176087 763276 540561 455222 296027 307321 159195 160931 289372 376825 187534 317730 386017 81220 231489 110699
shrinkage=0.12


Tree=5
num_leaves=31
num_cat=0
split_feature=9 9 11 9 8 5 9 9 11 8 63 8 80 8 65 11 11 5 9 61 31 34 11 63 64 5 11 10 8 61
split_gain=3250.51 3406.97 1574.75 1424.16 1115.9 1004.34 839.181 806.327 729.146 686.976 665.823 608.936 464.419 430.96 428.76 621.028 420.043 560.755 411.676 365.047 355.505 352.873 343.968 497.546 308.877 297.878 287.931 265.643 258.438 249.292
threshold=0.13045948511787467 0.13040948511787467 187.00500000000002 0.036350000000000007 1.7000000000000004 3.5000000000000004 1.0000000180025095e-35 0.0021500000000000004 153.11000000000004 2.2500000000000004 159.07640989526908 3.0200000000000005 0.19246854488797685 2.3500000000000001 23.035310208649474 141.28500000000005 208.00500000000002 3.5000000000000004 0.39905000000000007 5.4425000000000017 3.04 0.074280381704781392 345.02000000000004 285.4221712753951 148.99750000000003 3.5000000000000004 89.995000000000019 5.3750000000000009 4.4150000000000009 4.6025000000000009
decision_type=2 2 2 2 2 2 2 2 2 2 2 2 2 2 2 2 2 2 2 2 2 2 2 2 2 2 2 2 2 2
left_child=1 3 5 6 -5 9 -1 -8 10 18 20 21 -11 -4 -9 24 17 28 -2 -10 25 -7 23 -15 -16 -6 -14 -17 -3 -28
right_child=2 16 13 4 8 11 7 14 19 12 -12 -13 26 22 15 27 -18 -19 -20 -21 -22 -23 -24 -25 -26 -27 29 -29 -30 -31
leaf_value=0.08402525071417935 0.018244983923256537 -0.045477344559196983 0.030719258703447078 0.037868735811457555 0.0059494088513325485 0.035953947280926241 -0.054046887978431941 -0.028545727480163804 -0.029579161688738753 -0.033446954280332827 0.034496738235195112 0.025468456617421954 0.018975454117365412 -0.018599774169560095 0.0012143715027683232 -0.035327258744912 -0.070641552364869242 -0.0095749971709243632 0.054439563883979913 -0.0016347226354598674 -0.010033735631631794 0.075436351922843564 -0.041820621607286446 0.015890037856191374 0.038224957116411842 0.040257325884854755 -0.048155836268484867 -0.007943861652240463 0.010052652765268595 0.001594538360523777
leaf_weight=1214.6630677028443 16263.50996449485 28032.277829876766 3665.6916821647901 14965.34599669103 18775.645392009348 6392.7254031761549 7367.2199293915182 16487.937854297459 11842.717425734503 4601.0522248042398 12588.484412429389 32344.935055314912 16503.310789420619 18602.551675345283 20204.391436520673 9943.7103540498647 5388.0647441167384 9541.4151122947806 6279.5459783775732 15618.796935014427 17440.662143331836 6693.5568190889899 4943.5720699217054 8902.4060810421361 3869.6771045986097 4525.0950729043689 1549.7988032230642 10504.736717455904 1257.1720379331819 22357.985374622745
leaf_count=4330 59673 498191 13559 102447 170623 20380 147095 268333 118939 34296 82402 175339 109411 157047 249669 145977 107494 133128 14883 156040 161603 17056 65102 72249 34465 23921 11589 132676 24463 159272
internal_value=0 -0.0802982 0.112863 -0.0143548 0.0647558 0.170967 -0.123222 -0.137874 0.0182802 0.0936258 0.0864617 0.285945 0.0222351 -0.0688937 -0.100114 -0.0490681 -0.326853 -0.290483 0.236121 -0.114089 0.0243222 0.46802 -0.105634 -0.061934 0.0597483 0.105156 0.056532 -0.177224 -0.359079 -0.0135612
internal_weight=0 209568 149101 165349 95756.7 112986 69592.3 68377.7 80791.4 67555.2 53329.9 45431.2 45012.1 36114.2 61010.5 44522.5 44218.9 38830.9 22543.1 27461.5 40741.4 13086.3 32448.5 27505 24074.1 23300.7 40411.1 20448.4 29289.4 23907.8
internal_count=3471652 2561796 909856 1798520 815975 601899 982545 978215 713528 389124 438549 212775 314568 307957 831120 562787 763276 655782 74556 274979 356147 37436 294398 229296 284134 194544 280272 278653 522654 170861
shrinkage=0.12


Tree=6
num_leaves=31
num_cat=0
split_feature=9 6 11 8 5 11 61 61 8 12 11 11 64 11 7 11 5 5 64 61 61 64 61 11 11 5 66 56 11 61
split_gain=2784.61 1803.9 1375.86 1320.93 1212.06 843.919 687.757 682.505 645.015 571.035 565.86 518.991 505.375 397.547 393.924 409.645 364.724 359.348 324.632 296.801 257.332 252.124 233.301 276.839 222.186 216.444 209.843 201.706 201.633 239.943
threshold=0.19765000000000002 3.2500000000000004 178.59500000000003 3.0650000000000004 3.5000000000000004 89.995000000000019 5.1525000000000007 4.8125000000000009 1.2450000000000003 1.0000000180025095e-35 219.00500000000002 334.13000000000005 85.00500000000001 69.995000000000019 1.0000000180025095e-35 104.99500000000002 1.5000000000000002 2.5000000000000004 188.51250000000002 5.6225000000000014 6.0750000000000011 118.11500000000002 5.5825000000000005 468.75500000000005 39.755000000000003 3.5000000000000004 3.8949490662139223 0.10537338457338778 114.00500000000001 5.1225000000000014
decision_type=2 2 2 2 2 2 2 2 2 2 2 2 2 2 2 2 2 2 2 2 2 2 2 2 2 2 2 2 2 2
left_child=1 16 4 8 5 12 -4 -7 -2 25 17 19 13 -3 27 21 -1 -5 -17 -8 -13 -16 -12 -24 -18 -10 -19 -6 -9 -30
right_child=3 2 6 10 14 7 11 28 9 -11 22 20 -14 -15 15 18 24 26 -20 -21 -22 -23 23 -25 -26 -27 -28 -29 29 -31
leaf_value=-0.080440539617520915 0.068143568767508295 0.0093712151498514668 -0.055678458032822058 -0.021199321924535792 -0.0044297005706583079 -0.033935230772766473 -0.018008627734081985 0.0051440095652936788 0.011982827289109016 0.056852569297139437 -0.037544691207023945 -0.059387281357575851 0.024319770586563753 -0.021545313687649014 0.026318605378646345 0.0082983683046658433 0.011887105781574387 0.017375172649780248 0.040856446391284211 0.0036625532496041848 -0.018171535006857281 0.061621378704757562 0.0024113919426272247 -0.067471307116550791 -0.032048231105080996 0.036688745531461571 -0.014895037111817206 0.019556142229668796 -0.021940761406944332 0.0012205832745727158
leaf_weight=2173.8584863073775 6570.7353603732772 15009.4674883837 6701.2510541973461 4306.7023024908267 15512.641976023559 18296.040363123699 20130.614651566924 14767.237128388428 18937.000019533327 7209.3030540535692 4652.5076722407248 4803.7342139943503 16068.638664207014 9962.3900330860051 6682.5820785345277 21424.728855905589 1752.3527953696903 41122.29055144533 5557.6321063599898 16593.64557918522 4016.7938328419114 5192.6126059885719 8222.8897034041001 904.98612670137663 29271.203735375573 7005.223656893475 3117.2254288245458 7480.131993451796 15541.696102933201 10982.388539680047
leaf_count=47655 14952 188309 96767 42556 133664 239534 237589 162015 84619 20527 47868 72846 154130 128950 48726 178078 26677 260056 37951 178481 58621 26583 84492 13418 453599 23547 21977 56110 199371 131984
internal_value=0 -0.0572286 -0.0236832 0.139033 0.0217032 -0.0460029 -0.164846 -0.122009 0.281549 0.224755 0.0481844 -0.1208 0.0643276 -0.0246528 0.131873 0.193266 -0.274166 0.0989617 0.125085 -0.0684461 -0.338631 0.348077 -0.130618 -0.0375886 -0.246353 0.1555 0.125819 0.0280733 -0.0507367 -0.102888
internal_weight=0 247922 214724 102049 162478 100628 52246 59587.4 39722.3 33151.5 62326.6 45544.8 41040.5 24971.9 61850.3 38857.6 33197.4 48546.2 26982.4 36724.3 8820.53 11875.2 13780.4 9127.88 31023.6 25942.2 44239.5 22992.8 41291.3 26524.1
internal_count=3471652 2857640 2329709 614012 1685405 1204293 644304 732904 143645 128693 470367 547537 471389 317259 481112 291338 527931 324589 216029 416070 131467 75309 145778 97910 480276 108166 282033 189774 493370 331355
shrinkage=0.12


Tree=7
num_leaves=31
num_cat=0
split_feature=9 9 9 11 9 11 9 64 31 64 8 66 11 12 12 8 5 5 78 31 11 5 5 4 66 6 70 4 33 8
split_gain=2643.51 2801.39 1395.63 1375.49 892.118 779.149 610.113 594.647 581.633 585.662 501.392 479.082 444.853 400.48 364.797 318.478 298.415 280.216 238.977 238.62 236.457 329.784 220.503 253.545 219.683 218.441 215.214 203.465 204.346 202.141
threshold=0.13045948511787467 0.13040948511787467 0.011550000000000001 129.00500000000002 1.0000000180025095e-35 220.79500000000004 0.080650000000000013 132.00750000000002 1.3900000000000003 123.22750000000001 1.5000000000000002 2.3929459843638949 289.00500000000005 1.0000000180025095e-35 1.0000000180025095e-35 4.2550000000000008 2.5000000000000004 2.5000000000000004 1.0588611885215038 3.6600000000000006 119.00500000000001 2.5000000000000004 3.5000000000000004 56667.000000000007 2.4406667067000947 3.2500000000000004 39.750000000000007 8918.5000000000018 0.093855357142857157 4.8150000000000004
decision_type=2 2 2 2 2 2 2 2 2 2 2 2 2 2 2 2 2 2 2 2 2 2 2 2 2 2 2 2 2 2
left_child=1 2 4 8 -1 6 16 -5 -2 14 -9 18 22 20 25 -16 -4 -8 -6 -11 21 -3 -12 -24 -19 -10 -14 -18 -29 -22
right_child=3 13 5 7 11 -7 17 10 9 19 12 -13 26 -15 15 -17 27 24 -20 -21 29 -23 23 -25 -26 -27 -28 28 -30 -31
leaf_value=0.07825953679658719 0.052634333294229292 -0.054554103946942087 -0.014928122254337314 -0.02700101789404559 -0.081536112703103014 -0.019703071331091095 -0.0040359393906656263 0.053209327770256845 -0.017199925996515843 0.053129163062193202 -0.0065657658415500929 -0.011379138954384003 -0.032941263750961951 -0.01202709261511865 0.036962541179456944 -0.0042437185385953416 0.033922891882847646 0.031838585913387236 -0.037919931588804127 0.025599960152314524 -0.057812806710539531 -0.021939529579531145 0.024419657242744648 0.0033283554686697314 0.0097904856945388707 0.0097801027993461836 0.014084931365681558 0.0070623454946972678 -0.0093568803815400128 -0.00053836752536768207
leaf_weight=1136.8001473370823 8850.4721536156721 6976.591434942733 13514.400972465461 9911.5584507097956 2092.4935383934644 17824.648948511691 5751.2719643260352 2924.2084561125375 5159.0863784033572 8294.5066371064167 12903.403498689993 11360.496732268832 6691.1417933635239 7752.1156648555771 12141.041881754645 3466.8908694549464 3257.6589009539457 20565.944512126152 13668.774817113415 10066.279787125066 13376.788697122276 12461.289512067946 13771.797233284626 20351.669935631508 9547.6350641179597 26516.299865056179 1767.929152099241 45548.275982669729 14349.11454194301 954.94600806254311
leaf_count=4330 24185 164249 194115 69881 53963 217453 61385 8448 48946 32346 106068 182460 86957 102397 50214 23091 37493 139211 252840 55868 264336 210981 93626 134023 76619 155137 21066 452835 125816 21313
internal_value=0 -0.0741641 -0.0136252 0.103932 -0.215093 0.0300417 0.0608171 0.00144016 0.197915 0.165441 0.0398863 -0.251503 0.0185942 -0.3054 0.106546 0.231686 0.0104425 0.168473 -0.364358 0.317042 -0.352465 -0.280449 0.0565871 0.0987043 0.207106 0.0448464 -0.192485 0.0393147 0.026057 -0.450043
internal_weight=0 200139 158618 142816 28258.6 130359 112534 68321.7 74494.6 65644.1 58410.2 27121.8 55485.9 41521.7 47283.3 15607.9 76669.5 35864.9 15761.3 18360.8 33769.6 19437.9 47026.9 34123.5 30113.6 31675.4 8459.07 63155 59897.4 14331.7
internal_count=3471652 2561796 1798520 909856 493593 1304927 1087474 520069 389787 365602 450188 489263 441740 763276 277388 73305 810259 277215 306803 88214 660879 375230 333717 227649 215830 204083 108023 616144 578651 285649
shrinkage=0.12


Tree=8
num_leaves=31
num_cat=0
split_feature=9 9 11 9 9 9 21 8 64 8 21 12 33 5 11 8 5 12 11 5 9 11 65 34 8 11 11 61 9 9
split_gain=2368.23 2330.08 1168.29 960.177 617.423 609.573 564.984 550.583 534.004 568.654 357.218 404.997 342.331 340.63 329.108 316.808 303.921 298.119 259.491 253.746 260.749 245.681 261.728 242.971 235.883 232.876 226.412 225.181 221.069 218.284
threshold=0.13045948511787467 0.13040948511787467 158.83500000000004 0.045650000000000003 1.0000000180025095e-35 0.0044500000000000008 1.0000000180025095e-35 2.3500000000000001 175.00250000000003 1.2450000000000003 1.0000000180025095e-35 1.0000000180025095e-35 0.09705950430321085 2.5000000000000004 420.03000000000003 3.4500000000000006 3.5000000000000004 1.0000000180025095e-35 99.00500000000001 1.5000000000000002 0.35855000000000004 279.01000000000005 36.855849783122814 0.052221413320534017 3.7950000000000004 174.25500000000002 231.66500000000002 6.2075000000000005 0.31915000000000004 0.00125
decision_type=2 2 2 2 2 2 2 2 2 2 2 2 2 2 2 2 2 2 2 2 2 2 2 2 2 2 2 2 2 2
left_child=1 3 8 4 -1 6 29 17 9 -2 11 25 -11 -4 16 28 18 -5 -9 -14 -21 22 23 -7 27 -3 -13 -18 -15 -6
right_child=2 10 13 7 5 21 -8 14 -10 12 -12 26 19 15 -16 -17 24 -19 -20 20 -22 -23 -24 -25 -26 -27 -28 -29 -30 -31
leaf_value=0.079615433137927016 0.049185786065032523 -0.043943058342170979 -0.05206685969423637 0.014963883502504809 -0.092577177251197643 -0.0061329975060093831 -0.0076464336938752726 0.005185333901714227 0.049852983746444694 0.035832391984399505 -0.018073439479559271 -0.004412786434799019 -0.031979708576190667 0.0033619632784918849 -0.061560443412485705 -0.0075842554188072413 0.019797838440685993 0.04622596281561648 -0.019102978213674005 0.0075377566366903815 0.024126819237904384 -0.033692876379667926 0.0016879191494881668 -0.030007565041149306 0.00046039149653690571 -0.077659045765207088 -0.09684174647414176 0.12249334526321592 0.03593962273296445 -0.045907678855010146
leaf_weight=1054.5637753009796 7248.537053829059 18181.318126939004 1974.1058831987903 18743.205700038001 2070.730652292259 17612.65354733821 5242.0201710760593 12115.248486172408 7805.5389520768076 9148.1001177597791 13077.751468586735 4716.0615826044232 1910.8481595944613 8948.184900672175 1195.2042420236394 32500.749804791529 12967.558032792062 5746.1669438742101 13259.147953556851 47114.163381279446 19227.180293109268 4952.6830705641769 30957.421988098882 9435.8829711731523 15537.449193697423 3538.2004486399237 414.64333856664598 314.50889946799725 4518.4541468806565 4846.4591632857919
leaf_count=2245 15116 67549 6909 56254 8889 56758 18890 36254 19560 24043 48095 14883 6323 26933 4521 102394 37792 15559 42056 141508 51459 17376 94081 31299 47276 15304 1654 661 11322 18524
internal_value=0 -0.0707305 0.0994229 -0.0155679 -0.0958988 -0.106581 -0.311577 0.0610237 0.165113 0.142013 -0.286292 -0.352332 0.116909 -0.0272383 0.00579985 -0.00974352 0.0172694 0.185881 -0.0625151 0.0925374 0.102898 -0.0669703 -0.0486934 -0.120557 0.0875507 -0.412037 -0.0993611 0.185397 0.119196 -0.499228
internal_weight=0 195979 140396 156051 76172.4 75117.9 12159.2 79878.5 92454.4 84648.8 39928 26850.2 77400.3 47941.5 55389.1 45967.4 54193.9 24489.4 25374.4 68252.2 66341.3 62958.6 58006 27048.5 28819.5 21719.5 5130.7 13282.1 13466.6 6917.19
internal_count=1041487 635920 405567 488435 248062 245817 46303 240373 258009 238449 147485 99390 223333 147558 168560 140649 164039 71813 78310 199290 192967 199514 182138 88057 85729 82853 16537 38453 38255 27413
shrinkage=0.12


Tree=9
num_leaves=31
num_cat=0
split_feature=9 9 8 9 11 9 64 11 34 21 5 61 21 12 12 5 11 8 8 64 12 8 64 46 5 9 33 61 11 12
split_gain=1992.22 1955.64 981.599 685.104 632.04 607.216 587.783 556.918 499.298 434.533 389.594 343.773 314.335 352.454 264.829 256.19 286.631 240.984 240.768 245.297 240.329 239.223 214.314 211.777 211.646 202.801 189.562 186.368 235.774 173.981
threshold=0.13045948511787467 0.13040948511787467 2.9700000000000002 0.013250000000000001 137.05500000000004 1.0000000180025095e-35 136.01000000000002 239.00500000000002 0.074280381704781392 1.0000000180025095e-35 3.5000000000000004 4.9525000000000015 1.0000000180025095e-35 1.0000000180025095e-35 1.0000000180025095e-35 2.5000000000000004 100.00500000000001 1.2450000000000003 4.1650000000000009 246.32500000000002 1.0000000180025095e-35 1.2450000000000003 98.875000000000014 0.17214134507580148 1.0000000180025095e-35 0.0029500000000000004 0.22850260822510821 5.4525000000000015 249.00500000000002 1.0000000180025095e-35
decision_type=2 2 2 2 2 2 2 2 2 2 2 2 2 2 2 2 2 2 2 2 2 2 2 2 2 2 2 2 2 2
left_child=1 3 8 5 6 -1 15 10 20 14 23 -6 13 24 25 -5 22 -10 -12 -20 -2 -13 -17 -4 -3 -7 27 -23 -29 -19
right_child=2 12 7 4 11 9 -8 -9 17 -11 18 21 -14 -15 -16 16 -18 29 19 -21 -22 26 -24 -25 -26 -27 -28 28 -30 -31
leaf_value=0.073690255684402503 0.0066369418818826307 -0.09638281982163735 -0.012736114322642886 -0.0091767037078055082 -0.040026918010024948 -0.069156045608567182 0.032012785355981073 -0.019046080884638925 0.058938543267278445 -0.0030838153154511831 0.025615866055206743 0.024947102227500132 -0.016646881018138757 -0.010714288765088599 -0.0096090884727165603 0.007802147020786198 -0.003603192577676561 0.023799402424600484 0.0028844258490020075 0.041589916797836662 0.033500222581714326 -0.014334914742153586 0.029055218829686858 0.0078411884466285612 -0.043476853521857615 -0.033884243204602864 -0.035910854756261185 0.013248971805337555 -0.013220783805781886 0.049680193692408836
leaf_weight=993.03132915124297 21994.210932448506 1156.6808539023623 15922.837807794102 15642.380871958099 4520.859514484182 3189.2952345018275 13172.640907347202 13895.043307509739 5115.6296617649496 10943.365892663132 17082.969984857365 3470.1024677157402 12896.700540473685 4931.5024251872674 4722.6792725101113 18030.568139366806 17389.271516888402 16067.75398023054 21915.849874941632 2642.5079543944448 6139.0110964719206 18053.194862438366 11022.901797221974 13142.217751112301 19751.893408286851 9025.0664621936157 3198.0036811809987 11897.156273919158 8171.8139366931282 4894.5321259237826
leaf_count=2051 65127 5604 51636 50010 15775 14778 36943 46433 9778 37761 48405 10170 48224 16107 15277 55320 54627 43449 68029 7053 16081 57971 31327 39643 76392 33332 10709 35043 26978 11454
internal_value=0 -0.0656126 0.0916075 -0.0149199 0.0172432 -0.153711 0.0749078 0.0242789 0.196659 -0.181115 0.0602568 -0.0707431 -0.266383 -0.33005 -0.281467 0.0341799 0.0714711 0.296358 0.122276 0.0587966 0.104201 -0.044187 0.132254 -0.0285641 -0.386782 -0.35924 -0.0653856 -0.0457329 0.0205395 0.248751
internal_weight=0 192179 138813 153442 124569 28873.4 75257.8 84601.4 54211.1 27880.4 70706.4 49311.1 38736.8 25840.1 16937 62085.1 46442.7 26077.9 41641.3 24558.4 28133.2 44790.3 29053.5 29065.1 20908.6 12214.4 41320.2 38122.2 20069 20962.3
internal_count=1041487 634399 407088 488072 384873 103199 228227 261199 145889 101148 214766 156646 146327 98103 63387 191284 141274 64681 123487 75082 81208 140871 86647 91279 81996 48110 130701 119992 62021 54903
shrinkage=0.12


Tree=10
num_leaves=31
num_cat=0
split_feature=9 9 11 9 5 31 9 61 11 65 11 8 5 11 8 6 11 65 61 11 12 64 21 34 5 11 5 33 65 64
split_gain=1706.32 1662.69 849.162 827.929 452.94 441.585 432.273 426.187 360.93 460.79 358.073 308.848 293.594 366.438 291.163 278.263 256.414 255.909 254.405 238.379 236.908 235.185 225.292 222.175 229.826 206.78 196.915 193.428 203.237 192.761
threshold=0.13045948511787467 0.13040948511787467 143.00500000000002 0.06235000000000001 2.5000000000000004 2.6400000000000001 1.0000000180025095e-35 5.2325000000000008 168.99500000000003 25.671934882672794 409.01000000000005 3.2400000000000007 2.5000000000000004 89.00500000000001 2.1400000000000006 3.7500000000000004 95.00500000000001 35.981758349627846 5.2325000000000008 199.00500000000002 1.0000000180025095e-35 162.23000000000005 1.0000000180025095e-35 0.066258399030396889 3.5000000000000004 296.98500000000007 4.5000000000000009 0.061149101835099508 66617.565458252982 157.33250000000001
decision_type=2 2 2 2 2 2 2 2 2 2 2 2 2 2 2 2 2 2 2 2 2 2 2 2 2 2 2 2 2 2
left_child=1 3 4 6 -2 23 -1 -4 9 -8 14 20 -3 -14 -9 -11 -17 -7 -10 29 27 -18 25 -6 -25 -15 -16 -5 -29 -13
right_child=2 12 7 11 5 17 8 10 18 15 -12 19 13 22 26 16 21 -19 -20 -21 -22 -23 -24 24 -26 -27 -28 28 -30 -31
leaf_value=0.072431485623276948 0.0003836531313035741 -0.048730563906438575 -0.020001497995162383 0.030846233070295031 0.022819812911387162 0.0017190325800475969 -0.017861480608031364 0.043933699769857087 -0.047054332342103579 -0.013478496844600736 -0.040686692313901478 -0.0020799734149768243 -0.0002577452487989293 -0.036959613165403971 0.00054052721701601633 0.025838464724255033 -0.0060734673156982956 0.021703985948792016 -0.016146444009106836 -0.020684119621157925 0.034713154673511923 0.02218642106400457 -0.01507824246952397 0.035953414054499616 0.071317509094091278 -0.097301508504504808 0.024266292550553511 0.0046095926519130167 0.17812235515803951 0.023229309402409092
leaf_weight=930.53947296366096 16767.06614031177 9056.42522161128 13297.568213509396 5591.5907888170332 10579.549655497074 13788.550808178261 26046.65657142736 2907.8728704191744 4892.8579290257767 11439.921344755217 2362.9690801007673 13479.632815593854 7099.7385577773675 13112.639407237992 30418.848355187569 8729.7024771301076 15869.628950878512 27970.602245454676 17855.311165411724 6336.0953211886808 8201.8182427436113 5785.0780549757183 7627.118569989223 9043.0316838510334 3761.0948232226074 874.73413889529184 6038.8042350173928 19234.918624699116 96.74688582867384 6380.3784425407648
leaf_count=1864 51315 38711 43377 16044 28807 43461 91699 7068 18290 38979 8850 42727 24361 50040 95263 26168 51412 81829 59982 20933 23300 17041 28339 22247 7583 4345 17989 60823 132 18509
internal_value=0 -0.0613602 0.0852884 -0.0143781 0.149832 0.187558 -0.0740142 -0.0107719 -0.08099 -0.0444324 0.0388897 0.0776403 -0.248993 -0.199399 0.0616099 0.0205705 0.0706399 0.125902 -0.190012 -0.00346145 0.141806 0.0122611 -0.264141 0.297614 0.386295 -0.339571 0.0372857 0.0932261 0.0457777 0.0503816
internal_weight=0 188642 136936 150871 81909.9 65142.8 91549.7 55026.1 90619.2 67871 41728.5 59321.2 37770.7 28714.2 39365.5 41824.3 30384.4 41759.2 22748.2 26196.1 33125.1 21654.7 21614.5 23383.7 12804.1 13987.4 36457.7 24923.3 19331.7 19860
internal_count=1041488 633699 407789 487903 235242 183927 305435 172547 303571 225299 129170 182468 145796 107085 120320 133600 94621 125290 78272 82169 100299 68453 82724 58637 29830 54385 113252 76999 60955 61236
shrinkage=0.12


Tree=11
num_leaves=31
num_cat=0
split_feature=9 9 11 9 9 8 9 21 11 12 64 11 64 61 78 46 6 33 80 33 61 11 9 11 65 8 11 61 64 34
split_gain=1459.28 1017.33 798.471 665.983 488.073 445.564 408.827 398.042 387.939 376.635 317.887 383.061 467.734 336.712 256.71 235.781 257.99 231.416 295.171 244.795 213.782 265.519 212.209 201.724 224.349 200.175 194.904 246.183 201.326 194.05
threshold=0.14625000000000002 0.13040948511787467 189.00500000000002 0.030550000000000004 0.13045948511787467 1.7000000000000004 1.0000000180025095e-35 1.0000000180025095e-35 192.01500000000001 1.0000000180025095e-35 184.02750000000003 79.00500000000001 76.00500000000001 4.5500000000000016 1.0350535872755822 0.17214134507580148 3.7500000000000004 1.0000000180025095e-35 0.16858608025590152 0.022066290935672521 5.9825000000000008 315.01000000000005 0.0032500000000000007 199.00500000000002 28.7802328244017 3.6500000000000008 68.995000000000019 4.6525000000000007 68.002500000000012 0.063362688441319814
decision_type=2 2 2 2 2 2 2 2 2 2 2 2 2 2 2 2 2 2 2 2 2 2 2 2 2 2 2 2 2 2
left_child=1 3 5 6 17 29 -1 9 15 14 11 12 -7 -13 -8 16 -5 18 -3 -19 21 -4 -16 24 -21 -15 28 -28 -17 -2
right_child=2 4 20 8 -6 10 7 -9 -10 -11 -12 13 -14 25 22 26 -18 19 -20 23 -22 -23 -24 -25 -26 -27 27 -29 -30 -31
leaf_value=0.068816853241751519 0.015448634977907062 -0.034968724666832082 -0.0069135439385789397 -0.014657685014348734 0.00098106987487143549 0.0088896036398118869 -0.072534686645948934 0.0005003437085775561 -0.011413317945107903 -0.0026052901359657943 0.031589874690667839 -0.034549544295548865 0.048190243741658569 0.013955622185668825 -0.056555200272490037 0.016157913352104099 0.0078804142541553657 -0.053224871232948591 0.022132335674794265 -0.033794974556759859 0.01572647148375592 -0.043129013980631396 -0.021417650960974286 -0.054941950257453839 -0.0094159552016799559 -0.00099616800476138461 -0.014955553501179247 0.014626112542672955 0.063322753509863147 0.046785315778622522
leaf_weight=880.69829967804253 4304.1188636235893 2474.2061437023804 20442.608755421359 10755.559143066872 10539.892889194191 11067.427609632723 1859.4500096160918 18757.418790015392 17893.551840750966 10755.458200956695 10615.765653033741 3029.1813499387354 7206.1360909994692 26224.713126279414 2854.8611618946306 3215.0073467493057 22845.141611816362 6362.2254529227503 2751.5425457158126 11988.276001234539 4772.1855724910274 3402.2085054907948 18880.809528877959 3216.0894801029935 9976.8411593735218 25336.762976641767 4610.2349842339754 33156.159489301965 2202.5944471303374 8481.7331879865378
leaf_count=1728 11102 10712 65816 36201 33993 34564 8491 63861 59016 34355 29711 10478 19037 77800 13368 9786 72150 26727 11699 45804 14965 12535 66807 13973 36145 81485 15214 100622 5591 17751
internal_value=0 -0.0537227 0.0845933 -0.0130713 -0.181444 0.128193 -0.101709 -0.112935 0.0374627 -0.176908 0.101547 0.0779718 0.203301 0.0359982 -0.247606 0.0683709 0.00551827 -0.235825 -0.0406795 -0.26812 -0.0620383 -0.100729 -0.217006 -0.223743 -0.189401 0.0550522 0.117251 0.0917627 0.294697 0.302065
internal_weight=0 195976 124883 148667 47309.1 96265.8 53988.7 53108 94678.2 34350.6 83480 72864.2 18273.6 54590.7 23595.1 76784.7 33600.7 36769.2 5225.75 31543.4 28617 23844.8 21735.7 25181.2 21965.1 51561.5 43184 37766.4 5417.6 12785.9
internal_count=1041487 666243 375244 487190 179053 281928 188610 186882 298580 123021 253075 223364 53601 169763 88666 239564 108351 145060 22411 122649 93316 78351 80175 95922 81949 159285 131213 115836 15377 28853
shrinkage=0.12


Tree=12
num_leaves=31
num_cat=0
split_feature=9 12 5 11 8 11 11 65 54 64 12 11 61 11 11 61 6 80 61 20 11 64 33 69 11 8 21 66 11 61
split_gain=1346.14 913.59 786.307 709.988 647.077 582.222 405.265 370.603 350.177 347.994 319.479 304.705 291.774 279.02 278.361 371.523 269.673 236.065 207.593 195.482 188.526 247.579 181.738 179.995 196.36 177.688 157.298 153.615 149.121 206.492
threshold=0.26745000000000008 1.0000000180025095e-35 3.5000000000000004 139.00500000000002 3.4500000000000006 143.00500000000002 114.00500000000001 11.578137089201254 0.23863745591763522 119.00250000000001 1.0000000180025095e-35 485.01000000000005 4.9225000000000003 315.01000000000005 109.00500000000001 4.8825000000000012 4.2500000000000009 0.25083620536307122 5.4525000000000015 1208.9450000000004 237.01000000000002 190.01500000000001 0.14721124718014825 48.804500737825883 269.00500000000005 1.2450000000000003 1.0000000180025095e-35 3.8949490662139223 59.995000000000012 4.2925000000000013
decision_type=2 2 2 2 2 2 2 2 2 2 2 2 2 2 2 2 2 2 2 2 2 2 2 2 2 2 2 2 2 2
left_child=1 2 5 8 10 7 9 -1 -4 19 25 18 -7 17 16 -16 28 -6 -5 -3 21 -8 -19 24 -20 -2 -13 -15 -9 -30
right_child=4 6 3 11 13 12 20 14 -10 -11 -12 26 -14 27 15 -17 -18 22 23 -21 -22 -23 -24 -25 -26 -27 -28 -29 29 -31
leaf_value=-0.025957995884923323 0.047123133687054793 0.019499405399222649 0.0059609457022107267 -0.015769374598011157 -0.02495711329158997 -0.05911547596871089 -0.0050292901042839847 0.011095215905813815 0.03408928553610157 0.036392084146787261 0.051951543148669496 -0.081298342484410369 -0.025398981005185516 -0.041421427041636781 -0.037913392959485807 -0.0053921672757286428 0.014536063829703417 0.041444099297954333 0.0029255243864464357 -0.00017509133846617262 -0.019292150512021752 0.018587778338469089 0.0080468231662997169 0.015442380066847434 -0.027893630848569207 0.017285743844598956 -0.018596820423978085 0.051339826714888515 -0.049516392291963064 -0.0075702769438293661
leaf_weight=18080.56809725333 3400.8562077730894 14137.795584775042 17722.094247556757 17916.331914728973 2905.481705118902 4734.9099097293802 20448.577759981621 5632.3533744695596 9963.7621147669852 9002.4974490236491 6604.8107264116406 1192.4667363185436 16993.922123922501 2487.4502655132674 8193.1936327377334 13247.039064450655 11614.720050748903 2557.589175041765 9362.9145506871864 14949.038730933331 7198.4820396876894 9294.9245105367154 28636.523472444154 8399.4294507936575 4359.9202308184467 18794.731351546012 1127.0050784938503 284.7370069003664 1808.5694434838369 25910.889629573096
leaf_count=69257 6294 43148 57705 62059 10117 19747 67205 19320 28887 25614 15143 5182 61502 9455 30511 44752 37290 6878 30624 48940 24871 28145 89702 27209 16216 53152 4213 961 7280 90108
internal_value=0 -0.0333585 -0.0727006 0.00953481 0.127434 -0.12694 0.0590486 -0.0893733 0.134076 0.131428 0.239753 -0.0718449 -0.27295 0.0396717 -0.0547926 -0.148555 -0.0100616 0.0645009 -0.051397 0.0782001 -0.0155532 0.0195621 0.0899178 0.0133627 -0.0571558 0.182207 -0.42421 -0.265295 -0.0557825 -0.0859424
internal_weight=0 251291 176260 70043.9 65672.2 106216 75031.3 84487.3 27685.9 38089.3 28800.4 42358.1 21728.8 36871.8 66406.8 21440.2 44966.5 34099.6 40038.6 29086.8 36942 29743.5 31194.1 22122.3 13722.8 22195.6 2319.47 2772.19 33351.8 27719.5
internal_count=1041487 849785 611862 232095 191702 379767 237923 298518 86592 117702 74589 145503 81249 117113 229261 75263 153998 106697 136108 92088 120221 95350 96580 74049 46840 59446 9395 10416 116708 97388
shrinkage=0.12


Tree=13
num_leaves=31
num_cat=0
split_feature=9 9 11 9 6 11 64 9 8 9 64 21 11 65 33 80 31 46 67 11 64 11 61 11 11 33 8 9 31 80
split_gain=1295.4 1289.58 770.747 649.984 440.477 391.149 358.809 323.321 322.127 320.978 298.806 228.958 245.06 236.548 218.481 213.058 200.074 197.583 196.993 187.973 257.783 195.667 180.778 178.406 171.346 159.768 158.073 153.769 144.77 144.135
threshold=0.13045948511787467 0.13040948511787467 208.00500000000002 0.038750000000000007 3.2500000000000004 89.995000000000019 129.95000000000002 1.0000000180025095e-35 2.1400000000000006 0.0060500000000000007 83.990000000000023 1.0000000180025095e-35 153.11000000000004 27.042057267161734 0.077093662391365322 0.2374868417407584 2.7099999999999995 0.12632791296285745 1.2500000000000002 147.44500000000002 107.00500000000001 89.00500000000001 5.432500000000001 119.00500000000001 85.00500000000001 1.0000000180025095e-35 3.3500000000000005 0.38955000000000006 1.9499999999999995 0.25754406566160676
decision_type=2 2 2 2 2 2 2 2 2 2 2 2 2 2 2 2 2 2 2 2 2 2 2 2 2 2 2 2 2 2
left_child=1 3 4 7 -2 10 23 -1 -5 18 26 12 13 -3 17 -10 27 -11 -9 20 24 -22 -4 28 -17 -13 -6 -8 -7 -18
right_child=2 11 22 8 5 6 16 9 15 14 -12 25 -14 -15 -16 19 29 -19 -20 -21 21 -23 -24 -25 -26 -27 -28 -29 -30 -31
leaf_value=0.063294434469373662 -0.010773114666701498 -0.038546213020356976 -0.029782022435917762 0.018175338121652097 0.023966563322050657 0.025487933720440826 0.024551610186368211 -0.047016441972718023 -0.023657011978076008 -0.01308425727769684 0.040940604488845046 0.015789868332331536 -0.057052058443091649 -0.01063660947063904 -0.022720434386069112 0.0071730927136526524 -0.011569438473139055 0.0045595954980067422 -0.017254583510762225 -0.005809274920362496 0.047479282340971894 0.012954498699271809 -0.0048172783781851945 -0.012635982038921141 -0.017740719646982039 -0.020115128031118115 -0.0035888214030279936 0.061127683371424303 0.00096380974754314483 0.016189182991514048
leaf_weight=834.78237998113036 9901.4504979704507 11019.137885665754 5401.3119723121636 21129.443028492853 10329.898376766592 4733.1236848728731 6137.506064562127 4957.7625728314742 4660.9650277774781 15803.941133504733 13185.438079765067 2174.024662268348 5182.6911015766673 7274.7068881927989 10166.839385061525 10366.202220161911 2937.9747293023393 21658.441306369845 9108.5952279949561 21557.035750962561 2782.3425715118647 15856.89837537799 18494.904594816267 9826.6682214867324 6443.8974149404094 9867.179879038129 4213.0084415189922 2278.4661444090307 12984.256181446835 31691.651684366167
leaf_count=1716 33175 45066 19082 66932 29485 11855 17180 22090 16694 56198 35791 9046 23607 27333 34958 32886 9891 71712 35356 71138 7708 49819 61788 32088 21988 38917 14006 4617 41988 97377
internal_value=0 -0.0549627 0.0752985 -0.0132082 0.111194 0.131444 0.0918867 -0.0901682 0.0449024 -0.0985496 0.232105 -0.225775 -0.283304 -0.228796 -0.0593208 0.00837346 0.148917 -0.0240051 -0.231295 0.0251975 0.0699876 0.150974 -0.0872179 0.00272164 -0.0197549 -0.113515 0.133133 0.287285 0.0626931 0.115253
internal_weight=0 180845 132116 145327 108219 98318 70589.6 62530.4 82796.8 61695.6 27728.3 35517.7 23476.5 18293.8 47629.2 61667.3 43045.6 37462.4 14066.4 57006.4 35449.3 18639.2 23896.2 27544 16810.1 12041.2 14542.9 8415.97 17717.4 34629.6
internal_count=1041487 633164 408323 489195 327453 294278 214996 222030 267165 220314 79282 143969 96006 72399 162868 200233 129065 127910 57446 183539 112401 57527 80870 85931 54874 47963 43491 21797 53843 107268
shrinkage=0.12


Tree=14
num_leaves=31
num_cat=0
split_feature=9 9 11 9 6 11 9 5 11 21 64 42 64 33 67 21 12 61 11 64 69 9 11 64 9 5 65 61 31 35
split_gain=1194.6 1111.13 624.781 464.717 331.522 330.808 330.572 307.967 300.318 261.993 254.319 249.955 242.196 223.059 199.861 197.543 202.827 194.832 223.429 222.679 189.506 189.161 182.056 231.946 165.102 158.025 145.961 142.149 141.743 177.492
threshold=0.13045948511787467 0.13040948511787467 161.00500000000002 0.010750000000000001 4.2500000000000009 282.54500000000007 1.0000000180025095e-35 2.5000000000000004 79.00500000000001 1.0000000180025095e-35 279.04500000000002 0.21652644860752115 78.00500000000001 0.10371249392318914 2.2500000000000004 1.0000000180025095e-35 1.0000000180025095e-35 4.6325000000000012 128.99500000000003 148.99750000000003 60.072296124927718 0.00125 362.02000000000004 203.45250000000001 0.33795000000000003 2.5000000000000004 66617.565458252982 5.1925000000000017 2.7099999999999995 1270.9249255395046
decision_type=2 2 2 2 2 2 2 2 2 2 2 2 2 2 2 2 2 2 2 2 2 2 2 2 2 2 2 2 2 2
left_child=1 3 4 6 11 7 -1 -5 12 21 17 13 -9 -2 25 16 -3 -10 19 -19 -7 -8 23 -4 -6 -13 -22 -20 -25 -30
right_child=2 15 22 5 24 20 9 8 10 -11 -12 14 -14 -15 -16 -17 -18 18 27 -21 26 -23 -24 28 -26 -27 -28 -29 29 -31
leaf_value=0.058487903097692986 0.025851174999194371 -0.037692786117425617 -0.010194188872695503 -0.011668097790723676 0.018925588138436398 -0.033220327011430552 -0.070879017647252698 0.005069073257811414 -0.025480372488556658 -0.0049325796869371628 0.046471183408741658 0.0039033713498856305 0.036041029869362612 -0.0010072348694866561 -0.01038043962462981 -0.013081775129631174 -0.0092426822338773328 0.0056178077979832279 -0.013453150245128085 0.030795851460957965 0.00072144642367812247 -0.026018686822245288 -0.029038136941466678 0.037623652347888198 0.038967569981219613 0.02736598889092268 0.13694058117567751 0.0017933263051452817 -0.015810508984195577 0.012223110295208119
leaf_weight=793.63816331699491 5223.2464872244745 18415.309090681374 19264.994557086378 17613.983422385296 17918.839259339496 5948.9986742688343 1547.5538769722916 6895.2699246807024 3621.1624166052788 9251.9913605088368 1869.7688862327486 5351.5814175782725 7714.9832134637982 30103.839421796612 3082.1649636412039 11999.808587724343 4503.4711043853313 28551.35685820505 12859.420555627905 6152.1325228940696 2007.1119698518887 11021.048714565579 3635.8447080561891 2137.9321315381676 8874.6453569829464 18355.477269541472 119.17040159553289 27897.934755597264 4419.7398939635605 12282.606983708218
leaf_count=1616 14601 79512 64722 61555 53963 22023 8035 22828 12955 33910 5365 17236 22780 97351 10401 48042 16095 93093 44216 18213 7059 44883 13792 5830 22930 53544 188 90650 15241 38858
internal_value=0 -0.053098 0.0726998 -0.014251 0.120084 0.0102867 -0.145854 0.0242474 0.0466502 -0.168954 0.0228193 0.0799511 0.178612 0.0246759 0.152802 -0.213115 -0.267569 0.0141852 0.0250713 0.0840459 -0.18523 -0.262975 -0.0282058 -0.00777584 0.21308 0.183959 0.0706102 -0.0251199 0.0710869 0.0399769
internal_weight=0 178784 130651 143866 88909.8 121251 22614.2 113176 95562 21820.6 80951.8 62116.3 14610.3 35327.1 26789.2 34918.6 22918.8 79082 75460.8 34703.5 8075.28 12568.6 41741.1 38105.3 26793.5 23707.1 2126.28 40757.4 18840.3 16702.3
internal_count=1041487 633018 408469 489369 270026 400925 88444 371655 310100 86828 264492 193133 45608 111952 81181 143649 95607 259127 246172 111306 29270 52918 138443 124651 76893 70780 7247 134866 59929 54099
shrinkage=0.12


Tree=15
num_leaves=31
num_cat=0
split_feature=9 12 8 9 9 11 11 21 6 9 9 9 5 8 34 21 6 67 9 11 64 11 11 46 11 61 11 11 65 55
split_gain=1017.01 674.048 575.256 573.676 393.216 381.351 301.325 295.504 299.722 277.157 260.778 256.403 237.439 205.837 199.557 199.199 198 185.911 169.993 157.657 238.334 151.199 150.281 145.643 142.612 141.397 141.025 137.963 166.024 137.12
threshold=0.15285000000000001 1.0000000180025095e-35 2.1400000000000006 0.13040948511787467 0.086950000000000013 231.66500000000002 206.00500000000002 1.0000000180025095e-35 2.7500000000000004 1.0000000180025095e-35 0.018850000000000002 0.13045948511787467 3.5000000000000004 4.1650000000000009 0.082489703015783858 1.0000000180025095e-35 3.7500000000000004 3.2500000000000004 0.39905000000000007 70.00500000000001 108.00250000000001 69.995000000000019 369.03000000000003 0.30199754585636335 104.99500000000002 5.7625000000000002 585.07500000000016 225.00500000000002 66617.565458252982 0.75000000000000011
decision_type=2 2 2 2 2 2 2 2 2 2 2 2 2 2 2 2 2 2 2 2 2 2 2 2 2 2 2 2 2 2
left_child=1 3 14 4 7 12 16 8 -1 -10 -11 15 17 29 -2 -5 -3 21 -15 -18 -21 23 -6 -4 -22 -7 -27 -12 -29 -14
right_child=2 6 5 11 22 25 -8 -9 9 10 27 -13 13 18 -16 -17 19 -19 -20 20 24 -23 -24 -25 -26 26 -28 28 -30 -31
leaf_value=-0.053859108237601469 0.014676540847630516 -0.0026158451077118346 0.005577660572790414 -0.035968021726256592 0.010444810989748093 -0.024618874370890373 -0.015931192739361548 0.0013146233189883243 0.090485228105177493 -0.027683147960646217 -0.0049198955718405615 -0.0056237435031473168 0.021588171708405886 -0.0016882995008756299 0.038044205524804968 -0.014680167610792019 0.035040001430547238 -0.039926888477375647 0.021396330714365676 -0.0078340991931693769 0.034768459987318229 -0.00078377409228501079 -0.047814633027633238 0.040437999900311557 0.01188373040642518 0.0037924121440168317 -0.068015447636205567 -0.032719272550843455 0.10642622800671542 0.093218117927560767
leaf_weight=2659.8472544387914 10233.380777623504 14103.398353388533 4751.3200297299773 18043.699876600411 21820.314156108536 7492.8310688082129 7950.6080282963812 24979.839042898268 372.3889404386282 13078.171357967425 30024.329245786648 9485.8878610413522 19960.542705331929 13820.043757274747 10887.391359092668 9788.9085670127533 4573.8565609017387 1509.8903324157 6873.3419342786074 7214.6073411637917 5156.1650476139039 30128.808994432911 655.13644164334983 2718.4545070361346 16511.327879346907 6331.399639508687 418.91923951357603 3976.9113759240136 126.10450204834342 392.62270588055253
leaf_count=11649 29239 48238 15919 79383 71279 27280 28028 86888 651 54981 100346 32584 58867 46486 25168 40188 13672 5664 21056 24937 15291 100447 2668 7910 53419 21584 1819 14765 266 815
internal_value=0 -0.0453701 0.0735489 -0.083512 -0.0432096 0.0401555 0.0473805 -0.0778958 -0.122095 -0.103799 -0.110603 -0.188986 0.0669563 0.120084 0.222742 -0.237384 0.0775182 0.0111687 0.0497847 0.119415 0.0920397 0.0250138 0.0728268 0.152367 0.14447 -0.110593 -0.00546304 -0.0645477 -0.236571 0.191503
internal_weight=0 190522 115519 135012 97693 94398.2 55510 75217.6 50237.8 47577.9 47205.5 37318.5 80155 41046.6 21120.8 27832.6 47559.4 39108.5 20693.4 33456 28882.1 37598.6 22475.5 7469.77 21667.5 14243.1 6750.32 34127.3 4103.02 20353.2
internal_count=1041487 679233 362254 495648 343493 307847 183585 269546 182658 171009 170358 152155 257164 127224 54407 119571 155557 129940 67542 107319 93647 124276 73947 23829 68710 50683 23403 115377 15031 59682
shrinkage=0.12


Tree=16
num_leaves=31
num_cat=0
split_feature=9 9 11 9 63 61 8 11 31 8 5 11 11 63 61 21 11 11 5 80 11 6 64 11 64 8 60 63 33 34
split_gain=919.673 846.93 603.336 431.078 428.011 342.701 314.32 277.064 253.114 250.938 243.823 248.385 230.691 313.202 211.26 185.643 180.428 178.673 178.158 169.206 160.869 158.156 151.952 145.302 143.197 149.06 135.342 130.445 161.292 161.112
threshold=0.13045948511787467 0.13040948511787467 114.00500000000001 0.047450000000000006 109.25149877411791 4.9525000000000015 1.2450000000000003 257.02000000000004 3.2599999999999998 2.7400000000000007 3.5000000000000004 108.00500000000001 109.00500000000001 108.60061588962741 4.9125000000000005 1.0000000180025095e-35 174.25500000000002 49.095000000000006 3.5000000000000004 0.15889075257822638 198.99500000000003 3.7500000000000004 225.01500000000001 73.00500000000001 148.99750000000003 3.3850000000000002 5.0124231557377046 161.87845514828453 0.24059876632801167 0.10570607332538877
decision_type=2 2 2 2 2 2 2 2 2 2 2 2 2 2 2 2 2 2 2 2 2 2 2 2 2 2 2 2 2 2
left_child=1 3 4 12 9 -4 -7 27 10 21 11 -5 13 17 -14 16 18 -1 -3 -10 22 -2 -16 -23 25 -6 -22 -8 29 -29
right_child=2 15 5 8 24 6 7 -9 19 -11 -12 -13 14 -15 20 -17 -18 -19 -20 -21 26 23 -24 -25 -26 -27 -28 28 -30 -31
leaf_value=0.01946603190073171 0.0043922227213392274 -0.030896150901874437 -0.021313322558071418 0.013340702474081291 0.036112555939028464 0.045694685606861733 -0.0040626969653376425 -0.014746064633483481 -0.05526066645572867 -0.0044873137479002449 0.022936137039005527 -0.010579006299369796 -0.035829232117791793 0.014304714017423871 -0.0071583728199239981 -0.010561259300448614 -0.054775798865815913 -0.014744205620467526 -0.0026375623065204548 -0.0019270304921653065 -0.033878928687810693 0.046929484490020032 0.035913699958757858 0.016751188091865737 0.050165172633368858 0.014829244629336529 -0.0074926517433304028 0.0088208613417951401 0.001599345940982156 0.031974091754845599
leaf_weight=2524.6267864103429 7779.6544130928814 14522.750235245563 9007.151060204953 15849.931484457105 9337.8177655339241 2463.769480722025 13987.140406189486 11586.883376981597 881.93105248082429 13159.609503334388 15417.114184400067 10316.956298516132 5786.5524692493491 12136.313283300493 19147.72232023254 11709.372165072709 3389.2599451846909 16848.151275294833 4137.6522914099041 29056.169973190874 6395.1081619355828 3507.716799441725 1255.2054240591824 6721.1767265200615 4057.3607630152255 9679.7295367158949 5003.3693487383425 11661.983664638363 18514.070932932198 6901.3957716450095
leaf_count=8993 24489 62592 30897 51818 25346 5949 46435 41792 3482 45177 48619 36164 23507 40356 67784 47996 17188 64441 15671 97758 24314 9170 3844 19368 10852 30624 18398 37566 61019 19878
internal_value=0 -0.0476807 0.0638469 -0.0135257 0.143988 0.00518453 0.0304877 0.0166902 0.040886 0.0675094 0.0913672 0.0325427 -0.0698614 -0.00671812 -0.122765 -0.189915 -0.243979 -0.0856585 -0.20531 -0.0291997 -0.0907342 0.14422 -0.0375086 0.225961 0.24724 0.210727 -0.185907 0.0483819 0.0794323 0.145303
internal_weight=0 174378 128365 140619 54243.1 74122.4 65115.2 62651.5 71522.1 31168.2 41584 26166.9 69097 31509.1 37588 33759 22049.7 19372.8 18660.4 29938.1 31801.4 18008.5 20402.9 10228.9 23074.9 19017.5 11398.5 51064.6 37077.5 18563.4
internal_count=1041487 632925 408562 489478 165026 243536 212639 206690 237841 98204 136601 87982 251637 113790 137847 143447 95451 73434 78263 101240 114340 53027 71628 28538 66822 55970 42712 164898 118463 57444
shrinkage=0.12


Tree=17
num_leaves=31
num_cat=0
split_feature=5 11 61 11 64 6 64 11 64 11 64 11 9 21 9 61 11 61 3 61 10 63 10 11 11 15 11 66 63 9
split_gain=966.937 1117.14 554.673 633.425 527.115 396.952 385.428 380.394 360.251 338.543 395.609 327.581 286.281 246.167 206.241 205.891 188.087 186.042 182.022 178.103 212.567 168.097 154.003 149.991 147.097 145.163 140.394 140.103 143.021 131.317
threshold=2.5000000000000004 109.00500000000001 5.0325000000000015 178.59500000000003 125.00250000000001 2.7500000000000004 178.99750000000003 69.995000000000019 78.00500000000001 384.47500000000008 239.03250000000003 59.995000000000012 0.28215000000000007 1.0000000180025095e-35 0.35855000000000004 4.2825000000000015 98.00500000000001 6.0950000000000006 214.50000000000003 4.6325000000000012 4.6650000000000009 401.16105730736359 5.1850000000000014 133.01000000000002 520.72500000000002 1.0000000180025095e-35 257.02000000000004 2.3758465701487519 166.53385983447791 0.42585000000000006
decision_type=2 2 2 2 2 2 2 2 2 2 2 2 2 2 2 2 2 2 2 2 2 2 2 2 2 2 2 2 2 2
left_child=5 4 14 6 7 13 23 8 18 10 -5 25 19 -1 -3 -13 29 -11 -2 20 -9 26 -21 -4 -19 -7 -12 28 -6 -17
right_child=1 2 3 9 27 11 -8 12 -10 17 21 15 -14 -15 -16 16 -18 24 -20 22 -22 -23 -24 -25 -26 -27 -28 -29 -30 -31
leaf_value=-0.057811121247336415 -0.00057453927339151407 -0.02030405038891504 0.011165705927790615 -0.012038981585452963 0.030038784610085172 0.052118242272313611 0.023754886871000934 -0.0091513407960157021 0.04598887861485601 -0.0526092587644462 0.015063925974210498 -0.04464691057702351 0.024100634526197921 -0.012554865986027184 0.01100025824725819 -0.00793770018368899 -0.024403749166978541 0.010736720808965889 0.026530989162786889 0.0059035203050166627 -0.076012770119151654 0.0290282264979633 -0.027799751886894347 -0.0029031290938456586 -0.039224831619186738 0.0038893586407567219 -0.0084518031826113626 0.01896296773244812 0.059016790404575248 0.030819388483573358
leaf_weight=4715.0556024420075 7609.1201776033267 29311.721985179465 18855.502532459795 37855.377933781128 6554.0511010903865 1017.6282073119655 18165.115490273573 9178.4499652893282 6616.7998006306589 3479.7816601251252 6995.9749174746685 3403.6034428756684 8460.4113186784089 2747.3061192231253 3374.2441013287753 13772.366965853609 12233.86055655824 1775.4795203767717 6701.6201451090164 34294.804910508916 739.83877128455788 4623.4996298849583 2068.223946553655 25879.663183702622 1619.284918602556 7704.8922611577436 7650.0424438032787 6964.3264296418056 3952.9406458325684 1383.6706793913618
leaf_count=21950 27410 110035 62245 135265 19612 3139 56567 33056 19166 14585 22683 13908 23671 11251 9759 51480 47007 6850 20726 117392 3217 14862 7843 89362 6663 27778 27782 22331 10300 3592
internal_value=0 0.0247123 -0.0260752 0.00383815 0.111741 -0.131519 0.0751105 0.0755724 0.190251 -0.0661945 -0.0409409 -0.0915335 0.0317104 -0.343082 -0.142238 -0.140002 -0.111117 -0.275861 0.100928 0.000767857 -0.117983 0.0756673 0.033188 0.0252017 -0.108866 0.0794596 0.0231087 0.268319 0.341307 -0.0365805
internal_weight=0 252726 159586 126900 93140.6 46978.4 62900.3 75669.3 20927.5 63999.4 57124.9 39516 54741.7 7462.36 32686 30793.5 27389.9 6874.55 14310.7 46281.3 9918.29 19269.5 36363 44735.2 3394.76 8722.52 14646 17471.3 10507 15156
internal_count=1041487 861382 556658 436864 304724 180105 208174 252481 67302 228690 200592 146904 185179 33201 119794 115987 102079 28098 48136 161508 36273 65327 125235 151607 13513 30917 50465 52243 29912 55072
shrinkage=0.12


Tree=18
num_leaves=31
num_cat=0
split_feature=9 9 9 11 11 64 5 8 9 9 21 6 8 12 66 4 70 11 11 5 78 11 63 10 63 61 10 34 11 8
split_gain=918.949 780.276 496.741 490.957 282.466 294.477 281.826 227.732 206.54 198.323 184.831 183.352 183.094 176.864 208.242 173.29 168.246 164.367 158.952 182.836 146.239 155.56 185.285 141.089 140.706 130.336 150.395 129.151 126.989 122.507
threshold=0.13045948511787467 0.13040948511787467 0.025450000000000004 141.28500000000005 159.00500000000002 156.0975 3.5000000000000004 2.1400000000000006 1.0000000180025095e-35 0.00085000000000000017 1.0000000180025095e-35 3.7500000000000004 2.7400000000000007 1.0000000180025095e-35 2.3758465701487519 37615.000000000007 15.250000000000002 211.01000000000002 110.00500000000001 2.5000000000000004 1.0427282808611926 170.00500000000002 174.89494517121975 5.3950000000000005 141.25157240370555 4.7525000000000013 4.7950000000000008 0.089394538278526697 99.995000000000019 1.0000000180025095e-35
decision_type=2 2 2 2 2 2 2 2 2 2 2 2 2 2 2 2 2 2 2 2 2 2 2 2 2 2 2 2 2 2
left_child=1 2 8 6 5 12 13 -8 -1 -10 20 -5 25 -2 -15 24 18 -18 19 -3 -11 22 27 -6 -9 26 28 -22 -4 -13
right_child=3 16 4 11 23 -7 7 15 9 10 -12 29 -14 14 -16 -17 17 -19 -20 -21 21 -23 -24 -25 -26 -27 -28 -29 -30 -31
leaf_value=0.051438170566610722 0.0041139031738710342 -0.039988440653393499 0.008782055151394021 -0.019115832202558313 -0.017023807563720156 0.026797610476679733 0.052931431042514236 -0.017875906350646634 -0.04715787764773658 -0.052363109329291772 -0.00068826501764132587 0.056350511923806072 -0.0030975049531203574 0.032609376184344341 0.0010028941952574932 0.026107672564216904 -0.0066672235504536522 -0.039713521695368195 -0.044225431031024061 -0.0088909594060209169 -0.010244335528212689 -0.032983487559237357 0.016806208376895514 0.00041789739435042425 0.018082764830698754 0.017435096028674928 -0.075085030426525409 -0.038948050548602342 -0.023372376619294238 0.00093055668634461593
leaf_weight=717.68470897525549 34957.164591507986 4506.3684128653258 11408.92623844184 7095.5580795658752 11853.161170284729 9570.066621998325 3409.1526248939335 2707.4146123416722 2368.7222760613076 1629.0338102225214 14733.317974075209 581.17587088793516 27209.57096194895 7921.1455096183345 4846.0242091296241 16766.8661918547 11998.377675221767 2648.4893095786683 6959.1010055867955 6910.9885441898368 12873.086797249969 5477.6487178853713 3099.219557848759 15266.28751675738 3714.2427562940866 17023.055864023976 356.23869665339589 2743.1777325016446 2090.9117160905153 43565.631844490068
leaf_count=1650 113848 21942 38530 25443 43006 29845 7779 9070 11240 8058 53572 1335 94210 22843 16256 51105 49539 13108 31629 27115 50214 21805 10481 52578 11613 55800 1525 11096 7745 147507
internal_value=0 -0.0474043 -0.0144445 0.0651947 0.0261974 0.0607672 0.117116 0.199622 -0.102729 -0.111647 -0.0951808 -0.0100939 0.0339672 0.0711103 0.171858 0.16406 -0.185523 -0.105444 -0.249287 -0.176483 -0.146174 -0.126576 -0.0831103 -0.0600109 0.0241936 0.0866745 0.0145812 -0.127469 0.0315966 0.0138676
internal_weight=0 171443 138420 125564 94778.2 67658.8 74322 26597.7 43641.9 42924.2 40555.5 51242.4 58088.7 47724.3 12767.2 23188.5 33023.3 14646.9 18376.5 11417.4 25822.2 24193.1 18715.5 27119.4 6421.66 30879.1 13856.1 15616.3 13499.8 44146.8
internal_count=1041487 634688 491355 406799 323239 227655 232514 79567 168116 166466 155226 174285 197810 152947 39099 71788 143333 62647 80686 49057 101654 93596 71791 95584 20683 103600 47800 61310 46275 148842
shrinkage=0.12


Tree=19
num_leaves=31
num_cat=0
split_feature=9 5 11 11 5 11 64 9 33 5 66 64 11 65 11 56 56 49 80 61 8 10 11 61 64 39 6 56 11 61
split_gain=805.587 561.156 641.278 429.698 329.886 346.648 309.39 234.432 190.802 186.933 190.158 169.961 167.193 166.847 155.485 152.142 149.87 147.241 145.283 144.775 145.471 142.933 142.279 138.805 125.543 125.502 120.923 121.142 117.531 123.521
threshold=0.14625000000000002 2.5000000000000004 99.00500000000001 178.59500000000003 3.5000000000000004 307.61500000000007 118.11500000000002 0.48655000000000009 0.33812842719990227 2.5000000000000004 2.6507021171200278 303.98500000000007 169.01000000000002 9.2658325271620843 59.005000000000003 0.19972886318325103 0.064182806061372055 -0.74999999999999989 0.13502190644446369 5.1525000000000007 3.7500000000000004 6.0250000000000012 89.00500000000001 4.9825000000000008 75.002500000000012 3.7500000000000004 4.2500000000000009 0.11394084174450118 299.00500000000005 5.6725000000000003
decision_type=2 2 2 2 2 2 2 2 2 2 2 2 2 2 2 2 2 2 2 2 2 2 2 2 2 2 2 2 2 2
left_child=1 18 6 7 12 11 13 9 -9 -2 17 26 15 -3 -15 -4 21 -11 -1 -5 -21 -7 -19 -24 -16 -20 27 -6 29 -22
right_child=3 2 4 19 5 16 -8 8 -10 10 -12 -13 -14 14 24 -17 -18 22 25 20 28 -23 23 -25 -26 -27 -28 -29 -30 -31
leaf_value=-0.041206261802028028 -0.0043488682380496144 -0.017398666524677205 -0.01622903333134228 -0.029722934781027409 -0.011790948115089191 -0.028753104772775942 0.030134082951905436 0.042023347285976391 0.013452105604677063 -0.023372677620341821 0.001295761366986921 0.037569459182235782 -0.030449503501635368 0.02670984764476091 -0.013357410828008908 0.0040849849174382832 -0.040372633437243663 0.029418366962202354 -0.022220837787938593 0.011198803996289372 -0.012353039436151505 0.020352386176770577 0.0023079436589465577 0.019403934265711541 0.0078868005378986486 -0.0040245419072792469 0.0060336547861914776 0.0044858958377692751 -0.024994536330234678 0.0097123088320068829
leaf_weight=4056.724304809235 11857.206086338498 4269.7965369299054 24115.677353309467 2943.2130501642823 16734.705737987999 1916.5130620193668 8618.6673463415354 6249.6552869286388 7332.5950887259096 1293.9238696470857 16680.784748878796 1805.1181442923844 8887.6504060938023 5266.9409434599802 4831.1296080113389 6796.0786727042869 4374.1993503072299 10940.229333862662 18228.007000354119 8625.6383918477222 8164.1091050482355 1535.1726736081764 10540.647648505867 19562.805434081703 23343.108379625715 7816.4634792292491 25871.143348732032 10841.276036456227 4316.96436446812 6606.3406649297103
leaf_count=19801 41368 16759 92335 10882 61910 8340 27308 15740 22414 4568 56754 5913 36090 17724 18172 24298 17943 31700 75545 27861 28942 5807 34056 60742 81802 30284 90149 37471 16943 21866
internal_value=0 -0.0426479 -0.017513 0.0645472 -0.0615128 -0.0165139 0.0801685 0.101359 0.221747 0.0782719 0.101295 0.0113698 -0.132804 0.0410668 0.0648561 -0.097992 -0.213482 0.136926 -0.1672 -0.0368372 -0.0143997 -0.0573217 0.147412 0.111851 0.0353282 -0.139706 0.00115549 -0.0448963 -0.0631347 -0.0206318
internal_weight=0 179308 149207 115114 102878 63078.1 46329.6 84457.8 13582.3 70875.6 59018.4 55252.2 39799.4 37711 33441.2 30911.8 7825.89 42337.6 30101.2 30656.3 27713.1 3451.69 41043.7 30103.5 28174.2 26044.5 53447.1 27576 19087.4 14770.4
internal_count=1041487 667651 542021 373836 380256 227533 161765 267342 38154 229188 187820 195443 152723 134457 117698 116633 32090 131066 125630 106494 95612 14147 126498 94798 99974 105829 189530 99381 67751 50808
shrinkage=0.12


Tree=20
num_leaves=31
num_cat=0
split_feature=12 6 11 64 21 9 61 11 21 11 9 66 35 33 5 11 35 11 21 34 11 64 10 9 9 9 38 5 39 11
split_gain=826.959 553.432 479.523 502.195 344.657 303.414 294.995 294.523 264.506 315.001 215.301 184.5 178.693 160.452 158.851 157.496 156.779 141.142 135.335 122.129 120.469 170.001 119.816 119.368 142.233 140.57 115.932 111.543 107.606 117.621
threshold=1.0000000180025095e-35 3.2500000000000004 139.00500000000002 148.99750000000003 1.0000000180025095e-35 0.19535000000000002 5.2825000000000015 249.00500000000002 1.0000000180025095e-35 158.83500000000004 0.056850000000000005 2.3342005900503442 2349.5247142857147 0.13678236476608191 3.5000000000000004 63.005000000000003 6599.0983042137732 194.00500000000002 1.0000000180025095e-35 0.085529391270886074 265.00500000000005 185.28000000000006 4.9750000000000005 0.13040948511787467 0.13045948511787467 0.074750000000000025 11.094295284026654 3.5000000000000004 3.7500000000000004 87.00500000000001
decision_type=2 2 2 2 2 2 2 2 2 2 2 2 2 2 2 2 2 2 2 2 2 2 2 2 2 2 2 2 2 2
left_child=1 4 3 5 15 14 17 -8 9 10 -2 16 18 -7 19 -1 28 22 -9 23 21 -11 -4 25 -25 -3 -16 -10 -12 -30
right_child=8 2 6 -5 -6 13 7 12 27 20 11 -13 -14 -15 26 -17 -18 -19 -20 -21 -22 -23 -24 24 -26 -27 -28 -29 29 -31
leaf_value=-0.012544525239728248 0.0055302998371370149 -0.0052168346486645058 -0.025597364416991977 0.02556453704886379 -0.0025057430289223896 0.029789871232173377 0.0038334053511701726 -0.035829910045290313 -0.010871840676993774 -0.012522218099781834 0.01854850948377881 0.014185318631253253 0.00012254779737540849 0.0065009970775834159 -0.0020671964009758431 -0.039266088129778103 -0.074738774672272232 -0.03415934709497357 -0.008638545222464088 -0.018783281805746687 -0.019605426824006091 0.015504497302264835 -0.006615858371838779 -0.025412256979969818 -0.0010092320402427762 0.013985386208916208 0.018969658080069805 0.0057511937417449406 0.053389852329245806 0.029898760345848055
leaf_weight=4449.8867640378885 13011.905786265153 18086.969556957483 7926.5314466585405 12994.616564819124 9279.9501073295251 5472.7176372855902 29745.641353756189 6660.675204699859 9758.1727067520842 4982.0930391158909 5418.5234130676836 16100.893321390264 6408.2112003362272 19321.593167140149 9059.0474139079452 11237.900960242609 195.57711853086948 6782.2169239614159 4385.1167945731431 10417.920689303428 3655.6914905048907 8308.4155598441139 12156.963321761694 6882.0202072318643 6895.8545235991478 7880.0895704128779 6452.1353066014126 14368.545730162412 4931.0292828362435 8264.2540367338806
leaf_count=19277 44380 68462 30859 41444 37181 14757 103546 27062 35771 17830 17169 52628 23985 62127 32683 49485 787 27797 16819 40878 13744 26904 44159 31119 24220 26966 21637 49862 13157 24792
internal_value=0 -0.0343608 -0.0147486 0.0292173 -0.173763 0.0028007 -0.0761783 -0.0285378 0.0812932 0.114542 0.15598 0.19691 -0.131668 0.0970605 -0.0327715 -0.264128 0.264213 -0.159835 -0.208731 -0.0601291 -0.00258502 0.0415766 -0.117619 -0.0348328 -0.110068 0.00505048 0.0556363 -0.00806062 0.27362 0.322415
internal_weight=0 202496 177528 103463 24967.7 90468.3 74065.4 47199.6 88995.1 64868.4 47922.2 34910.3 17454 24794.3 65674 15687.8 18809.4 26865.7 11045.8 50162.9 16946.2 13290.5 20083.5 39744.9 13777.9 25967.1 15511.2 24126.7 18613.8 13195.3
internal_count=1041487 744463 638520 364293 105943 322849 274227 171412 297024 211391 152913 108533 67866 76884 245965 68762 55905 102815 43881 191645 58478 44734 75018 150767 55339 95428 54320 85633 55118 37949
shrinkage=0.12


Tree=21
num_leaves=31
num_cat=0
split_feature=9 5 11 64 8 61 11 12 64 11 11 11 61 46 56 34 9 63 64 5 35 11 9 9 9 70 11 7 56 65
split_gain=697.657 519.023 616.413 395.947 360.308 333.711 455.541 257.2 252.335 204.374 199.389 177.79 177.36 156.709 151.715 148.607 137.164 133.006 127.957 126.351 126.241 177.371 126.138 126.243 161.423 116.716 113.215 112.114 108.429 108.046
threshold=0.23335000000000003 2.5000000000000004 89.00500000000001 93.002500000000012 3.8200000000000007 4.9925000000000006 208.00500000000002 1.0000000180025095e-35 210.91000000000003 134.99500000000003 357.71000000000009 173.01000000000002 5.8425000000000002 0.24936682834113208 0.042689334752764603 0.022138273488945263 0.6039000000000001 164.0434310052627 140.00500000000002 3.5000000000000004 1723.2397497910285 65.00500000000001 0.0074500000000000009 0.13040948511787467 0.13045948511787467 33.750000000000007 350.00500000000005 1.0000000180025095e-35 1.0000000180025095e-35 2154.0514346791347
decision_type=2 2 2 2 2 2 2 2 2 2 2 2 2 2 2 2 2 2 2 2 2 2 2 2 2 2 2 2 2 2
left_child=1 11 3 20 7 22 8 16 9 18 15 13 -8 25 -14 -6 -2 -11 -7 -5 21 -3 -4 -24 -25 -1 -16 29 -21 -17
right_child=4 2 5 19 10 6 12 -9 -10 17 -12 -13 14 -15 26 27 -18 -19 -20 28 -22 -23 23 24 -26 -27 -28 -29 -30 -31
leaf_value=-0.024639016640691434 0.0096479950204643953 0.027797016433948454 -0.036570107427224503 0.018395178518879902 -0.043279821262001805 0.0021441418419507891 -0.020245556483252457 0.036424445568881123 0.023791213098235703 -0.014286824256369153 -0.039994034589196509 -0.052163875712486089 0.016089396608407434 -0.0043473570182338064 0 -0.0061470343058642523 0.034436195098090809 0.0010559005170891463 0.017820771618122785 0.024281766543860658 -0.0070998438717996999 0.00037915527519816124 -0.0055075875176089162 -0.03239676078295621 -0.0077391730660101394 0.0034907119488200322 -0.032712472996445724 0.011721357073662687 0.055902176088551254 0.02507657327768667
leaf_weight=17689.060064655729 24111.343318555504 5281.8028920562938 3289.8419517301954 9051.2438116963021 945.11354564595968 17876.316957273055 19375.352521802764 8888.4714366309345 8332.2028060900047 13014.442781189922 1583.1835514216218 1924.344118176261 4402.3901601240505 13007.550810036715 3859.0788924642839 13521.703290193342 3715.0381515044719 21670.152657525614 12938.585742715281 3056.4753034850582 10372.396542419679 9546.8281159233302 19341.906101631466 7677.0592682017013 7648.1310081966221 2405.2693761237897 2509.4409391935915 16846.23388065584 3238.7552284747362 1807.6758998371661
leaf_count=76905 75953 17483 14819 30802 3864 63877 75396 23726 27115 49365 6755 9096 16330 50513 14189 48629 9299 77773 43006 9847 39548 34608 70166 34025 26989 9636 10711 56499 8853 5710
internal_value=0 -0.0275777 -0.00617032 0.102561 0.0863339 -0.0372399 -0.00793277 0.155391 0.0343519 0.0134831 0.0132445 -0.139076 -0.111524 -0.121847 -0.00854925 0.0298484 0.108024 -0.0391485 0.072756 0.229195 0.0254003 0.0846201 -0.117494 -0.099687 -0.167503 -0.177216 -0.107306 0.0413611 0.338126 -0.0204654
internal_weight=0 217509 182482 40547.5 71418.8 141935 103978 36714.9 73831.7 65499.5 34703.9 35026.2 30146.3 33101.9 10770.9 33120.7 27826.4 34684.6 30814.9 15346.5 25201 14828.6 37956.9 34667.1 15325.2 20094.3 6368.52 32175.6 6295.23 15329.4
internal_count=1041487 811052 664902 141141 230435 523761 377762 108978 261136 234021 121457 146150 116626 137054 41230 114702 85252 127138 106883 49502 91639 52091 145999 131180 61014 86541 24900 110838 18700 54339
shrinkage=0.12


Tree=22
num_leaves=31
num_cat=0
split_feature=9 9 9 11 33 5 8 9 31 11 67 9 21 9 74 11 11 63 48 61 11 8 33 70 5 20 65 11 61 34
split_gain=707.191 647.037 478.377 409.948 238.873 237.553 235.039 195.868 174.241 160.906 151.598 143.852 172.402 186.564 142.894 142.23 135.183 123.893 123.391 120.742 119.739 141.68 118.189 116.69 114.687 111.271 105.976 118.672 154.89 103.741
threshold=0.13045948511787467 0.13040948511787467 0.017350000000000001 215.00500000000002 0.082835369947316884 3.5000000000000004 1.7000000000000004 0.092750000000000013 3.1400000000000001 98.995000000000019 1.7500000000000002 1.0000000180025095e-35 1.0000000180025095e-35 0.0029500000000000004 0.95385107721276163 119.00500000000001 223.00500000000002 95.429090909090931 0.10696219959623922 4.7325000000000008 223.00500000000002 4.6050000000000013 0.14128066673320691 40.750000000000007 3.5000000000000004 6167.3050000000012 19.844485880618826 106.01000000000001 5.4825000000000008 0.061219017046463695
decision_type=2 2 2 2 2 2 2 2 2 2 2 2 2 2 2 2 2 2 2 2 2 2 2 2 2 2 2 2 2 2
left_child=1 2 11 4 -2 9 -4 14 -7 17 15 -1 13 -13 18 -3 24 25 -8 -11 21 -12 -20 -5 -9 -6 -10 -28 -29 -15
right_child=3 10 6 23 5 8 7 16 26 19 20 12 -14 29 -16 -17 -18 -19 22 -21 -22 -23 -24 -25 -26 -27 27 28 -30 -31
leaf_value=0.039303905094699158 0.028648126140365455 -0.021767163167124442 0.014744799436134791 -0.013458930515962678 0.0041542055146384311 0.028089468082697421 -0.0075075652527876137 0.0045443280347716832 -0.023316356624475353 -0.024201042093013547 -0.012755310914488078 -0.049059578756131768 -0.0047729648045256408 -0.010829692273851785 -0.015245745697858967 -0.047862169543662271 -0.013473063614398649 0.020400187594109314 0.0083316265881333753 -0.0006841707815954173 -0.037741989411812976 0.027844798105577325 -0.012548086049384745 0.0096341036410729913 0.022873507924924333 -0.076964558095935054 0.025083943408825696 -0.00077606783046500034 0.019103994123854134 -0.032664144281612635
leaf_weight=697.1381162693724 9027.0121367853135 9750.943057755474 18400.060535252094 15854.389719726052 14881.261225244962 10646.281842272729 21978.998335943324 10805.320517279208 1289.306078042835 3672.5338874394074 13523.508031748934 3288.1672570318915 12322.499282621779 10385.831543565728 12462.402988522314 4372.8546416007448 3251.2731378227472 9352.6940632835031 22010.744476166088 21889.839249079581 2439.1796355373226 1359.8528087306768 4740.7399618318304 3925.3599574952386 9049.8338519679382 246.44602659717202 7327.062405532226 13458.409899771214 9704.3368514655158 4505.5178095386364
leaf_count=1764 26067 43903 63744 58908 50496 29944 81064 38010 4906 13574 59326 17736 47877 42599 46522 21254 12271 29573 76000 75359 12756 5658 17210 13753 29699 1054 23286 47084 31685 18405
internal_value=0 -0.0427822 -0.0124581 0.0577578 0.0834288 0.0682542 0.0204785 -0.00186067 0.123306 0.0215605 -0.171866 -0.120906 -0.131198 -0.193106 -0.0314923 -0.248814 0.0765676 0.079515 -0.00703214 -0.0339028 -0.109059 -0.0753009 0.0385553 -0.0739143 0.107545 0.023498 0.0861589 0.0980574 0.0629019 -0.145381
internal_weight=0 165345 133899 121275 101495 92468.2 102699 84299.3 42425.4 50042.8 31446.3 31199.2 30502 18179.5 61192.9 14123.8 23106.4 24480.4 48730.5 25562.4 17322.5 14883.4 26751.5 19779.7 19855.2 15127.7 31779.1 30489.8 23162.7 14891.3
internal_count=1041487 635798 492901 405689 333028 306961 364520 300776 136905 170056 142897 128381 126617 78740 220796 65157 79980 81123 174274 88933 77740 64984 93210 72661 67709 51550 106961 102055 78769 61004
shrinkage=0.12


Tree=23
num_leaves=31
num_cat=0
split_feature=9 9 9 11 11 63 6 33 8 9 66 66 9 65 5 11 64 66 33 62 61 21 11 64 61 15 11 5 21 66
split_gain=609.757 551.566 386.971 367.059 223.233 235.161 188.898 166.914 183.102 165.238 159.152 144.366 154.295 143.956 142.494 138.147 144.412 137.902 126.799 124.722 124.311 119.645 116.778 148.656 110.185 109.595 107.219 141.92 119.372 102.425
threshold=0.13045948511787467 0.13040948511787467 0.013250000000000001 154.00500000000002 153.11000000000004 151.42385816020564 3.7500000000000004 1.0000000180025095e-35 1.8700000000000003 0.11515000000000002 2.6007046449466658 2.7943454606928073 1.0000000180025095e-35 26.01982324728808 1.5000000000000002 289.00500000000005 203.45250000000001 2.5014275040308314 0.013543977272727275 1.4266551247323933 6.0950000000000006 1.0000000180025095e-35 89.995000000000019 91.00500000000001 4.7625000000000002 3.5000000000000004 520.72500000000002 4.5000000000000009 1.0000000180025095e-35 2.1437442805079714
decision_type=2 2 2 2 2 2 2 2 2 2 2 2 2 2 2 2 2 2 2 2 2 2 2 2 2 2 2 2 2 2
left_child=1 2 11 6 5 9 14 8 -3 22 13 12 -1 -8 -2 16 -5 -7 21 -10 -17 -9 23 25 -24 -4 27 -6 -28 -20
right_child=3 7 4 15 26 17 10 18 19 -11 -12 -13 -14 -15 -16 20 -18 -19 29 -21 -22 -23 24 -25 -26 -27 28 -29 -30 -31
leaf_value=0.042529349894603836 -0.048551808627155427 -0.02197232489461903 0.013638922072014724 -0.0060243473728537247 -0.0090686254669723656 0.024666849450651323 0.01010842886194129 -0.061591512124592046 -0.014499092131046561 0.021961560300179171 0.0040012473048862789 0.0004638933713731886 -0.022429113632513379 0.024666948124329364 0.0040044307957432827 -0.026888289106234427 0.0096260524022606549 0.0038884737484086414 -0.026961330098163355 0.045560042846226147 0.0071979837749525464 -0.014334876795776838 -0.020611898437933773 0.019643642451531388 -0.0020818564976220976 -0.0069968623063149868 -0.081660348754417175 0.011278871066924736 -0.0022434657366140432 -0.010856300127885403
leaf_weight=540.59363231062889 766.74510889127851 2287.8010234721005 5279.9683295050636 19982.456616323441 26371.092622003518 11906.137897970155 16231.005138576962 2161.1018722900189 732.04612913588062 5057.7567254332826 13820.082104612142 6381.6620254232548 17669.203205754515 24752.880133330822 22737.364731113426 5443.9538180660456 14759.052884572651 7519.7547871433198 12655.066318840487 1536.2297438445967 2141.2396210189909 1212.3105659307912 6065.9939809171483 7166.8553052814677 19469.20539539773 12420.73540966888 566.61786265810952 6067.2378583806567 530.53504520189017 10390.343721111305
leaf_count=1364 3151 10874 18845 70972 96927 38636 51259 11499 3916 17084 47239 25213 77711 76298 77867 21575 49961 26682 57376 7548 8009 5507 23063 23959 70137 46722 2622 21896 2051 45524
internal_value=0 -0.0401473 -0.0121521 0.0535159 0.0135276 0.0438997 0.094072 -0.160328 0.0162339 0.0107143 0.126239 -0.125409 -0.170766 0.157538 0.0190238 -0.0214934 0.00517468 0.138586 -0.190815 0.217719 -0.143754 -0.372114 -0.00655872 0.042194 -0.0540757 -0.00695152 -0.0542643 -0.0438243 -0.361701 -0.164218
internal_weight=0 163988 133013 120635 108422 74886.4 78308.1 30974.9 4556.08 55460.5 54804 24591.5 18209.8 40983.9 23504.1 42326.7 34741.5 19425.9 26418.8 2268.28 7585.19 3373.41 50402.8 24867.6 25535.2 17700.7 33535.5 32438.3 1097.15 23045.4
internal_count=1041487 635156 492912 406331 388624 265128 255814 142244 22338 199810 174796 104288 79075 127557 81018 150517 120933 65318 119906 11464 29584 17006 182726 89526 93200 65567 123496 118823 4673 102900
shrinkage=0.12


Tree=24
num_leaves=31
num_cat=0
split_feature=12 5 11 11 35 11 9 65 66 10 11 39 61 5 21 11 11 9 11 63 63 38 44 7 21 28 49 9 5 33
split_gain=635.206 400.031 402.658 343.348 260.103 240.591 227.846 220.992 213.404 179.61 153.829 169.007 151.967 138.93 128.736 127.371 122.672 121.538 123.286 125.387 121.409 117.18 114.216 109.909 109.703 107.495 102.748 98.1255 97.2289 94.9904
threshold=1.0000000180025095e-35 3.5000000000000004 129.00500000000002 128.99500000000003 1496.471697014226 409.01000000000005 0.13045948511787467 15.395507583510922 2.3673154446963971 4.9750000000000005 169.01000000000002 3.7500000000000004 6.0225000000000009 4.5000000000000009 1.0000000180025095e-35 231.66500000000002 65.00500000000001 0.45345000000000008 257.02000000000004 169.96409847084524 161.87845514828453 9.2679659380094908 0.14278487009570098 1.0000000180025095e-35 1.0000000180025095e-35 29.500000000000004 -0.74999999999999989 0.56475000000000009 1.0000000180025095e-35 0.4881590043784505
decision_type=2 2 2 2 2 2 2 2 2 2 2 2 2 2 2 2 2 2 2 2 2 2 2 2 2 2 2 2 2 2
left_child=1 3 4 6 20 12 7 28 10 14 11 -2 17 16 -5 -11 -10 18 19 -4 -3 -12 -9 -6 -7 -13 -18 29 -1 -28
right_child=8 2 5 9 23 24 -8 22 13 15 21 25 -14 -15 -16 -17 26 -19 -20 -21 -22 -23 -24 -25 -26 -27 27 -29 -30 -31
leaf_value=-0.055307554700759591 0.0049107142381055544 0.018847545439800328 -0.012384895866031229 -0.037704899495482953 -0.0076478685263835066 -0.051360616598039206 0.0041975927141066106 -0.0076827303298973694 0.017259980264873839 -0.0073339302030748952 0.019990500402963029 0.021928707201532824 0.022349422188955713 0.018436680069634424 -0.012957369173316044 -0.033502917828645694 -0.041803438714053835 0.015763223512532763 -0.018587554749896078 0.0030140465228007795 0.043627942348087242 -0.016913527326800952 0.0078909694254061056 0.014371907285776878 -0.010488343287677102 0.059761283374504891 -0.0018896418630475432 0.024762622605044235 -0.017453044569823738 -0.060175636839490995
leaf_weight=1039.2103169541806 9683.4902879623696 8980.2203903794289 11120.020703387447 8892.8615744365379 6840.5219189813361 2031.2364233317785 29816.427695607301 23124.855776447803 5439.2647908246145 17255.555455907248 1933.0689823031425 22202.450877228752 3705.9282504501753 7311.5603744243272 4617.1547889332287 3175.2135622943752 913.11863849312067 4551.1510744998232 7720.9652014984749 24128.840828857152 4192.4335476905107 3441.6775345904753 9587.4670570376329 6236.4233776321635 1786.0754908099771 1140.7002098802477 32206.557490360923 1998.3140611657873 17116.43498536991 406.92635821923614
leaf_count=5937 33656 30033 42036 38246 25582 9676 101025 93970 18419 65778 6432 70863 13105 25196 18808 13439 3681 14978 31194 87144 12439 12947 36637 21174 7546 3091 115729 6194 74734 1798
internal_value=0 -0.0318645 0.0217821 -0.0699201 0.1237 -0.0268041 -0.0344061 -0.0750966 0.0709484 -0.154311 0.126588 0.152125 -0.00873424 0.0266666 -0.243814 -0.0950688 0.00397611 -0.0239644 -0.0404415 -0.0153391 0.222885 -0.0301428 -0.0259546 0.0237044 -0.268968 0.198209 -0.0174129 -0.00864317 -0.163578 -0.0218533
internal_weight=0 195919 81293.8 114625 26249.6 55044.2 80684.4 50868 86677.1 33940.8 38401.4 33026.6 51226.9 48275.7 13510 20430.8 40964.2 47521 42969.8 35248.9 13172.7 5374.75 32712.3 13076.9 3817.31 23343.2 35524.9 34611.8 18155.6 32613.5
internal_count=1041487 743481 294907 448574 89228 205679 312303 211278 298006 136271 126989 107610 188457 171017 57054 79217 145821 175352 160374 129180 42472 19379 130607 46756 17222 73954 127402 123721 80671 117527
shrinkage=0.12


Tree=25
num_leaves=31
num_cat=0
split_feature=6 11 9 5 11 61 61 11 64 33 20 21 80 11 35 64 71 11 61 15 44 11 21 11 11 64 36 38 62 10
split_gain=544.749 543.448 445.927 366.56 272.959 258.052 236.083 201.557 185.793 170.402 161.942 157.603 166.451 156.63 183.204 165.604 134.347 120.734 116.061 115.994 113.061 111.105 106.899 105.104 104.042 117.22 99.8954 89.474 86.1059 85.0642
threshold=3.2500000000000004 189.00500000000002 0.28215000000000007 3.5000000000000004 84.00500000000001 5.5825000000000005 4.5500000000000016 520.72500000000002 84.00500000000001 0.18227980769230773 727.6450000000001 1.0000000180025095e-35 0.16858608025590152 110.00500000000001 1759.0618678590174 189.00750000000002 56.183824258787304 282.54500000000007 6.1550000000000011 2.5000000000000004 0.14357571953012047 350.00500000000005 1.0000000180025095e-35 63.005000000000003 63.005000000000003 60.002500000000005 2075.0935406239801 9.4867141633482017 1.9028618185939796 5.3050000000000006
decision_type=2 2 2 2 2 2 2 2 2 2 2 2 2 2 2 2 2 2 2 2 2 2 2 2 2 2 2 2 2 2
left_child=11 2 3 4 8 17 -6 10 24 -4 27 12 -1 14 16 28 -5 29 21 23 26 -12 -9 -14 25 -2 -8 -7 -15 -3
right_child=1 5 9 13 6 7 20 22 -10 -11 18 -13 19 15 -16 -17 -18 -19 -20 -21 -22 -23 -24 -25 -26 -27 -28 -29 -30 -31
leaf_value=-0.048129227248119494 -0.0027909845278202006 -0.022733526366431792 0.031049473694378112 0.032053385965315088 -0.034988519527164905 0.0057852530609788727 -0.011832657713965144 -0.069380938859959163 0.019157720684630602 0.012010438196701253 0.0059729099999490352 -0.0038121150507371502 0.022459900428928415 -0.0038671581989604942 0.0056734483270759542 0.017886208789444281 0.0012368429506123316 -0.03734707979884009 0.027782305115383599 -0.022905012853348752 0.0019783215142254187 -0.022253340594621938 -0.012748990955982044 -0.015652629500388645 -0.0088837520091415902 0.02351201027948949 0.0055990337635346285 -0.02445689944196458 0.010147316810358603 -0.0067588928644370661
leaf_weight=2907.014628358651 5774.4158969940618 9259.0776220224798 8947.5765733234584 10536.336425211746 4199.6693572611548 2009.3710539215244 32553.418243657332 896.02273613121361 10617.673016198445 27995.580869681202 16251.282319970429 11329.032141982112 1765.8098240103573 22908.299523500726 12315.387460733298 9744.8171195220202 2535.6160819455981 4010.5461696358398 3040.523598428932 12294.06428473955 19261.44362325361 2289.2694718660787 1047.1344772288576 2538.6589111126959 10315.297154791187 4215.0593477636576 5528.8977337796241 4664.6507936585695 8713.5374193796888 10027.350930880522
leaf_count=14831 22719 37235 24236 32772 18216 7573 128614 4511 37104 90778 58978 46346 6895 84419 43802 33021 9194 17298 10964 52780 71511 9631 4365 10542 40823 14937 20525 18729 30857 37281
internal_value=0 0.0151954 0.0395631 0.0165892 -0.0241708 -0.0741395 -0.0626906 -0.0130986 0.0524605 0.138547 0.00829643 -0.125688 -0.180183 0.0730635 0.134908 0.035082 0.217379 -0.153216 0.0504307 -0.141414 -0.045906 0.0206686 -0.324558 -0 -0.00354517 0.06914 -0.0774887 -0.127786 -1.1783e-05 -0.120292
internal_weight=0 249658 196163 159220 92465.9 53495.2 61543.4 30198.3 30922.4 36943.2 28255.1 30834.6 19505.5 66754 25387.3 41366.7 13072 23297 21581.1 16598.5 57343.8 18540.6 1943.16 4304.47 20304.8 9989.48 38082.3 6674.02 31621.8 19286.4
internal_count=1041487 910093 703528 588514 354449 206565 238866 114751 115583 115014 105875 131394 85048 234065 85768 148297 41966 91814 79573 70217 220650 68609 8876 17437 78479 37656 149139 26302 115276 74516
shrinkage=0.12


Tree=26
num_leaves=31
num_cat=0
split_feature=9 9 9 31 11 12 62 33 33 5 11 5 8 72 33 12 66 78 8 11 31 64 11 6 11 64 29 66 9 60
split_gain=552.57 491.104 450.544 296.25 191.058 185.296 179.91 176.326 162.032 156.774 166.568 147.615 138.026 137.291 132.16 126.106 167.482 125.063 123.865 114.301 113.147 108.491 139.781 106.073 123.301 117.191 101.027 95.6945 94.7979 91.1921
threshold=0.13045948511787467 0.13040948511787467 0.045650000000000003 3.2599999999999998 310.01500000000004 1.0000000180025095e-35 1.4362910338099213 0.049835818442020584 0.21181818131101815 2.5000000000000004 91.00500000000001 3.5000000000000004 3.9600000000000004 2.3031544957774472 1.0000000180025095e-35 1.0000000180025095e-35 2.1037749287749294 1.0722510208410674 2.0150000000000006 148.75500000000002 1.3900000000000003 105.92250000000001 84.00500000000001 3.7500000000000004 154.00500000000002 151.00500000000002 -1.0000000180025095e-35 1.933456334563346 0.36695000000000011 4.0401927361853849
decision_type=2 2 2 2 2 2 2 2 2 2 2 2 2 2 2 2 2 2 2 2 2 2 2 2 2 2 2 2 2 2
left_child=1 2 7 5 6 11 -5 9 15 -1 -11 -2 -9 17 18 20 -17 -8 -3 21 -4 22 -19 -16 25 -25 -22 -23 -7 -12
right_child=3 14 8 4 -6 28 13 12 -10 10 29 -13 -14 -15 23 16 -18 19 -20 -21 26 27 -24 24 -26 -27 -28 -29 -30 -31
leaf_value=-0.02009788407727783 0.0042656454241688808 -0.018791574404301153 0.018428368379608446 -0.016739839625376125 -0.023618315678993466 0.019991915463972703 -0.011006959461756099 -0.022713022544424411 -0.015169065608057957 0.013710243320725355 -0.025216554152952656 0.020183741218832499 -0.0010705145403162065 -0.036079790020260044 -0.032370439211463327 0.029444809499895024 0.0065903420557075739 0.014221097289832009 0.020774746299046857 0.0016512785543291021 -0.02790415684340735 0.035851373953677233 -0.021437438763738929 -0.013654016466477948 -0.031785950422115322 0.024167659113776611 0.0021960401454520703 0.013829228061779485 0.045040338910065356 -0.0028594732208313814
leaf_weight=7165.9260715343989 28311.103890191764 2345.3152292380109 6127.5113926362246 6266.3874486908317 4308.5124070420861 9223.4053841084242 5820.0717500830069 16833.501393083483 5103.5238410425372 8724.3253037184477 2994.2176871439442 11938.245795555413 5689.3374591958709 1161.0888879839331 8883.6774345855229 7275.4453039411455 12688.330896760803 4047.4853816237301 2213.6613781782798 23623.388360505924 1682.8721430897713 3563.9169109798968 2598.2755558416247 10435.119572273805 5069.6335933043156 1327.1341031463817 34486.345716329291 14237.809082379565 2865.1343508958817 21563.057102880441
leaf_count=33632 95665 11409 21716 24123 18262 28509 21996 66329 19419 32343 12862 36349 20896 4601 43488 23513 45245 14130 11080 84785 6704 10900 10142 45889 25350 5249 125845 48613 7054 85389
internal_value=0 -0.0386826 -0.0120229 0.0514539 0.00668449 0.10757 0.0210029 -0.0728398 0.0448127 -0.033319 -0.00439784 0.0749203 -0.143764 0.0392926 -0.153417 0.0588656 0.124386 0.046641 0.00328597 0.0634157 0.0279146 0.111354 0.0021716 -0.181236 -0.134445 -0.0781226 0.0065958 0.152055 0.216182 -0.0465936
internal_weight=0 160609 130334 117965 65626.9 52337.9 61318.4 62970.4 67364 40447.5 33281.6 40249.3 22522.8 55052 30274.5 62260.5 19963.8 53890.9 4558.98 48070.9 42296.7 24447.5 6645.76 25715.6 16831.9 11762.3 36169.2 17801.7 12088.5 24557.3
internal_count=1041487 636358 493893 405129 237552 167577 219290 251451 242442 164226 130594 132014 87225 195167 142465 223023 68758 190566 22489 168570 154265 83785 24272 119976 76488 51138 132549 59513 35563 98251
shrinkage=0.12


Tree=27
num_leaves=31
num_cat=0
split_feature=11 5 9 9 9 11 61 64 64 14 9 8 63 11 44 12 70 11 64 11 8 8 6 33 52 21 71 35 53 61
split_gain=500.901 572.402 308.469 279.126 267.806 265.379 246.208 235.225 225.565 178.851 155.324 153.084 144.272 141.538 122.775 119.97 114.271 109.02 107.26 103.652 100.763 100.411 99.1976 97.4906 94.1252 88.1569 86.7108 84.7395 83.5707 83.1471
threshold=223.00500000000002 3.5000000000000004 0.13045948511787467 0.13040948511787467 0.0074500000000000009 92.00500000000001 5.5025000000000004 98.875000000000014 254.27000000000001 1.5000000000000002 0.047450000000000006 3.3150000000000004 111.38874368686869 119.00500000000001 0.14278487009570098 1.0000000180025095e-35 39.250000000000007 442.02000000000004 167.00250000000003 362.02000000000004 5.5450000000000008 2.3500000000000001 3.2500000000000004 1.0000000180025095e-35 0.08736911318536171 1.0000000180025095e-35 29.221876706822346 1759.0618678590174 -0.74999999999999989 5.9625000000000012
decision_type=2 2 2 2 2 2 2 2 2 2 2 2 2 2 2 2 2 2 2 2 2 2 2 2 2 2 2 2 2 2
