tree
version=v3
num_class=1
num_tree_per_iteration=1
label_index=0
max_feature_idx=80
objective=lambdarank
feature_names=srch_id site_id visitor_location_country_id prop_country_id prop_id prop_starrating prop_review_score prop_brand_bool prop_location_score1 prop_location_score2 prop_log_historical_price price_usd promotion_flag srch_destination_id srch_length_of_stay srch_booking_window srch_adults_count srch_children_count srch_room_count srch_saturday_night_bool orig_destination_distance random_bool comp2_rate comp2_inv comp3_rate comp3_inv comp5_rate comp5_inv comp5_rate_percent_diff comp8_rate comp8_inv mean_prop_location_score1 std_dev_prop_location_score1 mean_prop_location_score2 std_dev_prop_location_score2 mean_orig_destination_distance std_dev_orig_destination_distance mean_comp5_rate_percent_diff std_dev_comp5_rate_percent_diff median_prop_review_score std_dev_prop_review_score median_comp2_rate std_dev_comp2_rate median_comp2_inv std_dev_comp2_inv median_comp3_rate std_dev_comp3_rate median_comp3_inv std_dev_comp3_inv median_comp5_rate std_dev_comp5_rate median_comp5_inv std_dev_comp5_inv median_comp8_rate std_dev_comp8_rate median_comp8_inv std_dev_comp8_inv mean_prop_starrating median_prop_starrating std_dev_prop_starrating mean_prop_log_historical_price median_prop_log_historical_price std_dev_prop_log_historical_price mean_price_usd median_price_usd std_dev_price_usd mean_srch_length_of_stay median_srch_length_of_stay std_dev_srch_length_of_stay mean_srch_booking_window median_srch_booking_window std_dev_srch_booking_window mean_srch_adults_count median_srch_adults_count std_dev_srch_adults_count mean_srch_children_count median_srch_children_count std_dev_srch_children_count mean_srch_room_count median_srch_room_count std_dev_srch_room_count
feature_infos=[1:332784] [1:34] [1:231] [1:230] [1:140816] [0:5] [0:5] [0:1] [0:6.9800000000000004] [0:1] [0:6.21] [0.01:2085957] [0:1] [5:28411] [1:34] [0:482] [1:9] [0:9] [1:8] [0:1] [0.01:11640.57] [0:1] [-1:1] [-1:1] [-1:1] [-1:1] [-1:1] [-1:1] [2:127400] [-1:1] [-1:1] [0:6.9800000000000013] [0:4.4408920985006246e-15] [0:1] [0:0.49346372460394711] [0:11232.379999999999] [0:5196.3850000000002] [0:20671.338842975205] [0:45137.949798551213] [0:5] none [-1:1] [0:1] [-1:1] [0:1] [-1:1] [0:1] [-1:1] [0:1] [-1:1] [0:1] [-1:1] [0:1] [-1:1] [0:1] [-1:1] [0:1] [0:5] [0:5] none [0:6.2100000000000026] [0:6.21] [0:3.0995287819860802] [10.066421568627453:233985.0392857143] [8.3300000000000001:4700] [0:842842.14358579088] [1:18] [1:18] [0:15.704776343520464] [0:315] [0:315] [0:180.5] [1:4.5] [1:4.5] [0:3.0912061651652349] [0:3] [0:3] [0:3.771236166328253] [1:3] [1:3] [0:2.565800719723442]
tree_sizes=3516 3503 3523 3537 3520 3529 3542 3532 3539 3558 3548 3546 3524 3516 3537 3551 3541 3568 3547 3534 3542 3568 3552 3581 3539 3549 3553 3542 3545 3547 3537 3545 3562 3547 3561 3558 3571 3532 3565 3530 3560 3543 3572 3553 3569 3549 3548 3546 3555 3539 3552 3535 3576 3526 3543 3542 3549 3526 3557 3537 3553 3564 3518 3557 3537 3536 3552 3558 3534 3552 3550 3550 3548 3535 3538 3553 3539 3523 3558 3560 3528 3547 3513 3545 3516 3540 3538 3555 3547 3534 3495 3543 3526 3533 3555 3532 3519 3484 3525 3532 3506 3519 3540 3483 3527 3536 3532 3527 3519 3526 3505 3510 3533 3542 3547 3507 3515 3427 3466 3459 3534 3485 3519 3464 3495 3490 3503 3511 3480 3520 3521 3497 3459 3482 3505 3483 3522 3461 3444 3512 3491 3505 3474 3497 3449 3460 3469 3419 3382 3512 3516 3481 3481 3465 3500 3505 3504 3480 3459 3467 3464 3442 3492 3490 3503 3513 3483 3484 3516 3512 3467 3460 3495 3466 3513 3417 3430 3458 3412 3427 3408 3460 3435 3461 3512 3473 3382 3464 3477 3399 3441 3474 3498 3427 3480 3432 3454 3448 3477 3492 3486 3444 3508 3468 3476 3527 3412

Tree=0
num_leaves=31
num_cat=0
split_feature=4 9 9 9 9 11 8 9 9 31 12 9 12 12 6 4 4 11 11 21 4 6 11 5 11 9 5 11 9 4
split_gain=24801.4 9366.25 5251.38 3801.34 3080.96 1955.52 1786.75 1426.93 1312.97 895.293 887.34 841.528 770.731 667.562 621.428 571.05 542.187 514.108 449.229 427.366 373.859 373.496 393.012 359.311 351.67 350.227 341.703 319.758 302.587 300.738
threshold=20391.500000000004 0.13215000000000002 0.13040948511787467 0.13595000000000004 0.019850000000000003 199.00500000000002 2.6750000000000003 0.13040948511787467 0.032550000000000003 1.9499999999999995 1.0000000180025095e-35 1.0000000180025095e-35 1.0000000180025095e-35 1.0000000180025095e-35 3.2500000000000004 8918.5000000000018 41585.500000000007 248.00500000000002 299.00500000000005 1.0000000180025095e-35 40493.000000000007 3.2500000000000004 169.01000000000002 2.5000000000000004 159.00500000000002 0.0029500000000000004 3.5000000000000004 154.00500000000002 1.0000000180025095e-35 11132.500000000002
decision_type=2 2 2 2 2 2 2 2 2 2 2 2 2 2 2 2 2 2 2 2 2 2 2 2 2 2 2 2 2 2
left_child=3 2 4 7 11 9 -5 8 28 -3 16 -2 23 19 -11 -10 -6 -8 -7 25 -16 -18 26 -4 -12 -13 -23 -25 -1 -30
right_child=1 5 12 6 10 18 17 -9 15 14 24 13 -14 -15 20 -17 21 -19 -20 -21 -22 22 -24 27 -26 -27 -28 -29 29 -31
leaf_value=0.11590409772583238 0.22951664988629883 0.20029795839154588 -0.125177925094061 0.070540960010330583 0.0027493394688224071 0.069785306250232812 -0.044327780274534392 -0.18374222576337698 -0.10123151943184454 0.041873941381474163 0.12925565102160197 -0.14161313888413998 0.009845279135520614 0.035296992776837267 0.088712845070004293 -0.02952452468862787 -0.0021471589973665697 -0.13785771629338403 -0.015185431140974388 -0.0086891356439730699 0.14352066513949499 0.068353719515796357 0.030731828999404 -0.047383551299957381 0.058765169222263297 -0.053631295815665933 0.12999311955662748 -0.10964113521022094 -0.16943036364202199 -0.11187800873550428
leaf_weight=110.03182280645706 329.22413137892727 4578.8881127367204 3890.484334640234 3536.6714664144674 5041.848463585251 4865.5098239505023 7790.0701134565752 8813.9993697324535 6612.5698760636151 2205.8515669893968 6267.3523605900118 1490.5152235817368 2675.6733319284976 3183.0339700625482 4067.2133037149324 4987.466768090846 2021.7607499722508 1864.6188077126862 2368.0660494631156 4322.4691749880149 14707.623710972126 7383.3994824030524 4387.0658861565316 6513.3564479034685 2548.5813128235459 5195.8490401333256 3345.6038000798435 3125.26314328218 7179.2415889441036 3437.1753972314764
leaf_count=692 3638 52924 174782 24163 127537 140693 77508 114066 55790 67171 151765 76191 90934 113094 73136 72658 79562 23449 84938 168205 352970 249682 162974 261721 79057 230006 89555 134677 73526 64588
internal_value=0 0.289454 0.0599939 -0.61711 0.234036 0.721331 -0.167197 -0.807696 -0.673199 0.85124 0.412113 -0.146073 -0.428864 -0.182738 0.763806 -0.440006 0.305441 -0.389946 0.262302 -0.299359 0.822797 0.390244 0.444234 -0.525851 0.680486 -0.457776 0.547341 -0.422314 -0.925384 -0.942482
internal_weight=0 94514.6 61721.5 44331.8 45516.7 32793.2 13191.4 31140.5 22326.5 25559.6 30995.6 14521.1 16204.8 14191.9 20980.7 11600 22179.7 9654.69 7233.58 11008.8 18774.8 17137.8 15116.1 13529.1 8815.93 6686.36 10729 9638.62 10726.4 10616.4
internal_count=3471652 2965212 2193380 506440 1531266 771832 125120 381320 267254 546201 940132 591134 662114 587496 493277 128448 709310 100957 225631 474402 426106 581773 502211 571180 230822 306197 339237 396398 138806 138114
shrinkage=0.16


Tree=1
num_leaves=31
num_cat=0
split_feature=4 12 4 4 11 9 5 8 12 9 11 5 11 4 5 11 6 9 61 5 5 4 11 31 65 11 5 5 9 66
split_gain=18771 6189.95 3052.29 3858.11 3035.5 2763.11 2030.32 1941.78 1922.03 1865.76 1378.2 1232.1 1277.03 1138.36 1125.5 1596.81 1114.47 1104.45 1041.41 1022.98 967.085 876.968 789.753 782.982 723.646 677.433 676.631 664.182 600.91 575.684
threshold=20391.500000000004 1.0000000180025095e-35 78753.000000000015 40493.000000000007 136.00500000000002 0.21855000000000002 3.5000000000000004 2.5200000000000005 1.0000000180025095e-35 0.13405000000000003 200.00500000000002 2.5000000000000004 109.00500000000001 79750.500000000015 3.5000000000000004 215.00500000000002 3.2500000000000004 0.20035000000000003 5.2425000000000006 2.5000000000000004 2.5000000000000004 63721.500000000007 209.00500000000002 1.9499999999999995 25.120016734513467 129.00500000000002 3.5000000000000004 3.5000000000000004 0.15885000000000002 2.6429444638491097
decision_type=2 2 2 2 2 2 2 2 2 2 2 2 2 2 2 2 2 2 2 2 2 2 2 2 2 2 2 2 2 2
left_child=8 2 3 14 6 11 17 -5 20 -9 16 -4 24 -6 22 -16 -11 19 -14 -3 -1 -18 23 -2 -13 26 -7 -27 -25 -21
right_child=1 4 5 7 13 25 -8 9 -10 10 -12 12 18 -15 15 -17 21 -19 -20 29 -22 -23 -24 28 -26 27 -28 -29 -30 -31
leaf_value=0.035616528250659044 -0.042293845762874781 -0.042336678908968278 -0.054358129242185707 -0.029986392300314343 -0.034800664369593191 0.039168388874058817 0.079957690853208863 -0.041088180917935556 0.1862265921250893 0.037808821158029117 -0.027533293073625512 -0.0083923398720215023 -0.0474136839004317 0.018363422307886946 0.082749206908177581 -0.026176642230355211 -0.13988166755933543 0.068301903290397703 -0.0010516004597662153 0.043541133872585736 0.11207973887063143 -0.077231047718840443 -0.12078951444541217 -0.0073311032930268296 0.043599817308577524 -0.030244651134676982 0.11405916978665076 0.037671296376059246 0.069194617771247205 -0.015749279017838763
leaf_weight=5450.3139463857588 10040.479577762657 8183.389304704091 19972.633267143567 41584.316264503897 22698.462961015495 12550.566317725956 25424.776427417994 23852.60498715 7804.8529829248509 1185.2337823687994 5664.6495117931045 13525.166983526258 25730.582246972655 18892.174370063905 8582.9828690019494 5755.8206692753593 18698.895768599818 9527.5984134132159 23946.383666160371 13441.626501767663 18982.104909436937 8240.2595428830246 1764.5769611346186 7759.5234099997324 13892.368294323707 6055.7965145375347 4096.4594932021573 9420.7960684132413 3971.2338386000483 6092.533168738184
leaf_count=99911 93553 64387 256093 354849 141189 53650 130506 248516 107735 14461 52341 138692 258866 139431 81739 57923 48058 36562 243562 86261 298794 32370 16399 106888 116404 36342 14554 65224 33815 42577
internal_value=0 -0.0636736 -0.144546 -0.248474 0.142882 -0.0342555 0.281885 -0.352114 0.731898 -0.470932 -0.622094 -0.118387 -0.0610425 -0.066571 0.0230491 0.243904 -0.712732 0.133173 -0.156658 0.0322118 0.593891 -0.754486 -0.111503 -0.0593525 0.112199 0.219963 0.359983 0.069354 0.116096 0.156556
internal_weight=0 370552 266291 137101 104261 129191 62669.9 99226 32237.3 57641.6 33789 97067.1 77094.5 41590.6 37874.6 14338.8 28124.4 37245.1 49677 27717.5 24432.4 26939.2 23535.8 21771.2 27417.5 32123.6 16647 15476.6 11730.8 19534.2
internal_count=3471652 2965212 2324299 1140912 640913 1183387 360293 750595 506440 395746 147230 1013617 757524 280620 390317 139662 94889 229787 502428 193225 398705 80428 250655 234256 255096 169770 68204 101566 140703 128838
shrinkage=0.16


Tree=2
num_leaves=31
num_cat=0
split_feature=9 9 9 4 8 11 9 9 6 8 12 11 31 9 11 5 11 5 63 9 11 11 64 11 5 9 5 11 31 21
split_gain=6051.42 6627.85 4132.4 3065.01 2263.44 2151.56 1108.6 1278.99 1072.59 972.861 924.723 743.829 701.993 665.913 664.301 635.038 622.037 630.88 622.034 610.464 503.595 495.779 656.281 493.387 449.433 392.853 382.022 550.102 361.725 351.343
threshold=0.13045948511787467 0.13040948511787467 0.047450000000000006 78753.000000000015 2.3500000000000001 307.61500000000007 1.0000000180025095e-35 0.0047500000000000007 3.7500000000000004 2.2500000000000004 1.0000000180025095e-35 369.03000000000003 4.1100000000000012 0.26745000000000008 286.02000000000004 3.5000000000000004 245.02000000000001 3.5000000000000004 161.87845514828453 0.092750000000000013 162.19500000000002 89.00500000000001 92.002500000000012 109.00500000000001 2.5000000000000004 0.080650000000000013 3.5000000000000004 98.995000000000019 3.6600000000000006 1.0000000180025095e-35
decision_type=2 2 2 2 2 2 2 2 2 2 2 2 2 2 2 2 2 2 2 2 2 2 2 2 2 2 2 2 2 2
left_child=1 2 6 8 15 9 -1 -8 23 25 24 13 -12 26 18 -5 17 29 21 -11 -15 22 -9 -2 -6 -4 27 -10 -26 -3
right_child=3 16 5 4 10 -7 7 14 11 19 12 -13 -14 20 -16 -17 -18 -19 -20 -21 -22 -23 -24 -25 28 -27 -28 -29 -30 -31
leaf_value=0.1114262780472768 0.037156991278998984 -0.084260357303466371 0.039747478033129668 0.033540706851780282 -0.070312246324290714 -0.075493220130423727 -0.068277211525912457 -0.021436295718342182 0.067668460697274682 0.0064652819455555469 0.049917542546325175 -0.034971061177006858 -0.012079077691765874 0.098747401651497604 -0.069743486978485036 0.1021915856978962 -0.12524562217457591 -0.030975002892732268 0.0092462727873333424 0.04113434572135094 0.053327009080002319 -0.038111786054144892 0.046113219307901597 -0.012950582394025884 -0.0013963436906547725 0.083438061387578505 0.062806510520548184 -0.00065357511764622944 -0.035336042344957554 -0.049167905859258947
leaf_weight=1497.1619218587293 11988.048280115065 23492.74262333673 11079.974367175368 13015.382038125303 5501.4098128828919 5151.3967011131463 16083.139377392072 15050.176230557263 4828.2747750839917 33113.298315602238 8347.2047136757756 2083.4680878747022 10629.706363935373 15775.946503574145 5948.4997291208711 4693.2782324161381 4381.302010167361 12217.37131727417 20564.851967600815 21408.283925859607 10348.258661600208 27274.545119459915 4874.5720305007417 8668.0174423585413 13986.347151169553 10045.092665790929 14572.817144768196 8041.6523788862396 18905.374132315861 10598.814374936628
leaf_count=4330 75467 376170 81091 39888 40962 50047 266920 197826 27277 300678 32123 28922 65026 75897 73686 12354 73690 153325 215570 184454 85232 319421 43942 60785 67727 60555 106007 55095 137094 160091
internal_value=0 -0.104833 -0.0112215 0.154274 0.0108258 0.153496 -0.157003 -0.171232 0.295415 0.19608 -0.0856406 0.367646 0.0949426 0.390447 -0.115486 0.323344 -0.422641 -0.388567 -0.0873592 0.12549 0.504722 -0.150601 -0.0306898 0.100813 -0.174899 0.378266 0.281662 0.156113 -0.13065 -0.45844
internal_weight=0 222781 172091 151385 75078.7 80798 91292.9 89795.8 76306.5 75646.6 57370 55650.4 18976.9 53566.9 73712.6 17708.7 50690.2 46308.9 67764.1 54521.6 26124.2 47199.3 19924.7 20656.1 38393.1 21125.1 27442.7 12869.9 32891.7 34091.6
internal_count=3471652 2561796 1798520 909856 395174 676825 1121695 1117365 514682 626778 342932 378430 97149 349508 850445 52242 763276 689586 776759 485132 161129 561189 241768 136252 245783 141646 188379 82372 204821 536261
shrinkage=0.16


Tree=3
num_leaves=31
num_cat=0
split_feature=9 9 11 5 6 11 64 61 5 8 11 11 8 31 61 5 5 11 11 61 9 11 21 63 9 9 6 11 8 61
split_gain=4275.55 4165.83 1969.58 1583.52 1188.09 1370.56 1205.22 866.458 835.765 793.658 774.247 626.122 576.802 565.974 544.707 509.361 501.254 489.708 446.185 413.326 409.27 407.224 441.878 403.694 385.386 381.655 380.724 364.866 343.514 340.816
threshold=0.13045948511787467 0.13040948511787467 158.83500000000004 3.5000000000000004 3.7500000000000004 119.99500000000002 129.00250000000003 5.4525000000000015 3.5000000000000004 1.2450000000000003 259.00500000000005 245.02000000000001 4.0000000000000009 2.0800000000000005 5.4525000000000015 1.5000000000000002 1.0000000180025095e-35 187.00500000000002 89.00500000000001 4.9225000000000003 0.036350000000000007 99.00500000000001 1.0000000180025095e-35 174.89494517121975 1.0000000180025095e-35 0.0090500000000000025 2.7500000000000004 140.00500000000002 2.5200000000000005 4.7200000000000015
decision_type=2 2 2 2 2 2 2 2 2 2 2 2 2 2 2 2 2 2 2 2 2 2 2 2 2 2 2 2 2 2
left_child=1 4 3 9 25 6 20 13 17 -2 -9 14 -5 -4 -10 -11 -3 19 26 -7 24 -18 -23 -14 -6 -1 -17 -27 -12 -20
right_child=2 16 7 12 5 8 -8 10 11 15 28 -13 23 -15 -16 18 21 -19 29 -21 -22 22 -24 -25 -26 27 -28 -29 -30 -31
leaf_value=-0.054962736594705131 0.071898444403772549 -0.12787235912072931 0.032917352461681725 0.08122986757705368 0.14809121487268798 -0.06305872736508332 0.075747371239740083 0.034175420331559132 -0.0025730638770221303 -0.056442592962979647 0.067595048924572063 -0.025742982845665112 0.017343107703406052 -0.040390778763110091 0.039903973933592213 -0.037781989560036304 -0.034987262987251876 -0.075138723497941873 -0.031033213697862494 -0.0049135632424028228 0.027087769443945101 -0.081810531575059783 -0.037565708019791998 0.069704646977333681 -0.0086437528469975374 -0.0097880768345932814 0.037982324808322948 -0.049717477325178498 -0.027013195399407681 0.011836503291525727
leaf_weight=8583.1699428588909 6553.628637323156 2429.565521224722 3173.6267517092638 18501.466126395389 411.18076055636629 4295.2864697652985 9839.6555178374983 17807.527529507875 18340.584079683264 2576.2812045768951 1080.0698524904437 13572.127144854923 8962.7635833206587 17917.209803964826 13356.943158444017 1835.7777624456212 18270.860073433141 5770.6535898202565 5999.2556351955282 11533.488637542003 24018.388860680978 16495.298184489337 8894.3362395567819 6505.158840328455 17253.740974306478 30128.986080293718 22612.612997729157 7272.6718312277808 10874.426495091815 22751.583558253711
leaf_count=157660 16086 49939 10715 64670 1175 58360 69717 126014 174950 16681 4264 174390 55437 142734 123995 17498 298991 72807 34530 138525 181847 279797 134549 35843 241752 330249 123850 73093 121106 140428
internal_value=0 -0.0914274 0.130766 0.214838 -0.0169298 0.0360549 0.158629 -0.0284385 -0.0583892 0.120171 0.0814448 0.0188339 0.38854 -0.183499 0.0957889 0.0814909 -0.357118 -0.220239 0.102521 -0.129324 0.0843203 -0.332517 -0.414444 0.246026 -0.0312218 -0.153344 0.201833 -0.109702 -0.115409 0.0180697
internal_weight=0 210467 147151 96298.5 164377 118392 51523 50852.9 66869.1 62329.1 29762 45269.7 33969.4 21090.8 31697.5 55775.5 46090.1 21599.4 53199.2 15828.8 41683.3 43660.5 25389.6 15467.9 17664.9 45984.8 24448.4 37401.7 11954.5 28750.8
internal_count=3471652 2561796 909856 505023 1798520 1237518 494491 404833 743027 349073 251384 473335 155950 153449 298945 332987 763276 269692 316306 196885 424774 713337 414346 91280 242927 561002 141348 403342 125370 174958
shrinkage=0.16


Tree=4
num_leaves=31
num_cat=0
split_feature=9 9 11 9 5 31 9 9 8 9 11 65 12 64 11 64 21 11 61 5 21 9 63 31 11 11 11 64 64 33
split_gain=3481.86 3462.37 1603.83 1210.87 1024.7 811.471 692.251 918.919 648.902 611.791 555.697 532.702 497.128 486.872 497.085 563.375 458.668 456.67 645.823 397.183 395.028 353.552 345.917 344.016 334.996 313.397 294.431 545.038 292.127 275.371
threshold=0.13045948511787467 0.13040948511787467 187.00500000000002 0.06235000000000001 2.5000000000000004 2.7099999999999995 1.0000000180025095e-35 0.0074500000000000009 3.2400000000000007 0.36695000000000011 155.00500000000002 25.671934882672794 1.0000000180025095e-35 184.02750000000003 119.99500000000002 105.92250000000001 1.0000000180025095e-35 409.01000000000005 5.9750000000000005 3.5000000000000004 1.0000000180025095e-35 0.00125 134.01367415048546 1.95 99.00500000000001 174.25500000000002 206.00500000000002 157.33250000000001 169.00500000000002 0.10140976479915433
decision_type=2 2 2 2 2 2 2 2 2 2 2 2 2 2 2 2 2 2 2 2 2 2 2 2 2 2 2 2 2 2
left_child=1 3 4 6 29 9 -1 20 19 -6 11 -9 16 14 15 -7 25 18 23 -5 21 -8 -16 -4 -17 -3 27 -10 -13 -2
right_child=2 12 17 8 5 13 7 10 26 -11 -12 28 -14 -15 22 24 -18 -19 -20 -21 -22 -23 -24 -25 -26 -27 -28 -29 -30 -31
leaf_value=0.10485301022017371 0.038426204126125886 -0.066011058644098189 0.047351380803055509 0.017064172312732839 0.043240282252142548 0.0094580566936376641 -0.12634882292122609 -0.018003451571852062 -0.011514705883225814 0.093979842396036739 -0.02774846339625071 0.009222403545741685 -0.017546809060523489 0.058687661196835945 -0.041772316785845601 0.081707101206708557 -0.035972215117067434 -0.070455656774575798 0.055085850540621636 0.053151610899178574 -0.020598689734286812 -0.052545892506343055 0.010158117499844533 -0.018937009222985666 0.03261857675383309 -0.11544479255456962 -0.033638820364772441 0.043953257097867113 0.057381393728737254 -0.012285028892254309
leaf_weight=1248.4742594014388 3280.2930496596382 19787.405677345843 2174.3983285897411 22080.184554240317 21616.917417606805 13876.156111096381 2051.3504492506036 21192.636693960521 14513.481021626911 8465.9362532249652 23523.52847912506 28919.514167585177 8174.4624803639599 9293.7503559658071 4113.2145989446435 6455.5021137263393 12137.317635817628 2995.3437144900672 3990.5115136586246 12078.685178145999 8595.717392084538 8747.5367167732329 16283.255575562012 25607.146210662264 7931.6978691347176 3936.2345174030343 6282.5758647237672 6596.1673821074655 3629.0990758652333 16682.005237028527
leaf_count=4330 15734 369440 7446 181907 80129 91532 49183 289935 132893 20406 293825 304343 102397 55006 31896 31963 204667 37671 38073 70642 141980 174943 114391 224767 45298 86772 75259 53860 25420 115544
internal_value=0 -0.0839925 0.11972 -0.0154456 0.179857 0.226241 -0.0845386 -0.0940949 0.0944589 0.359497 -0.0452448 0.0108633 -0.332211 0.15707 0.117013 0.202874 -0.382939 -0.0670851 -0.0318954 0.186405 -0.288706 -0.416034 -0.00196458 -0.0859298 0.341528 -0.463832 -0.0202005 0.0363591 0.0912002 -0.0246996
internal_weight=0 203494 142766 159459 107999 88036.4 97907.9 96659.4 61551.1 30082.9 77264.8 53741.2 44035.4 57953.6 48659.8 28263.4 35861 34767.4 31772.1 34158.9 19394.6 10798.9 20396.5 27781.5 14387.2 23723.6 27392.2 21109.6 32548.6 19962.3
internal_count=3471652 2561796 909856 1798520 601899 470621 1283959 1279629 514561 100535 913523 619698 763276 370086 315080 168793 660879 307957 270286 252549 366106 224126 146287 232213 77261 456212 262012 186753 329763 131278
shrinkage=0.16


Tree=5
num_leaves=31
num_cat=0
split_feature=9 9 31 9 5 11 11 64 5 9 11 61 12 5 11 5 11 11 61 8 11 64 4 67 61 11 11 11 11 61
split_gain=2945.11 1750.68 1355.78 1114.22 1068.52 1534.47 831.366 735.467 707.395 701.579 605.236 545.287 439.988 356.155 396.957 342.049 338.39 337.87 458.935 301.383 294.193 333.483 286.74 281.241 267.39 263.769 252.762 251.382 237.756 230.342
threshold=0.15285000000000001 0.13040948511787467 3.2599999999999998 0.13045948511787467 2.5000000000000004 99.995000000000019 239.00500000000002 106.46750000000002 3.5000000000000004 0.45345000000000008 399.01500000000004 5.0125000000000002 1.0000000180025095e-35 2.5000000000000004 89.00500000000001 3.5000000000000004 59.995000000000012 149.00500000000002 5.5724999999999998 1.7000000000000004 79.995000000000019 78.995000000000019 48380.500000000007 1.7500000000000002 5.5825000000000005 211.01000000000002 112.00500000000001 345.02000000000004 225.00500000000002 6.0750000000000011
decision_type=2 2 2 2 2 2 2 2 2 2 2 2 2 2 2 2 2 2 2 2 2 2 2 2 2 2 2 2 2 2
left_child=1 4 9 13 16 7 8 20 22 12 11 -7 15 -3 -15 26 -1 -13 28 -11 21 -6 -4 -16 -8 -25 -2 -26 -19 -20
right_child=2 3 6 -5 5 10 24 -9 -10 19 -12 17 -14 14 23 -17 -18 18 29 -21 -22 -23 -24 25 27 -27 -28 -29 -30 -31
leaf_value=-9.6739733286171486e-05 0.022098450774677397 -0.074935645453501523 -0.03322265823189656 0.0015887576817363849 0.010737498484595629 -0.027025727235712609 -0.069244459134748595 0.064190099882240739 0.027583811375244786 0.10971555076374788 -0.068762778742364694 0.016747505222102225 0.058970519945142803 -0.0094697722372846654 -0.071431719254678172 0.04510494544326539 -0.042666100556108894 -0.012166866748569975 0.0064885897332001034 0.054768260286842389 -0.0040065623841185347 0.059013767559828054 0.0044536280141493668 -0.023605013492265958 0.0011662783479937985 -0.074104060764500934 -0.012451555589209311 -0.056256272704659369 -0.049890746444533278 0.062666540199950604
leaf_weight=6326.9392037545331 15605.111857334268 10114.386859680235 8070.4254858725471 15354.080222541408 9097.9008461817866 21778.792345706373 3640.6650813806336 11497.774748826108 33646.613678295922 3924.5829925513826 3998.1998201916576 25160.812658246519 9835.2205223039491 7938.8053629630012 9889.6390963801823 10189.59084015619 19556.504320894077 18532.811617719562 13953.80907243595 7325.0886875179131 11176.365052351612 6132.0065428185044 14394.84603567468 10579.983461878641 5932.909682228812 3531.7876045821176 8305.9106880268082 2908.4390072282695 5560.1671465046238 2157.3185500236577
leaf_count=100888 80880 222715 66199 110407 108951 268619 41304 90384 217644 8200 57727 230454 33530 116841 176885 41483 292143 209307 161004 26222 123889 56138 133275 171446 58898 75389 47099 44715 72407 26609
internal_value=0 -0.0714686 0.122601 -0.220634 -0.0161959 0.0209972 0.0287285 0.19009 0.0806525 0.239282 -0.0493248 -0.0318699 0.182228 -0.304812 -0.253026 0.128485 -0.201628 0.0137905 -0.0430856 0.462108 0.0981733 0.188593 -0.0567575 -0.317141 -0.204692 -0.226522 0.0631056 -0.110771 -0.130455 0.0875684
internal_weight=0 212338 123779 57408.7 154929 129046 68593.9 37904 56111.9 55185.5 91141.9 87143.7 43935.8 42054.6 31940.2 34100.6 25883.4 65364.9 40204.1 11249.7 26406.3 15229.9 22465.3 24001.4 12482 14111.8 23911 8841.35 24093 16111.1
internal_count=3471652 2672203 799449 873683 1798520 1405489 562035 379362 417118 237414 1026127 968400 202992 763276 540561 169462 393031 699781 469327 34422 288978 165089 199474 423720 144917 246835 127979 103613 281714 187613
shrinkage=0.16


Tree=6
num_leaves=31
num_cat=0
split_feature=9 9 11 9 64 8 9 8 9 61 8 11 63 11 64 78 33 11 12 21 61 61 34 63 11 64 61 46 70 5
split_gain=2225.71 2301.95 1466.17 1139.66 632.462 626.647 547.681 527.369 497.216 490.023 447.081 411.702 470.059 374.718 452.142 338.348 326.027 321.089 311.236 320.591 303.964 294.248 290.999 236.993 231.183 354.454 218.275 214.497 209.346 198.206
threshold=0.13045948511787467 0.13040948511787467 143.00500000000002 0.038750000000000007 129.95000000000002 1.7000000000000004 1.0000000180025095e-35 1.7000000000000004 0.0029500000000000004 5.1225000000000014 2.8000000000000003 178.59500000000003 165.30725960796423 79.00500000000001 77.002500000000012 1.0350535872755822 0.077093662391365322 296.98500000000007 1.0000000180025095e-35 1.0000000180025095e-35 4.4925000000000006 5.1625000000000005 0.0655133908042205 246.88309590160267 89.995000000000019 87.002500000000012 4.682500000000001 0.26133065166058045 39.750000000000007 1.0000000180025095e-35
decision_type=2 2 2 2 2 2 2 2 2 2 2 2 2 2 2 2 2 2 2 2 2 2 2 2 2 2 2 2 2 2
left_child=1 3 4 6 7 -5 -1 22 -8 -4 -11 12 24 14 27 -10 -17 23 19 29 -15 -13 -2 -12 25 -7 -26 -9 -19 -3
right_child=2 18 9 5 -6 11 8 13 15 10 17 21 -14 20 -16 16 -18 28 -20 -21 -22 -23 -24 -25 26 -27 -28 -29 -30 -31
leaf_value=0.092778800342514373 0.02070174860008123 -0.12791390962782445 -0.039213900553737635 0.041922501776539542 0.053258155534510569 -0.0012776426367398159 -0.055932122195129594 -0.0044478569555495015 -0.062093952691136343 0.037919185690603478 -0.0090031324880890592 -0.07406647141590289 0.036011518548473523 -0.054619739197991887 0.063107751780558385 -0.004728125809021203 -0.035354074439488542 -0.049678790553971154 -0.015924400465719035 -0.030093439409825808 0.0070407434241263975 -0.0094640871573122096 0.07348150325345626 0.018886833578093589 -0.049990143274851226 0.046738337184519078 -0.002476911750273121 0.039275964097141396 0.022349409766390198 -0.059798508374181582
leaf_weight=1129.2972805618774 4455.3228704987559 1156.2585569914663 8699.8167849206366 13433.764323600684 21040.307551750971 10771.417340238113 8409.6668213582016 7482.2831376212998 3553.6623485313612 7506.2174530173652 19946.174126830068 2040.187957791728 14354.964766560995 2214.3057902285364 7124.7986535467207 42625.48142872937 11246.203965188877 5547.1209606977063 7552.4259110320709 11231.761802563153 27034.648216538946 15651.371757540677 6689.3606292551849 12808.29385353945 2834.3336806215812 6201.8530057317112 19536.423862469266 4661.8236781919841 1269.3852391411201 20186.735801209637
leaf_count=4330 14551 33550 67239 95762 108605 121150 188513 57710 64610 31160 166278 25678 106546 16321 40329 621474 136050 78746 102397 204667 164334 179001 18075 100511 31210 46231 177965 28134 17863 422662
internal_value=0 -0.0694248 0.097624 -0.0131138 0.183791 0.0638753 -0.110637 0.13122 -0.122481 -0.0270495 0.0132436 0.0265907 0.0701791 0.0861599 0.194435 -0.0892244 -0.0695098 -0.0291998 -0.282431 -0.324838 0.0148294 -0.105713 0.327386 0.0118934 0.0136653 0.101668 -0.0531047 0.077104 -0.22666 -0.396804
internal_weight=0 191916 136480 151789 80702.9 84824.3 66964.3 59662.5 65835 55777 47077.2 71390.6 53699 48517.9 19268.9 57425.3 53871.7 39571 40127.2 32574.8 29249 17691.6 11144.7 32754.5 39344 16973.3 22370.8 12144.1 6816.51 21343
internal_count=3471652 2561796 909856 1798520 448059 783543 1014977 339454 1010647 461797 394558 687781 483102 306828 126173 822134 757524 363398 763276 660879 180655 204679 32626 266789 376556 167381 209175 85844 96609 456212
shrinkage=0.16


Tree=7
num_leaves=31
num_cat=0
split_feature=9 6 11 64 8 61 11 11 61 11 64 21 64 80 69 80 11 9 11 11 10 5 61 11 5 67 63 11 63 21
split_gain=1985.99 1331.42 1256.49 975.791 962.12 758.325 643.338 601.68 663.964 500.627 448.646 447.079 383.674 294.099 287.166 264.478 238.849 219.407 213.433 212.401 208.102 195.574 191.42 185.548 182.574 181.467 191.252 222.874 256.746 174.158
threshold=0.19765000000000002 3.2500000000000004 129.00500000000002 123.22750000000001 2.1400000000000006 5.1925000000000017 257.02000000000004 69.995000000000019 4.6125000000000016 178.59500000000003 78.00500000000001 1.0000000180025095e-35 239.03250000000003 0.16858608025590152 51.095839311334295 0.19864240601148953 194.00500000000002 0.35855000000000004 89.995000000000019 108.99500000000002 4.6350000000000007 2.5000000000000004 5.9625000000000012 197.00500000000002 2.5000000000000004 3.2500000000000004 161.87845514828453 90.00500000000001 105.32213370901641 1.0000000180025095e-35
decision_type=2 2 2 2 2 2 2 2 2 2 2 2 2 2 2 2 2 2 2 2 2 2 2 2 2 2 2 2 2 2
left_child=1 11 3 7 17 16 12 10 20 15 -3 13 23 -1 29 -6 -4 24 -10 -5 -9 -11 -16 -7 -2 26 27 28 -17 -8
right_child=4 2 5 19 9 6 14 8 18 21 -12 -13 -14 -15 22 25 -18 -19 -20 -21 -22 -23 -24 -25 -26 -27 -28 -29 -30 -31
leaf_value=-0.099286385361000692 -0.0020399453499056991 0.0093075190104930719 -0.032790045066299997 0.050198418542880596 -0.017654817441596807 0.0035417190173230172 -0.06461173213870329 -0.034001017298598286 0.014973195409334332 -0.084614072947170632 0.064194489484945591 -0.01359989348016667 0.036969735132152445 -0.045370827669958702 -0.036004399306249324 0.018883190229701571 -0.072906524645544216 0.071406323990131068 -0.007410530669413504 0.021913196617779757 -0.11004110737885051 -0.0049360077079466996 0.019055539762131063 -0.020796866568264689 0.048995618558360272 -0.024468756492313958 0.04029315309652836 0.0060408269869682762 0.066287316569264967 -0.022059817932939586
leaf_weight=3084.2185469023243 2402.7467898798641 14344.221923922654 22804.661558806925 12087.408229967812 4280.1830140540842 26621.182125942636 7030.9343335741432 12580.725768229226 16918.286356563505 817.11833097710041 5192.5550798288896 11022.425802121055 6998.3017634049174 16164.327469746378 3081.5274617411196 9407.395228412468 4558.9921058182372 8556.0309959943406 30683.194038917602 15526.34622728164 994.17407580389408 22621.685477988503 3399.8181038619077 11475.278184306168 7088.1147392776329 1909.3340642600087 15558.499043127114 16644.756688200112 4244.6245364773786 3789.4292860273272
leaf_count=67392 9862 191209 299743 86778 31465 275218 117681 173816 167803 9605 44999 179189 70460 281350 44413 60355 74993 21964 377739 150149 18029 222195 45786 139309 21833 13780 89853 110251 22849 51584
internal_value=0 -0.0502695 -0.0204202 0.0520778 0.122735 -0.107914 -0.0470457 -0.003436 -0.0522276 0.0731426 0.149347 -0.245597 0.01585 -0.337561 -0.210976 0.127795 -0.246711 0.330161 0.00340615 0.214341 -0.247312 -0.0482108 -0.0445154 -0.0236841 0.22547 0.149135 0.161712 0.115432 0.210137 -0.310684
internal_weight=0 228358 198087 108327 93530.5 89760.1 62396.5 80713.2 61176.4 75483.6 19536.8 30271 45094.8 19248.5 17301.7 52044.8 27363.7 18046.9 47601.5 27613.8 13574.9 23438.8 6481.35 38096.5 9490.86 47764.6 45855.3 30296.8 13652 10820.4
internal_count=3471652 2857640 2329709 1210522 614012 1119187 744451 973595 737387 560353 236208 527931 484987 348742 259464 328553 374736 53659 545542 236927 191845 231800 90199 414527 31695 297088 283308 193455 83204 169265
shrinkage=0.16


Tree=8
num_leaves=31
num_cat=0
split_feature=9 9 9 8 11 9 11 5 66 5 11 11 11 7 8 44 12 21 12 31 64 78 9 35 34 7 21 6 80 8
split_gain=1765.71 1770.12 1043.56 852.936 727.687 543.064 467.414 396.06 382.579 360.454 329.145 323.838 283.403 346.902 247.335 240.304 238.259 238.018 226.819 222.407 202.527 188.15 185.152 181.49 175.839 170.495 164.322 163.17 155.37 148.599
threshold=0.13045948511787467 0.13040948511787467 0.013250000000000001 1.5000000000000002 223.00500000000002 1.0000000180025095e-35 350.00500000000005 3.5000000000000004 2.3929459843638949 3.5000000000000004 136.00500000000002 128.99500000000003 140.00500000000002 1.0000000180025095e-35 4.1650000000000009 0.13081431310407718 1.0000000180025095e-35 1.0000000180025095e-35 1.0000000180025095e-35 3.5800000000000001 303.98500000000007 1.0667996309346741 0.40775000000000006 1350.9374141630904 0.11805413923929693 1.0000000180025095e-35 1.0000000180025095e-35 3.2500000000000004 0.1474055462380178 4.9850000000000012
decision_type=2 2 2 2 2 2 2 2 2 2 2 2 2 2 2 2 2 2 2 2 2 2 2 2 2 2 2 2 2 2
left_child=1 2 5 22 7 26 9 11 21 10 15 18 13 -11 24 28 17 -3 27 -20 -14 -7 -2 -6 -9 -16 -1 -5 -4 -25
right_child=3 16 6 4 23 8 -8 14 -10 12 -12 -13 20 -15 25 -17 -18 -19 19 -21 -22 -23 -24 29 -26 -27 -28 -29 -30 -31
leaf_value=0.12998489868968915 0.042827293804073137 -0.057601860788466609 -0.045167101097231897 -0.021076724726682036 -0.038052905812901383 -0.090198647628979778 -0.048712828069867591 0.028657240882308633 -0.011707708574984354 0.0041993818571504403 -0.023478063964998925 -0.013781822853340167 0.0013688913264955855 0.043704678942016843 -0.002874158890743998 0.018892714395841316 -0.014745198946823992 -0.028075894585837282 0.051672768893092524 0.0063563146556605866 0.056026359062272699 -0.042284739737310922 0.087649176355279149 0.01164548896501367 0.05819782226930937 0.026120297057742978 -0.0029080731762836714 0.011635864932808906 -0.0010899020066494497 -0.024337816188885475
leaf_weight=683.01621361100115 8492.389440165367 19758.781211991649 2209.1104272782104 4708.3852658208343 7413.7859548533452 2479.8345104541513 4075.749553681555 18487.152453753981 11765.453882391157 9099.2151303522987 13871.087726395461 14971.24891629722 25300.836119819258 15188.853241362784 9181.9704047441483 18375.631799065042 7166.9047665336693 10815.130774048564 6679.6779937376268 4739.9188241903903 1863.3049116006587 13628.730738457845 3266.9288652737159 5962.6172683107434 7154.8245206465945 11947.330939247971 365.74289160734043 22833.403185929405 27948.304867731291 5791.8846560535603
leaf_count=2106 28378 456212 30726 49928 84451 68885 62994 90346 200079 71467 176956 130017 268013 100338 66211 199681 102397 204667 26007 33827 20843 265510 7396 55147 28457 84197 2224 153665 328698 71829
internal_value=0 -0.0630999 -0.0134577 0.0884893 0.0632771 -0.183677 0.0282886 0.0972695 -0.210257 0.0401999 -0.0108908 0.0388684 0.102166 0.180653 0.164613 0.0279353 -0.256265 -0.294734 0.0869025 0.205396 0.031988 -0.31038 0.345497 -0.115308 0.230624 0.0845027 0.52275 0.0377719 -0.0269917 -0.0380302
internal_weight=0 184596 146855 131632 119872 28922.8 117932 100704 27874 113856 62404.1 53932.6 51452.2 24288.1 46771.3 48533 37740.8 30573.9 38961.4 11419.6 27164.1 16108.6 11759.3 19168.3 25642 21129.3 1048.76 27541.8 30157.4 11754.5
internal_count=3471652 2561796 1798520 909856 874082 538804 1259716 662655 534474 1196722 736061 393444 460661 171805 269211 559105 763276 660879 263427 59834 288856 334395 35774 211427 118803 150408 4330 203593 359424 126976
shrinkage=0.16


Tree=9
num_leaves=31
num_cat=0
split_feature=9 9 9 11 5 8 8 9 9 11 64 11 64 11 64 61 33 33 78 11 5 34 5 11 35 8 9 80 60 64
split_gain=1470.53 1501.16 820.156 743.463 382.424 357.452 345.338 322.527 337.933 270.19 324.678 261.807 312.949 237.728 309.512 301.154 216.439 240.506 234.624 224.865 235.43 212.651 232.055 246.759 222.867 211.572 194.076 184.343 182.818 167.849
threshold=0.13045948511787467 0.13040948511787467 0.051050000000000005 168.99500000000003 2.5000000000000004 1.2450000000000003 2.6000000000000005 1.0000000180025095e-35 0.0018500000000000003 198.99500000000003 183.00750000000002 362.02000000000004 201.88500000000002 101.00500000000001 114.00250000000001 4.9825000000000008 1.0000000180025095e-35 0.022066290935672521 1.0290276373441187 296.98500000000007 3.5000000000000004 0.089394538278526697 2.5000000000000004 64.00500000000001 1197.7658869047621 2.9700000000000002 0.089950000000000016 0.2374868417407584 4.9433308922250712 208.41000000000003
decision_type=2 2 2 2 2 2 2 2 2 2 2 2 2 2 2 2 2 2 2 2 2 2 2 2 2 2 2 2 2 2
left_child=1 2 7 4 25 -6 26 -1 -9 10 21 12 -5 14 -7 -15 18 -18 -3 20 -19 22 -10 -24 -23 -2 -4 -8 -11 -17
right_child=3 16 6 11 5 13 27 8 9 28 -12 -13 -14 15 -16 29 17 19 -20 -21 -22 24 23 -25 -26 -27 -28 -29 -30 -31
leaf_value=0.078071576475753815 0.011400257320485049 -0.044054080084009087 0.013788856798162458 -0.016906572530512091 0.066576004886326701 0.024177467725373738 -0.037519506208355383 -0.053872927802750818 -0.028400293121856698 -0.052157494334716246 0.034112550187214284 -0.04540895745647424 0.013305487758672404 -0.0091754439462270916 0.062101966828958625 0.018814958824995669 -0.070962532059673192 -0.042737250776477477 0.023849285145457491 -0.10488329849885515 -0.0074798443841634149 -0.049315214793621706 0.043478734917027619 -0.0038107140850906001 -0.00075022080561681524 -0.027274268309640439 0.042073871767122344 0.0048188836495438574 -0.013296047680694884 0.057987762053290592
leaf_weight=976.44302087390679 11425.173205203959 2456.2141805170104 14913.429697321844 16829.013537468854 5154.2164105073316 21359.040374675358 2822.9891004681704 5190.8247514615068 8986.5539472717501 6288.0572823240072 4536.6989174216869 3790.1273571740312 18344.837694134738 9987.0856421077624 7423.8656861425843 26635.462747812388 6368.5064105927304 17245.559068207222 2773.6708885000262 1162.3621505401388 6744.6001956984401 6449.606183343567 3108.3026560618309 30968.982313343033 3870.8330958946608 5301.4423856497742 10641.212348709465 39051.495657040126 6110.4422598430829 3129.1834130955394
leaf_count=4330 66101 55704 126261 148357 14259 119989 36300 130825 183432 103376 49016 57374 162948 63927 32847 166597 149033 347721 65826 29021 115971 99918 39938 419105 43597 60950 70070 399452 92900 16507
internal_value=0 -0.0582797 -0.0122164 0.0813823 0.131145 0.162131 0.0681849 -0.0830965 -0.0904809 -0.0723051 -0.0436261 -0.0340923 -0.00718466 0.143031 0.212245 0.0929147 -0.238662 -0.269922 -0.0502595 -0.225969 -0.205156 -0.065452 -0.0345548 0.00314196 -0.194376 -0.00535937 0.159794 0.0122789 -0.206282 0.143333
internal_weight=0 180667 143916 129379 90415.5 73688.9 67429.1 76486.7 75510.3 70319.5 57921 38964 35173.9 68534.6 28782.9 39751.7 36750.9 31521 5229.89 25152.5 23990.2 53384.3 43063.8 34077.3 10320.4 16726.6 25554.6 41874.5 12398.5 29764.6
internal_count=3471652 2561796 1798520 909856 541177 414126 632083 1166437 1162107 1031282 835006 368679 311305 399867 152836 247031 763276 641746 121530 492713 463692 785990 642475 459043 143515 127051 196331 435752 196276 183104
shrinkage=0.16


Tree=10
num_leaves=31
num_cat=0
split_feature=12 9 9 8 11 9 64 21 9 11 64 11 64 64 11 61 9 66 11 9 21 11 10 63 11 66 4 11 4 11
split_gain=1244.59 990.425 724.667 491.483 485.423 468.295 399.356 374.154 454.615 350.129 292.875 313.518 300.27 277.546 259.949 296.935 244.666 232.942 231.811 193.385 178.098 173.245 174.028 171.012 164.346 161.09 156.952 154.61 154.312 148.068
threshold=1.0000000180025095e-35 0.14845000000000003 0.13040948511787467 1.7000000000000004 104.99500000000002 0.029850000000000005 94.995000000000019 1.0000000180025095e-35 1.0000000180025095e-35 139.00500000000002 105.92250000000001 237.01000000000002 189.00750000000002 157.33250000000001 152.00500000000002 4.7525000000000013 0.13045948511787467 2.3758465701487519 71.995000000000019 0.010750000000000001 1.0000000180025095e-35 468.75500000000005 6.1750000000000007 61.623952608522508 79.00500000000001 2.4186277224067925 40493.000000000007 99.00500000000001 67974.500000000015 174.25500000000002
decision_type=2 2 2 2 2 2 2 2 2 2 2 2 2 2 2 2 2 2 2 2 2 2 2 2 2 2 2 2 2 2
left_child=1 2 5 -3 6 7 18 8 -1 13 -6 12 25 26 15 27 20 24 23 -10 29 22 -16 -2 -8 -12 -5 -7 -28 -4
right_child=4 3 16 9 10 14 17 -9 19 -11 11 -13 -14 -15 21 -17 -18 -19 -20 -21 -22 -23 -24 -25 -26 -27 28 -29 -30 -31
leaf_value=0.11800433436674355 5.0074484258748107e-05 0.038989258876701592 -0.044254632795483868 -0.0087951605417355364 -0.03741196414757824 -0.0019865361366315192 0.097872707067572479 -0.0016942544472283894 -0.056197845625390562 -0.0098684262332383189 0.018789899325137267 -0.018039942534154078 0.035348268232949252 0.052508451992325664 -0.013568871768161442 0.018446374119218914 -0.0087052228235399362 0.026735173422774705 -0.00768918173800405 -0.025759811383095427 -0.024170751090269973 -0.081893779676530234 0.077292715166046855 0.038573531286769221 0.050909253584559735 -0.0059362162614539924 0.038003260795711688 -0.043215495649702396 0.0077158631865050535 -0.083731123423051154
leaf_weight=486.19343757399474 4241.3215211606584 10956.285865234677 15696.448319318966 9707.0910954562714 3775.007642847253 12626.641478018893 2625.0878541568527 13975.94207258505 9145.1344044750731 31518.141219284647 12529.872230731242 9046.0470236327383 12623.451016496139 4078.9109921685886 18827.275738299359 25767.140920915233 7577.694857408409 7963.0482042685617 7741.656710642972 12854.489311735757 10337.416257223842 923.55941604234977 555.55561323498841 9688.8122857816052 6978.85419135337 14610.474285219214 5810.0675644522998 2854.9638740722439 16639.858806099452 2878.3816409447754
leaf_count=1884 43607 35253 369440 66112 34590 158944 11975 240440 237341 311527 90649 109340 94707 22421 228263 245234 67582 53051 64768 226812 204667 14848 6419 81550 40436 123975 43482 36375 119188 86772
internal_value=0 -0.0419181 -0.0940548 0.0471775 0.097335 -0.0492697 0.181505 -0.139079 -0.218942 0.0154013 0.0345276 0.0552823 0.0935086 0.0824448 0.0039284 0.049524 -0.214353 0.293557 0.0906758 -0.24008 -0.256274 -0.0886908 -0.0685286 0.167777 0.398412 0.0342442 0.0512752 -0.0599348 0.0972142 -0.314825
internal_weight=0 213217 134507 78710.4 91823.6 98016.9 39238.8 36461.8 22485.8 67754.1 52584.9 48809.8 39763.8 36235.9 61555.1 41248.7 36489.9 17567 21671.8 21999.6 28912.2 20306.4 19382.8 13930.1 9603.94 27140.3 32157 15481.6 22449.9 18574.8
internal_count=3471652 2723004 2125021 597983 748648 1396560 295387 706477 466037 562730 453261 418671 309331 251203 690083 440553 728461 105462 189925 464153 660879 249530 234682 125157 52411 214624 228782 195319 162670 456212
shrinkage=0.16


Tree=11
num_leaves=31
num_cat=0
split_feature=9 9 11 9 6 11 5 9 42 9 33 11 64 11 5 11 21 55 61 11 11 64 66 69 21 11 67 35 9 8
split_gain=1124.81 1052.08 549.464 463.278 352.362 337.346 372.312 288.893 275.681 273.912 262.601 232.89 230.768 215.841 209.584 308.133 200.838 196.097 190.076 222.738 189.361 175.519 172.705 167.405 160.844 166.296 158.468 152.354 146.794 146.637
threshold=0.13045948511787467 0.13040948511787467 208.00500000000002 0.010750000000000001 4.2500000000000009 220.79500000000004 2.5000000000000004 0.080650000000000013 0.21652644860752115 1.0000000180025095e-35 0.106972149958575 115.00500000000001 178.99750000000003 113.00500000000001 2.5000000000000004 119.00500000000001 1.0000000180025095e-35 0.75000000000000011 6.0225000000000009 315.01000000000005 631.0350000000002 138.95750000000001 2.4406667067000947 33.758027691854473 1.0000000180025095e-35 520.72500000000002 2.2500000000000004 3233.6027777777781 0.0010500000000000004 2.5200000000000005
decision_type=2 2 2 2 2 2 2 2 2 2 2 2 2 2 2 2 2 2 2 2 2 2 2 2 2 2 2 2 2 2
left_child=1 3 4 9 8 6 -5 12 10 -1 -2 -6 13 -8 -3 -16 28 26 19 -4 -20 -13 -9 -17 25 27 -10 -7 -11 -12
right_child=2 14 18 5 11 24 7 22 17 16 29 21 -14 -15 15 23 -18 -19 20 -21 -22 -23 -24 -25 -26 -27 -28 -29 -30 -31
leaf_value=0.064840517778455412 0.032019961595510675 -0.055589943603269132 -0.0090859493894499595 -0.016264179636429336 0.046041102240763715 -0.042096838997405614 0.0081921800035456068 0.031744833467658731 0.024138727725919615 -0.093189126637035144 0.012078053293902243 -0.0073423993952382496 0.026189794874051583 -0.013413908281550885 -0.0094318013580209983 -0.064973942808923366 -0.0091463502230280311 0.12044571913143635 0.031817261086840298 -0.052943211876726015 -0.093358459284260023 0.027538556859822066 0.0045484404458779274 -0.028209411694010235 0.0014543066721530802 -0.11289082216375045 -0.011382651079805397 0.00075377683118966988 -0.034565493908068408 -0.011120537271470717
leaf_weight=867.17691441511852 6006.8357847820735 8220.5081174962979 15202.188902379945 17167.467871873581 13654.380783781991 6030.4596570758731 26757.169654260855 18709.472592329374 26264.409673421789 1215.3738571325084 9879.628284559818 4913.5477343607927 9286.1339171407744 21226.141009313287 13503.686293528124 5552.399882562022 9258.4262537803152 503.83514276868664 3591.916036212875 3682.6230664994218 338.53672289132373 14868.029466163425 8783.9438500029501 7391.6189207264688 5668.9002445511869 615.2567655480525 3663.6344437922235 3279.1401087742415 10901.088796928787 23727.291228883434
leaf_count=4330 31086 222715 147564 260258 64184 92250 277301 139211 159153 41730 42946 33563 90206 262966 251673 129901 172364 2004 42174 54365 4594 102816 76619 158987 71034 11034 28259 46673 252544 197148
internal_value=0 -0.0520393 0.0718738 -0.0133605 0.102845 0.0116859 0.0326414 0.0598404 0.0625287 -0.145702 0.00754238 0.187304 0.0193904 -0.00853499 -0.207974 -0.164626 -0.168054 0.134105 -0.068599 -0.110239 0.131473 0.117965 0.144099 -0.274873 -0.125292 -0.202049 0.12369 -0.168772 -0.252787 -0.0268794
internal_weight=0 174434 126297 139766 103482 117524 101930 84762.9 70045.6 22242.1 39613.8 33436 57269.4 47983.3 34668.2 26447.7 21374.9 30431.9 22815.3 18884.8 3930.45 19781.6 27493.4 12944 15593.8 9924.86 29928 9309.6 12116.5 33606.9
internal_count=3471652 2561796 909856 1798520 661159 1327552 1106561 846303 460596 470968 271180 200563 630473 540267 763276 540561 466638 189416 248697 201929 46768 136379 215830 288888 220991 149957 187412 138923 294274 240094
shrinkage=0.16


Tree=12
num_leaves=31
num_cat=0
split_feature=9 5 11 11 33 65 11 61 61 11 54 11 5 6 11 61 61 8 12 11 64 66 11 64 78 9 64 5 54 8
split_gain=1046.17 918.022 862.903 674.335 497.74 461.661 396.028 358.547 337.203 297.911 274.894 321.129 239.159 234.18 217.189 273.117 179.344 179.313 204.467 178.779 203.619 169.356 156.32 152.317 142.022 136.348 130.524 130.191 122.203 133.503
threshold=0.28215000000000007 3.5000000000000004 178.59500000000003 143.00500000000002 0.14721124718014825 11.578137089201254 88.00500000000001 4.8425000000000002 4.9225000000000003 254.01000000000002 0.10968955207962462 119.99500000000002 4.5000000000000009 4.2500000000000009 334.13000000000005 5.6225000000000014 6.0825000000000005 4.3650000000000011 1.0000000180025095e-35 59.995000000000012 73.00500000000001 2.4260222357842234 79.00500000000001 140.00500000000002 1.045776580352243 0.27735000000000004 178.00250000000003 1.5000000000000002 0.20334897906583929 3.1150000000000007
decision_type=2 2 2 2 2 2 2 2 2 2 2 2 2 2 2 2 2 2 2 2 2 2 2 2 2 2 2 2 2 2
left_child=1 3 10 5 -2 27 13 -8 -5 17 12 21 -3 19 15 -4 -16 18 -6 -7 -21 22 -12 -9 -19 -23 -24 -1 -22 -30
right_child=4 2 14 8 9 6 7 23 -10 -11 11 -13 -14 -15 16 -17 -18 24 -20 20 28 25 26 -25 -26 -27 -28 -29 29 -31
leaf_value=-0.078318237165831542 0.054064343651131053 0.00050988391733490198 -0.020168750843002729 -0.073800920532913386 0.017128376184109024 0.022592939998429547 -0.028560103352553875 -0.0073188806871059284 -0.02776046805688898 -0.020936507107343249 0.10059031966003254 0.012754960541356448 0.036408996272171486 0.038112193802601821 -0.057363438526825246 0.0091155353076251052 -0.0092128140907626783 -0.059347278983729615 0.048787156419126933 -0.027799903532343059 -0.013097497043402233 0.025601833510075639 0.039992002927154949 0.019647679921380092 0.0079196726598105473 -0.13628561348424539 0.098180645551740484 -0.026231235466213559 0.028615566630876037 -0.014878454208368901
leaf_weight=1312.2341215117194 8988.0600672721048 26306.34963076633 17071.198020102776 5106.2353643634997 18891.701065619593 9209.6851375133265 20248.06037839764 22736.486574840965 20114.439055415598 5808.6881845617027 1678.5832479196833 17860.528131070314 5797.7534558720654 6199.8066497049294 4381.9864549180493 15606.584944674527 3613.0149122073781 848.8056746237562 7217.7576461792924 6455.8491433141753 5311.0407672461588 5669.1352782337635 7787.0939962031553 7017.0115211337688 15057.329515080317 136.39114725170657 1130.0740571761271 19244.169732525595 6931.4153358047479 2443.54548632566
leaf_count=33454 36868 262111 226114 98705 107967 137525 302112 302385 308303 76048 8622 164962 48690 63567 84502 188827 63981 11252 29664 102123 77607 39556 55544 78593 125977 1116 5123 323851 78727 27776
internal_value=0 -0.0289541 0.0399034 -0.0846514 0.121993 -0.0500117 -0.0180168 -0.0758507 -0.231762 0.0814151 0.110193 0.172492 0.0437062 0.0610988 -0.0747881 -0.0386429 -0.222523 0.110761 0.161751 0.0249227 -0.0257319 0.273521 0.348738 -0.0059946 0.027063 0.136241 0.296039 -0.184727 0.0393354 0.107994
internal_weight=0 239369 107039 132330 56812.3 107109 86552.9 50001.6 25220.7 47824.3 66365.9 34261.8 32104.1 36551.3 40672.8 32677.8 7995 42015.6 26109.5 30351.5 21141.9 16401.3 10595.8 29753.5 15906.1 5805.53 8917.17 20556.4 14686 9374.96
internal_count=3471652 3083876 1149148 1934728 387776 1527720 1170415 683090 407008 350908 585724 274923 310801 487325 563424 414941 148483 274860 137631 423758 286233 109961 69289 380978 137229 40672 60667 357305 184110 106503
shrinkage=0.16


Tree=13
num_leaves=31
num_cat=0
split_feature=9 9 11 9 63 31 64 11 8 33 8 12 34 6 5 8 35 11 65 11 5 11 68 11 61 63 31 5 8 11
split_gain=921.104 851.29 510.299 480.053 326.231 296.295 221.526 242.967 222.516 221.526 205.639 187.085 184.089 176.347 175.815 165.1 163.116 162.453 218.515 160.436 149.793 143.288 146.616 139.753 162.31 155.446 145.693 128.878 170.51 125.735
threshold=0.13045948511787467 0.13040948511787467 129.00500000000002 0.035550000000000005 109.25149877411791 1.3900000000000003 128.56750000000002 442.02000000000004 1.2450000000000003 0.20649512914302781 2.7400000000000007 1.0000000180025095e-35 0.052221413320534017 2.7500000000000004 2.5000000000000004 4.6050000000000013 719.38417887667902 154.00500000000002 27.042057267161734 173.01000000000002 4.5000000000000009 239.00500000000002 2.8683079691436544 111.00500000000001 5.2925000000000013 145.5390923507463 3.04 3.5000000000000004 4.285000000000001 307.61500000000007
decision_type=2 2 2 2 2 2 2 2 2 2 2 2 2 2 2 2 2 2 2 2 2 2 2 2 2 2 2 2 2 2
left_child=1 3 4 12 10 -5 -4 8 -8 13 11 -2 14 -7 -1 17 -14 18 -3 -16 21 22 -10 25 -25 26 -15 -6 -29 -17
right_child=2 15 6 5 27 9 7 -9 20 -11 -12 -13 16 23 19 29 -18 -19 -20 -21 -22 -23 -24 24 -26 -27 -28 28 -30 -31
leaf_value=-0.030607265302326058 0.011026025663358139 -0.039445680995968228 -0.028036674787913569 0.03109321935966328 0.021713259319695588 -0.038543347291801498 0.058155504795913075 -0.056745733957601373 0.0069528167725993817 -0.026733648484989866 -0.0067016128678825176 0.050060296149183885 -0.046690744175119876 0.019372363189018586 0.0055898043689253211 0.030749519035822539 -0.015856693012406532 -0.055192989556494883 -0.0082881243879632024 -0.022183685662765754 0.025053032305677778 -0.017822143255270369 -0.044901785452857397 -0.011728183467725625 0.010087299966488748 0.0408104411098568 -0.0074452433923521757 0.052892828422642806 0.017544663224898355 -0.08869456409072482
leaf_weight=6375.7200248969748 14479.599738503457 14836.249110012955 6561.5513087523286 10324.15767055063 17228.464014969999 2310.4797937882249 1950.6245999168605 1676.3466221840936 30311.952702270413 6230.4269094996853 13099.699320055719 4014.886498932261 6470.4645680778194 13933.231278595573 21663.144501612143 1674.8174311501498 13673.968939864513 6884.2050121365755 9421.5097411926836 7059.7262476894393 6789.8644152421039 9509.4833875673939 1463.2570137000876 16523.2374899438 18513.139140505402 4925.6023238864727 8260.8021525387303 10961.416812076233 5127.6619241863373 260.73784982133657
leaf_count=162804 73645 344124 58276 79601 114124 36946 6328 28102 231913 66649 116568 13495 128970 134674 347582 39181 197667 178382 192672 134345 70361 110683 14406 182992 202217 32287 91786 42425 29530 8917
internal_value=0 -0.0478584 0.0657961 -0.0129257 0.126776 0.0360853 -0.00214245 0.0198244 0.0323734 0.0129758 0.0539755 0.121874 -0.0848066 0.030378 -0.0410738 -0.191765 -0.161004 -0.209378 -0.170902 -0.0077286 0.0189391 -0.00369822 0.0285306 0.0404619 -0.00125583 0.0943578 0.0586914 0.195811 0.26017 0.0916204
internal_weight=0 169342 123175 136264 64911.7 81021.1 58263.1 51701.5 50025.2 70696.9 31594.2 18494.5 55243 64466.5 35098.6 33077.5 20144.4 31142 24257.8 28722.9 48074.6 41284.7 31775.2 62156 35036.4 27119.6 22194 33317.5 16089.1 1935.56
internal_count=3471652 2561796 909856 1798520 389787 827152 520069 461793 433691 747551 203708 87140 971368 680902 644731 763276 326637 715178 536796 481927 427363 357002 246319 643956 385209 258747 226460 186079 71955 48098
shrinkage=0.16


Tree=14
num_leaves=31
num_cat=0
split_feature=6 11 64 11 64 61 11 61 11 70 11 5 42 46 64 9 65 61 11 11 64 11 9 21 6 21 11 62 46 31
split_gain=822.149 791.744 656.856 630.115 441.235 427.411 333.885 322.081 281.489 255.617 233.261 213.283 247.797 203.613 197.157 196.432 196.421 195.256 190.028 176.458 174.198 166.932 137.918 130.77 222.29 130.759 155.75 124.494 123.101 119.613
threshold=3.2500000000000004 161.00500000000002 148.99750000000003 94.00500000000001 91.00500000000001 5.2825000000000015 286.02000000000004 4.7525000000000013 64.995000000000019 40.750000000000007 109.00500000000001 2.5000000000000004 0.20021112946917372 0.23946406264773737 285.01500000000004 0.17955000000000002 66617.565458252982 4.4700000000000015 39.755000000000003 69.995000000000019 179.00250000000003 99.00500000000001 0.13595000000000004 1.0000000180025095e-35 2.2500000000000004 1.0000000180025095e-35 520.72500000000002 1.8472179527165775 0.34141717157869667 1.9499999999999995
decision_type=2 2 2 2 2 2 2 2 2 2 2 2 2 2 2 2 2 2 2 2 2 2 2 2 2 2 2 2 2 2
left_child=11 2 3 4 8 -3 14 -5 13 25 -4 18 21 -2 -7 -9 -11 -10 -1 -6 -12 -13 -19 24 -20 26 -8 -14 -21 -17
right_child=1 5 10 7 19 6 9 15 17 16 20 12 27 -15 -16 29 -18 22 23 28 -22 -23 -24 -25 -26 -27 -28 -29 -30 -31
leaf_value=0.041897940024085978 0.0061018800534938192 -0.031564235034129771 0.054609370856703476 -0.028647440770432971 0.063121325044014617 7.2567463070803096e-05 -0.039543075271554047 -0.0071293549150026579 -0.026429783913114967 0.0062711297366530826 0.011833717800122583 -0.0046136902895544249 0.0043967262499486435 0.041214185786688187 0.037530578688383547 0.038753865824352231 0.22219764851746118 -0.0071258872679523947 -0.10116820941754201 0.017470117176224292 0.037480221623512791 -0.042871905349197721 0.021604766648508383 -0.020155589494093237 -0.040248180098893825 -0.013808400976892485 -0.11185387885813608 0.063835742816682264 0.043234399117511785 0.0062790437928735903
leaf_weight=741.26050378737273 9804.368113499746 18571.094010905799 7000.4797498069238 13265.270493482618 3959.386853675649 39943.615822190302 6718.3474822882272 42912.167687040579 7738.0844093947671 3741.8184531364823 17112.583116308844 5859.8560670182342 3457.6604533686186 7433.4273973809322 3953.2031198070035 3593.4168732616818 111.04975460493006 11097.744469262805 1883.8595272070379 13842.362094929413 11228.806131486257 5818.8855011173873 6959.7386155179702 5095.0841577991669 8241.0567550701671 4712.2816803386668 860.16821174224606 1220.4949996597425 7225.6787290007342 15123.360492652282
leaf_count=15388 123220 272573 41862 181333 26988 443863 125034 557313 103909 54461 163717 97380 44303 71150 41963 11532 389 162296 55979 131645 81278 109116 37191 97590 155989 73190 18099 15673 55764 101464
internal_value=0 0.0189099 0.0557716 0.0255923 0.0952367 -0.064695 -0.0236862 -0.0376976 0.0338334 -0.146654 0.177844 -0.150322 -0.0700731 0.132771 0.021537 -0.00727307 0.0780919 -0.0322811 -0.23256 0.200817 0.137468 -0.147973 0.024672 -0.25664 -0.322394 -0.217107 -0.29844 0.124399 0.164415 0.0782116
internal_weight=0 256908 178297 142955 68060.8 78611.6 60040.5 74894.2 43033.4 16143.7 35341.9 32318.2 16356.9 17237.8 43896.8 61628.9 3852.87 25795.6 15961.3 25027.4 28341.4 11678.7 18057.5 15220 10124.9 12290.8 7578.52 4678.16 21068 18716.8
internal_count=3471652 2880234 1850662 1563805 712163 1029572 756999 851642 497766 271173 286857 591418 266472 194370 485826 670309 54850 303396 324946 214397 244995 206496 199487 309558 211968 216323 143133 59976 187409 112996
shrinkage=0.16


Tree=15
num_leaves=31
num_cat=0
split_feature=9 9 9 31 12 78 11 11 9 34 9 33 8 66 64 33 46 74 33 12 74 21 21 62 70 6 11 67 62 66
split_gain=832.469 712.312 469.242 420.083 293.221 244.86 214.177 212.928 198.798 195.238 189.409 186.995 173.96 163.987 159.789 141.479 183.32 145.623 141.207 143.281 136.761 134.687 133.826 125.775 125.074 123.705 156.49 130.473 118.112 115.787
threshold=0.13045948511787467 0.13040948511787467 0.06235000000000001 3.2599999999999998 1.0000000180025095e-35 1.0802012914942996 202.01500000000001 153.11000000000004 0.0090500000000000025 0.063362688441319814 1.0000000180025095e-35 1.0000000180025095e-35 2.0150000000000006 2.1516504329004333 156.0975 0.11147696969696971 0.16740883191216724 0.94981316725225196 0.050493270270270278 1.0000000180025095e-35 0.95962242608584336 1.0000000180025095e-35 1.0000000180025095e-35 1.5940835672289717 15.250000000000002 3.7500000000000004 116.00500000000001 1.2500000000000002 1.4266551247323933 2.3846708046996237
decision_type=2 2 2 2 2 2 2 2 2 2 2 2 2 2 2 2 2 2 2 2 2 2 2 2 2 2 2 2 2 2
left_child=1 2 8 4 9 -5 20 14 10 -2 21 12 -3 -12 18 16 -10 -18 -4 -20 23 -1 -6 -7 -15 -13 -27 -28 -14 -16
right_child=3 11 7 5 22 6 -8 -9 15 -11 13 25 28 24 29 -17 17 -19 19 -21 -22 -23 -24 -25 -26 26 27 -29 -30 -31
leaf_value=0.10397581694834397 0.001729319206328569 -0.028162344909703763 0.04399654480533978 -0.020711168553710312 0.051512306659612914 -0.001442774964605293 -0.010460113864966245 -0.0050884227038889684 -0.012923986391200633 0.02379582641751898 -0.045768792500813414 -0.048587829241951416 -0.020596897572816967 -0.039691756428134412 0.064109045858233335 -0.023414887225004979 0.012007061346938595 -0.015283392309877243 0.00057266944309446362 0.025055010706153125 -0.0025121226606898586 -0.028503027995448096 0.013278774798084233 0.023768065896637346 -0.0025486068829927823 -0.0099144277584191608 -0.065505360166930024 -0.026344323204402959 0.059383785296461246 0.012882620666197005
leaf_weight=491.258038183194 18286.89147348213 2467.1746071070665 3238.179500976461 10603.433099539601 9431.4391372912796 6593.944973942067 15050.376141624845 17218.834066140698 23115.173126381327 23397.663452217588 7498.6836430697876 9470.8550479644618 693.80481509372476 3462.0682351502473 2871.3482771876734 9556.0633006996941 23133.856975518749 6387.6076475796872 18477.389320018963 9150.0434260865441 11881.166933228669 327.38189427088946 3118.583231177181 21861.224221116398 7040.7264864675963 8320.2877077691373 3327.1952843533945 6305.6029898404377 1483.0710647623055 1862.1029901513248
leaf_count=2106 115698 59231 27916 111576 34069 58080 190259 194082 343040 124549 202501 236625 21907 76349 16873 120881 309130 89709 197759 64346 102880 2224 13891 158854 138019 169000 88477 147644 40392 13585
internal_value=0 -0.045918 -0.0138426 0.0633624 0.128566 0.00977422 0.0364268 0.0594917 -0.0616543 0.0882207 -0.151705 -0.179779 0.00578526 -0.173099 0.10365 -0.0344041 -0.0140818 0.0381386 0.0774131 0.0542567 0.0744116 0.318727 0.262572 0.112037 -0.0924514 -0.211203 -0.162422 -0.249192 0.211829 0.274731
internal_weight=0 165899 133831 120225 54234.6 65990.1 55386.7 52817.9 81012.8 41684.6 18820.1 32068 4644.05 18001.5 35599.1 62192.7 52636.6 29521.5 30865.6 27627.4 40336.3 818.64 12550 28455.2 10502.8 27423.9 17953.1 9632.8 2176.88 4733.45
internal_count=3471652 2561796 1798520 909856 288207 621649 510073 514561 1283959 240247 421199 763276 121530 416869 320479 862760 741879 398839 290021 262105 319814 4330 47960 216934 214368 641746 405121 236121 62299 30458
shrinkage=0.16


Tree=16
num_leaves=31
num_cat=0
split_feature=5 11 11 9 65 35 61 11 61 11 49 11 64 67 33 65 9 61 44 9 44 71 11 11 64 52 64 5 61 11
split_gain=686.165 804.908 612.386 406.823 351.354 323.702 298.784 290.875 246.085 236.547 171.933 163.915 166.317 156.625 153.19 152.574 145.335 143.634 137.85 120.267 119.065 115.934 142.516 113.265 141.6 98.9835 102.804 97.6896 96.4007 94.4672
threshold=3.5000000000000004 141.28500000000005 114.00500000000001 0.22635000000000002 14.38969825362472 1594.826716493191 4.8325000000000005 384.47500000000008 5.4025000000000007 237.01000000000002 -1.0000000180025095e-35 202.01500000000001 209.03500000000003 3.2500000000000004 0.16303637724550898 34.483418215818482 0.011150000000000002 6.0225000000000009 0.14998068139942475 0.39905000000000007 0.21186299440654935 56.545633904334075 100.00500000000001 45.005000000000003 64.997500000000016 0.19967680830694798 97.00500000000001 1.0000000180025095e-35 5.3725000000000014 59.995000000000012
decision_type=2 2 2 2 2 2 2 2 2 2 2 2 2 2 2 2 2 2 2 2 2 2 2 2 2 2 2 2 2 2
left_child=2 5 3 4 27 15 -4 8 -3 16 -6 12 -10 -9 -5 -2 -8 -13 23 -7 28 22 -17 -12 -25 26 -23 -1 -18 -29
right_child=1 7 6 14 10 19 9 13 11 -11 18 17 -14 -15 -16 21 20 -19 -20 -21 -22 25 -24 24 -26 -27 -28 29 -30 -31
leaf_value=-0.068264681558728169 0.014062386586649763 -0.012974257735524091 -0.045569447221135845 0.042739817356628275 -0.034297661729647828 0.0071729083572242081 -0.043015401536709838 -0.048029760273253327 0.0060265354996505184 -0.048514606566021225 0.039946555344596076 -0.0062064310301898655 0.036980107532952208 0.018528278759760798 0.011897469863642984 0.06587463185406281 -0.017459393810679007 0.023850236011012105 0.017053302415449573 0.042781770163757622 0.0081847467545547118 -0.18929772261859565 0.036107428015079414 -0.034250234321059739 0.00045098146975983133 0.0020701467069172141 0.070610383714988387 -0.0028547051874184453 0.0061967169970486655 -0.025579358975581473
leaf_weight=1074.2258011088124 6878.3426340888254 22848.929224495194 9998.6278064734361 5700.5582274714252 3073.2137640030996 25140.253532667441 3379.8015650532907 4988.0027107225324 10497.780288022186 4856.209063020593 1634.343803678843 21674.633562359377 7705.7262611374608 1105.7574299444095 14893.882009545574 6465.3279865572695 24436.205060520006 5011.2352949594788 15735.403547855443 2687.6979117934825 8594.1741681155981 40.597742863930762 11338.02933147896 3369.71250172297 28226.697124814615 2978.5921857472276 965.2996340841346 6641.8149441803689 5381.0525109709706 15879.064793446945
leaf_count=32761 56675 278098 175541 25576 53847 231512 80759 105534 97958 81288 25729 285557 65203 18525 98538 34219 325158 57208 189516 12211 99810 478 77996 58280 400287 22593 5885 127184 64513 283213
internal_value=0 0.0533113 -0.0454479 0.0031118 -0.0308167 0.143153 -0.12794 -0.015433 0.00339293 -0.094316 0.0150774 0.0463947 0.119559 -0.224702 0.127717 0.217734 -0.0700414 -0.00351379 0.0294774 0.0663257 -0.0525487 0.258725 0.293234 -0.00703364 -0.0203116 0.104532 0.375754 -0.132037 -0.0824389 -0.117984
internal_weight=0 130326 152875 96228.9 75634.5 56494.1 56646.1 73832.1 67738.3 46647.4 52039.4 44889.4 18203.5 6093.76 20594.4 28666.2 41791.2 26685.9 48966.2 27828 38411.4 21787.8 17803.4 33230.8 31596.4 3984.49 1005.9 23595.1 29817.3 22520.9
internal_count=3471652 1349652 2122000 1294931 1170817 441569 827069 908083 784024 651528 727659 505926 163161 124059 124114 197846 570240 342765 673812 243723 489481 141171 112215 484296 458567 28956 6363 443158 389671 410397
shrinkage=0.16


Tree=17
num_leaves=31
num_cat=0
split_feature=9 9 9 11 5 31 12 66 11 65 21 12 9 9 6 20 33 5 11 60 8 31 64 11 5 74 21 80 11 11
split_gain=694.682 587.431 376.299 340.311 280.019 234.564 221.073 211.803 148.099 148.535 148.018 236.877 200.858 184.072 146.154 134.089 129.146 123.104 122.094 121.061 118.592 117.764 108.033 106.105 161.616 105.003 102.119 102.09 100.933 98.9182
threshold=0.13045948511787467 0.13040948511787467 0.045650000000000003 178.59500000000003 2.5000000000000004 3.8100000000000009 1.0000000180025095e-35 2.6007046449466658 89.995000000000019 13.002716608044372 1.0000000180025095e-35 1.0000000180025095e-35 1.0000000180025095e-35 0.0029500000000000004 3.7500000000000004 695.1350000000001 1.0000000180025095e-35 3.5000000000000004 269.00500000000005 1.0000000180025095e-35 2.5200000000000005 3.3300000000000001 89.995000000000019 199.00500000000002 3.5000000000000004 1.0351670658547676 1.0000000180025095e-35 0.13502190644446369 151.12500000000003 99.00500000000001
decision_type=2 2 2 2 2 2 2 2 2 2 2 2 2 2 2 2 2 2 2 2 2 2 2 2 2 2 2 2 2 2
left_child=1 2 10 4 29 6 17 8 22 -10 11 12 -1 -14 -5 -16 19 -4 -7 -3 -21 -9 -6 24 -18 -23 -8 -15 -13 -2
right_child=3 16 5 14 7 18 26 21 9 -11 -12 28 13 27 15 -17 23 -19 -20 20 -22 25 -24 -25 -26 -27 -28 -29 -30 -31
leaf_value=0.090556078553311534 0.0026272244782185416 -0.082698544736544671 -0.0017531600338380681 -0.035131172344789442 0.025976930714178004 -0.0035209212106910416 0.038127236987611349 0.027374513304126095 -0.018893965482573719 0.021796205267856219 -0.00031309872191144099 0.0089764897887187143 -0.068665886179801391 -0.067309310079685908 -0.017606168988388626 0.0065079312028295715 -0.034808855866072255 0.018101009994254954 -0.04078085780976469 -0.014946907058473321 0.04012832264146244 0.0030116171142334741 0.05446528090593282 -0.058245882268436161 -0.003990329013368551 -0.041275276627512486 0.0061223963236410085 -0.020204312182441037 -0.022484586884356183 -0.026426622010053778
leaf_weight=379.89696783339605 11281.291600415658 431.66318608709844 21806.9317270912 3640.0881498819217 7759.6754854284227 17581.673317147186 9837.7413329241099 4829.9267656541197 2464.4376054775203 33726.686878991139 21865.894936776313 10022.607805715466 2426.757179556269 1238.847291725222 8579.9475352717272 18922.486740374938 17472.559115835233 12622.502073181648 2582.0241274400614 2599.9450180631247 1627.3582149908179 15067.204067822546 6076.0411029183306 3188.9413695161638 5802.8350095464557 1507.6828126675682 3446.2675235350616 23919.721818376303 3529.9337045767461 4086.6279129941249
leaf_count=1884 91185 15408 262625 39677 41336 192030 66633 22396 13137 209428 348046 115356 89829 35010 96547 199559 441145 107008 43181 62469 43653 117651 26551 94142 106459 14122 25728 460174 51016 38267
internal_value=0 -0.0424252 -0.0131377 0.0584115 0.0905868 0.0386022 0.0768172 0.116932 0.15255 0.118909 -0.0685457 -0.103616 -0.156199 -0.166144 -0.0312664 -0.00634348 -0.165944 0.034536 -0.0518261 -0.0124168 0.0390941 0.033685 0.240549 -0.192971 -0.169534 -0.00635501 0.186401 -0.140774 0.0048878 -0.0318672
internal_weight=0 162384 131261 117942 86799.6 67877.1 47713.4 71431.7 50026.8 36191.1 63383.7 41517.8 27965.2 27585.3 31142.5 27502.4 31123.3 34429.4 20163.7 4658.97 4227.3 21404.8 13835.7 26464.3 23275.4 16574.9 13284 25158.6 13552.5 15367.9
internal_count=3471652 2561796 1798520 909856 574073 697205 461994 444621 290452 222565 1101315 753269 586897 585013 335783 296106 763276 369633 235211 121530 106122 154169 67887 641746 547604 131773 92361 495184 166372 129452
shrinkage=0.16


Tree=18
num_leaves=31
num_cat=0
split_feature=9 9 9 31 12 8 11 6 80 11 65 11 64 11 12 8 70 11 9 62 60 10 9 11 72 71 33 8 11 36
split_gain=574.601 518.252 325.116 320.701 248.77 230.966 184.454 166.793 160.642 147.423 143.15 208.746 139.759 146.39 135.37 130.391 125.51 124.495 121.118 116.291 116.215 113.619 113.408 116.995 131.393 111.445 105.446 104.652 104.473 117.964
threshold=0.13045948511787467 0.13040948511787467 0.025450000000000004 3.6600000000000006 1.0000000180025095e-35 2.4400000000000004 307.61500000000007 3.7500000000000004 0.24294675068635113 194.00500000000002 23.948369336683005 136.00500000000002 119.86000000000001 92.00500000000001 1.0000000180025095e-35 1.0000000180025095e-35 14.250000000000002 209.00500000000002 0.26745000000000008 1.4415997782739682 4.5404055633473606 5.3750000000000009 0.39905000000000007 62.005000000000003 2.3151278409090912 47.683138478862155 0.4077558239595051 4.5900000000000007 69.995000000000019 1430.5998912784864
decision_type=2 2 2 2 2 2 2 2 2 2 2 2 2 2 2 2 2 2 2 2 2 2 2 2 2 2 2 2 2 2
left_child=1 2 10 4 7 14 8 -2 -5 12 -1 20 -7 -14 -4 -9 -3 27 -6 -10 -12 -13 23 -21 -25 -11 -24 -18 -17 -30
right_child=3 16 5 6 18 9 -8 15 19 25 11 21 13 -15 -16 28 17 -19 -20 22 -22 -23 26 24 -26 -27 -28 -29 29 -31
leaf_value=-0.028568853882980132 -0.0051286391047046399 -0.034758808341442876 0.0085239671190832679 -0.032818819771445067 0.021834912838566735 -0.0073912945617082863 -0.032833523265130268 0.068172321366072985 -0.022138667989078837 -0.042149657011723338 -0.0021689618129352396 -0.035638426454973539 0.053445281064182677 0.0067546149763513955 0.032618180814070433 0.04560896730668957 -0.012451604664172191 -0.046234335419303496 0.050527791512332651 0.043109812526669858 0.031294136273664695 -0.0069168241322850052 0.030273270409262493 0.000622611508665976 -0.095212774565090655 -0.0084550046453199228 -0.0011630600263987064 0.036760832806220584 0.0062987972390119804 0.029450162178292581
leaf_weight=11687.795574221222 12685.719461915374 15985.462389843713 23893.382228135073 3141.0259071870241 8912.8849230698543 21500.948341070325 4161.6073767338239 1198.6477141461801 3839.1884882492013 3474.2958124302677 11707.562504639005 7225.1491165511543 1872.9362409343012 20923.393673982006 7957.6339536370942 2545.9716491338331 10788.327171575205 2564.9411054820084 6522.0862576859072 1657.0238374172477 3436.8162183050008 6886.6486634147732 8264.8127903391141 28948.411483030301 370.92846947035287 9081.5087695993134 4079.9851010887069 1232.594587320782 23354.736891135923 7425.6814480852336
leaf_count=290286 95447 417883 264700 40531 43402 269154 78004 3796 39470 56326 201207 151137 12362 209725 51956 13263 238695 79707 22763 15014 44981 117988 62291 261583 5028 128698 38874 26991 148711 41679
internal_value=0 -0.0389156 -0.0112979 0.0532414 0.102035 0.022724 -0.00288285 0.0660029 0.0138563 -0.0154692 -0.0850056 -0.0476326 0.0116414 0.0661919 0.0908978 0.102032 -0.156038 -0.0889599 0.212245 0.0284407 0.0339065 -0.135138 0.0432234 0.0109237 -0.00368646 -0.111116 0.124272 -0.0462843 0.0903776 0.074275
internal_weight=0 160219 129648 117109 62645.7 88704.1 54463 47210.8 50301.4 56853.1 40944 29256.2 44297.3 22796.3 31851 34525 30571.3 14585.9 15435 47160.4 15144.4 14111.8 43321.2 30976.4 29319.3 12555.8 12344.8 12020.9 33326.4 30780.4
internal_count=3471652 2561796 1798520 909856 369061 992921 540795 302896 462791 676265 805599 515313 491241 222087 316656 207449 763276 345393 66165 422260 246188 269125 382790 281625 266611 185024 101165 265686 203653 190390
shrinkage=0.16


Tree=19
num_leaves=31
num_cat=0
split_feature=5 11 64 61 11 11 64 35 11 14 6 11 61 9 21 11 63 61 61 11 64 15 11 11 64 9 9 66 63 38
split_gain=573.324 711.984 436.607 369.063 379.065 319.637 295.966 225.921 214.241 193.036 176.878 148.061 217.087 147.084 142.147 139.894 125.636 122.132 121.65 120.684 163.12 113.407 112.133 108.322 103.371 101.957 96.3329 96.2849 90.1431 87.4527
threshold=2.5000000000000004 119.99500000000002 125.00250000000001 5.0625000000000009 249.00500000000002 79.00500000000001 244.04500000000004 1723.2397497910285 169.01000000000002 2.5000000000000004 2.7500000000000004 59.995000000000012 4.2825000000000015 0.17465000000000003 1.0000000180025095e-35 83.00500000000001 97.419777419354844 6.0025000000000004 4.6325000000000012 189.00500000000002 174.00500000000002 1.0000000180025095e-35 59.995000000000012 420.03000000000003 81.007500000000007 0.42585000000000006 0.30745000000000006 2.696376985044076 401.16105730736359 16.53530923190154
decision_type=2 2 2 2 2 2 2 2 2 2 2 2 2 2 2 2 2 2 2 2 2 2 2 2 2 2 2 2 2 2
left_child=8 2 5 26 6 7 19 22 10 23 14 21 -13 18 -1 -4 -9 -11 -7 20 -5 -12 -2 28 -24 -14 -3 -26 -6 -30
right_child=1 3 15 4 9 13 -8 16 -10 17 11 12 25 -15 -16 -17 -18 -19 -20 -21 -22 -23 24 -25 27 -27 -28 -29 29 -31
leaf_value=-0.058392051523309993 0.050996834202308633 -0.026869123648761564 0.063897707753192506 -0.0016009392437490483 -0.033207840461256077 -0.028694038010346694 0.032843375631539849 -0.0078299105554658858 -0.060898440796658848 -0.016285245795256486 0.061144875059777462 -0.055840087034393665 -0.0136114281752395 0.012751147258866344 -0.0081450245690542766 0.027061093195161635 0.026485501395941399 0.016624879692648479 -0.0024318712966421574 -0.0093492804981900983 0.017069953090523397 0.0023422589525852826 0.0077777617603911478 -0.066734571993577282 0.044463082431043778 0.023452207978006061 0.003173377977821891 -0.0090268382778829898 -0.02353466169421229 0.043754752423811681
leaf_weight=3772.4837457123213 5304.880297817057 20565.336262357596 3005.3857177258469 32271.727370862762 8254.5447714973707 5341.1089132364723 8483.4433465585171 8342.1570718468283 2675.8960881609237 7732.8163900901272 951.02195819711778 3021.9110687454231 20540.311517704249 14409.5000932517 2332.4271583947702 21663.595407644112 4060.943134582194 4606.3799831596843 29205.593947212881 19897.940869270067 19050.029282405245 7168.1778393511486 5897.6514232893824 1968.498996544542 5884.5068123249803 2093.7137026985874 3151.047169124824 1009.253288293723 1192.1107346234494 844.87011581598199
leaf_count=104142 48494 336582 17578 364909 135704 90295 81149 113872 55279 124207 12026 55528 353552 80787 50324 170257 35870 68084 393813 253147 174119 114709 65314 46343 47805 13428 21491 9527 20594 12723
internal_value=0 0.0195602 0.0809671 -0.0303854 -0.00478238 0.0448858 0.028709 0.125243 -0.106701 -0.113297 -0.088322 -0.060008 -0.0972544 -0.00517613 -0.244967 0.19718 0.0212839 -0.0249967 -0.0405759 0.00767753 0.0333092 0.0576872 0.196496 -0.202167 0.145803 -0.0636433 -0.142985 0.228951 -0.161058 0.0273418
internal_weight=0 232143 104125 128019 104302 79455.6 79703.1 30499.4 42555.9 24599.2 39880 33775.1 25655.9 48956.2 6104.91 24669 12403.1 12339.2 34546.7 71219.7 51321.8 8119.2 18096.3 12260 12791.4 22634 23716.4 6893.76 10291.5 2036.98
internal_count=3471652 2712664 1073612 1639052 1280979 885777 873324 320882 758988 407655 703709 549243 422508 564895 154466 187835 149742 192291 484108 792175 539028 126735 171140 215364 122646 366980 358073 57332 169021 33317
shrinkage=0.16


Tree=20
num_leaves=31
num_cat=0
split_feature=9 9 9 11 33 64 9 11 6 63 33 6 61 66 9 21 61 11 33 34 31 8 11 11 64 11 72 65 63 11
split_gain=546.758 433.754 296.423 287.854 189.272 186.55 185.167 151.539 214.868 147.138 145.293 144.35 134.643 125.05 117.863 119.936 115.245 116.92 131.117 129.411 110.764 109.223 109.075 105.921 103.214 97.5993 97.586 92.2544 90.5937 90.4329
threshold=0.13045948511787467 0.13040948511787467 0.092750000000000013 149.00500000000002 0.079103428571428602 175.00250000000003 0.0074500000000000009 168.99500000000003 3.7500000000000004 176.21125296912118 0.093855357142857157 3.2500000000000004 5.4425000000000017 2.3758465701487519 0.65675000000000006 1.0000000180025095e-35 5.3325000000000014 269.00500000000005 0.25319873817034716 0.11403255862080335 2.7099999999999995 3.8200000000000007 137.05500000000004 89.995000000000019 134.00500000000002 194.00500000000002 1.9873216797267437 66617.565458252982 134.01367415048546 99.00500000000001
decision_type=2 2 2 2 2 2 2 2 2 2 2 2 2 2 2 2 2 2 2 2 2 2 2 2 2 2 2 2 2 2
left_child=1 2 6 4 -2 11 -1 8 -8 10 -10 -6 -9 22 15 23 25 18 19 -18 -14 26 24 -13 -4 -5 29 -22 -25 -3
right_child=3 21 13 16 5 -7 7 12 9 -11 -12 14 20 -15 -16 -17 17 -19 -20 -21 27 -23 -24 28 -26 -27 -28 -29 -30 -31
leaf_value=-0.022198523539110459 0.040917288157022356 -0.023021510541932737 0.023185449859352752 -0.0046816932409359819 -0.012650598927472625 0.040737001419893053 -0.012870603395262652 -0.030444021199606819 0.0072494447201095404 0.024205218350673952 -0.018830573668242194 0.024730220526685082 0.017680561942070162 -0.0013496948218070964 0.042747344560713281 -0.0033294282223730143 0.008771197133321907 -0.012619758235905077 -0.0038317348407100956 0.044191449777168892 -0.016142955091503101 -0.00077425731015168611 0.0032923289892282186 -0.002521546488413854 0.061916057559126769 -0.0341764052905634 -0.015609477532492141 0.096314649330382585 0.017887797284487347 -0.047886288512887669
leaf_weight=15216.684048929223 6362.3305401354446 7272.766633975989 8596.0515710573527 8434.2433781831642 6704.2734070209553 5320.6233603997389 20132.828588315489 8402.3579923670623 27795.115553220618 9939.3346333775553 6807.904119691404 16049.89835332334 4001.0208366551087 9402.7803377486416 3059.182578253909 12314.605420907261 7501.9987664344371 8367.0879036303086 9913.2980904769502 4074.9875080699567 9543.5605609491467 4598.2036002000095 5409.3161632199772 11138.624634855776 2215.4104983787984 4355.1369163861964 10324.429432062345 190.47231656836811 11132.379984548083 7718.6131313934166
leaf_count=370436 30848 189066 77185 76776 73430 29048 313778 139886 363266 84826 80407 92995 52681 101203 14362 84074 64405 122756 92834 25386 145110 120890 56601 77853 11838 52587 241748 1303 72502 211572
internal_value=0 -0.0382367 -0.012838 0.0525138 0.0910421 0.0750984 -0.036987 -0.0191514 0.00529227 0.0440432 0.0132399 0.0592853 -0.0905642 0.0833196 0.0765597 0.0650438 -0.0126071 0.0214154 0.0604622 0.132742 -0.0295665 -0.146621 0.136508 0.092633 0.194512 -0.0920341 -0.172374 -0.0871401 0.0480017 -0.223898
internal_weight=0 157567 127653 114729 72081.9 65719.6 102029 86812.6 64675.2 44542.4 34603 60399 22137.4 25623.6 53694.7 50635.5 42646.8 29857.4 21490.3 11577 13735.1 29914 16220.8 38320.9 10811.5 12789.4 25315.8 9734.03 22271 14991.4
internal_count=3471652 2561796 1798520 909856 475112 444264 1551693 1181257 842277 528499 443673 415216 338980 246827 341786 327424 434744 305381 182625 89791 199094 763276 145624 243350 89023 129363 642386 146413 150355 400638
shrinkage=0.16


Tree=21
num_leaves=31
num_cat=0
split_feature=9 12 8 5 11 11 11 5 10 65 11 42 31 29 21 11 66 6 12 38 66 34 21 38 5 64 44 9 10 61
split_gain=484.319 301.914 256.811 255.999 252.394 197.964 181.839 174.334 168.12 153.245 137.015 130.496 125.282 121.037 115.277 132.211 110.19 105.915 100.486 99.3067 95.0014 111.836 92.2259 89.0305 86.5047 86.272 92.5455 86.715 86.2042 170.608
threshold=0.14625000000000002 1.0000000180025095e-35 1.2450000000000003 3.5000000000000004 140.00500000000002 219.00500000000002 109.00500000000001 3.5000000000000004 4.9450000000000012 9.2658325271620843 234.01000000000002 0.11989616766495759 4.160000000000001 1.0000000180025095e-35 1.0000000180025095e-35 485.01000000000005 4.3129664179104497 4.2500000000000009 1.0000000180025095e-35 5.771752229591006 2.5122959080830483 0.03246445800384639 1.0000000180025095e-35 14.277555553369938 4.5000000000000009 254.27000000000001 0.30832884560765589 0.39905000000000007 1.0000000180025095e-35 4.9525000000000015
decision_type=2 2 2 2 2 2 2 2 2 2 2 2 2 2 2 2 2 2 2 2 2 2 2 2 2 2 2 2 2 2
left_child=1 3 -2 6 11 7 9 16 22 -1 13 23 -9 -3 15 24 18 -11 -4 -10 -20 -22 28 -5 -6 26 27 -14 -8 -30
right_child=2 10 5 4 14 -7 8 12 19 17 -12 -13 25 -15 -16 -17 -18 -19 20 -21 21 -23 -24 -25 -26 -27 -28 -29 29 -31
leaf_value=-0.029664539594783209 0.039658810114643388 0.0055067471106493909 -0.00063199298056294719 -0.005305135079206145 -0.021144459205219325 -0.010029744731239918 -0.028605910642481393 0.025876544781461508 -0.0012740111682356431 -0.0096369346689749065 -0.02069249692632686 0.031193276393929079 -0.00065800820032751268 0.036738676863960235 0.0039696357443915111 -0.088403777558626551 -0.047443719321217187 0.010769088172603629 0.027774077628047143 -0.026549461322740855 -0.077457109344563749 0.0066849026884005574 -0.02018406302744067 0.027430636450147542 0.0072252157592120449 0.049543685845504885 -0.047589529274113848 0.024975161619608756 -0.053635348737894328 -0.17596153932609021
leaf_weight=7539.0391157795675 6360.1057906290516 40562.991992963187 31720.197760597977 8060.1287030086969 13136.65458993052 15631.994268850016 3570.5445886567177 20846.234882142046 7777.1559355546196 25781.591806940356 4734.6094769601768 7091.2874211885501 10812.524913137604 3446.4736391470069 9484.2829226972244 656.59833814881858 1091.4621295308461 8711.7467445813818 7355.6943882814376 8149.2548786459956 452.43602144310717 3807.7145932121202 4675.5889586539706 2889.2118980404339 3480.5142238509434 1171.2442529632244 826.10746734926943 4913.9983410884743 5094.3760937575717 309.61743022827432
leaf_count=195204 21574 420767 275311 109177 221973 202273 73616 106587 142995 513372 73064 72292 88737 31272 140699 19426 12424 139052 38162 161875 5825 28801 96233 32666 68303 8070 7661 33576 120642 10023
internal_value=0 -0.03376 0.0531053 -0.0614275 -0.0021378 0.0405461 -0.0985192 0.0599891 -0.158592 -0.0562483 0.0323139 0.0892753 0.109177 0.0497037 -0.0637697 -0.112405 0.0172862 -0.0280195 0.0251898 -0.0887937 0.104764 -0.0140696 -0.24003 0.0208305 -0.0950147 0.0473679 0.0288093 0.0459467 -0.299359 -0.379025
internal_weight=0 165152 104990 116408 44798.7 98629.6 71608.9 82997.6 29576.5 42032.4 48744.1 18040.6 38570.1 44009.5 26758.1 17273.8 44427.5 34493.3 43336 15926.4 11615.8 4260.15 13650.1 10949.3 16617.2 17723.9 16552.6 15726.5 8974.54 5403.99
internal_count=3471652 2642651 829001 2117548 664536 807427 1453012 605154 605384 847628 525103 214135 244631 452039 450401 309702 360523 652424 348099 304870 72788 34626 300514 141843 290276 138044 129974 122313 204281 130665
shrinkage=0.16


Tree=22
num_leaves=31
num_cat=0
split_feature=9 5 11 64 8 11 65 11 74 12 34 11 61 10 56 11 64 64 11 3 65 9 78 11 63 29 63 66 20 33
split_gain=425.262 333.936 398.935 268.928 232.87 210.395 287.392 151.845 150.333 136.797 122.759 122.577 151.6 119.847 124.826 119.371 182.812 165.829 111.713 124.152 98.5643 94.728 84.5639 80.8416 96.391 79.0072 77.7141 76.7844 76.1224 76.112
threshold=0.23065000000000002 2.5000000000000004 89.995000000000019 93.002500000000012 3.8200000000000007 296.98500000000007 39.842033267754417 357.71000000000009 1.0975523524941624 1.0000000180025095e-35 0.022138273488945263 79.00500000000001 4.5500000000000016 5.9450000000000012 0.052504354827652755 153.11000000000004 203.45250000000001 157.33250000000001 69.995000000000019 214.50000000000003 7.5214068435756998 0.76460000000000006 1.060117935947984 135.00500000000002 108.05068181818184 -1.0000000180025095e-35 293.04034226190481 3.8949490662139223 1293.7350000000004 0.20900464572192515
decision_type=2 2 2 2 2 2 2 2 2 2 2 2 2 2 2 2 2 2 2 2 2 2 2 2 2 2 2 2 2 2
left_child=1 11 3 18 9 6 23 10 15 21 -6 20 -13 -7 -15 17 25 -8 19 -3 -1 22 -2 24 -4 -17 -18 -9 -5 -12
right_child=4 2 5 28 7 13 8 27 -10 -11 29 12 -14 14 -16 16 26 -19 -20 -21 -22 -23 -24 -25 -26 -27 -28 -29 -30 -31
leaf_value=-0.033481566402012684 -0.0037779674005509706 -0.0025697753240830814 -0.020710418807953119 0.041103942698743345 -0.049779541399778228 -0.04120989055667585 0.003057601499164413 -0.060658686733009254 -0.033852113457515466 0.03812580198092258 0.020879250660045409 -0.055122759362586413 -0.019305729643039345 0.023338259535000242 -0.030457010394657761 -0.064406707609504579 0.001062188936494472 0.026184341816065208 -0.0088900763397443214 0.029397488226642336 -0.0030000824779889751 0.057509643008084289 0.017803145916497502 -0.022518614925933478 -0.0016588400097076867 -0.010393534255992636 0.023252019962936094 0.063291699953214098 0.018042942197925221 0.0014081457553349419
leaf_weight=3402.8013386332314 6216.0244579251739 6277.0195320706116 10426.427483412786 7957.3590260477504 1059.0730302533484 6117.297341835103 22839.967635182838 1333.6229893229902 2727.3352830119547 8316.5524263802217 6566.6658112924779 4130.5448172817414 11305.487573462015 1973.1240437378583 2507.5155432698084 719.36037424160168 9586.6779720908962 12164.742501751462 10949.472482593177 6164.6492461576127 13450.124054354877 1249.9405377202202 18427.674157512083 15508.226808068343 19538.62477474258 19120.817437422724 6983.9940504740225 141.52015948260669 6792.0751080875634 23645.623312309472
leaf_count=90071 37959 93947 167100 69280 13393 128940 261449 28931 38670 32013 51909 97321 225564 33483 52195 13536 129114 100377 150492 68351 273940 4216 108957 263307 273997 280792 82220 3034 61821 235273
internal_value=0 -0.0230287 -0.00516246 0.0847819 0.0690082 -0.0315078 -0.019543 0.00873082 0.0188441 0.126707 0.0235206 -0.116183 -0.180563 -0.166551 -0.0422961 0.0276438 -0.012443 0.0693409 0.0181033 0.0829343 -0.0572166 0.0908694 0.0772476 -0.0821322 -0.0517993 -0.0771996 0.0650905 -0.304796 0.190528 0.0352513
internal_weight=0 200644 168355 38140.6 66956.7 130214 119616 32746.5 74142.9 34210.2 31271.4 32289 15436 10597.9 4480.64 71415.6 36410.8 35004.7 23391.1 12441.7 16852.9 25893.6 24643.7 45473.3 29965.1 19840.2 16570.7 1475.14 14749.4 30212.3
internal_count=3471652 2955967 2269071 443891 515685 1825180 1610562 332540 906158 183145 300575 686896 322885 214618 85678 867488 505662 361826 312790 162298 364011 151132 146916 704404 441097 294328 211334 31965 131101 287182
shrinkage=0.16


Tree=23
num_leaves=31
num_cat=0
split_feature=9 9 9 11 64 8 21 9 9 63 31 49 11 39 8 48 11 64 66 70 75 56 64 61 9 11 9 61 11 64
split_gain=387.134 363.703 348.198 277.411 211.649 146.894 124.286 166.866 183.076 118.162 158.211 108.514 104.345 104.295 102.082 91.5244 87.2936 101.068 93.4239 129.11 92.2809 85.6119 145.712 85.5282 85.1571 84.6388 80.5635 80.0375 136.625 108.476
threshold=0.13045948511787467 0.13040948511787467 0.030550000000000004 129.00500000000002 115.00250000000001 2.3500000000000001 1.0000000180025095e-35 1.0000000180025095e-35 0.0032500000000000007 160.05439072105534 2.7099999999999995 -1.0000000180025095e-35 215.00500000000002 1.0000000180025095e-35 2.2500000000000004 0.093389153015374995 223.00500000000002 238.46500000000003 2.6107650669004694 10.750000000000002 0.52715963603137139 0.042689334752764603 303.98500000000007 5.7625000000000002 0.00085000000000000017 520.72500000000002 0.10805000000000002 4.2125000000000012 72.00500000000001 71.010000000000005
decision_type=2 2 2 2 2 2 2 2 2 2 2 2 2 2 2 2 2 2 2 2 2 2 2 2 2 2 2 2 2 2
left_child=1 2 6 4 14 26 7 -1 -9 -5 -11 -7 -12 -3 -2 -10 17 18 19 -13 -21 22 -18 -14 -8 -25 -4 -16 -29 -30
right_child=3 13 5 9 -6 11 24 8 15 10 12 16 23 -15 27 -17 21 -19 -20 20 -22 -23 -24 25 -26 -27 -28 28 29 -31
leaf_value=0.080786051548336429 0.019033167123220115 0.0028604535595607512 0.01105709726944458 -0.015247818880196254 0.027719249307553383 -0.037010970884793173 -0.036681499034976917 -0.055714025178133272 -0.027305145928910309 0.027557155684942644 0.0063347513859442787 -0.0079979431825138465 -0.022313695028190101 -0.025179668282536597 -0.026784678430993396 -0.007595836202118989 -0.01659417160208336 0.042218692259358474 -0.0079076635935748357 0.019121548614107697 -0.018879097536319472 -0.026777443302256305 0.061082980232323378 0.0069541729784079074 0.0019883335091463168 -0.059632945891231588 0.035978231534498577 0.021583833448490873 -0.05325639609431735 -0.00068797824860945822
leaf_weight=422.1608219986374 13167.858258696971 3929.1669294600142 22040.642472355423 11936.454641231627 20757.026039563236 1940.4640668669163 1612.5470637526596 3341.765786579228 10351.898534378182 5707.0311969913309 20321.808181411674 8714.5498488972516 8170.4356657511089 25016.714306502879 2305.08630847733 14452.467634973873 1951.8220782149292 1730.7874427641509 13975.131084368404 17235.613008767599 1807.5123483885545 4948.2139444616332 904.82440082740504 6389.6334394923761 15197.76797421684 529.15559488977306 3909.8926251226803 7840.7278629123466 1084.4858009084128 13694.492826125061
leaf_count=2106 59655 114287 225501 110904 121496 30560 34918 115879 223379 27809 173957 110841 106685 648989 24222 260276 31269 16697 157151 186077 23766 81994 13494 89528 258528 11186 26084 64869 10445 109100
internal_value=0 -0.0326123 -0.00914387 0.0447299 0.0920045 0.0308908 -0.0789813 -0.119126 -0.128486 -0.00770844 0.0177188 0.000807126 -0.00718341 -0.133584 0.0477357 -0.0988835 0.00959287 0.0270787 0.0172583 0.0508303 0.0969666 -0.0877819 0.0500598 -0.0701797 -0.0107569 0.0116345 0.0925743 0.0101091 0.0281988 -0.0284092
internal_weight=0 153484 124538 111904 58849.7 79159.5 45378.6 28568.3 28146.1 53054.5 41118.1 53208.9 35411 28945.9 38092.7 24804.4 51268.5 43463.6 41732.8 27757.7 19043.1 7804.86 2856.65 15089.2 16810.3 6918.79 25950.5 24924.8 22619.7 14779
internal_count=3471652 2561796 1798520 909856 389787 903434 895086 601640 599534 520069 409165 651849 381356 763276 268291 483655 621289 494532 477835 320684 209843 126757 44763 207399 293446 100714 251585 208636 184414 119545
shrinkage=0.16


Tree=24
num_leaves=31
num_cat=0
split_feature=6 11 64 61 11 11 64 11 70 5 3 64 11 64 5 54 11 14 80 44 10 63 11 17 11 15 63 35 80 66
split_gain=380.226 457.957 312.273 262.429 267.264 222.166 178.143 158.977 157.218 154.363 178.755 147.301 134.188 123.495 115.333 111.065 107.086 105.377 101.954 94.5406 91.3051 87.3882 85.1652 84.9214 85.2564 80.4217 76.9681 73.8428 73.6888 72.825
threshold=3.7500000000000004 109.00500000000001 104.01500000000001 5.0325000000000015 248.00500000000002 53.265000000000008 203.45250000000001 77.00500000000001 18.250000000000004 2.5000000000000004 218.00000000000003 78.00500000000001 165.13500000000002 60.002500000000005 3.5000000000000004 0.20334897906583929 169.01000000000002 1.5000000000000002 0.48922848858440521 0.22084566252477875 4.7650000000000006 988.32207263563112 177.00500000000002 1.0000000180025095e-35 209.00500000000002 3.5000000000000004 165.30725960796423 622.24869939271275 0.4409819657257476 2.7943454606928073
decision_type=2 2 2 2 2 2 2 2 2 2 2 2 2 2 2 2 2 2 2 2 2 2 2 2 2 2 2 2 2 2
left_child=5 2 7 22 6 13 12 11 -6 23 18 20 19 25 -4 -12 -8 -10 -11 -5 -2 28 -3 24 29 -1 -14 -27 -17 -7
right_child=1 3 14 4 8 9 16 -9 17 10 15 -13 26 -15 -16 21 -18 -19 -20 -21 -22 -23 -24 -25 -26 27 -28 -29 -30 -31
leaf_value=0.02960955955295479 0.0087921482595995602 -0.013910227260165895 0.016953949527474556 0.0029532792789766261 -0.035782847997387464 -0.021193147049435944 0.037006640597083362 -0.0045976217117578754 -0.029423715112861668 -0.02537777547738107 -0.01478030706561825 0.033968689676410535 -0.026350075389076105 0.050079218310784386 0.037138564973899439 0.0029490926662717348 0.011392216873791773 0.0011508970095522751 0.0017802167553408216 0.02306394160641306 -0.043665156222371049 -0.11445370314435856 -0.044067316024577238 -0.042049314098946557 -0.096597801475502829 -0.03463956966109883 -0.0035494634531416966 0.0066427482579180302 0.026775698368416982 0.011170554159869131
leaf_weight=2159.465063506912 10640.887072968675 20587.521903182205 14884.208511853212 29270.758655162936 6130.7614762417215 13432.818336099357 5797.5878610106884 21027.00381027002 3730.2277680582774 14647.073795683798 6589.0469380059803 7033.233413978829 4984.8677463011118 1868.8266754645156 14123.368384799396 9289.8824067160022 14960.397446675983 12747.764846261154 4666.0449445584673 7522.0086897920701 923.10927930515027 142.47004171088338 2713.2491766577004 5313.3967849253968 351.45777470245957 1681.3435173362377 15814.321720549429 3259.7964734289562 5173.3537901170785 2051.8123638331017
leaf_count=37403 127393 305065 162658 310886 117745 270597 43286 266014 69742 228643 97869 64311 76724 25770 88350 105910 163876 203207 61640 70814 13487 1990 55584 104457 10336 36745 202638 57994 52340 38178
internal_value=0 0.022985 0.0885478 -0.0132271 0.00885061 -0.0627751 0.0364893 0.030834 -0.0869303 -0.0841667 -0.0480124 0.0981861 0.0078622 0.0842746 0.167385 0.0153996 0.115914 -0.0360654 -0.117603 0.0441547 0.0287793 0.0640206 -0.108887 -0.153413 -0.116709 0.024077 -0.0563375 -0.0462786 0.0716977 -0.105655
internal_weight=0 192891 68631.8 124259 100959 70626.8 78349.9 39624.2 22608.8 61657.4 40507.9 18597.2 57592 8969.43 29007.6 21194.8 20758 16478 19313.1 36792.8 11564 14605.7 23300.8 21149.5 15836.1 7100.61 20799.2 4941.14 14463.2 15484.6
internal_count=3471652 2341780 722213 1619567 1258918 1129872 868224 471205 390694 971960 548392 205191 661062 157912 251008 258109 207162 272949 290283 381700 140880 160240 360649 423568 319111 132142 279362 94739 158250 308775
shrinkage=0.16


Tree=25
num_leaves=31
num_cat=0
split_feature=9 9 9 11 34 5 8 5 66 33 55 67 34 70 80 9 63 8 9 9 11 74 80 42 11 21 65 11 64 60
split_gain=372.39 306.647 294.961 206.42 142.648 131.997 131.255 111.667 106.738 97.0784 95.294 93.9035 93.8412 92.4459 88.0607 87.7618 84.6271 84.3771 82.4996 76.9213 73.4075 72.3892 91.0512 72.2679 71.0962 74.8432 74.0751 69.982 88.5852 69.7801
threshold=0.13045948511787467 0.13040948511787467 0.048250000000000008 143.00500000000002 0.04151389260992764 3.5000000000000004 3.3150000000000004 3.5000000000000004 1.933456334563346 0.10371249392318914 0.75000000000000011 1.7500000000000002 3.975394953857398e-05 18.250000000000004 0.32523557006581688 0.29675000000000007 3582.5046554159144 3.7950000000000004 0.39905000000000007 0.11335000000000002 43.015000000000008 0.96828230507402191 0.28933650271726985 0.15853936876277749 223.00500000000002 1.0000000180025095e-35 29.479704778283423 339.01000000000005 246.32500000000002 3.8606967834623673
decision_type=2 2 2 2 2 2 2 2 2 2 2 2 2 2 2 2 2 2 2 2 2 2 2 2 2 2 2 2 2 2
left_child=1 2 4 5 12 9 14 -5 -7 -2 17 -3 -1 20 -4 -11 -16 -9 -10 21 -6 22 -8 -17 26 -26 -13 28 -19 -22
right_child=3 11 6 7 13 8 19 10 18 15 -12 24 -14 -15 16 23 -18 27 -20 -21 29 -23 -24 -25 25 -27 -28 -29 -30 -31
leaf_value=-0.032694786487307601 0.024122489509500876 -0.030412510308912781 0.00085069383156169789 -0.014438727009452543 0.050514886601108464 0.038798919339901206 -0.03273102415807471 0.013839778410163038 0.0093957960368557837 -0.0031754690938281633 0.087373876286200858 -0.020941832915264205 -0.00033999226396995674 -0.0076390658897398595 0.017061892120109952 0.0038426734957666443 0.14413476820747095 -0.00713540762339567 0.03632856893443609 0.015576783773116167 -0.051824403156892782 -0.026047182923085048 0.0024981888590995716 0.026383239074715882 -0.068374974391619242 -0.0085479000840210529 0.0027274828433893647 -0.029803722261403782 0.017659001615805449 -0.022984602736284818
leaf_weight=2471.6311876518885 7298.5495455669588 12611.199423514598 11603.20714007318 12173.61620098367 311.15916996682063 7022.1872700247914 2168.3492653361172 11174.083736757748 13199.399840562721 19794.435932381661 343.59287918021437 6046.1967768418835 32086.944574281632 12020.425458313955 24481.389196831326 8938.4300626986078 134.90564801846631 13050.126591269363 3735.6019988256739 4762.7414493090473 2600.3514754290227 4086.7290144819126 14030.874205862172 6144.3531786132371 1091.3884985661425 1050.5862567385193 7689.9529521223449 2290.254618078965 5142.4958451330895 12340.060856415919
leaf_count=62401 43328 355342 121662 136652 5041 30088 33124 77592 79094 176665 2065 160274 608455 178522 231996 64192 534 140655 17601 54880 60571 56413 167521 37091 43600 30152 173908 50986 53847 217400
internal_value=0 -0.0321666 -0.0105294 0.0442045 -0.0592565 0.0795593 0.0386451 -0.00872518 0.138837 0.045888 0.0222854 -0.125658 -0.0165876 -0.113326 0.0771363 0.0239409 0.110989 0.0166002 0.0958547 -0.0170119 -0.165014 -0.043863 -0.0138589 0.0814071 -0.0744925 -0.243945 -0.0480685 -0.0215316 -0.000792433 -0.175026
internal_weight=0 151588 123099 110307 61830.6 66133 61268.2 44174.2 23957.2 42175.8 32000.6 28489.3 34558.6 27272 36219.5 34877.2 24616.3 31657 16935 25048.7 15251.6 20286 16199.2 15082.8 15878.1 2141.97 13736.1 20482.9 18192.6 14940.4
internal_count=3471652 2561796 1798520 909856 1132390 448059 666130 461797 126783 321276 325145 763276 670856 461534 354192 277948 232530 323080 96695 311938 283012 257058 200645 101283 407934 73752 334182 245488 194502 277971
shrinkage=0.16


Tree=26
num_leaves=31
num_cat=0
split_feature=12 80 11 5 21 11 56 11 64 11 10 10 61 6 20 10 56 63 11 21 9 3 21 20 78 36 28 38 44 70
split_gain=360.821 239.759 242.962 259.42 180.856 219.168 169.342 161.878 153.179 141.578 129.825 119.522 151.559 115.53 114.051 109.986 124.823 108.327 103.549 103.211 95.0708 88.7608 88.0428 84.9526 84.4753 77.9868 77.2646 76.4697 85.5167 76.1635
threshold=1.0000000180025095e-35 0.13502190644446369 257.02000000000004 3.5000000000000004 1.0000000180025095e-35 115.00500000000001 0.17142807498519697 99.00500000000001 113.00250000000001 99.995000000000019 4.7650000000000006 1.0000000180025095e-35 4.8125000000000009 4.2500000000000009 1165.6500000000003 5.8150000000000004 0.042689334752764603 87.863340239410689 68.00500000000001 1.0000000180025095e-35 0.13045948511787467 218.00000000000003 1.0000000180025095e-35 1628.5150000000001 1.197215402506784 340.86759127873034 32.500000000000007 2.8293107321815865 0.3784866370176993 40.250000000000007
decision_type=2 2 2 2 2 2 2 2 2 2 2 2 2 2 2 2 2 2 2 2 2 2 2 2 2 2 2 2 2 2
left_child=1 19 3 6 5 8 9 21 14 17 11 -11 -13 -9 -2 -4 -17 18 -3 25 -7 -5 -14 -15 -16 -1 -10 28 -22 -8
right_child=4 2 15 7 -6 20 29 13 26 10 -12 12 22 23 24 16 -18 -19 -20 -21 27 -23 -24 -25 -26 -27 -28 -29 -30 -31
leaf_value=-0.0080249302557201183 0.027162414488807084 -0.00056523331245742934 -0.032147329473901774 0.013613644884142032 -0.0035370996816640773 -0.0056593108005027074 0.0028439224771998482 -0.0031952429363808904 0.03598528934935874 -0.017517345603126244 -0.010903006809007033 -0.045026676872769324 -0.22993422333560315 0.0079605409210607089 0.0088657497208343879 0.023217012286944918 -0.021918354755658977 0.0064523047891384064 -0.025615013764971162 -0.0062756795478278405 0.026760454598876517 0.044015543503056906 -0.056385494603315107 0.03340341417794248 -0.035240348218768293 -0.042521315162066968 0.093544587305494961 0.0076799753702259475 0.11394753338628665 0.037048806944046282
leaf_weight=2219.0904068978998 10458.730753578537 9501.9196317798633 9356.4814492639562 5727.1352970469161 21764.289131429337 14477.677031557512 25419.544656172278 24959.629717616393 8802.7367252627737 5317.8107645739801 21569.146647621004 3826.8309085422079 188.19488512852695 18317.607926034048 9214.7225917510805 2478.0564565416717 4273.7242836699588 16556.809857283777 7606.2476582333911 5459.1049138570379 1879.2538064683322 4307.4723974990193 124.23105139029212 4114.1362027479336 1264.1699335699668 6876.6664681463299 640.45800494030118 11487.326782901306 340.11960758711211 1783.4443753696396
leaf_count=33734 92846 189398 177479 60524 207218 180386 387439 276561 55202 87435 356162 77741 6264 215572 87228 40621 88666 242618 143093 97426 12400 29954 2809 44381 13558 144783 2873 95512 1425 20344
internal_value=0 -0.0248725 -0.0140465 -0.00145927 0.0557285 0.084654 -0.0344091 0.0512676 0.143575 -0.0622462 -0.110977 -0.208667 -0.336091 0.0268367 0.095889 -0.130727 -0.0334541 -0.0173354 -0.0731394 -0.14792 0.0211407 0.16665 -1.00578 0.0789184 0.022155 -0.213158 0.249307 0.0808308 0.250762 0.0317901
internal_weight=0 179983 165428 149320 80329.5 58565.2 91894.2 57426 30380.8 64691.2 31026.2 9457.07 4139.26 47391.4 20937.6 16108.3 6751.78 33665 17108.2 14554.9 28184.4 10034.6 312.426 22431.7 10478.9 9095.76 9443.19 13706.7 2219.37 27203
internal_count=3471652 2723004 2447061 2140295 748648 541430 1513303 626992 251707 1105520 530411 174249 86814 536514 193632 306766 129287 575109 332491 275943 289723 90478 9073 259953 100786 178517 58075 109337 13825 407783
shrinkage=0.16


Tree=27
num_leaves=31
num_cat=0
split_feature=9 11 63 61 11 63 33 61 7 11 11 70 63 11 64 9 61 10 10 61 33 21 8 4 56 61 64 11 75 5
split_gain=332.074 298.021 357.687 253.349 226.808 287.939 182.597 155.649 141.505 151.651 133.279 124.246 116.269 108.183 101.362 95.5485 87.0663 183.707 97.5887 216.017 86.4716 79.2194 79.042 88.5625 78.0997 77.5324 75.2157 72.5261 70.1193 69.7891
