tree
version=v3
num_class=1
num_tree_per_iteration=1
label_index=0
max_feature_idx=80
objective=lambdarank
feature_names=srch_id site_id visitor_location_country_id prop_country_id prop_id prop_starrating prop_review_score prop_brand_bool prop_location_score1 prop_location_score2 prop_log_historical_price price_usd promotion_flag srch_destination_id srch_length_of_stay srch_booking_window srch_adults_count srch_children_count srch_room_count srch_saturday_night_bool orig_destination_distance random_bool comp2_rate comp2_inv comp3_rate comp3_inv comp5_rate comp5_inv comp5_rate_percent_diff comp8_rate comp8_inv mean_prop_location_score1 std_dev_prop_location_score1 mean_prop_location_score2 std_dev_prop_location_score2 mean_orig_destination_distance std_dev_orig_destination_distance mean_comp5_rate_percent_diff std_dev_comp5_rate_percent_diff median_prop_review_score std_dev_prop_review_score median_comp2_rate std_dev_comp2_rate median_comp2_inv std_dev_comp2_inv median_comp3_rate std_dev_comp3_rate median_comp3_inv std_dev_comp3_inv median_comp5_rate std_dev_comp5_rate median_comp5_inv std_dev_comp5_inv median_comp8_rate std_dev_comp8_rate median_comp8_inv std_dev_comp8_inv mean_prop_starrating median_prop_starrating std_dev_prop_starrating mean_prop_log_historical_price median_prop_log_historical_price std_dev_prop_log_historical_price mean_price_usd median_price_usd std_dev_price_usd mean_srch_length_of_stay median_srch_length_of_stay std_dev_srch_length_of_stay mean_srch_booking_window median_srch_booking_window std_dev_srch_booking_window mean_srch_adults_count median_srch_adults_count std_dev_srch_adults_count mean_srch_children_count median_srch_children_count std_dev_srch_children_count mean_srch_room_count median_srch_room_count std_dev_srch_room_count
feature_infos=[1:332784] [1:34] [1:231] [1:230] [1:140816] [0:5] [0:5] [0:1] [0:6.9800000000000004] [0:1] [0:6.21] [0.01:2085957] [0:1] [5:28411] [1:34] [0:482] [1:9] [0:9] [1:8] [0:1] [0.01:11640.57] [0:1] [-1:1] [-1:1] [-1:1] [-1:1] [-1:1] [-1:1] [2:127400] [-1:1] [-1:1] [0:6.9800000000000013] [0:4.4408920985006246e-15] [0:1] [0:0.49346372460394711] [0:11232.379999999999] [0:5196.3850000000002] [0:20671.338842975205] [0:45137.949798551213] [0:5] none [-1:1] [0:1] [-1:1] [0:1] [-1:1] [0:1] [-1:1] [0:1] [-1:1] [0:1] [-1:1] [0:1] [-1:1] [0:1] [-1:1] [0:1] [0:5] [0:5] none [0:6.2100000000000026] [0:6.21] [0:3.0995287819860802] [10.066421568627453:233985.0392857143] [8.3300000000000001:4700] [0:842842.14358579088] [1:18] [1:18] [0:15.704776343520464] [0:315] [0:315] [0:180.5] [1:4.5] [1:4.5] [0:3.0912061651652349] [0:3] [0:3] [0:3.771236166328253] [1:3] [1:3] [0:2.565800719723442]
tree_sizes=3525 3516 3525 3539 3513 3545 3521 3540 3535 3519 3518 3525 3513 3542 3500 3526 3509 3508 3517 3514 3514 3494 3538 3507 3515 3519 3530 3501 3541 3519 3507 3512 3526 3513 3525 3536 3512 3531 3509 3534 3518 3545 3531 3516 3525 3534 3529 3533 3537 3509 3523 3541 3522 3523 3539 3533 3516 3530 3540 3534 3530 3529 3516 3524 3527 3520 3534 3519 3518 3513 3523 3516 3523 3516 3518 3535 3517 3511 3528 3510 3522 3513 3529 3534 3567 3516 3529 3513 3541 3543 3518 3538 3522 3513 3529 3541 3503 3505 3530 3528 3493 3510 3527 3501 3520 3520 3514 3520 3505 3543 3487 3501 3546 3510 3496 3516 3492 3538 3511 3522 3541 3500 3494 3537 3492 3520 3546 3527 3497 3486 3507 3498 3516 3504 3504 3520 3493 3494 3470 3469 3528 3470 3454 3494 3490 3509 3497 3509 3475 3483 3506 3492 3447 3491 3497 3482 3475 3479 3493 3511 3488 3500 3448 3480 3445 3495 3484 3520 3469 3509 3452 3490 3489 3503 3443 3502 3469 3470 3441 3480 3408 3488 3466 3451 3493 3450 3508 3486 3460 3459 3481 3464 3487 3470 3469 3469 3501 3466 3442 3460 3466 3464 3480 3465 3472 3476 3431 3434 3445 3483 3458 3484 3459 3425 3503 3488 3464 3437 3505

Tree=0
num_leaves=31
num_cat=0
split_feature=4 9 9 9 9 11 8 9 9 31 12 9 12 12 6 4 4 11 11 21 6 11 4 5 11 9 5 11 9 4
split_gain=24800.5 9365.37 5250.91 3800.74 3080.68 1954.97 1786.12 1424.69 1311.78 892.442 886.568 837.414 770.538 667.353 621.104 570.569 542.069 512.776 448.968 427.12 373.406 392.733 372.99 358.284 351.027 348.856 340.617 319.001 301.493 299.295
threshold=20391.500000000004 0.13215000000000002 0.13040948511787467 0.13595000000000004 0.019850000000000003 199.00500000000002 2.6750000000000003 0.13040948511787467 0.032550000000000003 1.9499999999999995 1.0000000180025095e-35 1.0000000180025095e-35 1.0000000180025095e-35 1.0000000180025095e-35 3.2500000000000004 8918.5000000000018 41585.500000000007 248.00500000000002 299.00500000000005 1.0000000180025095e-35 3.2500000000000004 169.01000000000002 40493.000000000007 2.5000000000000004 161.00500000000002 0.0029500000000000004 3.5000000000000004 154.00500000000002 1.0000000180025095e-35 11132.500000000002
decision_type=2 2 2 2 2 2 2 2 2 2 2 2 2 2 2 2 2 2 2 2 2 2 2 2 2 2 2 2 2 2
left_child=3 2 4 7 11 9 -5 8 28 -3 16 -2 23 19 -11 -10 -6 -8 -7 25 -18 26 -16 -4 -12 -13 -22 -25 -1 -30
right_child=1 5 12 6 10 18 17 -9 15 14 24 13 -14 -15 22 -17 20 -19 -20 -21 21 -23 -24 27 -26 -27 -28 -29 29 -31
leaf_value=0.085376227200705895 0.1710980855649972 0.15015788174368278 -0.09383520550498721 0.052875818548677844 0.0020611869701528535 0.052317474243790282 -0.033237301957425913 -0.13777540646428077 -0.075900683088126517 0.031377007152579517 0.096577038311704735 -0.10606753085211293 0.0073784441461345503 0.026456121372432105 0.066501932329841765 -0.022134517460352807 -0.0016087777859432094 -0.10328250585772361 -0.01137946259120521 -0.0065138377900104917 0.051251406761653039 0.02303836888978858 0.10762586347019949 -0.0355267545818755 0.043200035836549459 -0.040207994893660844 0.097436592129536093 -0.082178261748503637 -0.12703738253578012 -0.083859710839365803
leaf_weight=110.03182280645706 329.22413137892727 4578.8881127367204 3890.484334640234 3536.6714664144674 5041.848463585251 4865.5098239505023 7790.0701134565752 8813.9993697324535 6612.5698760636151 2205.8515669893968 6346.6599991491239 1490.5152235817368 2675.6733319284976 3183.0339700625482 4067.2133037149324 4987.466768090846 2021.7607499722508 1864.6188077126862 2368.0660494631156 4322.4691749880149 7383.3994824030524 4387.0658861565316 14707.623710972126 6513.3564479034685 2469.2736742644338 5195.8490401333256 3345.6038000798435 3125.26314328218 7179.2415889441036 3437.1753972314764
leaf_count=692 3638 52924 174782 24163 127537 140693 77508 114066 55790 67171 153923 76191 90934 113094 73136 72658 79562 23449 84938 168205 249682 162974 352970 261721 76899 230006 89555 134677 73526 64588
internal_value=0 0.289448 0.0599919 -0.617082 0.234026 0.721287 -0.167171 -0.807645 -0.673138 0.851173 0.412086 -0.146052 -0.428811 -0.182713 0.763734 -0.43993 0.305413 -0.389865 0.262229 -0.299305 0.390199 0.444175 0.82271 -0.525773 0.680331 -0.457639 0.547239 -0.422226 -0.925211 -0.942305
internal_weight=0 94514.6 61721.5 44331.8 45516.7 32793.2 13191.4 31140.5 22326.5 25559.6 30995.6 14521.1 16204.8 14191.9 20980.7 11600 22179.7 9654.69 7233.58 11008.8 17137.8 15116.1 18774.8 13529.1 8815.93 6686.36 10729 9638.62 10726.4 10616.4
internal_count=3471652 2965212 2193380 506440 1531266 771832 125120 381320 267254 546201 940132 591134 662114 587496 493277 128448 709310 100957 225631 474402 581773 502211 426106 571180 230822 306197 339237 396398 138806 138114
shrinkage=0.12


Tree=1
num_leaves=31
num_cat=0
split_feature=4 12 11 5 11 5 12 5 4 4 11 4 9 9 9 9 4 31 5 9 4 9 66 9 8 9 9 9 4 4
split_gain=18545.5 6353.86 3193.01 3061.59 3350.57 2135.74 2073.88 2007.37 1576.88 2225.08 1624.95 1368.99 1204.99 1791.08 1187.73 1165.23 1153.56 1153.23 1059.4 997.961 937.374 894.19 868.484 859.369 819.255 716.899 711.817 710.445 686.911 1042.51
threshold=20391.500000000004 1.0000000180025095e-35 136.00500000000002 3.5000000000000004 119.99500000000002 2.5000000000000004 1.0000000180025095e-35 2.5000000000000004 98488.500000000015 40493.000000000007 215.00500000000002 85017.000000000015 0.13040948511787467 0.27225000000000005 0.20585000000000003 0.037150000000000009 79750.500000000015 3.2599999999999998 2.5000000000000004 0.13040948511787467 63721.500000000007 0.27225000000000005 2.3929459843638949 0.20265000000000002 2.4400000000000004 0.21855000000000002 0.38955000000000006 0.18965000000000001 74996.500000000015 40083.500000000007
decision_type=2 2 2 2 2 2 2 2 2 2 2 2 2 2 2 2 2 2 2 2 2 2 2 2 2 2 2 2 2 2
left_child=6 3 5 4 7 23 18 26 9 10 -5 22 15 -14 -10 -9 -4 25 -1 -6 -19 -21 -7 -3 -23 -11 -2 -20 29 -15
right_child=1 2 16 8 19 11 -8 12 14 17 -12 -13 13 28 -16 -17 -18 20 27 21 -22 24 -24 -25 -26 -27 -28 -29 -30 -31
leaf_value=0.022286355301671317 -0.03956476619807802 -0.031942222931055538 -0.026064654491006534 0.061358570538045339 -0.030711009164181933 0.046850069141319048 0.13495049726435435 -0.0065648910379929809 0.0053485450540466922 -0.013300146664228489 -0.019161336598173671 0.065658872955837194 -0.03143131338696907 0.081693916492062202 0.053902075508627037 0.044510434859969132 0.013343241196802602 -0.060973871022077269 0.065459516255416336 -0.076066937509434662 -0.018574231239015939 0.015210063338401476 0.0065947804122945862 0.05592314807921369 -0.054084956277896744 0.038936379090759532 0.010293220790137274 0.11440648735859002 0.056211783014684408 -0.035962495350148678
leaf_weight=5945.1713309148472 39270.038841999805 8553.0345186327759 23577.364476972056 9072.0299922500271 23965.153916450479 15697.638613252522 8526.5723928865918 12811.561647917057 25523.222931956348 22474.120904140465 5991.2384391568776 23159.573672110797 26626.572854815429 1488.8531139138504 10134.541620306787 12914.38169401401 19575.397273129522 14262.119153238193 14620.319131114273 23805.204393178952 15859.048172366282 3242.9119337163866 15180.744633330032 1970.5635298340349 10123.98878313927 4547.052808491746 4606.3840231792419 6040.1045152442239 5484.9890831894008 3976.3671129689319
leaf_count=99911 438842 64569 141189 81739 267370 72316 107735 163766 223327 169032 57923 133037 206853 6188 59453 112217 139431 82379 243625 207220 122975 7733 82386 7985 57323 12026 16605 55169 20717 10611
internal_value=0 -0.0636436 0.142357 -0.143987 -0.228272 0.283114 0.695406 -0.121708 -0.0124633 -0.0974304 0.244454 0.363376 -0.00776954 -0.121925 0.159588 0.158969 -0.0682354 -0.18756 0.557788 -0.415078 -0.322107 -0.517665 0.225509 -0.129015 -0.310614 -0.0375641 -0.286085 0.664824 0.218491 -0.0324333
internal_weight=0 383894 107714 276180 168316 64561.6 35132.2 107179 107863 72205.6 15063.3 54038 63302.7 37576.8 35657.8 25725.9 43152.8 57142.3 26605.6 61137.3 30121.2 37172.1 30878.4 10523.6 13366.9 27021.2 43876.4 20660.4 10950.2 5465.22
internal_count=3471652 2965212 640913 2324299 1515445 360293 506440 975799 808854 526074 139662 287739 520352 244369 282780 275983 280620 386412 398705 539646 205354 272276 154702 72554 65056 181058 455447 298794 37516 16799
shrinkage=0.12


Tree=2
num_leaves=31
num_cat=0
split_feature=9 9 4 8 9 11 5 12 9 9 11 5 8 4 11 61 11 63 11 8 11 64 31 5 61 11 11 11 5 11
split_gain=9196.33 6475.91 3661.57 3788.04 3401.35 1735.66 1527.45 1520.58 1231.98 1474.22 1008.33 1141.52 725.247 723.514 711.969 825.23 717.509 716.449 701.361 685.264 646.403 735.233 594.434 563.021 499.268 557.748 476.107 475.519 575.106 453.244
threshold=0.13045948511787467 0.13040948511787467 85017.000000000015 3.3850000000000002 0.047450000000000006 307.61500000000007 3.5000000000000004 1.0000000180025095e-35 1.0000000180025095e-35 0.0047500000000000007 142.16500000000002 3.5000000000000004 2.3500000000000001 86686.500000000015 286.02000000000004 5.2325000000000008 109.00500000000001 108.60061588962741 245.02000000000001 3.8200000000000007 257.02000000000004 105.92250000000001 2.6400000000000001 1.0000000180025095e-35 5.3325000000000014 369.03000000000003 119.99500000000002 178.59500000000003 3.5000000000000004 158.83500000000004
decision_type=2 2 2 2 2 2 2 2 2 2 2 2 2 2 2 2 2 2 2 2 2 2 2 2 2 2 2 2 2 2
left_child=1 4 7 22 8 6 12 10 -1 -10 11 -2 -6 26 15 16 17 -11 19 23 21 -5 -4 -3 -12 -26 -8 28 -9 -23
right_child=2 18 3 20 5 -7 13 27 9 14 24 -13 -14 -15 -16 -17 -18 -19 -20 -21 -22 29 -24 -25 25 -27 -28 -29 -30 -31
leaf_value=0.085153720869679914 0.030001004093791184 -0.10993277239873393 0.044793856079348368 -0.049292749499899792 0.021949526712950085 -0.053619379835708324 0.077937941213436349 0.054111915820376263 -0.053154727171040389 -0.020415543039796827 -0.0092008744228626056 0.080650276354936143 -0.0087117096460513285 0.016660534351915866 -0.053168729902165236 0.010841390029901355 -0.036697158529619661 0.01696396291067517 -0.096238410524814605 -0.010118249836420731 -0.062274255386179284 0.0075411804260184989 0.010097390194169935 -0.049431755959197674 0.033440943246529777 -0.035517989756738942 0.038355582541660771 0.036319807594371582 0.096454169297423897 -0.025286984652720258
leaf_weight=1586.023817287758 26080.576161085453 2343.1639247167041 20735.50870601926 7760.4459451681469 18146.940032503451 5278.7064665709622 6547.1639735514764 9854.6190819502808 17246.560127611534 21834.289359155402 10405.777735809796 8494.9360921313055 28636.08638346818 15215.675788327935 6256.910839325923 18512.571609603183 19746.631599160028 11154.412657955894 4622.9989891878795 6219.4357234056515 5308.9050719145453 13741.178678283934 10822.71060941671 40384.84831064695 13493.615233092743 1928.9071406527655 13215.250198230613 6528.5995061407448 8712.6316263928311 10825.917400607606
leaf_count=4330 152046 40232 68601 46257 121298 50047 38429 47783 266920 265297 73896 42691 260816 93895 73686 186253 223087 102122 73690 92364 47928 66452 53111 556990 113030 26287 112340 53434 46150 72190
internal_value=0 -0.123815 0.189648 0.0186285 -0.034459 0.108822 0.144706 0.32805 -0.163911 -0.178548 0.242078 0.353742 0.0265174 0.302772 -0.119701 -0.0912911 -0.155055 -0.0648018 -0.429676 -0.394481 -0.195618 -0.14249 0.274136 -0.439621 0.0925797 0.206773 0.428963 0.534944 0.616576 -0.0577167
internal_weight=0 236948 154694 69194.7 183377 87039.8 81761.1 85499.7 96337.4 94751.4 60403.8 34575.5 46783 34978.1 77504.8 71247.9 52735.3 32988.7 53570.4 48947.4 37636.4 32327.5 31558.2 42728 25828.3 15422.5 19762.4 25095.9 18567.3 24567.1
internal_count=3471652 2561796 909856 354539 1798520 676825 626778 555317 1121695 1117365 407950 194737 382114 244664 850445 776759 590506 367419 763276 689586 232827 184899 121712 597222 213213 139317 150769 147367 93933 138642
shrinkage=0.12


Tree=3
num_leaves=31
num_cat=0
split_feature=9 9 8 9 11 9 9 11 64 63 11 64 11 34 61 4 21 12 11 64 61 6 66 8 64 11 61 11 11 61
split_gain=5807.7 4938.03 2437.04 1939.38 1462.21 977.485 1307.69 826.646 1057.76 755.505 749.709 1021.17 730.502 704.35 599.185 598.037 563.895 659.151 509.786 780.296 541.413 486.577 479.668 411.838 404.165 568.707 360.619 405.977 343.064 316.286
threshold=0.13045948511787467 0.13040948511787467 1.7000000000000004 0.080650000000000013 239.00500000000002 1.0000000180025095e-35 0.0074500000000000009 89.995000000000019 132.00750000000002 92.25434782608697 197.00500000000002 162.23000000000005 220.79500000000004 0.075015721694550883 5.4925000000000006 8918.5000000000018 1.0000000180025095e-35 1.0000000180025095e-35 89.995000000000019 91.00500000000001 4.7625000000000002 3.7500000000000004 2.3846708046996237 2.5200000000000005 201.88500000000002 161.00500000000002 5.9825000000000008 409.01000000000005 174.25500000000002 4.6025000000000009
decision_type=2 2 2 2 2 2 2 2 2 2 2 2 2 2 2 2 2 2 2 2 2 2 2 2 2 2 2 2 2 2
left_child=1 3 13 5 7 -1 22 9 29 -4 11 15 23 -2 -12 -8 17 28 19 -17 -20 -10 -7 -5 25 -23 -6 -28 -3 -9
right_child=2 16 4 12 26 6 10 8 21 -11 14 -13 -14 -15 -16 18 -18 -19 20 -21 -22 24 -24 -25 -26 -27 27 -29 -30 -31
leaf_value=0.090235030979611081 0.032284168488769222 -0.056750188000230219 0.017388676097683856 0.041564766944662795 -0.029749830725015334 -0.053425479594260986 0.040232393819668172 -0.042109363325714667 -0.0060975484870316775 0.055018911081022429 -0.054858663446256492 0.030040051502373002 -0.018713183356817178 0.078807382295734363 -0.011342077070491613 -0.0090224688490208541 -0.027345313312284666 -0.019421180751608487 -0.045530879224059059 0.035310204423808778 -0.010751372959349453 0.031778418420260225 -0.017243543250263546 0.015642212753393135 0.044574080905189967 -0.00081829173445889893 0.035389733047939943 -0.039832842377545065 -0.093398495646755189 -0.0021970189724055253
leaf_weight=1378.5743138999969 8406.6401804545894 22797.94437452493 17479.309011569363 13981.899038908537 13227.766319233226 12517.091032329481 3746.5131095007528 3172.8830994784366 7842.6206296618329 13710.267790918006 7076.5979218677967 12973.563155266107 6369.2035335681867 10599.172120010247 12790.972689327085 20231.948484261462 16244.571610161103 6239.4103312073275 7959.5330573931569 7966.613785243826 33855.669852060266 20016.350897156633 9124.3416213312303 23936.090367134078 12555.727530246484 12532.32936287194 2984.6285013848101 1577.6524865197716 4391.9810848479683 28747.557530665654
leaf_count=4330 24435 369440 104768 79398 127789 227205 50332 19874 51173 70455 79245 107035 61885 24464 144964 234208 237422 69642 88622 59865 324713 101852 138901 197817 79928 89253 30182 20735 86772 164948
internal_value=0 -0.102701 0.150223 -0.0232734 0.102638 -0.0849997 -0.0940084 0.14356 0.0923924 0.282772 -0.048507 -0.00836838 0.157385 0.48529 -0.223718 -0.0538766 -0.380764 -0.455039 -0.0747092 0.0291995 -0.144779 0.179073 -0.318114 0.210022 0.219046 0.160236 -0.16431 0.0780954 -0.522303 -0.051389
internal_weight=0 223583 152853 173909 133847 129621 128243 116057 84867.5 31189.6 106601 86733.8 44287.2 19005.8 19867.6 73760.3 49673.9 33429.3 70013.8 28198.6 41815.2 52947 21641.4 37918 45104.4 32548.7 17790 4562.28 27189.9 31920.4
internal_count=3471652 2561796 909856 1798520 860957 1459420 1455090 682251 507028 175223 1088984 864775 339100 48899 224209 757740 763276 525854 707408 294073 413335 322206 366106 277215 271033 191105 178706 50917 456212 184822
shrinkage=0.12


Tree=4
num_leaves=31
num_cat=0
split_feature=9 9 8 6 11 63 11 9 5 11 11 61 11 64 61 11 5 5 11 8 11 9 67 64 8 9 9 64 9 9
split_gain=4411.41 3959.51 1790.17 1168.14 1367.85 1285.41 928.34 750.418 718.52 732.03 687.626 656.291 636.858 569.973 488.431 463.125 448.274 446.267 606.206 385.418 384.088 380.49 354.667 349.329 348.859 339.163 368.759 324.49 318.751 326.852
threshold=0.13045948511787467 0.13040948511787467 2.5200000000000005 3.7500000000000004 153.11000000000004 135.53396416974172 345.02000000000004 0.36695000000000011 2.5000000000000004 115.00500000000001 79.995000000000019 5.2625000000000002 399.01500000000004 105.92250000000001 5.4025000000000007 99.995000000000019 2.5000000000000004 2.5000000000000004 89.00500000000001 1.2450000000000003 59.995000000000012 0.06235000000000001 1.7500000000000002 78.00500000000001 3.0200000000000005 1.0000000180025095e-35 0.010750000000000001 125.00250000000001 0.012750000000000003 1.0000000180025095e-35
decision_type=2 2 2 2 2 2 2 2 2 2 2 2 2 2 2 2 2 2 2 2 2 2 2 2 2 2 2 2 2 2
left_child=1 3 7 20 5 10 8 16 -4 13 23 -6 21 -10 -11 27 -2 -3 -19 -9 -1 -13 -20 -5 -23 -12 -27 -7 29 -22
right_child=2 17 6 4 11 15 -8 19 9 14 25 12 -14 -15 -16 -17 -18 18 22 -21 28 24 -24 -25 -26 26 -28 -29 -30 -31
leaf_value=0.0035043945181301482 0.00022210866175085495 -0.062337712938288763 -0.018860946786593773 0.0050232470316185279 -0.03777079956283063 0.028579781661818751 -0.043827185493815042 0.096178487549697808 0.012431056670136132 -0.0053488675629670916 0.11464484543100215 -0.010102487829062588 -0.050390869837728641 0.045188938260673994 0.016188101462474149 0.025218553139055383 0.03439966567942597 -0.007932839628830882 -0.060321687582325763 0.048560601265880292 0.066744452306431279 0.045345267094979824 -0.032429517939628102 0.043418673580825864 0.0033596570882894628 -0.037867573267383985 -0.0035375848840147419 0.082644623100509185 -0.017845458090831604 -0.049167908472514094
leaf_weight=9224.5901701395051 7307.0059575801715 11400.032720786403 11124.575891446555 6896.0589274410158 11232.847046149429 2653.7205206718063 4842.5537225540611 3281.3422641237266 15526.658013770473 29261.525238069706 319.62544757826254 17506.66234859472 3841.4353058587294 15076.643305052654 31468.876163386041 22505.476468628331 22672.905824760674 8908.4814113341854 11241.51207084331 9665.2587274555117 364.31352746393532 4219.487299369066 15802.521794365864 6753.4644523367169 8771.4255499340943 5391.454754755483 27375.454982353607 4030.0899673801614 29203.056891965505 8172.1035947874188
leaf_count=123255 33222 222715 98035 79147 137697 20691 64635 6021 94613 207897 993 208101 50938 70897 230451 197195 78842 116841 176885 25243 1555 28022 246835 54485 89678 96977 248806 24788 287314 148878
internal_value=0 -0.091592 0.131579 -0.0197776 0.0319949 0.114198 0.0625311 0.304162 0.0827552 0.111982 0.0113665 -0.104959 -0.0363159 0.238092 0.0484265 0.278832 0.217251 -0.347067 -0.292371 0.505354 -0.15371 0.0120273 -0.366893 0.2002 0.14168 -0.0665423 -0.0765683 0.509949 -0.198418 -0.368388
internal_weight=0 215814 150227 168461 121497 75925.3 107301 42926.5 102458 91333.7 46736.1 45571.9 34339 30603.3 60730.4 29189.3 29979.9 47352.5 35952.5 12946.6 46964.1 30497.6 27044 13649.5 12990.9 33086.5 32766.9 6683.81 37739.5 8536.42
internal_count=3471652 2561796 909856 1798520 1237518 723082 766528 143328 701893 603858 480408 514436 376739 165510 438348 242674 112064 763276 540561 31264 561002 325801 423720 133632 117700 346776 345783 45479 437747 150433
shrinkage=0.12


Tree=5
num_leaves=31
num_cat=0
split_feature=9 9 11 9 9 8 9 8 9 5 11 4 8 5 11 4 12 21 63 11 65 61 33 21 11 64 63 8 61 61
split_gain=3512.96 2295.21 1616.53 1161.92 1041.56 945.227 871.99 845.236 763.826 627.897 615.725 517.769 517.569 480.391 481.527 446.999 424.63 439.136 379.302 459.133 368.064 357.198 336.267 331.243 313.22 291.381 281.802 481.372 273.616 272.488
threshold=0.14845000000000003 0.13040948511787467 169.01000000000002 0.13045948511787467 0.036350000000000007 1.2450000000000003 1.0000000180025095e-35 1.7000000000000004 0.0018500000000000003 3.5000000000000004 249.00500000000002 84427.500000000015 2.1400000000000006 2.5000000000000004 134.99500000000003 22046.500000000004 1.0000000180025095e-35 1.0000000180025095e-35 165.30725960796423 110.00500000000001 23.035310208649474 5.5925000000000002 0.10371249392318914 1.0000000180025095e-35 129.00500000000002 106.46750000000002 161.87845514828453 4.035000000000001 6.1049999999999995 5.6925000000000017
decision_type=2 2 2 2 2 2 2 2 2 2 2 2 2 2 2 2 2 2 2 2 2 2 2 2 2 2 2 2 2 2
left_child=1 4 5 16 6 -2 -1 -6 23 22 18 26 -4 -10 20 -14 17 -3 19 25 -15 -17 -7 -8 -20 -9 27 -11 -12 -26
right_child=2 3 12 -5 7 9 8 10 13 11 28 -13 15 14 -16 21 -18 -19 24 -21 -22 -23 -24 -25 29 -27 -28 -29 -30 -31
leaf_value=0.088976641306725807 0.065020268053377836 -0.053933011739781891 0.038559219998008147 0.0016484970168222646 0.031843755469887068 0.037029779732246568 -0.082541907821174348 0.00021545498370928749 -0.033634080821191528 0.029156793913184542 -0.039555369821861919 0.051436690850772904 -0.037450763789552192 -0.015271034821888553 -0.018967250505314056 -0.015974315744004979 -0.014449294395470215 -0.026180370406582321 0.037549682451700137 -0.017190040056344013 0.014329364303832567 0.010246744690827123 0.0082503059160547627 -0.028195925770372731 0.00052965820070498379 0.027188520999604438 0.036177770882698433 -0.02007578085142166 0.015535444775061644 0.037191411985593725
leaf_weight=1178.0902405386441 7413.6899026113097 24172.58127663561 3595.568031298928 13117.043941927259 15390.118473534705 6716.2157769941259 3102.9668220087478 21341.807082271262 10986.084303827141 6918.8209643776063 6958.9550990286516 13296.708408049541 6583.3435335984686 8962.1677467412082 22454.936351289391 15021.182158364973 8307.5862062070519 12442.318398543895 7314.7399429759244 17227.2789530062 18600.077766005008 14900.199808329431 45064.837814035476 3372.2164621052216 14192.090564543149 7900.7472262392985 10029.968116188189 4871.9280641525984 1594.6890667460393 3673.3813083962887
leaf_count=4330 17508 456212 11444 90501 102447 30872 70964 202763 196875 23232 79662 64800 50837 137197 309262 128151 102397 204667 43467 156711 204056 140066 281078 59861 123932 54364 44931 26436 19895 32734
internal_value=0 -0.0771689 0.12762 -0.248105 -0.0167647 0.199128 -0.110727 0.0507212 -0.125627 0.169879 0.00952807 0.273096 -0.0405614 -0.0909562 -0.0493615 -0.0762216 -0.324558 -0.370868 0.0398038 -0.0137555 0.0392005 -0.0243082 0.0998701 -0.452137 0.13864 0.0625366 0.178283 0.0734498 -0.244028 0.0672594
internal_weight=0 222290 134412 58039.5 164250 94312.2 68656.5 95593.8 67478.4 86898.5 80203.7 35117.4 40100.3 61003.3 50017.2 36504.7 44922.5 36614.9 71650 46469.8 27562.2 29921.4 51781.1 6475.18 25180.2 29242.6 21820.7 11790.7 8553.64 17865.5
internal_count=3471652 2652297 819355 853777 1798520 488857 982545 815975 978215 471349 713528 159399 330498 847390 650515 319054 763276 660879 613971 413838 341253 268217 311950 130825 200133 257127 94599 49668 99557 156666
shrinkage=0.12


Tree=6
num_leaves=31
num_cat=0
split_feature=9 9 11 9 9 9 6 61 11 80 8 11 5 11 5 8 5 64 11 64 33 5 11 64 11 61 66 8 78 9
split_gain=2812.42 2756.99 1247.63 872.71 683.56 813.283 577.549 565.79 582.623 490.943 470.792 408.895 467.753 383.457 628.175 377.121 365.851 346.379 307.343 290.891 290.846 289.078 279.987 282.264 271.491 276.966 255.575 248.139 230.504 218.625
threshold=0.13045948511787467 0.13040948511787467 129.00500000000002 0.092750000000000013 1.0000000180025095e-35 0.010350000000000002 3.7500000000000004 4.9525000000000015 265.00500000000005 0.13502190644446369 1.7000000000000004 225.00500000000002 3.5000000000000004 208.00500000000002 3.5000000000000004 1.2450000000000003 1.5000000000000002 126.00250000000001 77.00500000000001 244.04500000000004 0.082835369947316884 3.5000000000000004 188.58500000000004 156.0975 69.995000000000019 4.6325000000000012 3.8949490662139223 4.1650000000000009 1.0714750139327514 0.36695000000000011
decision_type=2 2 2 2 2 2 2 2 2 2 2 2 2 2 2 2 2 2 2 2 2 2 2 2 2 2 2 2 2 2
left_child=1 3 6 4 -1 21 16 -4 15 -7 -8 12 24 14 -3 -9 -2 18 -12 27 -14 28 23 -5 -11 -26 -10 29 -6 -17
right_child=2 13 7 22 5 9 10 8 26 11 17 -13 20 -15 -16 19 -18 -19 -20 -21 -22 -23 -24 -25 25 -27 -28 -29 -30 -31
leaf_value=0.088417451582745665 -0.063688509943108054 -0.040376647340434793 -0.033933798886059241 0.015699173128814522 -0.065167434839552299 -0.041744368309416954 0.056770991708733412 0.060601845171239468 -0.02465363634180507 0.011671727933020454 0.03600391003755489 -0.020515530374358174 0.021257691595580983 -0.066477677058421544 -0.0043375099201896352 0.0064217502152896207 0.011432136646844353 0.040911319821220087 0.0093367353816231312 0.033121463765539857 -0.0014101591433658815 -0.0093028452580767376 -0.0055480983227832788 0.04817415316561785 -0.030801454793865798 -0.0048913361852366364 0.029125733735004523 -0.0049158729399376268 -0.02910463007785603 0.033821841314263718
leaf_weight=1087.9138859133236 968.31940830271924 29089.738085163423 6072.3063689647825 20021.306819879683 3216.5457428872469 4368.2417828903999 8326.2303974910174 2049.0885612270795 11248.01889769308 11035.837472497835 9188.0435508779483 12966.002722995298 22340.451020710287 5201.4253803186002 9157.3741475497227 16352.758233950706 24668.589565918606 14159.301575313788 19286.10883632733 5859.836900083581 12831.978263392113 8756.042422738974 6789.8956930333516 4772.1322400899371 7252.7056877004798 32810.293567849905 1433.0654430727591 20439.995606693148 12374.688198789023 5638.068183575524
leaf_count=4330 7956 522654 42427 148836 79013 55269 20919 5298 126084 136476 45422 163756 191428 107494 133128 99227 150611 62523 102356 39636 96309 141367 66889 31102 94386 354648 13434 168947 234711 25016
internal_value=0 -0.075766 0.106128 -0.0153131 -0.0517799 -0.0584963 0.194016 0.00869151 0.0367842 -0.0198464 0.255605 -0.00540069 0.0194856 -0.299242 -0.264572 0.085043 0.0715837 0.21311 0.14953 0.0672024 0.108235 -0.222949 0.133674 0.182943 -0.0416041 -0.0798601 -0.154771 0.0383534 -0.3046 0.112076
internal_weight=0 204073 145690 160624 129041 127953 76596.6 69093.1 63020.8 103606 50959.7 99237.3 86271.3 43448.5 38247.1 50339.7 25636.9 42633.5 28474.2 48290.7 35172.4 24347.3 31583.3 24793.4 51098.8 40063 12681.1 42430.8 15591.2 21990.8
internal_count=3471652 2561796 909856 1798520 1551693 1547363 389787 520069 477642 1092272 231220 1037003 873247 763276 655782 338124 158567 210301 147778 332826 287737 455091 246827 179938 585510 449034 139518 293190 313724 124243
shrinkage=0.12


Tree=7
num_leaves=31
num_cat=0
split_feature=9 6 11 8 61 63 11 64 11 61 11 21 80 80 11 61 11 64 9 61 34 11 63 64 64 64 11 69 11 11
split_gain=2513.54 1462.28 1248.81 1238.84 1224.17 842.817 810.738 703.708 666.635 494.243 645.713 492.405 380.443 345.971 311.087 359.639 286.327 281.276 281.144 264.133 256.261 235.72 276.163 233.496 219.009 214.313 216.338 211.582 193.058 189.761
threshold=0.19765000000000002 3.2500000000000004 99.995000000000019 2.2500000000000004 4.9225000000000003 104.71142857142858 158.83500000000004 179.00250000000003 219.00500000000002 5.4525000000000015 334.13000000000005 1.0000000180025095e-35 0.16858608025590152 0.13502190644446369 69.995000000000019 4.4825000000000008 148.75500000000002 78.995000000000019 0.48655000000000009 6.0750000000000011 0.022138273488945263 101.00500000000001 160.05439072105534 117.82250000000001 114.00250000000001 123.22750000000001 116.00500000000001 63.246212121212132 217.71000000000001 468.75500000000005
decision_type=2 2 2 2 2 2 2 2 2 2 2 2 2 2 2 2 2 2 2 2 2 2 2 2 2 2 2 2 2 2
left_child=1 11 5 18 16 14 7 25 13 -8 19 12 -1 -5 17 -16 -4 -3 -2 28 -15 24 -23 -7 -22 -6 -27 -12 -11 -10
right_child=3 2 4 8 6 23 9 -9 29 10 27 -13 -14 20 15 -17 -18 -19 -20 -21 21 22 -24 -25 -26 26 -28 -29 -30 -31
leaf_value=-0.078329718482103697 0.033269693852498956 0.0040890517392103394 -0.026673255473088239 -0.022506202424805971 -0.011997833115199953 0.01688131754844174 -0.026266627558567641 0.04106116293994095 -0.0098813452935440117 0.011040096611778223 -0.046856454596210635 -0.010614010769331845 -0.03428933448638477 -0.013789781270156596 -0.037596874939169002 -0.0019758702416784305 -0.0584440917438208 0.043760611607349002 0.064330890246466765 0.043898197887484371 0.021679699523020103 -0.00017516789910120798 0.021054734270473451 0.038816688066157533 0.05086137731451084 0.024424131090819139 0.0010601899558141752 -0.0015947213612824385 -0.0094964178234979678 -0.060402712698852251
leaf_weight=3377.1337265191833 15678.448366403463 14746.210753134801 21375.110289439443 3462.0265758493915 12665.659702035307 17171.703055058548 25356.046050969773 7443.0658428551978 13731.698435753991 12930.676781021786 5745.7034738442744 11616.924630682566 17274.622919507354 3770.9968617358245 5271.8766312283697 18052.935627548519 5050.9222320796689 3115.820579878171 5734.116667330265 2192.9366311886115 14099.75529948913 14246.614957910613 23175.988959701092 11788.055432935653 5024.1420180990826 7403.9028999846487 24877.887483566883 2006.5815152844007 13441.990476421081 1159.2659956638236
leaf_count=67392 48853 183100 265372 25277 137038 160841 319113 51758 137274 124692 93913 179189 281350 25455 75509 210127 75688 27561 13119 21887 84237 95193 146685 80743 21108 58452 250636 26734 166545 16811
internal_value=0 -0.0549495 -0.0245802 0.133363 -0.0789876 0.0843868 -0.0340554 0.0574158 0.0753151 -0.111757 -0.0369536 -0.253175 -0.345817 0.119794 -0.00752865 -0.0835789 -0.272914 0.0917784 0.346607 0.0325141 0.13744 0.154273 0.108109 0.215101 0.244589 0.0102477 0.0534995 -0.29287 0.0047736 -0.115184
internal_weight=0 242906 210637 100083 140490 70146.6 114064 52390.5 78670.5 61673.9 36317.9 32268.7 20651.8 63779.5 41186.8 23324.8 26426 17862 21412.6 28565.6 60317.5 56546.5 37422.6 28959.8 19123.9 44947.5 32281.8 7752.28 26372.7 14891
internal_count=3471652 2857640 2329709 614012 1591828 737881 1250768 497884 552040 752884 433771 527931 348742 397955 496297 285636 341060 210661 61972 313124 372678 347223 241878 241584 105345 446126 309088 120647 291237 154085
shrinkage=0.12


Tree=8
num_leaves=31
num_cat=0
split_feature=9 9 11 9 8 9 5 31 9 12 21 61 12 21 12 8 12 64 8 21 8 5 5 11 11 11 63 11 5 78
split_gain=2286.39 2385.32 1074.07 941.639 675.846 601.485 587.995 511.358 474.819 360.175 375.89 320.364 315.301 301.555 416.964 291.566 457.271 253.451 259.318 235.084 225.133 220.735 218.622 215.396 213.572 213.079 228.934 212.249 210.697 207.049
threshold=0.13045948511787467 0.13040948511787467 187.00500000000002 0.043150000000000008 1.5000000000000002 1.0000000180025095e-35 3.5000000000000004 3.2599999999999998 0.0029500000000000004 1.0000000180025095e-35 1.0000000180025095e-35 5.2625000000000002 1.0000000180025095e-35 1.0000000180025095e-35 1.0000000180025095e-35 3.3150000000000004 1.0000000180025095e-35 178.00250000000003 4.285000000000001 1.0000000180025095e-35 2.7400000000000007 3.5000000000000004 3.5000000000000004 377.22500000000008 121.00500000000001 296.98500000000007 288.52203826955082 143.00500000000002 1.0000000180025095e-35 1.0152093453620175
decision_type=2 2 2 2 2 2 2 2 2 2 2 2 2 2 2 2 2 2 2 2 2 2 2 2 2 2 2 2 2 2
left_child=1 3 4 5 21 -1 15 12 19 10 28 -4 22 14 29 16 -6 18 24 -7 -13 -2 27 -9 -8 26 -22 -5 -3 -10
right_child=2 9 11 7 6 8 17 23 13 -11 -12 20 -14 -15 -16 -17 -18 -19 -20 -21 25 -23 -24 -25 -26 -27 -28 -29 -30 -31
leaf_value=0.079480829801105199 0.036198216029356862 -0.097613911835495698 -0.034687973014860048 0.008163245160933209 0.0057183415426532878 -0.060529476895040991 0.036556661947769339 -0.0020688166675095023 -0.067014954092249307 -0.010493227087421656 -0.021905147014651214 0.026385045953921209 0.031747294015750535 0.0028784110279090201 0.0019941093711917804 -0.0048128977331772871 0.039633979459541599 0.041447850768872176 0.0028411111134651417 -0.020237147180888787 -0.0085883168481948897 0.076137076803808351 0.022787701611003908 -0.051683770108779704 0.012495537740332088 -0.024425835237256655 0.020352405041016378 -0.021322571222391031 -0.045918387486045827 -0.020781154030789291
leaf_weight=1029.1746922507882 8413.0190588720143 1201.4187252726406 5127.3281252821907 19574.199355860241 26170.459785874933 4036.2086034850217 13086.839331265539 33114.69051226927 1467.2904563117772 7542.2415730785578 11429.722148248926 3500.6921086572111 12330.366597244516 20070.093324914575 14144.655557278544 21323.711152164266 7325.5649570506066 10262.143504273146 9242.8205257281661 4317.7188425017521 12340.231541000307 2613.4833807833493 11886.528011073358 1307.86101228185 8945.9852705486119 6682.923488042783 5776.9222099799663 4282.967804113403 20629.185583738843 27710.850641682744
leaf_count=2025 18628 5662 16985 59229 77847 17739 33223 101592 5928 24620 41771 9312 34467 62837 42565 66400 18468 26749 28640 15015 38466 4953 34507 4737 25628 22798 16639 14256 77773 92028
internal_value=0 -0.069616 0.0974097 -0.0130744 0.146138 -0.0959854 0.119296 0.0600676 -0.106881 -0.284772 -0.329511 -0.0591224 0.126686 -0.0773437 -0.124286 0.0512943 0.10948 0.209034 0.164271 -0.330952 -0.0174453 0.380638 0.0791123 -0.0329733 0.223243 -0.0509597 0.0053424 0.0239037 -0.406434 -0.192588
internal_weight=0 196075 140812 155273 107384 72776 96357.5 82496.6 71746.8 40802.6 33260.3 33428.1 48074.1 63392.9 43322.8 54819.7 33496 41537.8 31275.6 8353.93 28300.8 11026.5 35743.7 34422.6 22032.8 24800.1 18117.2 23857.2 21830.6 29178.1
internal_count=1041487 636751 404736 486925 300536 238137 276955 248788 236112 149826 125206 104200 142459 203358 140521 162715 96315 114240 87491 32754 87215 23581 107992 106329 58851 77903 55105 73485 83435 97956
shrinkage=0.12


Tree=9
num_leaves=31
num_cat=0
split_feature=9 9 8 11 5 12 61 9 11 34 5 11 9 7 5 11 64 9 44 8 61 55 56 65 66 21 11 11 61 80
split_gain=2035.35 2054.25 885.203 688.644 760.819 533.54 416.56 403.657 391.586 385.523 363.219 421.748 343.596 329.332 316.991 291.971 420.115 291.468 248.51 247.031 241.94 224.535 223.241 218.766 217.951 198.42 225.193 190.728 237.945 188.914
threshold=0.13045948511787467 0.13040948511787467 3.0200000000000005 140.00500000000002 3.5000000000000004 1.0000000180025095e-35 5.0125000000000002 0.013250000000000001 208.00500000000002 0.059099786916663392 2.5000000000000004 109.00500000000001 1.0000000180025095e-35 1.0000000180025095e-35 2.5000000000000004 269.00500000000005 239.03250000000003 0.30745000000000006 0.13081431310407718 1.2450000000000003 5.8425000000000002 0.75000000000000011 0.042689334752764603 18.592862145851573 3.0653010033444823 1.0000000180025095e-35 296.98500000000007 409.01000000000005 5.6525000000000007 0.2374868417407584
decision_type=2 2 2 2 2 2 2 2 2 2 2 2 2 2 2 2 2 2 2 2 2 2 2 2 2 2 2 2 2 2
left_child=1 3 5 4 7 9 -5 12 14 -2 -3 -12 -1 -6 -4 16 -8 -7 -9 -11 -17 24 -22 -14 29 26 -13 28 -10 -16
right_child=2 10 8 6 13 17 15 18 27 19 11 25 23 -15 21 20 -18 -19 -20 -21 22 -23 -24 -25 -26 -27 -28 -29 -30 -31
leaf_value=0.071939484119429409 0.0033408089274146527 -0.052469665609315909 -0.018658210157234602 -0.039744554155069584 0.00431502706333924 0.031604298835706916 -0.0084081595707878373 -0.0042485080415714986 -0.022301499807136336 0.050881958022789622 -0.0092779481001969248 -0.042586907847025027 -0.042293160508227998 0.030149208838699856 -0.018420531980671052 -0.043365758517291325 0.027745723207112816 0.070555925770742656 0.012821002948374101 0.020464869860996066 0.018196593271641772 0.077090468297198761 -0.028424736134066653 -0.011522197310684996 -0.0067419248158599758 -0.021292470154145485 -0.10406965752119106 -0.046499876715196002 0.0054235299688577742 0.015012770685396189
leaf_weight=553.92850637622178 18386.112699731253 9683.290607273113 5866.1662149410695 6934.29123780597 11468.174215129111 8179.8858455345035 32049.916165559553 32360.780508309603 8339.5088648432866 4740.0564373508096 12836.011708757374 9853.1220518422779 5689.7332975203171 18680.926357218996 2574.5017281677574 5454.5059051979333 5407.428398527205 4183.4191960580647 19791.70105280634 20360.710337582976 2581.1813857061788 720.89386826008558 3458.4109385283664 8013.3779825568199 9541.232822262682 6411.8431825942826 939.10052586020902 2004.7724174270406 9572.0022159405053 44011.593952523544
leaf_count=1048 54561 39824 19452 24683 36510 21577 103028 102863 27771 9665 43987 37494 23224 53443 8538 19119 15301 8138 59387 55817 8274 1636 12228 28344 30599 23407 4485 7733 29442 129909
internal_value=0 -0.066287 0.0927378 -0.0135076 0.0376247 0.189984 -0.101852 -0.0221851 0.0270057 0.137858 -0.268825 -0.214509 -0.171285 0.169361 0.0657994 -0.06935 -0.0265642 0.373282 0.0185797 0.218437 -0.208753 0.0886385 -0.070837 -0.202526 0.0815031 -0.316848 -0.399627 -0.0951462 -0.0623846 0.109704
internal_weight=0 192168 138481 152444 96558.6 55850.2 55885.7 66409.5 82630.7 43486.9 39723.4 30040.1 14257 30149.1 62714.4 48951.4 37457.3 12363.3 52152.5 25100.8 11494.1 56848.2 6039.59 13703.1 56127.3 17204.1 10792.2 19916.3 17911.5 46586.1
internal_count=1041487 636649 404838 487452 304819 149758 182633 214866 255080 120043 149197 109373 52616 89953 190134 157950 118329 29715 162250 65482 39621 170682 20502 51568 169046 65386 41979 64946 57213 138447
shrinkage=0.12


Tree=10
num_leaves=31
num_cat=0
split_feature=9 9 11 9 6 9 9 9 8 33 5 21 6 11 12 66 21 8 11 64 33 35 34 9 11 31 42 11 61 11
split_gain=1576.53 1815.98 882.598 801.967 458.404 438.218 417.541 379.064 331.704 327.952 308.01 307.326 281.612 272.407 268.039 252.275 250.882 218.504 203.565 252.8 198.442 197.869 186.91 183.949 180.691 172.969 170.396 168.553 168.366 167.39
threshold=0.13045948511787467 0.13040948511787467 143.00500000000002 0.06235000000000001 3.2500000000000004 1.0000000180025095e-35 0.28215000000000007 0.0090500000000000025 2.2500000000000004 0.14721124718014825 2.5000000000000004 1.0000000180025095e-35 3.7500000000000004 178.59500000000003 1.0000000180025095e-35 2.3758465701487519 1.0000000180025095e-35 1.7000000000000004 189.00500000000002 181.24750000000003 0.09705950430321085 1335.1713016795868 0.057695628446508267 0.00125 254.01000000000002 1.6100000000000001 0.16060989189358188 94.995000000000019 5.5925000000000002 199.00500000000002
decision_type=2 2 2 2 2 2 2 2 2 2 2 2 2 2 2 2 2 2 2 2 2 2 2 2 2 2 2 2 2 2
left_child=1 3 4 5 -2 -1 20 11 -5 -8 27 23 -4 15 16 -12 29 -14 19 22 -6 24 -9 -7 -19 -11 -27 -10 -20 -3
right_child=2 14 12 8 6 7 9 18 10 25 13 -13 17 -15 -16 -17 -18 21 28 -21 -22 -23 -24 -25 -26 26 -28 -29 -30 -31
leaf_value=0.073542353834935473 -0.0078868653706305192 -0.039428959849783937 -0.023436490335005975 0.024670762944548147 0.031141069390825893 -0.074076055548946043 0.056901939694632163 0.00079428009518103294 -0.0065137013052459537 0.053728157089740262 0.024532458268416702 -0.0066647692962579505 0.031996084597631369 -0.0077143376128611342 -0.0095246401621721065 0.00097667523225891911 -0.020630421954064664 -0.0037605182717467284 -0.033273033615298694 0.024336392869377447 0.0091621906639441052 0.0069776282391287286 -0.014481922307448719 -0.030422869401294923 -0.031997696422227197 0.012549493733918239 0.033432830993615888 -0.051104973554678461 -0.006111220661651812 -0.075218964327553775
leaf_weight=931.22824571281672 9047.4851967510767 18197.490295971744 7635.0120750283822 15650.2786414437 7127.4970055520535 1621.7364506430458 5827.1111199073493 34733.208990181796 3305.5289692338556 2757.1203993149102 15516.578856371343 8669.1868584947661 3135.9208721853793 11156.41857155133 7183.8765063332394 11324.953191723675 11000.743056379259 17218.717552518472 5973.1551996176131 4859.5782621982507 34758.495373969898 22832.6128333956 17265.283384596929 9724.8661361755803 4024.5723405503668 12564.172796508297 10192.87543903105 1934.0123675856739 7305.0466149980202 2100.4085286695044
leaf_count=1832 28723 71739 25501 47449 19499 7880 12329 110969 10350 5273 44704 30245 7621 35950 24354 36113 41802 54128 20496 14050 105771 70974 56594 38039 14117 36136 27562 7101 24044 10142
internal_value=0 -0.059819 0.0811161 -0.0100921 0.146619 -0.0688902 0.172856 -0.0759457 0.0808518 0.26015 0.0356942 -0.197321 -0.0171459 0.0670378 -0.2536 0.121622 -0.293583 0.0116726 -0.0413026 -0.0152656 0.107529 -0.00647876 -0.0356525 -0.305617 -0.0759383 0.211234 0.182544 -0.191553 -0.152775 -0.359496
internal_weight=0 188454 137122 149971 82274.8 91083.3 73227.3 90152.1 58887.8 31341.3 43237.5 20015.8 54846.8 37998 38482.5 26841.5 31298.6 47211.8 70136.3 56858.1 41886 44075.9 51998.5 11346.6 21243.3 25514.2 22757 5239.54 13278.2 20297.9
internal_count=1041487 633853 407634 485816 235293 304149 206570 302317 181667 81300 134218 76164 172341 116767 148037 80817 123683 146840 226153 181613 125270 139219 167563 45919 68245 68971 63698 17451 44540 81881
shrinkage=0.12


Tree=11
num_leaves=31
num_cat=0
split_feature=9 9 31 9 5 9 9 11 31 6 11 64 9 21 12 11 7 5 11 61 11 11 64 31 61 5 11 11 64 6
split_gain=1524.52 1504.68 765.638 558.683 485.508 428.352 396.99 359.137 325.855 294.463 283.278 348.423 267.934 249.556 270.831 247.022 245.645 240.938 296.426 232.001 231.591 208.184 201.529 200.832 192.563 179.013 169.359 168.624 191.487 165.89
threshold=0.13045948511787467 0.13040948511787467 3.6600000000000006 0.029850000000000005 2.5000000000000004 1.0000000180025095e-35 0.35855000000000004 315.01000000000005 1.3900000000000003 2.7500000000000004 89.00500000000001 93.002500000000012 0.00085000000000000017 1.0000000180025095e-35 1.0000000180025095e-35 94.995000000000019 1.0000000180025095e-35 2.5000000000000004 122.00500000000001 4.682500000000001 520.72500000000002 84.995000000000019 137.00750000000002 1.9499999999999995 4.9825000000000008 4.5000000000000009 132.00500000000002 129.00500000000002 139.94500000000002 2.7500000000000004
decision_type=2 2 2 2 2 2 2 2 2 2 2 2 2 2 2 2 2 2 2 2 2 2 2 2 2 2 2 2 2 2
left_child=1 3 4 5 21 -1 15 16 -5 -10 11 -11 -7 14 -14 -6 -4 -3 22 -12 25 29 -19 -8 -17 27 -26 28 -21 -2
right_child=2 17 7 8 6 12 23 -9 9 10 19 -13 13 -15 -16 24 -18 18 -20 20 -22 -23 -24 -25 26 -27 -28 -29 -30 -31
leaf_value=0.071541509372411494 -0.03781303821570671 -0.04579443908159328 -0.0056490260752038134 0.021793121182185203 0.031362046154355006 -0.050791979011234022 0.059305642520128439 -0.032905586065143363 -0.035749065135817236 0.0037648287269290257 -0.033274887955071067 0.037409280655581481 -0.025014405546471937 0.0004609346773720954 -0.0013789685870794924 -0.0029889779255091275 0.010009586824531309 -0.015968544888030879 -0.036240299097680409 -0.00011512756725667822 -0.06414751578605199 -0.018606910072157316 0.033560781298961874 0.02999078097112998 0.033470378660412352 0.019498032429287999 0.01022162026356967 -0.0072897144551351068 0.02640403733704328 0.015627732779659353
leaf_weight=875.59056429937482 929.44837526232004 8923.1747228584718 28178.997749551665 12550.954733434133 12203.458849932998 2566.3838868271559 4958.4363260101527 4477.130408694502 3015.490378703922 13589.840535745025 3171.9196969545446 6576.2196484394372 21558.77542253281 17535.848067056388 10324.526826413814 9523.3431977313012 29556.445613241754 13976.499288226478 13391.909520762274 14613.935928017832 795.49524384085089 5984.3772184634581 1290.4804142275825 10497.852575277444 6613.2536819316447 6623.9578107753769 14200.988499404863 29389.819375480525 5356.5258363671601 8205.6458874382079
leaf_count=1690 3361 38513 91938 38576 33184 11155 9044 16489 10749 42744 11171 18659 81079 58202 33120 29693 90821 50553 53772 46812 3141 19449 4221 27914 17846 20583 42832 94573 15530 24073
internal_value=0 -0.059376 0.0801078 -0.0141499 0.149488 -0.0966577 0.191093 -0.00143532 0.0314329 0.00875632 0.0203058 0.122825 -0.10835 -0.0919792 -0.144677 0.141212 0.0197262 -0.238124 -0.193422 -0.0141818 0.000525675 -0.0101081 -0.0981509 0.328346 0.0928714 0.00814771 0.146757 -0.0125693 0.058332 0.084861
internal_weight=0 186127 135329 148545 73116.8 52861.1 57997.3 62212.6 95684.2 83133.2 80117.7 20166.1 51985.5 49419.2 31883.3 42541 57735.4 37582.1 28658.9 59951.7 56779.7 15119.5 15267 15456.3 30337.6 55984.2 20814.2 49360.3 19970.5 9135.09
internal_count=1041487 634843 406644 487784 207396 185246 160513 199248 302538 263962 253213 61403 183556 172401 114199 123555 182759 147059 108546 191810 180639 46883 54774 36958 90371 177498 60678 156915 62342 27434
shrinkage=0.12


Tree=12
num_leaves=31
num_cat=0
split_feature=9 9 11 5 11 8 9 64 64 5 11 61 11 64 33 80 63 33 11 11 11 5 11 64 9 33 67 9 66 8
split_gain=1330.57 1325.86 736.026 536.577 712.745 385.92 369.177 354.991 332.249 285.723 265.188 259.462 258.753 274.41 239.715 242.459 236.954 235.65 225.297 217.107 213.432 248.391 194.144 245.359 193.206 192.631 183.722 175.251 172.497 171.926
threshold=0.13045948511787467 0.13040948511787467 154.00500000000002 2.5000000000000004 109.00500000000001 1.2450000000000003 0.011550000000000001 151.00500000000002 125.00250000000001 3.5000000000000004 392.01000000000005 4.9225000000000003 99.00500000000001 80.012500000000017 1.0000000180025095e-35 0.17696146528312101 107.4440608157562 0.022066290935672521 65.00500000000001 362.02000000000004 199.00500000000002 3.5000000000000004 79.00500000000001 81.007500000000007 1.0000000180025095e-35 0.22850260822510821 1.7500000000000002 0.48655000000000009 3.1649395045819024 3.4500000000000006
decision_type=2 2 2 2 2 2 2 2 2 2 2 2 2 2 2 2 2 2 2 2 2 2 2 2 2 2 2 2 2 2
left_child=1 3 5 -1 8 27 24 12 22 -4 11 -8 13 18 15 -3 -14 -16 -7 29 21 -19 23 -5 -6 -13 -26 -2 -21 -11
right_child=2 14 9 4 6 7 10 -9 -10 19 -12 25 16 -15 17 -17 -18 20 -20 28 -22 -23 -24 -25 26 -27 -28 -29 -30 -31
leaf_value=-0.018342607123300599 0.033567170624315419 -0.030301069644493733 -0.018708793486970712 0.0060629574962423206 0.065792474704884182 0.016693484725949451 -0.021796747875033957 0.03064644961215806 0.034178081909070977 0.020311535448056778 -0.03776830056009834 0.0043416590575568112 -0.023530394087167252 0.025282038319046806 -0.051664838267110845 0.021513765952276914 0.0058464951530046326 -0.028897862259994064 -0.010971639908229918 -0.046800413044442796 -0.054754322965378271 0.00070195071885013644 0.00091936244851713203 0.036033369718104981 -0.051365519438639692 -0.024773181330846106 -0.017952219772186823 0.082200475547366758 0.01138583496590743 0.00023068591001761314
leaf_weight=23148.235787590966 5333.5782012436539 2487.7474592383951 12373.442236249335 9679.7293700501323 326.16260360367596 9907.4686015900224 7174.3192115896381 13992.792207165621 8836.0628225309774 8382.7536789830774 2850.9944007880986 51046.565105460119 4758.7782591171563 20927.099167880602 6360.6631323704496 2720.4605535846204 23323.355325742625 16502.793596692849 7405.765058292076 2145.6356159951538 3199.0085603676271 5423.9603007910773 21723.182326435111 6625.2734176674858 3331.4749993132427 3494.5095257647336 8210.0637280601077 1334.1573138628155 1113.3522987319157 22928.895964822732
leaf_count=83542 12870 10800 41378 31858 636 29774 24875 39474 25661 23958 10801 162595 16051 60149 26920 11676 71875 64163 23962 8270 14134 18885 72170 19373 13959 11851 30017 2094 3790 73926
internal_value=0 -0.0557542 0.0753948 -0.0131621 0.0130661 0.129855 -0.0464677 0.110657 0.110162 -0.0255157 -0.0166693 -0.00289014 0.0801146 0.133639 -0.225727 -0.0269849 0.00722489 -0.258598 0.0404982 0.0211598 -0.215039 -0.179804 0.0695667 0.152032 -0.208556 0.0206283 -0.230035 0.361 -0.224398 0.0467307
internal_weight=0 183141 133927 146447 123298 86983 76434.1 80315.3 46864.2 46944.1 64566.4 61715.4 66322.5 38240.3 36694.6 5208.21 28082.1 31486.4 17313.2 34570.6 25125.8 21926.8 38028.2 16305 11867.7 54541.1 11541.5 6667.74 3258.99 31311.6
internal_count=1041487 633916 407571 487338 403796 256249 254734 241285 149062 151322 210122 199321 201811 113885 146578 22476 87926 124102 53736 109944 97182 83048 123401 51231 44612 174446 43976 14964 12060 97884
shrinkage=0.12


Tree=13
num_leaves=31
num_cat=0
split_feature=9 12 9 8 11 11 9 9 9 21 9 6 42 34 29 33 21 56 61 70 80 6 35 9 11 11 60 29 12 5
split_gain=1254.88 773.903 726.906 630.299 425.909 414.617 385.067 283.393 276.168 273.94 285.753 237.208 281.817 233.562 221.569 217.839 192.037 189.745 176.514 212.614 163.433 146.157 153.889 146.366 141.125 139.654 159.507 132.529 129.106 125.36
threshold=0.15285000000000001 1.0000000180025095e-35 0.13040948511787467 2.1400000000000006 231.66500000000002 234.01000000000002 0.051850000000000007 1.0000000180025095e-35 0.13045948511787467 1.0000000180025095e-35 0.0038500000000000006 4.2500000000000009 0.21652644860752115 0.084430691961212459 1.0000000180025095e-35 0.05767072282133489 1.0000000180025095e-35 0.55283881111759092 5.5825000000000005 40.750000000000007 0.19864240601148953 4.2500000000000009 1995.1890732610198 0.047450000000000006 104.99500000000002 171.44000000000003 4.1595655129143578 -1.0000000180025095e-35 1.0000000180025095e-35 1.5000000000000002
decision_type=2 2 2 2 2 2 2 2 2 2 2 2 2 2 2 2 2 2 2 2 2 2 2 2 2 2 2 2 2 2
left_child=1 2 6 13 11 14 7 -1 16 10 -9 12 -5 -2 21 -8 29 -14 -6 -20 -17 22 23 -3 -13 26 -12 -22 -15 -4
right_child=3 5 8 4 18 -7 15 9 -10 -11 25 24 17 28 -16 20 -18 -19 19 -21 27 -23 -24 -25 -26 -27 -28 -29 -30 -31
leaf_value=0.064400935916961582 0.015734697131978597 -0.0049735038437955896 -0.078670667147575118 -0.0033321795138205068 -0.033137394326005154 -0.024423910217737405 0.02063123765020369 -0.051738715687365953 -0.0072061457803350116 -0.0017992546583278481 -0.022201789483713374 0.032889783390576785 0.012827906886151938 0.034083950191593874 0.03662675207884792 -0.027833410930860454 -0.017341663265688565 0.10843421592050463 -0.013757518973277379 0.028685693092094351 -0.032187871711779385 0.016816752903640979 -0.0089453526700530844 0.016080896608011003 0.01306362802573916 -0.030875754792554968 -0.0021446373718131762 0.002882077261987504 0.06671280876033614 -0.035360229333395533
leaf_weight=684.10573398694396 10802.953335374594 7387.1897025820799 1017.0982186938636 30211.748315390665 4488.1213137470186 5816.3518533785827 8083.3660164168105 3594.1327501917258 9806.5912256231532 19203.601065475494 10626.318778811023 6944.5242958534509 24040.217473065481 8735.2194966580719 3964.4053274290636 3019.9959486592561 10332.511653228896 300.73063188046217 7761.9480409948155 2173.90697829891 1625.3137314580381 15081.665246190503 11074.165675008669 13336.035946252756 20238.900430526584 6918.1847526011989 12338.106193494983 33386.943878853228 2185.2766073830426 17785.864507089136
leaf_count=1383 29978 24584 5636 98659 16162 20572 25210 18101 33130 66235 39391 19625 74193 20185 11554 11350 41120 575 27162 6878 5826 46888 38114 42004 62572 25395 41620 108107 4284 74994
internal_value=0 -0.0491049 -0.0894013 0.0815759 0.0468188 0.0493403 -0.0440598 -0.101894 -0.205221 -0.110207 -0.16482 0.0747763 0.036746 0.235412 0.0782751 0.022867 -0.254075 0.116816 -0.111596 -0.0372274 -0.00882159 0.0590707 0.0206129 0.0714658 0.151089 -0.13276 -0.0952233 0.0104362 0.338535 -0.314259
internal_weight=0 195082 138422 117884 96160.1 56659.8 99480.1 53364.4 38942.1 52680.3 33476.7 81736.1 54552.7 21723.4 50843.5 46115.6 29135.5 24340.9 14424 9935.86 38032.3 46879.1 31797.4 20723.2 27183.4 29882.6 22964.4 35012.3 10920.5 18803
internal_count=1041487 681214 497498 360273 305826 183716 342618 192125 154880 190742 124507 255624 173427 54447 163144 150493 121750 74768 50202 34040 125283 151590 104702 66588 82197 106406 81011 113933 24469 80630
shrinkage=0.12


Tree=14
num_leaves=31
num_cat=0
split_feature=9 5 11 11 8 65 11 61 12 54 11 46 70 8 63 11 5 62 64 61 11 61 11 61 66 11 35 11 5 6
split_gain=1078.03 830.726 787.902 757.247 530.796 496.417 503.131 426.629 415.387 281.134 334.237 270.433 241.581 240.43 237.098 222.781 220.929 220.119 192.54 189.617 184.93 165.026 155.619 185.386 149.77 137.719 135.536 163.889 134.765 130.044
threshold=0.23065000000000002 3.5000000000000004 206.00500000000002 168.99500000000003 3.8200000000000007 10.299800393603002 94.00500000000001 4.6325000000000012 1.0000000180025095e-35 0.23863745591763522 119.00500000000001 0.21543681775678761 28.250000000000004 1.2450000000000003 157.96813445378152 286.02000000000004 4.5000000000000009 1.4731711083832415 188.51250000000002 5.1625000000000005 384.47500000000008 4.2625000000000002 64.00500000000001 4.5625000000000009 4.4084430871031373 59.995000000000012 3930.3242602040818 79.00500000000001 2.5000000000000004 4.2500000000000009
decision_type=2 2 2 2 2 2 2 2 2 2 2 2 2 2 2 2 2 2 2 2 2 2 2 2 2 2 2 2 2 2
left_child=1 3 9 5 8 -1 11 -8 13 16 26 28 20 -2 -9 17 29 -6 -12 -5 -4 25 -23 -24 -19 -13 27 -11 -7 -3
right_child=4 2 12 19 15 6 7 14 -10 10 18 21 -14 -15 -16 -17 -18 24 -20 -21 -22 22 23 -25 -26 -27 -28 -29 -30 -31
leaf_value=-0.026321374375158853 0.043380321289636425 -0.0055744280557206071 -0.016549444751934549 -0.05250587733739992 -0.022571059400649251 -0.015542886977589782 -0.043660663418219954 -0.012862016356835171 0.043386351033596393 0.070964633981251857 -2.7227080168686379e-05 0.0047447410997311706 0.0011067703026522505 0.010914845281366589 0.0078562758318192517 -0.025081355894053921 0.022715502908295743 0.010171445251172027 0.024714031540343667 -0.024902130401778275 -0.050953281292914973 0.036926179291715676 -0.010621197555930922 0.01935591423071014 -0.034959691717924346 -0.057886334388865472 0.0045558619384783701 0.032486702052234889 0.0033399761947715983 0.0096401636638423355
leaf_weight=16669.642233065795 3743.3950299229473 21981.883228891995 14903.883693723707 5952.434795753099 3680.5180699648336 8938.6343847925309 5490.0582359693944 35973.894951315131 9726.681948935613 1958.9775193706155 12206.1672214563 1490.9864468369633 10732.966994735412 26736.208176404238 10210.199100793805 3926.4527947348543 7511.5467713195831 28880.698795021046 7199.7571450490505 9018.9134273710661 2648.9288003165275 4691.0528291445225 3916.8501611221582 12282.016223537736 1097.2256331555545 762.73603130597621 1865.4415776450187 8576.6622613910586 13909.043812484946 12797.843821675982
leaf_count=65842 7743 75318 52933 24609 13083 34333 21766 128253 23771 4800 40874 5141 37743 79564 34218 14646 23644 91627 22089 33191 11001 14440 13902 39371 4044 3178 6228 25141 47530 41464
internal_value=0 -0.0342757 0.0330168 -0.0875571 0.101778 -0.0598627 -0.0326381 -0.100349 0.18164 0.0872164 0.158239 0.0434406 -0.108962 0.124206 -0.069013 0.0163401 0.0337956 0.0426395 0.0762799 -0.299022 -0.181222 0.119626 0.147362 0.100892 0.0709781 -0.137369 0.286461 0.330444 -0.0337352 0.000202456
internal_weight=0 231691 102384 129306 77791.2 114335 97665.5 51674.2 40206.3 74098.3 31807 45991.3 28285.8 30479.6 46184.1 37584.9 42291.3 33658.4 19405.9 14971.3 17552.8 23143.6 20889.9 16198.9 29977.9 2253.72 12401.1 10535.6 22847.7 34779.7
internal_count=1041487 807009 341235 465774 234478 407974 342132 184237 111078 239558 99132 157895 101677 87307 162471 123400 140426 108754 62963 57800 63934 76032 67713 53273 95671 8319 36169 29941 81863 116782
shrinkage=0.12


Tree=15
num_leaves=31
num_cat=0
split_feature=9 9 11 9 8 5 31 9 61 12 70 33 11 67 11 49 33 34 11 64 8 34 11 11 6 11 61 46 71 64
split_gain=987.247 950.318 611.584 510.61 329.852 305.61 272.104 265.945 238.319 230.967 220.309 216.474 194.992 190.826 189.779 180.66 174.848 211.589 172.874 365.905 172.359 171.335 157.331 155.876 147.157 156.924 226.318 158.004 139.075 138.279
threshold=0.13045948511787467 0.13040948511787467 139.00500000000002 0.025450000000000004 2.8000000000000003 3.5000000000000004 3.2599999999999998 1.0000000180025095e-35 5.1525000000000007 1.0000000180025095e-35 15.250000000000002 0.078146730769230774 257.02000000000004 1.7500000000000002 215.00500000000002 -1.0000000180025095e-35 0.24059876632801167 0.11403255862080335 169.01000000000002 157.33250000000001 4.6050000000000013 0.067255416812637275 177.00500000000002 119.00500000000001 2.7500000000000004 79.00500000000001 4.5500000000000016 0.26978416052288506 47.683138478862155 77.002500000000012
decision_type=2 2 2 2 2 2 2 2 2 2 2 2 2 2 2 2 2 2 2 2 2 2 2 2 2 2 2 2 2 2
left_child=1 3 5 7 9 11 -7 -1 -4 -5 21 -2 16 23 20 -6 17 -10 19 -17 -15 -9 -12 -3 -13 27 -27 29 -20 -26
right_child=2 13 8 4 15 6 -8 10 12 -11 22 24 -14 14 -16 18 -18 -19 28 -21 -22 -23 -24 -25 25 26 -28 -29 -30 -31
leaf_value=0.057574450679721237 0.033027072382413994 -0.025707114328518899 -0.018919519123842845 0.0057539413157827969 -0.039686325732001752 0.041623886601736833 0.01627247748014167 -0.015283041107848297 0.0059550877969651835 0.025438187648064055 0.0013634637376862639 -0.022101705625449251 -0.011581851267313306 -0.014389359589841723 -0.043732127104822598 -0.0037577973491120134 -0.0026255424332464147 0.034734620626353963 -0.029504523726814513 0.026042427931416753 0.029773738959896868 -0.039079273928452785 -0.01978326907493895 -0.051776775507100567 -0.0026683494335375379 -0.029293936292078642 0.0064699689369592034 0.033067241672828665 -0.0049443953534241119 0.029044489733912094
leaf_weight=770.59736884385347 4912.5596140101552 10849.97065207595 9717.1657981593162 33869.89131727349 1887.7811766089872 9340.9382166713476 17560.82136977464 14481.48824460106 11820.233037848026 11496.390324995853 15777.240478098392 2449.2836114587262 11547.139790533576 14454.335236243904 2931.5445662194397 26384.214108095504 15647.380600891076 5339.4937925226986 4708.3146543693729 7652.4459173493087 1393.5257444118615 6233.3528645206243 7460.4915329429787 4752.4841407975182 5955.0164837799966 2853.9049445353448 23628.391235299408 5994.1902773845941 11252.721292725764 2963.8566841566935
leaf_count=1605 13282 44634 33204 113079 7116 23274 54568 56557 37810 35577 56406 8848 40969 58257 14034 88638 51804 14886 16572 23185 5526 24166 28023 21398 19549 9944 74334 17270 38210 8762
internal_value=0 -0.0495488 0.0653765 -0.0134236 0.0272448 0.12342 0.208979 -0.101856 -0.0158416 0.0895257 -0.112075 0.0762056 0.0152344 -0.198713 -0.130784 -0.027212 0.0545705 0.124277 -0.0157396 0.0245276 -0.0875231 -0.187056 -0.0452236 -0.280446 0.0538949 0.0679897 0.0217825 0.150029 -0.101601 0.0656199
internal_weight=0 176357 129730 141975 97251.8 75659 26901.8 44723.2 54071.4 45366.3 43952.6 48757.2 44354.2 34381.9 18779.4 51885.5 32807.1 17159.7 49997.7 34036.7 15847.9 20714.8 23237.7 15602.5 43844.6 41395.4 26482.3 14913.1 15961 8918.87
internal_count=1041487 632983 408504 489134 322377 229831 77842 166757 178673 148656 165152 151989 145469 143849 77817 173721 104500 52696 166605 111823 63783 80723 84429 66032 138707 129859 84278 45581 54782 28311
shrinkage=0.12


Tree=16
num_leaves=31
num_cat=0
split_feature=5 11 64 61 11 64 11 6 61 11 3 11 61 11 21 9 11 61 11 11 9 21 63 69 15 66 11 9 64 63
split_gain=899.373 1123.32 594.309 544.875 605.766 410.854 386.462 348.164 323.969 354.119 318.944 290.303 283.418 353.813 223.267 208.998 208.192 194.144 201.79 192.177 183.578 173.336 164.94 154.209 143.361 138.323 138.572 137.328 133.873 116.757
threshold=2.5000000000000004 109.00500000000001 113.00250000000001 5.0325000000000015 179.00500000000002 178.99750000000003 69.995000000000019 2.7500000000000004 5.4425000000000017 520.72500000000002 215.50000000000003 59.995000000000012 6.0225000000000009 299.00500000000005 1.0000000180025095e-35 0.35855000000000004 84.00500000000001 4.2825000000000015 161.00500000000002 135.00500000000002 0.34435000000000004 1.0000000180025095e-35 87.863340239410689 40.074510270441756 1.0000000180025095e-35 2.5014275040308314 88.00500000000001 0.26365000000000005 75.002500000000012 167.69762519201231
decision_type=2 2 2 2 2 2 2 2 2 2 2 2 2 2 2 2 2 2 2 2 2 2 2 2 2 2 2 2 2 2
left_child=7 2 6 15 5 19 10 14 -6 12 28 24 13 -10 -1 -3 -4 -13 27 -5 22 -11 -8 -14 -9 26 -24 -19 -2 -18
right_child=1 3 16 4 8 -7 20 11 9 21 -12 17 23 -15 -16 -17 29 18 -20 -21 -22 -23 25 -25 -26 -27 -28 -29 -30 -31
leaf_value=-0.055243963885685893 -0.0020059186335319602 -0.020297991056367988 0.047972774425779671 0.010630404105186385 -0.022033618627610031 0.022930731662266009 -0.016053080101961017 0.050098760700028395 0.001017863740071424 -0.080674168223539997 0.03570772021169006 -0.043243765975726427 -0.019501382298043199 -0.029790095813628532 -0.012287913176016267 0.011169261961599822 0.016622203025876869 -0.013797324161282317 -0.043198805971719871 -0.0049232971932066929 0.0227666811041113 -0.01628358927492347 0.018092427107025785 0.028193583513757916 0.0027834269784158786 -0.011485474255588185 -0.00037361532493662176 0.0088888814000048864 0.029370973228312044 0.03570472641732126
leaf_weight=4630.9132651751861 7775.7232155222446 29601.840673102764 5911.6205928111449 20912.343809088692 17587.896315927617 19409.88331084582 8935.5492540271953 1043.4136306415312 28317.225760250352 1168.5889256326482 10279.198239576072 3414.9823906635866 1151.7731698192656 6621.5446249027736 2794.8706276244484 3385.8788365889341 14872.639147267677 20003.745667981915 2840.8541887239553 25247.938843612093 4979.3637868892401 1242.057965981774 9545.1046640463173 6355.9604791197926 7821.497902686242 7881.9181744675152 15118.580523359124 4754.2766124494374 2615.0684046056122 6699.278687320184
leaf_count=21324 27777 109681 16421 68515 64168 60256 32400 3195 95913 5279 30360 13797 4657 25550 11174 9615 47383 75872 11553 86723 13495 4804 30736 20921 27742 28111 52193 14359 8046 19467
internal_value=0 0.0231836 0.109659 -0.0276345 0.00189709 0.0690262 0.058944 -0.126916 -0.0685915 -0.0234867 0.17269 -0.0898864 -0.00230424 -0.0401849 -0.325701 -0.142231 0.23352 -0.1355 -0.107652 0.0176939 0.00833367 -0.396156 -0.0134482 0.173945 0.069688 0.0195945 0.0564485 -0.0786711 0.0491241 0.187926
internal_weight=0 255617 94614 161003 128015 65570.2 67130.5 47304.6 62445 44857.2 20670 39878.8 42446.5 34938.8 7425.78 32987.7 27483.5 31013.9 27598.9 46160.3 46460.5 2410.65 41481.2 7507.73 8864.91 32545.6 24663.7 24758 10390.8 21571.9
internal_count=1041487 862471 306389 556082 436786 215494 223118 179016 221292 157124 66183 146518 147041 121463 32498 119296 83271 115581 101784 155238 156935 10083 143440 25578 30937 111040 82929 90231 35823 66850
shrinkage=0.12


Tree=17
num_leaves=31
num_cat=0
split_feature=9 9 9 8 11 63 12 11 9 9 21 33 31 36 33 11 9 9 11 63 33 35 5 6 11 64 78 62 62 21
split_gain=971.311 890.468 599.46 492.882 275.878 251.594 235.061 200.461 199.591 241.325 204.87 191.916 194.596 174.166 153.502 151.149 149.955 146.523 143.274 178.287 163.52 139.237 137.014 136.713 174.312 157.409 131.779 126.769 126.041 124.719
threshold=0.13045948511787467 0.13040948511787467 0.06235000000000001 2.8000000000000003 194.00500000000002 134.01367415048546 1.0000000180025095e-35 237.01000000000002 0.013250000000000001 1.0000000180025095e-35 1.0000000180025095e-35 1.0000000180025095e-35 2.0800000000000005 1573.7765113160342 0.059397222222222219 92.995000000000019 0.00125 0.10495 129.00500000000002 145.5390923507463 0.058470836127878394 3233.6027777777781 4.5000000000000009 3.7500000000000004 141.28500000000005 152.00500000000002 1.0588611885215038 1.2578372955583805 2.2699577087324969 1.0000000180025095e-35
decision_type=2 2 2 2 2 2 2 2 2 2 2 2 2 2 2 2 2 2 2 2 2 2 2 2 2 2 2 2 2 2
left_child=1 2 8 6 5 15 13 14 9 -1 16 12 -3 -2 -4 27 -11 -16 19 20 -10 -9 -6 -13 25 -25 -18 -5 -23 -20
right_child=3 11 7 4 22 -7 -8 21 18 10 -12 23 -14 -15 17 -17 26 -19 29 -21 -22 28 -24 24 -26 -27 -28 -29 -30 -31
leaf_value=0.050841236277496094 0.0099693129898331748 -0.022638733616253917 0.026789536444218168 -0.023888520440252196 -0.013233364244626842 0.012924587695235632 0.035168400394580489 -0.023876436629565186 0.0035079093270640673 -0.064872399345960577 -0.0059369301513328768 -0.038446283394354963 0.025500535848064099 0.033395966615522452 0.0028041644699953491 -0.014235864932333515 -0.05822917388840558 0.017845538710377789 -0.017077100503442223 0.017364431904355607 -0.016036068985392515 0.0031177151774311809 0.010276647849377946 -0.016416687660832874 -0.036413589088435401 0.034086743566281989 -0.019702310917472706 0.0099991375336932371 0.095304342228319572 0.0011852125791794877
leaf_weight=738.32756356522441 28519.310595044866 2739.1943346252665 7272.2093863720074 1841.4055004650727 18343.781091246288 37396.612916779704 9398.038932133466 4353.9763332926668 16877.208268414717 1420.6589961522259 10579.212658766657 9977.8010519444942 2161.619625540683 5440.7905189786106 27552.784434589557 9869.4332853555679 1432.0092409877107 14096.438700227067 16389.767542043701 7456.356119306758 9709.6154953241348 1557.5955883543938 4430.3884663665667 11004.211648679338 6788.7009113538079 964.88994514942169 11847.886442455463 11547.072680773214 245.53489903174341 8019.130643886514
leaf_count=1605 87526 12128 22950 6748 64798 119902 24653 15963 58197 7800 39368 44052 10371 14527 93224 34874 7292 45403 58683 24100 34461 5368 15832 43722 30594 3406 47623 37734 627 27956
internal_value=0 -0.0485632 -0.0133579 0.0666292 0.0216798 0.0569158 0.153115 0.0678073 -0.0662818 -0.139137 -0.155607 -0.194612 -0.0117003 0.114369 0.08921 -0.0247507 -0.231968 0.0657969 -0.0338489 0.00807376 -0.0302525 -0.102222 -0.0721611 -0.225804 -0.175464 -0.102836 -0.198874 0.0444623 0.131355 -0.0923143
internal_weight=0 173185 139549 126787 83428.7 60654.5 43358.1 55078.5 84470.2 26018.1 25279.8 33636.4 4900.81 33960.1 48921.4 23257.9 14700.6 41649.2 58452.1 34043.2 26586.8 6157.11 22774.2 28735.6 18757.8 11969.1 13279.9 13388.5 1803.13 24408.9
internal_count=1041487 634893 490620 406594 279888 199258 126706 183535 307085 103688 102083 144273 22499 102053 161577 79356 62715 138627 203397 116758 92658 21958 80630 121774 77722 47128 54915 44482 5995 86639
shrinkage=0.12


Tree=18
num_leaves=31
num_cat=0
split_feature=12 9 5 11 8 11 11 64 9 11 42 9 5 5 11 11 66 64 10 78 11 70 11 9 33 9 66 8 37 21
split_gain=899.691 625.086 385.986 391.624 344.18 325.062 304.824 286.064 235.122 227.125 210.712 198.775 194.874 194.735 190.869 171.661 171.213 169.76 167.051 166.729 162.961 151.445 145.863 144.484 153.444 138.2 132.355 130.561 124.449 123.641
threshold=1.0000000180025095e-35 0.15285000000000001 3.5000000000000004 139.00500000000002 2.6750000000000003 104.99500000000002 220.79500000000004 94.995000000000019 0.13040948511787467 420.03000000000003 0.11989616766495759 0.030550000000000004 3.5000000000000004 3.5000000000000004 254.01000000000002 71.995000000000019 2.3758465701487519 60.002500000000005 6.1750000000000007 1.0517476275486237 50.005000000000003 15.250000000000002 74.995000000000019 0.20915000000000003 0.4881590043784505 0.13045948511787467 4.0656969309462925 2.4400000000000004 15.251190476190478 1.0000000180025095e-35
decision_type=2 2 2 2 2 2 2 2 2 2 2 2 2 2 2 2 2 2 2 2 2 2 2 2 2 2 2 2 2 2
left_child=1 2 6 10 12 7 8 15 11 18 28 -1 -3 26 19 17 22 -2 29 -6 -19 25 -9 -15 -25 -10 -7 -13 -4 -5
right_child=5 4 3 9 14 13 -8 16 21 -11 -12 27 -14 23 -16 -17 -18 20 -20 -21 -22 -23 -24 24 -26 -27 -28 -29 -30 -31
leaf_value=-0.017676549490057463 0.0016837398607196486 0.0091596024877738467 -0.0080080930739323628 -0.014000008391216357 -0.019768968629642995 -0.0043904332132513289 -0.049599107908965538 0.071342519356294806 -0.035568067753500361 -0.044411313300944409 0.027387409242376166 0.0049518428401825725 0.03235083108746295 0.0032969664644444535 -0.019788475060887458 -0.0056823222037219318 0.016640707762434918 0.071246418587221153 0.04558914769366261 0.0041682723196285118 0.021475176669608565 -0.0095187337768201201 0.033303153043474573 0.022735141352874331 -0.036749362575542642 -0.0075343364497253828 -0.043743142541036145 -0.010213859609397614 0.016612085109214685 0.0032073410029351017
leaf_weight=20909.02884184476 6013.1840800857171 19980.502932105213 7187.2580375336111 17936.462236937135 4725.4089396339841 12939.843988933135 3407.3300925754011 1781.2324725016952 12365.529125373345 2487.1794216888957 7778.0036438340321 16209.329853435513 7060.9369595721364 25718.526826763526 7138.946186466841 7508.6879616104998 8062.293524553068 1101.3314667390659 854.83079191576689 36865.280886978842 6729.72525185626 8015.4790438693017 7868.3969094827771 11050.267461158335 660.09281415864825 3185.8081951383501 1358.1438155891374 16486.395454524551 5019.4910301370546 9044.0260047232732
leaf_count=85098 20523 60784 26189 67020 17462 44286 14915 4271 56469 10990 25007 56441 18287 87778 26884 25854 25632 2948 2851 123867 21230 33746 23026 33758 2490 11460 5376 57490 16973 32382
internal_value=0 -0.0359429 -0.077788 -0.00905916 0.0363401 0.0834836 -0.120696 0.152335 -0.107765 -0.0806857 0.0996157 -0.0711616 0.126809 0.0314824 -0.013867 0.0743869 0.246287 0.140412 -0.0548014 0.0120648 0.237427 -0.191009 0.336152 0.0694042 0.16147 -0.248557 -0.067784 -0.0224619 0.0176412 -0.0686016
internal_weight=0 206657 130886 50307.3 75771.1 90791.7 80578.9 39064.9 77171.6 30322.5 19984.8 53604.8 27041.4 51726.9 48729.6 21352.9 17711.9 13844.2 27835.3 41590.7 7831.06 23566.8 9649.63 37428.9 11710.4 15551.3 14298 32695.7 12206.7 26980.5
internal_count=1041487 744315 497031 181412 247284 297172 315619 123484 300704 113243 68169 199029 79071 173688 168213 70555 52929 44701 102253 141329 24178 101675 27297 124026 36248 67929 49662 113931 43162 99402
shrinkage=0.12


Tree=19
num_leaves=31
num_cat=0
split_feature=9 9 11 9 5 31 6 33 5 11 8 61 11 8 12 21 11 65 12 34 35 8 61 63 66 21 61 61 56 9
split_gain=783.983 711.646 520.03 440.979 274.609 228.182 208.397 191.376 200.156 203.552 173.622 166.467 178.605 162.677 156.118 152.899 171.411 185.344 147.501 143.745 136.209 133.94 129.934 123.412 114.143 108.571 108.112 107.374 102.384 100.764
threshold=0.13045948511787467 0.13040948511787467 145.01000000000002 0.045650000000000003 3.5000000000000004 3.8100000000000009 3.2500000000000004 0.077093662391365322 2.5000000000000004 89.00500000000001 2.7400000000000007 5.2325000000000008 377.22500000000008 4.1650000000000009 1.0000000180025095e-35 1.0000000180025095e-35 174.25500000000002 28.7802328244017 1.0000000180025095e-35 0.11028164322938021 1253.9777030303032 1.7000000000000004 4.9525000000000015 3582.5046554159144 2.6570218033512343 1.0000000180025095e-35 6.1225000000000014 5.8325000000000005 0.1370244295860428 0.09495000000000002
decision_type=2 2 2 2 2 2 2 2 2 2 2 2 2 2 2 2 2 2 2 2 2 2 2 2 2 2 2 2 2 2
left_child=1 3 4 7 10 6 -5 8 -1 -10 14 -4 21 19 -2 16 17 -3 23 -6 -9 -13 -11 29 -20 -16 -14 -23 -12 -8
right_child=2 15 11 5 13 -7 18 20 9 22 28 12 26 -15 25 -17 -18 -19 24 -21 -22 27 -24 -25 -26 -27 -28 -29 -30 -31
leaf_value=-0.021475678265389 0.010121453885030657 -0.032647865961009104 -0.015473132766741149 -0.014084639871109994 0.02303989577535609 -0.0054686896945987757 0.0021376003581537835 -0.032521033791729846 0.012662527938021714 -0.019670708894830236 -0.0063089639319651057 0.036957481826124669 -0.047851165031967915 0.011187338691053169 0.04239279104205658 -0.010092065376807994 -0.052749884661425772 -0.007650483132491873 0.030152883002155281 0.047160597201027527 -0.0083508792422617457 -0.0013624217688479577 -0.0022114356436839806 0.11613948851545076 0.0054833808005342747 -0.0031309893675243333 0.00027918218029626544 0.015849593049934618 0.010030288900135742 0.016176852964586534
leaf_weight=9133.4017140418291 20558.845287192613 10775.156071290839 10991.236569711007 4905.8807947356254 12212.326091319323 21113.299136531539 20775.103956466075 7269.6563815753907 10442.004957465921 8183.6974974717014 13582.224938831758 1651.5382691435516 1628.4444602979347 10611.927414093167 4021.5925815962255 11383.478243177757 3237.9811525696423 7077.8448940892704 9055.1930534448475 5024.1190164498985 6240.6903351657093 26958.307332453318 24540.943791538943 148.21196863614023 3849.8231426868588 928.15783207863569 1143.2579424905125 6470.0889458879828 9303.4373051463626 11400.674996351823
leaf_count=38988 64325 48609 38558 18106 35763 73673 72190 27489 36290 32264 47839 4175 6814 35190 10338 48032 17069 29354 27856 12692 22368 92145 90083 299 13266 2993 4445 21263 30917 38094
internal_value=0 -0.0444222 0.0599415 -0.0128841 0.111548 0.0416304 0.0783545 -0.0719025 -0.0444908 -0.0160313 0.0660172 -0.0206162 0.0108445 0.19066 0.122748 -0.17752 -0.227929 -0.189497 0.0995887 0.250628 -0.177994 0.0301578 -0.0548212 0.0634985 0.189962 0.282154 -0.233439 0.0164144 0.00277946 0.0592729
internal_weight=0 169533 125086 137059 76242.6 71248.2 50134.9 65810.4 52300 43166.6 48394.3 48842.9 37851.6 27848.4 25508.6 32474.5 21091 17853 45229 17236.4 13510.3 35079.9 32724.6 32324 12905 4949.75 2771.7 33428.4 22885.7 32175.8
internal_count=1041487 634030 407457 490966 240057 243484 169811 247482 197625 158637 156412 167400 128842 83645 77656 143064 95032 77963 151705 48455 49857 117583 122347 110583 41122 13331 11259 113408 78756 110284
shrinkage=0.12


Tree=20
num_leaves=31
num_cat=0
split_feature=9 9 11 9 5 31 11 64 65 61 11 9 66 66 11 63 8 11 65 11 64 33 11 65 21 11 61 11 64 11
split_gain=760.925 665.307 473.039 418.251 249.393 254.582 249.328 305.132 198.964 190.193 167.678 165.979 191.829 165.678 154.989 193.611 153.171 160.897 177.632 152.403 142.908 132.133 131.523 130.308 129.693 129.554 128.6 122.096 202.624 121.705
threshold=0.13045948511787467 0.13040948511787467 189.00500000000002 0.013250000000000001 2.5000000000000004 3.2599999999999998 149.00500000000002 148.99750000000003 38.967872261088509 5.2825000000000015 112.00500000000001 1.0000000180025095e-35 2.5884724857685018 3.0354296114981492 45.005000000000003 61.623952608522508 4.3350000000000009 99.995000000000019 13.693016640090127 113.00500000000001 87.002500000000012 0.11855976573357158 59.995000000000012 28.7802328244017 1.0000000180025095e-35 87.00500000000001 5.3900000000000015 307.61500000000007 303.98500000000007 631.0350000000002
decision_type=2 2 2 2 2 2 2 2 2 2 2 2 2 2 2 2 2 2 2 2 2 2 2 2 2 2 2 2 2 2
left_child=1 3 4 11 21 8 7 14 10 -8 -6 -1 -13 23 -5 -16 17 18 -3 20 22 -2 -17 -7 -19 -22 -4 28 -11 -28
right_child=2 16 26 6 5 13 9 -9 -10 27 -12 12 -14 -15 15 19 -18 24 -20 -21 25 -23 -24 -25 -26 -27 29 -29 -30 -31
leaf_value=0.04197965779572406 0.019005890835311557 -0.030221856398548911 -0.021556642159601496 0.030926056705656332 0.022342405919225955 -0.0089561200961900088 -0.0202621215752385 0.023491580284848233 0.033240497783597965 3.2732657221346794e-05 0.0013514869910934502 -0.024920173432910982 -0.0026213892079366388 -0.0082685199371546284 -0.028076271958076923 0.019785885936174825 0.006128713733873423 -0.039754340094367291 -0.0020517292379602409 -0.0075111563089474143 0.023457010721247725 -0.0079878442631364979 -0.0081500611511768854 0.013739233195253244 -0.017432905629546656 0.0057170417516600597 -0.00085568011422627768 -0.018127396522714639 0.05076711792531486 -0.06465054983754101
leaf_weight=700.84426966123283 3277.5732106305659 5451.882923447527 6399.8984117535874 2605.6240241704509 15095.732952861115 4117.5092008626089 10414.866081979591 11549.567424636334 12910.175644816831 19616.758591038175 8602.6956227682531 15985.444389026612 8514.56155029824 7722.2774192425422 3115.8605356840417 3008.0610522907227 2784.7986143454909 10038.933153795078 7882.086529600434 15565.352246379945 8998.2885136762634 12812.287137724459 12523.14841383975 31528.394984775223 5989.1388103193603 17371.748234289698 20934.871985925827 4876.1502406829968 1201.0939767844975 437.67159126652405
leaf_count=1630 10226 25592 23404 8653 44270 14629 39068 36868 36066 67973 27162 69287 32679 27408 12120 10246 12626 46995 32653 56048 29144 45037 45336 103510 25507 59724 73112 18937 3627 1950
internal_value=0 -0.0436533 0.0596346 -0.01308 0.0928649 0.115718 0.0133581 0.0463234 0.177124 -0.0548718 0.122694 -0.12936 -0.143095 0.0638765 0.0190034 0.00872825 -0.173033 -0.19429 -0.113104 0.0218951 0.0532819 -0.0207286 -0.0228135 0.0926442 -0.261807 0.0980983 -0.0553098 -0.00866165 0.0247039 -0.0180668
internal_weight=0 168194 123839 136047 96066.6 79976.8 110847 74737.7 36608.6 36108.9 23698.4 25200.9 24500 43368.2 63188.1 60582.5 32146.8 29362 13334 57466.6 41901.2 16089.9 15531.2 35645.9 16028.1 26370 27772.4 25694 20817.9 21372.5
internal_count=1041487 634713 406774 491340 308308 253045 387744 258139 107498 129605 71432 103596 101966 145547 221271 212618 143373 130747 58245 200498 144450 55263 55582 118139 72502 88868 98466 90537 71600 75062
shrinkage=0.12


Tree=21
num_leaves=31
num_cat=0
split_feature=11 5 9 11 6 11 64 64 60 10 33 5 9 11 6 70 65 11 64 64 11 35 11 11 21 70 3 5 11 61
split_gain=690.831 887.572 492.514 328.957 337.057 275.751 336.352 285.286 271.859 204.062 194.465 172.993 170.361 160.912 155.055 153.76 153.078 140.351 182.526 134.68 127.703 119.57 117.068 116.731 116.638 115.092 114.499 108.383 107.38 109.349
threshold=245.02000000000001 3.5000000000000004 0.27225000000000005 128.99500000000003 3.2500000000000004 104.99500000000002 209.03500000000003 105.92250000000001 5.0518923545074186 5.0850000000000009 0.16078204402515725 1.0000000180025095e-35 0.36695000000000011 39.755000000000003 4.2500000000000009 40.750000000000007 66617.565458252982 158.83500000000004 138.95750000000001 133.00250000000003 78.00500000000001 1897.8665090460524 384.47500000000008 198.99500000000003 1.0000000180025095e-35 15.250000000000002 215.50000000000003 1.0000000180025095e-35 99.995000000000019 4.7325000000000008
decision_type=2 2 2 2 2 2 2 2 2 2 2 2 2 2 2 2 2 2 2 2 2 2 2 2 2 2 2 2 2 2
left_child=1 2 3 4 13 7 12 -3 22 25 -4 -6 17 -1 -13 -10 -17 18 -7 24 26 -9 -2 -8 27 -5 -16 -15 -12 -30
right_child=8 5 10 9 11 6 23 21 15 -11 28 14 -14 19 20 16 -18 -19 -20 -21 -22 -23 -24 -25 -26 -27 -28 -29 29 -31
leaf_value=0.021147901205786069 -0.023728223538419229 0.0084766100658728687 0.029246937279256507 -0.03709228943152796 -0.03479975738743276 -0.0047245636984247852 0.030657051206689722 0.041057069867929008 -0.013590817540467284 -0.0073946241833381509 0.013919099080416962 -0.0026928176505800999 0.018645188674378605 -0.083240798980227543 -0.0047988181165283051 0.0095037614667322825 0.13387726794418342 -0.0075918708129332118 0.01293502310245578 0.034138056937759662 0.0050481213052676671 0.018246839908331494 -0.052140111598298643 0.011229912907918858 -0.009269255063066589 -0.016909758617633303 0.040902194622625988 -0.027289372893722328 -0.035747714181856675 0.0012450323953132813
leaf_weight=1419.7699120789766 13163.719520875718 14451.602924141102 6130.5464244186878 8374.2459721383639 1998.7221501278691 15500.180177273229 9121.6095725018531 8791.3967520687729 9562.7347703946289 13653.128893027548 10348.262055417523 49684.59464754723 8198.6796575449407 520.9695698376745 1075.1062579285353 4112.06395517895 145.64063796401024 21056.667432499584 18467.729273246136 619.36329741124064 17270.476758923847 5314.471515792422 2482.8283551791683 8708.6972966501489 6069.3450577058829 7923.62387494836 2964.7932154117152 10937.571935139364 1295.5056484993547 10165.693339866586
leaf_count=5633 51324 48901 16453 35025 8849 55700 28534 25267 37848 51684 32430 183785 25119 3159 4072 14943 246 76855 61920 2239 62577 17079 11278 29907 24360 31065 9357 46955 4765 34158
internal_value=0 0.0164598 -0.0334045 -0.060728 -0.0312502 0.0849028 0.0551286 0.1694 -0.145092 -0.151818 0.0863994 -5.53801e-06 0.0209165 -0.147795 0.00816656 -0.0428818 0.115158 0.000876948 0.0406402 -0.173162 0.0795207 0.270558 -0.235356 0.176423 -0.189364 -0.227361 0.239532 -0.248728 0.0421577 -0.024516
internal_weight=0 260063 150452 122512 92560.7 109611 81053.6 28557.5 29467 29951 27940 72993.7 63223.3 19567 70995 13820.4 4257.7 55024.6 33967.9 18147.2 21310.4 14105.9 15646.5 17830.3 17527.9 16297.9 4039.9 11458.5 21809.5 11461.2
internal_count=1041487 925848 556566 468760 350986 369282 278035 91247 115639 117774 87806 268640 219594 82346 259791 53037 15189 194475 117620 76713 76006 42346 62602 58441 74474 66090 13429 50114 71353 38923
shrinkage=0.12


Tree=22
num_leaves=31
num_cat=0
split_feature=9 9 11 9 63 11 64 11 34 6 66 11 33 60 78 66 63 8 11 33 15 9 8 61 33 11 5 61 66 10
split_gain=687.887 564.881 417.47 409.073 279.227 190.306 178.973 188.601 172.712 161.753 153.987 147.604 141.66 162.467 136.713 132.654 119.792 118.43 115.791 115.013 114.646 113.792 111.011 109.131 108.651 106.217 141.528 115.598 102.227 100.932
threshold=0.13045948511787467 0.13040948511787467 129.00500000000002 0.038750000000000007 109.25149877411791 189.00500000000002 136.01000000000002 223.00500000000002 0.03899279347454418 3.7500000000000004 2.1597041372459533 84.00500000000001 1.0000000180025095e-35 1.0000000180025095e-35 1.0392707644855699 2.6007046449466658 167.69762519201231 2.5200000000000005 99.00500000000001 0.099055834104294097 8.5000000000000018 0.085650000000000018 4.6250000000000009 4.8525000000000009 0.14259504021447725 94.995000000000019 2.5000000000000004 4.7525000000000013 2.3519259259259262 5.455000000000001
decision_type=2 2 2 2 2 2 2 2 2 2 2 2 2 2 2 2 2 2 2 2 2 2 2 2 2 2 2 2 2 2
left_child=1 3 4 8 11 9 -4 24 14 20 -10 -2 13 -3 -1 16 19 -15 28 21 -5 -11 25 -20 -8 26 -14 -27 -6 -7
right_child=2 12 6 5 18 29 7 -9 10 15 -12 -13 22 17 -16 -17 -18 -19 23 -21 -22 -23 -24 -25 -26 27 -28 -29 -30 -31
leaf_value=-0.028151925405653866 0.011426278700326323 -0.06742447712570665 -0.016070588792769937 0.0085449962211682842 0.038344273072654429 -0.020155919599658585 0.022167350540891684 -0.0078444975340591534 -0.027327288455640628 0.0096639557819137682 -0.008695417759068725 -0.0059027214758712405 -0.031787986309026066 -0.0087030634941189077 -0.00070893285702569836 -0.00054778332815587751 0.02632919208679069 0.032592242900479039 -0.0082330437338957469 -0.00078864462094306814 -0.011169288426235892 0.032073651958355959 0.007967494483416375 0.018676695326767932 0.0043564566416658323 -0.053647746073853829 -0.0026505225569563992 -0.026240998317756715 0.016976145873839311 -4.5350321600622217e-06
leaf_weight=2878.5001684939489 20032.091404117178 465.05168984644115 9045.6838706266135 7393.5074612889439 8018.1642077793367 5964.2121755792759 6129.4867957737297 17038.285958079156 10947.940533395391 10807.470349663869 15337.235196459573 10943.294880557805 4178.4089379454963 2602.1829810435884 28258.068923405139 11001.894571756944 9165.8441698011011 1621.6595470081083 2479.3601513747126 8734.2888178303838 9978.1879388093948 4673.8791231196374 1580.3583070493769 17343.389789432287 25219.622849010397 2687.1968227266334 5638.947173059918 12679.588076630956 5400.0104700084776 8945.8554625511169
leaf_count=13424 65065 2624 32679 25744 22995 22553 18930 62542 44219 37424 56511 37289 21147 12089 109119 39336 29190 7693 8522 30914 37028 14919 6917 54846 85840 12730 22595 57189 17410 32005
internal_value=0 -0.0419292 0.0571159 -0.013636 0.112515 0.0341658 -0.0048284 0.0193092 -0.0774563 0.0586467 -0.137143 0.0442011 -0.162535 -0.00219642 -0.0270635 0.0906641 0.122048 0.0596614 0.176167 0.0851807 -0.0231562 0.13694 -0.190623 0.127587 0.0653341 -0.206756 -0.125465 -0.258667 0.247906 -0.0672247
internal_weight=0 165540 121649 134087 64216.3 76665.1 57433.1 48387.4 57421.7 61755.1 26285.2 30975.4 31453.4 4688.89 31136.6 44383.4 33381.5 4223.84 33240.9 24215.6 17371.7 15481.3 26764.5 19822.7 31349.1 25184.1 9817.36 15366.8 13418.2 14910.1
internal_count=1041488 635370 406118 492386 206127 269113 199991 167312 223273 214555 100730 102354 142984 22406 122543 151783 112447 19782 103773 83257 62772 52343 120578 63368 104770 113661 43742 69919 40405 54558
shrinkage=0.12


Tree=23
num_leaves=31
num_cat=0
split_feature=12 6 11 64 11 21 10 9 11 5 9 64 64 11 61 11 11 11 61 11 11 14 31 46 64 11 64 8 63 1
split_gain=624.102 458.759 385.791 410.352 272.665 273.118 259.431 199.443 193.622 182.346 166.731 195.551 163.507 203.967 153.982 172.292 154.548 148.85 155.26 120.157 118.626 118.251 116.997 115.801 109.012 106.52 104.421 101.819 97.8949 96.4052
threshold=1.0000000180025095e-35 3.7500000000000004 141.28500000000005 163.88250000000002 119.99500000000002 1.0000000180025095e-35 5.3750000000000009 0.16525000000000004 345.02000000000004 1.5000000000000002 0.18965000000000001 129.00250000000003 184.02750000000003 275.33500000000009 4.7825000000000015 89.00500000000001 71.00500000000001 59.995000000000012 4.5125000000000002 178.59500000000003 231.66500000000002 2.5000000000000004 4.9700000000000015 0.19725893321112717 279.04500000000002 88.995000000000019 83.00500000000001 2.1400000000000006 167.69762519201231 11.500000000000002
decision_type=2 2 2 2 2 2 2 2 2 2 2 2 2 2 2 2 2 2 2 2 2 2 2 2 2 2 2 2 2 2
left_child=1 9 3 7 5 10 20 14 -8 29 11 25 19 24 16 -16 -3 -11 -19 -6 28 -10 -12 -20 -14 26 -2 -9 -4 -1
right_child=4 2 6 -5 12 -7 8 27 21 17 22 -13 13 -15 15 -17 -18 18 23 -21 -22 -23 -24 -25 -26 -27 -28 -29 -30 -31
leaf_value=-0.062465901708135811 0.0059267956694510279 0.0072268748316390245 -0.017956678765762304 0.033207465210292254 -0.001403328963212849 -0.0017438514510521831 0.0043045593836998569 0.023302933431150467 -0.038717082100769309 0.0025959697926750949 0.036785767395165717 0.035729157359391431 0.011731591451813643 -0.013285587359578573 0.02228957816365958 -0.00083032729531667406 -0.017117965581780088 -0.027756069889358449 -0.016315881448592705 -0.02340820014084084 -0.0307625321474773 -0.002831253289768354 -0.0023400604993092681 -0.0017724041034934137 0.042924720531165722 -0.0036809873592996952 0.027476732164512428 0.00637310306117131 -0.002780653443160619 -0.015973285222680517
leaf_weight=1595.8645480812993 7568.8709213575348 5207.4794262703508 14587.972886521835 6922.2326090782881 16273.060479522683 11137.599309364334 27243.24180210894 7411.3655604235828 2644.1283476003446 8794.6479563722387 9516.7026983462274 4924.4837884958833 14077.373033117969 4638.8940701796673 5718.2602157127112 24610.362600772642 13451.93917805329 9858.2802022909746 20044.631637554849 4576.8545291679911 5700.8612511591054 2643.642143683508 1244.1739280801266 12995.053196142428 1820.7135229986161 6427.9473122749478 5658.3567889383994 16511.09993014019 10545.787662515417 1076.8150184052065
leaf_count=8406 26909 19871 56571 21682 57432 39896 97767 19779 11828 35078 26735 14925 47668 17528 19706 92262 54500 41960 80005 17384 23536 10731 4395 48334 5669 22973 18078 56240 38616 5023
internal_value=0 -0.0318493 -0.0021575 0.0440847 0.069451 0.122016 -0.0604165 0.0219902 0.00187961 -0.110055 0.165048 0.119584 0.0104162 0.0737443 -0.0145591 0.0294163 -0.0860312 -0.0968768 -0.121173 -0.0519625 -0.126136 -0.173197 0.268854 -0.0883012 0.127574 0.074922 0.126235 0.09683 -0.0965813 -0.364668
internal_weight=0 197564 143198 79832.7 87865 46478.1 63365.6 72910.5 32531 54365.3 35340.5 24579.7 41386.9 20537 48988 30328.6 18659.4 51692.6 42898 20849.9 30834.6 5287.77 10760.9 33039.7 15898.1 19655.2 13227.2 23922.5 25133.8 2672.68
internal_count=1041487 741895 523089 284040 299592 153911 239049 262358 120326 218806 114015 82885 145681 70865 186339 111968 74371 205377 170299 74816 118723 22559 31130 128339 53337 67960 44987 76019 95187 13429
shrinkage=0.12


Tree=24
num_leaves=31
num_cat=0
split_feature=9 9 9 11 9 8 11 33 48 5 66 70 5 11 11 49 77 63 63 9 6 72 34 20 11 5 56 10 33 33
split_gain=614.248 507.806 438.151 334.046 215.828 192 171.254 154.646 153.465 152.136 168.162 134.906 128.161 171.598 127.287 124.525 118.669 116.689 110.656 128.899 110.036 106.535 122.083 101.483 99.3216 116.153 99.0689 95.0226 93.3299 92.5057
threshold=0.13045948511787467 0.13040948511787467 0.017850000000000001 164.00500000000002 0.39905000000000007 2.1400000000000006 199.00500000000002 0.31059951100244504 0.06384498234606524 2.5000000000000004 2.7943454606928073 15.250000000000002 2.5000000000000004 96.00500000000001 265.00500000000005 -0.74999999999999989 0.71105957410002396 293.04034226190481 252.38034565217396 0.10805000000000002 3.2500000000000004 2.154455849577801 0.044509993277729226 712.2700000000001 117.00500000000001 2.5000000000000004 0.064182806061372055 6.1950000000000012 0.091589467958860762 0.079103428571428602
decision_type=2 2 2 2 2 2 2 2 2 2 2 2 2 2 2 2 2 2 2 2 2 2 2 2 2 2 2 2 2 2
left_child=1 2 12 4 9 18 8 -6 16 -2 15 24 -1 -14 -13 -11 -7 -8 19 -4 -5 -10 -23 -22 25 -3 27 -19 -15 -17
right_child=3 11 5 20 7 6 17 -9 21 10 -12 14 13 28 -16 29 -18 26 -20 -21 23 22 -24 -25 -26 -27 -28 -29 -30 -31
leaf_value=-0.02985581766234691 -0.0053963043579147996 -0.035041994642476398 0.005093151641782155 -0.039826868433927673 0.033440116007912239 7.8819703555531439e-05 -0.022231640285944636 0.011902686302494777 0.010025029464377602 -0.024339885389200587 -0.0041888569778410559 -0.0058971221707540796 0.005224653163718963 -0.01340559696367135 -0.04320303080389612 0.032500064093997069 -0.018133534234026496 0.0047259581624703815 0.034033244521054835 0.030998244581018273 -0.011142658814534242 0.0042715002457600322 -0.033776101494958397 0.0025644659875370796 -0.038776530807566545 -0.0098959239908245761 -0.013086995177128172 0.0595011983066474 -0.040524624293243751 0.012666661613024616
leaf_weight=5892.1109466492198 11054.18466894608 4226.964775396511 22492.024612049107 1126.2748314328492 8947.8777598636225 17302.832349150907 8105.0655349553563 10363.335582815111 28619.751132173464 1225.4280939083546 9674.1720717027783 12391.175175456796 7370.0221378598362 16198.008451764472 1471.793491281569 3719.4302040357143 7334.2820746535435 1775.3642551712692 2649.1820293166675 3151.9828306250274 11371.165179563221 3705.6548855276778 1804.1224499084055 24603.055496805348 5673.2780265398324 7069.3661063974723 3395.1114241401665 611.89759030006826 2058.6892765657976 37743.108106390573
leaf_count=28044 40689 22433 81362 4574 24577 62376 31162 32997 98721 4541 34332 54446 27975 66530 8181 10711 28081 6704 8746 10492 41945 13179 7104 86654 27842 29542 12898 2027 8358 124264
internal_value=0 -0.0398158 -0.0129113 0.0544575 0.0898149 0.0192255 -0.00799031 0.182371 0.0156119 0.0616253 0.0841294 -0.155397 -0.115833 -0.0852439 -0.0821954 0.111106 -0.0445324 -0.107854 0.0891087 0.068995 -0.0243838 0.0590284 -0.0682879 -0.0147385 -0.215181 -0.160915 0.000676262 0.156699 -0.137231 0.120394
internal_weight=0 163299 132466 119828 82727.5 100947 72654.1 19311.2 58766.6 63416.3 52362.1 30832.6 31518.8 25626.7 13863 42688 24637.1 13887.4 28293.2 25644 37100.5 34129.5 5509.78 35974.2 16969.6 11296.3 5782.37 2387.26 18256.7 41462.5
internal_count=1041487 636203 493759 405284 272111 362852 262252 57574 209461 214537 173848 142444 130907 102863 62627 139516 90457 52791 100600 91854 133173 119004 20283 128599 79817 51975 21629 8731 74888 134975
shrinkage=0.12


Tree=25
num_leaves=31
num_cat=0
split_feature=9 5 11 11 61 65 31 12 7 11 64 11 8 11 14 64 42 34 11 5 5 53 56 54 4 66 61 75 61 64
split_gain=522.419 383.484 446.546 327.503 312.941 291.358 287.346 206.527 191.95 194.746 185.245 161.958 158.019 142.031 129.581 128.106 127.28 126.768 112.524 107.907 99.3344 97.665 95.2661 93.3361 93.01 100.626 123.332 100.56 92.9324 86.3541
threshold=0.19765000000000002 3.5000000000000004 245.02000000000001 109.99500000000002 4.8325000000000005 14.38969825362472 4.160000000000001 1.0000000180025095e-35 1.0000000180025095e-35 119.00500000000001 236.49250000000004 169.01000000000002 1.2450000000000003 357.71000000000009 2.5000000000000004 157.33250000000001 0.10753789397281585 0.024213391463448777 69.00500000000001 3.5000000000000004 1.0000000180025095e-35 -0.74999999999999989 0.10396883929202433 0.38766929107890796 2237.5000000000005 2.1037749287749294 5.5925000000000002 0.29731728770190319 5.3725000000000014 98.002500000000012
decision_type=2 2 2 2 2 2 2 2 2 2 2 2 2 2 2 2 2 2 2 2 2 2 2 2 2 2 2 2 2 2
left_child=1 3 8 5 -5 20 7 12 22 15 -11 28 -2 17 -4 18 -7 -8 29 -14 -1 -18 -3 -9 -19 -26 27 -27 -6 -10
right_child=6 2 14 4 11 16 13 23 9 10 -12 -13 19 -15 -16 -17 21 24 -20 -21 -22 -23 -24 -25 25 26 -28 -29 -30 -31
leaf_value=-0.051841576286958672 0.031391955905815984 -0.0065888934924587727 -0.026553241586144024 -0.036671234620402268 -0.0083119387181309571 -0.0044924221941853261 -0.043157747500194708 0.01686153998028414 0.024194341115346185 0.0014820744285810273 0.030114445910525724 -0.023891526033758246 0.00056613602126580158 -0.035989273483522481 -0.0050245389604196729 0.046178055128277481 -0.018171743282783252 0.048147834836620378 0.01315304831482977 0.014646771537663554 -0.012820487549483206 0.010335765940852181 0.0084010288175418741 0.036357371760201651 0.017715037445177443 -0.0011662081374872611 0.010104884032728009 -0.020985148897565548 0.01646408568292097 0.081587340578846521
leaf_weight=982.85159294772893 3927.7245215065777 18119.182474147063 7987.5933121177368 8810.6411743159406 20757.209616179345 21238.847602762748 917.43177833314985 7891.6105827596039 944.37799870967865 24817.670232646167 3742.8503723233007 10139.711772944545 20521.900676773861 1594.1444922718219 8117.5476634758525 2582.1515201050788 1870.6493720551953 616.086565611884 12199.069123028778 12677.862398621161 20498.602703699144 22831.627784372773 9205.3035526243038 6415.0618766658008 4448.069812447764 10866.312359783333 8226.0525255873799 5577.8157252692617 2433.9859088882804 629.78248415514827
leaf_count=5610 9445 68806 33746 39439 81512 83918 3824 24256 3122 90390 12365 42362 70597 7116 31911 7566 7648 1811 41984 40532 86138 83026 32486 17871 14935 39207 28360 21337 8652 1515
internal_value=0 -0.029324 0.0196968 -0.0688509 -0.138003 -0.0256253 0.0649233 0.11132 0.0532658 0.0934693 0.0436349 -0.0936872 0.0719779 -0.00908495 -0.130867 0.180477 0.0193266 0.00605897 0.142117 0.0495301 -0.121754 0.0681305 -0.0128226 0.213394 0.017366 0.00921715 -0.015748 -0.0657541 -0.0475869 0.393585
internal_weight=0 197910 88345.5 109564 42141.5 67422.6 83680.1 51434.2 72240.4 44915.9 28560.5 33330.9 37127.5 32245.9 16105.1 16355.4 45941.1 30651.8 13773.2 33199.8 21481.5 24702.3 27324.5 14306.7 29734.3 29118.3 24670.2 16444.1 23191.2 1574.16
internal_count=1041487 762196 323891 438305 171965 266340 279291 162701 258234 156942 102755 132526 120574 116590 65657 54187 174592 109474 46621 111129 91748 90674 101292 42127 105650 103839 88904 60544 90164 4637
shrinkage=0.12


Tree=26
num_leaves=31
num_cat=0
split_feature=12 9 9 9 11 11 21 9 21 66 5 9 21 35 61 39 6 66 5 9 21 9 11 65 8 9 64 8 54 70
split_gain=533.838 355.19 317.561 325.319 224.979 223.925 272.771 190.753 156.551 147.487 146.397 143.674 150.962 138.378 126.534 118.924 111.559 111.437 96.6418 96.3003 95.5522 190.522 95.3292 123.071 89.5715 87.5026 86.092 97.6539 86.1688 83.97
threshold=1.0000000180025095e-35 0.13045948511787467 0.13040948511787467 0.0090500000000000025 178.59500000000003 158.83500000000004 1.0000000180025095e-35 0.056850000000000005 1.0000000180025095e-35 2.3342005900503442 3.5000000000000004 0.086950000000000013 1.0000000180025095e-35 6599.0983042137732 5.2200000000000015 3.7500000000000004 3.2500000000000004 2.6007046449466658 2.5000000000000004 0.65675000000000006 1.0000000180025095e-35 1.0000000180025095e-35 225.00500000000002 66617.565458252982 2.6750000000000003 0.48655000000000009 201.88500000000002 4.120000000000001 0.49012046849157193 24.750000000000004
decision_type=2 2 2 2 2 2 2 2 2 2 2 2 2 2 2 2 2 2 2 2 2 2 2 2 2 2 2 2 2 2
left_child=1 2 3 20 10 6 7 -2 -4 13 24 12 16 15 -7 -9 -5 25 -6 26 21 -1 -18 -24 -3 -12 27 -11 -29 -22
right_child=5 4 8 11 18 14 -8 9 -10 19 17 -13 -14 -15 -16 -17 22 -19 -20 -21 29 -23 23 -25 -26 -27 -28 28 -30 -31
leaf_value=0.052453301845810138 0.0037754849323700648 0.0076910557824689547 -0.027227432316456721 -0.027969206029541331 -0.046431885897532214 -0.025506297418213888 -0.0021561943233331755 0.014286313513247528 -0.0070758281198763685 0.017739741038739976 0.016801878412848383 0.0071351334047831255 0.0048092183872958556 -0.074309095579090559 0.0013338735623073499 0.035791875231487462 -0.0041777707531211062 0.00015969464267852652 -0.006043381170452211 0.055383349642683086 -0.019321170592657481 -0.03530065964878381 -0.026667147954474248 0.093647718417937426 -0.0040750901219314918 0.044974966199310837 0.042519065533532852 0.0041422100242468887 -0.030251810658533964 0.011348644191744601
leaf_weight=373.73619279824197 12658.767764271237 19867.889610767365 15456.569271250628 3915.4651644295081 887.4739616648294 2859.9233325840905 15271.391222720966 5238.6567549305037 8664.7899075495079 7024.977421425283 12955.894688952714 20654.546350238379 16998.024330033455 184.99279138445854 21760.616280575749 12660.058457816951 29916.141599523835 5434.3631726019084 20916.952030266635 717.60761703178287 4585.29831707431 6965.8879514010623 4223.9698905404657 124.15947866439819 17540.177341232076 1808.4889101982117 1112.1399237364531 5457.5495662074536 1296.4021197650582 1784.4152866238728
leaf_count=869 45389 65051 78354 16708 3814 11272 55747 17553 39787 22919 41529 74466 63169 756 78464 38046 111533 19172 77442 1888 19389 35652 17373 279 64706 4910 3274 19775 5157 7044
internal_value=0 -0.0288968 -0.0647472 -0.0373111 0.022417 0.0657324 0.0979399 0.136127 -0.166582 0.175448 0.0551632 -0.0116807 -0.0383116 0.236915 -0.0148808 0.245832 -0.0732112 0.123763 -0.0640947 0.104212 -0.179062 -0.256826 -0.0549304 -0.193251 0.0181178 0.16882 0.0869334 0.065303 -0.0205552 -0.0894037
internal_weight=0 193074 113663 89541.6 79411.2 86243.1 61622.5 46351.2 24121.4 33692.4 57606.8 75832.3 55177.8 18083.7 24620.5 17898.7 38179.7 20198.7 21804.4 15608.7 13709.3 7339.62 34264.3 4348.13 37408.1 14764.4 14891.1 13778.9 6753.95 6369.71
internal_count=1041487 741247 464623 346482 276624 300240 210504 154757 118141 109368 195368 283528 209062 56355 89736 55599 145893 65611 81256 53013 62954 36521 129185 17652 129757 46439 51125 47851 24932 26433
shrinkage=0.12


Tree=27
num_leaves=31
num_cat=0
split_feature=11 5 11 65 64 11 61 64 61 11 61 70 21 11 35 9 64 11 64 66 15 39 64 44 66 8 63 11 34 70
split_gain=478.923 525.434 422.405 393.204 373.834 234.367 310.18 295.411 231.936 203.941 151.267 142.709 140.113 137.707 148.136 136.351 135.415 132.128 125.069 117.289 116.666 112.138 103.894 97.2752 94.5674 94.3574 90.515 89.9789 89.4099 87.7607
threshold=289.00500000000005 2.5000000000000004 89.00500000000001 29.479704778283423 93.002500000000012 154.00500000000002 5.4525000000000015 174.00500000000002 6.0225000000000009 79.00500000000001 4.5500000000000016 40.750000000000007 1.0000000180025095e-35 65.00500000000001 1805.1729166666671 0.23065000000000002 125.00250000000001 65.00500000000001 285.01500000000004 2.6570218033512343 1.0000000180025095e-35 3.2500000000000004 75.002500000000012 0.13827448064622003 2.0466384180790964 1.7000000000000004 355.1339243840535 631.0350000000002 0.074280381704781392 42.250000000000007
decision_type=2 2 2 2 2 2 2 2 2 2 2 2 2 2 2 2 2 2 2 2 2 2 2 2 2 2 2 2 2 2
