tree
version=v3
num_class=1
num_tree_per_iteration=1
label_index=0
max_feature_idx=80
objective=lambdarank
feature_names=srch_id site_id visitor_location_country_id prop_country_id prop_id prop_starrating prop_review_score prop_brand_bool prop_location_score1 prop_location_score2 prop_log_historical_price price_usd promotion_flag srch_destination_id srch_length_of_stay srch_booking_window srch_adults_count srch_children_count srch_room_count srch_saturday_night_bool orig_destination_distance random_bool comp2_rate comp2_inv comp3_rate comp3_inv comp5_rate comp5_inv comp5_rate_percent_diff comp8_rate comp8_inv mean_prop_location_score1 std_dev_prop_location_score1 mean_prop_location_score2 std_dev_prop_location_score2 mean_orig_destination_distance std_dev_orig_destination_distance mean_comp5_rate_percent_diff std_dev_comp5_rate_percent_diff median_prop_review_score std_dev_prop_review_score median_comp2_rate std_dev_comp2_rate median_comp2_inv std_dev_comp2_inv median_comp3_rate std_dev_comp3_rate median_comp3_inv std_dev_comp3_inv median_comp5_rate std_dev_comp5_rate median_comp5_inv std_dev_comp5_inv median_comp8_rate std_dev_comp8_rate median_comp8_inv std_dev_comp8_inv mean_prop_starrating median_prop_starrating std_dev_prop_starrating mean_prop_log_historical_price median_prop_log_historical_price std_dev_prop_log_historical_price mean_price_usd median_price_usd std_dev_price_usd mean_srch_length_of_stay median_srch_length_of_stay std_dev_srch_length_of_stay mean_srch_booking_window median_srch_booking_window std_dev_srch_booking_window mean_srch_adults_count median_srch_adults_count std_dev_srch_adults_count mean_srch_children_count median_srch_children_count std_dev_srch_children_count mean_srch_room_count median_srch_room_count std_dev_srch_room_count
feature_infos=[1:332784] [1:34] [1:231] [1:230] [1:140816] [0:5] [0:5] [0:1] [0:6.9800000000000004] [0:1] [0:6.21] [0.01:2085957] [0:1] [5:28411] [1:34] [0:482] [1:9] [0:9] [1:8] [0:1] [0.01:11640.57] [0:1] [-1:1] [-1:1] [-1:1] [-1:1] [-1:1] [-1:1] [2:127400] [-1:1] [-1:1] [0:6.9800000000000013] [0:4.4408920985006246e-15] [0:1] [0:0.49346372460394711] [0:11232.379999999999] [0:5196.3850000000002] [0:20671.338842975205] [0:45137.949798551213] [0:5] none [-1:1] [0:1] [-1:1] [0:1] [-1:1] [0:1] [-1:1] [0:1] [-1:1] [0:1] [-1:1] [0:1] [-1:1] [0:1] [-1:1] [0:1] [0:5] [0:5] none [0:6.2100000000000026] [0:6.21] [0:3.0995287819860802] [10.066421568627453:233985.0392857143] [8.3300000000000001:4700] [0:842842.14358579088] [1:18] [1:18] [0:15.704776343520464] [0:315] [0:315] [0:180.5] [1:4.5] [1:4.5] [0:3.0912061651652349] [0:3] [0:3] [0:3.771236166328253] [1:3] [1:3] [0:2.565800719723442]
tree_sizes=3516 3501 3529 3519 3501 3522 3543 3538 3522 3523 3545 3502 3514 3503 3536 3515 3541 3516 3507 3483 3513 3507 3546 3537 3541 3501 3523 3518 3521 3523 3516 3528 3540 3519 3518 3511 3512 3533 3536 3496 3519 3525 3509 3550 3534 3520 3515 3513 3508 3521 3520 3534 3530 3521 3514 3527 3515 3532 3528 3511 3523 3541 3486 3511 3539 3527 3527 3523 3546 3528 3523 3532 3520 3537 3509 3522 3549 3527 3527 3531 3518 3535 3507 3517 3545 3536 3531 3521 3531 3508 3534 3512 3542 3528 3504 3517 3524 3523 3534 3512 3528 3523 3525 3493 3532 3499 3536 3512 3497 3517 3512 3530 3537 3507 3479 3520 3538 3502 3476 3508 3516 3490 3500 3505 3465 3515 3522 3505 3521 3508 3502 3523 3516 3507 3512 3540 3533 3486 3479 3495 3525 3511 3493 3476 3544 3474 3501 3473 3476 3493 3490 3508 3489 3529 3501 3502 3518 3496 3501 3465 3469 3490 3512 3486 3513 3502 3491 3455 3551 3498 3482 3497 3478 3496 3470 3465 3498 3488 3460 3483 3448 3491 3461 3464 3466 3515 3391 3455 3465 3489 3498 3471 3458 3446 3498 3438 3465 3501 3460 3490 3503 3522 3497 3494 3469 3454 3449 3437 3423 3460 3482 3384 3471 3477 3440 3497 3462 3439 3486 3424 3449 3472 3414 3406 3472 3490 3502 3394 3440 3441 3421 3460 3430 3399 3485 3501 3471 3462 3365 3436 3461 3471 3381 3454 3460 3418 3425 3394 3494 3463 3422 3387 3470 3495 3458 3459 3469 3414 3418 3493 3460 3441 3466 3426 3403 3422 3400 3469 3407 3504 3455 3443 3458 3419 3490 3426 3424 3458 3490 3437 3423 3402 3507 3432 3455 3395 3468 3433 3442 3496 3388 3431 3484 3377 3496 3493 3474 3484 3436 3412 3465 3428 3386 3446 3468 3346 3425 3408 3356 3436 3431

Tree=0
num_leaves=31
num_cat=0
split_feature=4 9 9 9 9 11 8 9 9 31 12 9 12 12 6 4 4 11 11 6 11 4 5 5 11 5 11 9 4 12
split_gain=24795.5 9362.08 5247.8 3798.42 3078.98 1952.59 1782.51 1417.28 1307.22 883.52 883.116 825.547 769.617 665.693 619.34 568.341 541.484 507.799 447.507 373.003 391.138 369.176 360.434 354.036 348.15 336.229 315.636 297.113 293.877 263.617
threshold=20391.500000000004 0.13215000000000002 0.13040948511787467 0.13595000000000004 0.019850000000000003 199.00500000000002 2.6750000000000003 0.13040948511787467 0.032550000000000003 1.9499999999999995 1.0000000180025095e-35 1.0000000180025095e-35 1.0000000180025095e-35 1.0000000180025095e-35 3.2500000000000004 8918.5000000000018 41585.500000000007 248.00500000000002 299.00500000000005 3.2500000000000004 169.01000000000002 40493.000000000007 2.5000000000000004 2.5000000000000004 161.00500000000002 3.5000000000000004 154.00500000000002 1.0000000180025095e-35 11132.500000000002 1.0000000180025095e-35
decision_type=2 2 2 2 2 2 2 2 2 2 2 2 2 2 2 2 2 2 2 2 2 2 2 2 2 2 2 2 2 2
left_child=3 2 4 7 11 9 -5 8 27 -3 16 -2 23 22 -11 -10 -6 -8 -7 -18 25 -16 -13 -4 -12 -21 -25 -1 -29 -9
right_child=1 5 12 6 10 18 17 29 15 14 24 13 -14 -15 21 -17 19 -19 -20 20 -22 -23 -24 26 -26 -27 -28 28 -30 -31
leaf_value=0.081063258237005636 0.16884422599600954 0.15000725118110153 -0.093701331107937921 0.052763265066677549 0.0020124073084121139 0.05223597303815071 -0.033193721604596778 -0.14664800672640257 -0.075830007287489176 0.031225874880089266 0.096493637891183787 -0.074197052746791767 0.0072806570232814196 0.026355944157535293 0.066394004339775881 -0.022073144282199791 -0.0014879809265402521 -0.10298840980172284 -0.011263941833645329 0.051198113186877774 0.022967988546077508 0.10758760533205444 -0.023508504068355106 -0.035473584696718775 0.04305065862280226 0.097277722323331026 -0.082022832392256176 -0.12695092773885858 -0.083716900239733522 -0.088056881379121307
leaf_weight=110.03182280645706 329.22413137892727 4578.8881127367204 3890.484334640234 3536.6714664144674 5041.848463585251 4865.5098239505023 7790.0701134565752 7455.7549893056275 6612.5698760636151 2205.8515669893968 6346.6599991491239 2677.1658095240564 2675.6733319284976 3183.0339700625482 4067.2133037149324 4987.466768090846 2021.7607499722508 1864.6188077126862 2368.0660494631156 7383.3994824030524 4387.0658861565316 14707.623710972126 8331.6676291790209 6513.3564479034685 2469.2736742644338 3345.6038000798435 3125.26314328218 7179.2415889441036 3437.1753972314764 1358.244380426826
leaf_count=692 3638 52924 174782 24163 127537 140693 77508 98148 55790 67171 153923 128694 90934 113094 73136 72658 79562 23449 84938 249682 162974 352970 345708 261721 76899 89555 134677 73526 64588 15918
internal_value=0 0.289417 0.0599566 -0.616995 0.233967 0.72116 -0.166982 -0.807503 -0.672958 0.850995 0.411982 -0.145885 -0.428608 -0.182533 0.763529 -0.439644 0.305282 -0.389537 0.261844 0.390014 0.443955 0.822472 -0.299042 -0.525509 0.679873 0.5469 -0.421887 -0.924766 -0.94185 -1.14751
internal_weight=0 94514.6 61721.5 44331.8 45516.7 32793.2 13191.4 31140.5 22326.5 25559.6 30995.6 14521.1 16204.8 14191.9 20980.7 11600 22179.7 9654.69 7233.58 17137.8 15116.1 18774.8 11008.8 13529.1 8815.93 10729 9638.62 10726.4 10616.4 8814
internal_count=3471652 2965212 2193380 506440 1531266 771832 125120 381320 267254 546201 940132 591134 662114 587496 493277 128448 709310 100957 225631 581773 502211 426106 474402 571180 230822 339237 396398 138806 138114 114066
shrinkage=0.12


Tree=1
num_leaves=31
num_cat=0
split_feature=4 12 11 4 4 9 5 8 9 12 11 4 9 9 9 4 6 5 11 5 4 66 9 11 31 8 9 9 9 64
split_gain=18396.8 6489.05 3171.86 2971.98 3952.13 3275.81 2172.92 1885.25 1888.05 1802.05 1388.28 1363.75 1355.04 1664.74 1178.55 1156.17 1133.78 1115.15 1587.75 1096.43 879.978 864.565 859.459 804.934 800.662 792.348 712.9 694.366 679.121 649.385
threshold=20391.500000000004 1.0000000180025095e-35 136.00500000000002 78753.000000000015 40493.000000000007 0.21855000000000002 2.5000000000000004 2.5200000000000005 0.13405000000000003 1.0000000180025095e-35 200.00500000000002 85017.000000000015 0.13040948511787467 0.047450000000000006 0.13045948511787467 79750.500000000015 3.2500000000000004 3.5000000000000004 215.00500000000002 2.5000000000000004 63721.500000000007 2.3929459843638949 0.20265000000000002 209.00500000000002 1.9499999999999995 2.3500000000000001 0.31915000000000004 1.0000000180025095e-35 0.18965000000000001 105.92250000000001
decision_type=2 2 2 2 2 2 2 2 2 2 2 2 2 2 2 2 2 2 2 2 2 2 2 2 2 2 2 2 2 2
left_child=9 3 6 4 17 12 22 26 -9 19 16 21 13 27 -14 -4 -10 23 -19 -1 -18 -8 -3 24 -2 -7 -6 -5 -21 -13
right_child=1 2 15 5 7 25 11 8 10 -11 -12 29 14 -15 -16 -17 20 18 -20 28 -22 -23 -24 -25 -26 -27 -28 -29 -30 -31
leaf_value=0.021733040215174387 -0.031502131271035592 -0.032207523244541368 -0.025768339751318047 0.11189380274352612 -0.028403590979258278 0.057983973010777262 0.047107296846744522 -0.030481432449937812 0.026102813276475536 0.12967531763795484 -0.020745602312874888 0.045068039217118119 -0.052725737739734276 0.018612594925171939 -0.01259938517608393 0.013703512692239638 -0.104223330885709 0.05969612402302063 -0.019658903945611192 0.066079333319051914 -0.057455847792578341 0.0069067302742413014 0.055582061544785608 -0.0896566548190946 0.013711656099403179 0.016613796365675764 0.019861673970990604 -0.024292737353909685 0.11401937036430235 0.085398931666836972
leaf_weight=5989.1089749621024 10385.559298827313 8543.3746932210925 23553.229093807953 543.08574842568487 38162.308086106263 9348.8932124804705 15688.834009433544 24742.74437842684 1263.3108483510441 8816.8482804611995 5882.9709334622603 11189.892399176897 20039.175585968042 26790.638563978951 22280.509863172541 19544.042275377928 19042.485367709072 9153.6969791778829 6006.23322286451 14674.4667546938 8400.2169346428709 15166.32397878787 1971.0328310984187 1827.7213613341155 12323.152285104239 23325.747892223008 4972.4250368131325 31377.298576716334 6048.0676391141897 11952.258197042393
leaf_count=99911 93553 64569 141189 1495 345140 22815 72316 248516 14461 107735 52341 71424 289599 219534 119325 139431 48058 81739 57923 243625 32370 82386 7985 16399 140703 146955 9709 383664 55169 61613
internal_value=0 -0.0637827 0.144483 -0.14503 -0.245689 -0.0379837 0.284807 -0.349465 -0.465141 0.688351 -0.616052 0.365797 -0.127012 -0.0286433 -0.263414 -0.0655275 -0.70676 0.022141 0.23537 0.558618 -0.749413 0.227996 -0.130909 -0.109543 -0.0579846 0.237209 -0.190271 -0.182925 0.667557 0.549351
internal_weight=0 383477 107609 275868 142163 133705 64511.7 102466 59331.7 35528.5 34589 53997.3 101031 58711 42319.7 43097.3 28706 39696.4 15159.9 26711.6 27442.7 30855.2 10514.4 24536.4 22708.7 32674.6 43134.7 31920.4 20722.5 23142.2
internal_count=3471652 2965212 640913 2324299 1140912 1183387 360293 750595 395746 506440 147230 287739 1013617 604693 408924 280620 94889 390317 139662 398705 80428 154702 72554 250655 234256 169770 354849 385159 298794 133037
shrinkage=0.12


Tree=2
num_leaves=31
num_cat=0
split_feature=9 9 4 9 4 31 5 9 11 9 11 5 11 11 64 11 12 5 12 9 8 5 6 4 9 31 11 5 63 61
split_gain=7351.37 6311.03 4291.58 2927.77 2863.06 2001.24 2224.45 1942.71 1509.54 1445.53 1206.5 1166.62 1111.96 961.844 787.487 986.842 786.558 746.081 724.774 694.584 671.657 667.7 638.236 626.866 585.913 571.773 563.968 680.359 472.735 443.151
threshold=0.13045948511787467 0.13040948511787467 78753.000000000015 0.0074500000000000009 78327.500000000015 2.6400000000000001 3.5000000000000004 1.0000000180025095e-35 143.00500000000002 0.051050000000000005 296.98500000000007 3.5000000000000004 307.61500000000007 119.99500000000002 158.30500000000004 109.00500000000001 1.0000000180025095e-35 3.5000000000000004 1.0000000180025095e-35 0.0029500000000000004 3.7950000000000004 1.0000000180025095e-35 3.7500000000000004 40493.000000000007 0.27225000000000005 1.9500000000000004 245.02000000000001 3.5000000000000004 96.099808673469383 5.3325000000000014
decision_type=2 2 2 2 2 2 2 2 2 2 2 2 2 2 2 2 2 2 2 2 2 2 2 2 2 2 2 2 2 2
left_child=1 3 8 7 9 11 13 -1 17 -5 14 18 22 -7 15 28 23 24 -4 -9 -8 -3 -11 25 -2 -10 27 -23 -6 -27
right_child=2 21 5 4 10 6 20 19 16 12 -12 -13 -14 -15 -16 -17 -18 -19 -20 -21 -22 26 -24 -25 -26 29 -28 -29 -30 -31
leaf_value=0.092691431283149467 0.028367896442394829 -0.10672666473658203 0.0023992407538191286 0.0027901413095574256 -0.018295166133902162 -0.016882316917372041 0.037715251425887691 -0.068383590431067842 0.059684119309939387 0.01490461236317029 -0.066286138454061921 0.072196077032700992 -0.045266379707783286 -0.064556375759851972 0.012417536607325847 -0.036377407262189271 0.050251299130773967 0.076850894775916667 0.066562014242750517 -0.027908914530154438 -0.0020548772978771527 -0.051921840577518225 0.04973502722176313 0.032247680198482433 0.061557580998920794 -0.045362166914396956 -0.088867427845082295 -0.018909329813097502 0.011444592002426047 0.0013963558976511938
leaf_weight=1488.376178403385 16682.034144070232 2841.5880424469651 15344.080454900395 38831.532523253292 14733.460998030496 12939.928839981672 8598.7526700193994 12304.000242617185 1620.7370759861078 10483.358079661033 5711.2040994078852 6495.6932261823677 2322.3803980354569 11551.667722815881 18348.683067666134 21250.688618239481 9211.0825555319898 14331.16431500297 3034.1446157034952 12193.429683703522 21103.936638672953 33110.139666745905 27569.923208295193 9817.102850460913 14247.469717454747 4633.7812782290857 4220.4900004417868 12386.039147306641 16097.926373048685 7845.1886846457492
leaf_count=4330 107897 49939 50565 448757 141851 74324 37584 188513 4708 99525 51326 17765 26108 69671 144513 170673 71278 69172 7860 177593 137405 491318 230101 96093 70700 32004 68694 153325 115230 62830
internal_value=0 -0.112453 0.167041 -0.0240028 0.0279574 0.00263066 -0.105124 -0.334655 0.33284 0.161067 -0.110485 0.237457 0.293542 -0.328221 -0.0745869 -0.137363 0.170502 0.451584 0.108504 -0.402143 0.0787889 -0.417551 0.334576 0.0747391 0.363931 -0.0602357 -0.390456 -0.357856 -0.0230007 -0.132986
internal_weight=0 233893 157457 181335 155349 79068.2 54194.3 25985.8 78388.6 79207.2 76142 24873.9 40375.7 24491.6 70430.8 52082.1 33127.9 45260.7 18378.2 24497.4 29702.7 52558.3 38053.3 23916.8 30929.5 14099.7 49716.7 45496.2 30831.4 12479
internal_count=3471652 2561796 909856 1798520 1428084 395174 318984 370436 514682 804491 623593 76190 355734 143995 572267 427754 266913 247769 58425 366106 174989 763276 329626 195635 178597 99542 713337 644643 257081 94834
shrinkage=0.12


Tree=3
num_leaves=31
num_cat=0
split_feature=9 9 11 5 11 9 5 11 11 8 8 61 11 64 9 9 8 61 11 11 64 12 64 11 6 80 11 64 61 11
split_gain=5030.63 4557.61 2186.24 1797.3 1530.14 1454.84 1144.56 1084.06 1038.3 1016.85 840.996 975.761 686.957 672.364 602.171 759.149 572.903 568.542 509.322 495.818 485.246 455.608 418.918 449.628 398.518 345.612 345.161 489.918 415.157 341.864
threshold=0.13045948511787467 0.13040948511787467 239.00500000000002 2.5000000000000004 99.00500000000001 0.092750000000000013 3.5000000000000004 152.00500000000002 197.00500000000002 2.4400000000000004 1.2450000000000003 5.4025000000000007 369.03000000000003 105.92250000000001 1.0000000180025095e-35 0.0090500000000000025 4.0000000000000009 5.9825000000000008 89.995000000000019 168.99500000000003 132.00750000000002 1.0000000180025095e-35 178.99750000000003 99.00500000000001 2.7500000000000004 0.13502190644446369 89.995000000000019 93.002500000000012 4.7625000000000002 177.00500000000002
decision_type=2 2 2 2 2 2 2 2 2 2 2 2 2 2 2 2 2 2 2 2 2 2 2 2 2 2 2 2 2 2
left_child=1 5 3 18 13 6 7 14 22 -7 -6 19 17 16 -1 -16 -5 -4 24 20 -12 -3 23 -8 -2 -17 27 -27 -28 -13
right_child=2 21 12 4 10 9 8 -9 -10 -11 11 29 -14 -15 15 25 -18 -19 -20 -21 -22 -23 -24 -25 -26 26 28 -29 -30 -31
leaf_value=0.09316177749057819 -0.048156514368620958 -0.04994075549695446 -0.018579190485578923 0.048845970054421074 0.067951728903339351 0.052477667201589161 0.02980175489369765 -0.048867421293631509 -0.017912343795301992 0.0064903664448422464 0.00010616066396907915 0.050490752464969986 -0.058389071390452019 0.075077154736025789 -0.038127083392188309 -0.045627716178876808 0.0045456433469720078 0.041795828667010752 -0.030123671303036365 -0.016833792077069493 0.026960068735597899 -0.02014762716903783 0.039067187946282236 -0.0005972113840344421 0.013384339027129913 -0.002590873788088254 -0.038934693785902599 0.037918426359172065 -0.0042631978271622673 0.022191995021863302
leaf_weight=782.27430377338897 1716.2233758459333 38967.4522745836 12191.841411633533 17674.713130098768 4771.461910599377 9764.3091835021041 10342.690586137818 13104.882662840653 19870.404848228616 23829.731276131177 21038.117471600184 11573.376921210962 5121.9149066855316 10399.96937359171 13213.424384803162 2987.2174643836915 5532.5326007924741 2746.5906382793328 9252.5724383032648 10535.5201961149 17986.686311503523 9169.5133374987054 8603.4909686608007 21652.222441717749 12607.555320909247 19137.717373539053 6743.3797468586126 5536.2660521534854 18987.844242952531 13232.777051838581
leaf_count=2620 13596 660879 104353 69576 11096 54538 81685 161373 233633 192289 108714 63125 53761 41799 243813 35600 39323 23874 57918 73195 94577 102397 68599 195717 66265 221025 74814 44185 188629 88684
internal_value=0 -0.0965351 0.137468 0.182832 0.235341 -0.0213937 -0.0659722 -0.144075 0.0379641 0.165582 0.159365 0.133195 -0.170675 0.414138 -0.0928434 -0.103139 0.319154 -0.0621022 -0.0681858 0.0520952 0.104094 -0.368943 0.12966 0.0768766 0.0498313 -0.0499719 -0.030324 0.0541215 -0.111372 0.2951
internal_weight=0 222693 156382 136322 112745 174556 140962 80493 60468.8 33594 79137.9 74366.5 20060.3 33607.2 67388.1 66605.8 23207.2 14938.4 23576.4 49560.3 39024.8 48137 40598.4 31994.9 14323.8 53392.4 50405.2 24674 25731.2 24806.2
internal_count=3471652 2561796 909856 727868 590089 1798520 1551693 972059 579634 246827 439391 428295 181988 150698 810686 808066 108899 128227 137779 276486 203291 763276 346001 277402 79861 564253 528653 265210 263443 151809
shrinkage=0.12


Tree=4
num_leaves=31
num_cat=0
split_feature=9 9 8 11 5 11 6 11 64 61 9 61 11 64 9 64 11 5 11 46 11 8 64 67 34 4 61 61 11 9
split_gain=4380.06 4066.4 1987.23 1358.46 1464.57 1098.06 941.087 925.18 1641.5 1116.39 638.012 565.454 529.037 711.26 510.754 494.266 451.114 449.729 837.646 376.699 362.657 360.395 357.067 355.71 327.417 318.149 312.822 304.506 295.4 293.347
threshold=0.13045948511787467 0.13040948511787467 1.7000000000000004 245.02000000000001 2.5000000000000004 259.00500000000005 3.7500000000000004 119.99500000000002 125.00250000000001 5.2425000000000006 0.47445000000000004 5.5225000000000009 129.00500000000002 198.00500000000002 0.070450000000000013 145.00250000000003 79.995000000000019 2.5000000000000004 99.00500000000001 0.22183239876116204 399.01500000000004 2.7400000000000007 241.97500000000005 1.7500000000000002 0.029590214845345183 77796.000000000015 4.9225000000000003 6.0425000000000013 59.995000000000012 1.0000000180025095e-35
decision_type=2 2 2 2 2 2 2 2 2 2 2 2 2 2 2 2 2 2 2 2 2 2 2 2 2 2 2 2 2 2
left_child=1 3 10 4 28 6 19 8 14 26 24 -5 15 -14 16 -8 -6 -3 -19 25 27 -16 -11 -20 -2 -4 -9 -13 -1 -18
right_child=2 17 5 11 7 -7 12 9 -10 22 -12 20 13 -15 21 -17 29 18 23 -21 -22 -23 -24 -25 -26 -27 -28 -29 -30 -31
leaf_value=-0.0021397560071573186 0.0083663876504445657 -0.063349756372498067 -0.028707267590213914 -0.067197373703677371 0.016366215586445902 -0.02153693630368838 0.024162035616914612 -0.042143790588370256 0.054421884785126717 0.0067160922539410686 0.095009955161712636 -0.019347640705124881 -0 0.031854158700119761 0.043542683163567554 0.058017109056308698 0.10980653637135122 -0.0092233668746586357 -0.066805662474093211 0.011524929756276515 -0.050937118996640454 0.0071496550712756134 0.044374677128059245 -0.036672749221199445 0.050831815341012054 0.003371172739446131 -0.013465942516677428 0.03146191044026031 -0.030718434844630171 -0.013694672265805223
leaf_weight=6985.1337466020195 3447.7292680093087 11232.410067723889 10270.895673635183 5085.5810681378935 13050.117999458336 13794.039951306186 35963.145546215703 7523.3453577905311 13405.854272817378 27644.748622590618 3992.7348017643671 7144.4831077527488 28302.821184459375 15675.060138143017 7698.604437869275 7524.718407936627 275.36040159314871 11572.248139488336 9402.1604547312018 13741.60607364669 3875.4991247295402 8016.9768176769139 4173.6651682687807 14330.969940407289 11031.633288280806 7832.4508484050748 20304.836880965391 2220.6084606217919 20693.036839870969 20723.361917531118
leaf_count=100888 10280 222715 68543 61697 136977 146775 178595 90926 99365 260276 7563 84414 187862 106528 42889 31706 874 163736 150116 81780 50232 61911 37490 226709 31056 59168 218410 26285 285129 240757
internal_value=0 -0.0916592 0.130227 -0.019497 0.0117966 0.0875448 0.118439 0.0586415 0.14298 -0.03065 0.43757 -0.276523 0.172029 0.0946019 0.0592482 0.250263 -0.00952899 -0.353363 -0.297706 -0.0286926 -0.167329 0.208342 0.0972463 -0.405266 0.339526 -0.123484 -0.176948 -0.0605328 -0.19597 -0.100317
internal_weight=0 215359 151577 168821 150495 133105 119311 122817 63170.3 59646.6 18472.1 18326.2 87465.7 43977.9 49764.4 43487.9 34048.8 46537.8 35305.4 31845 13240.6 15715.6 31818.4 23733.1 14479.4 18103.3 27828.2 9365.09 27678.2 20998.7
internal_count=3471652 2561796 909856 1798520 1575892 860957 714182 1189875 582773 607102 48899 222628 504691 294390 483408 210301 378608 763276 540561 209491 160931 104800 297766 376825 41336 127711 309336 110699 386017 241631
shrinkage=0.12


Tree=5
num_leaves=31
num_cat=0
split_feature=9 9 8 9 9 11 8 9 5 9 11 5 34 61 11 11 5 65 11 80 61 8 64 64 11 5 11 63 11 6
split_gain=3396.92 2426.95 1704.35 1475.04 1124.26 1101.58 1021.03 843.765 839.09 825.755 779.392 677.847 523.167 442.873 468.475 418.133 567.23 388.493 582.337 375.625 368.896 350.844 302.389 281.494 269.425 265.659 265.214 263.705 261.481 257.797
threshold=0.14845000000000003 0.13040948511787467 2.2500000000000004 0.036350000000000007 0.13045948511787467 187.00500000000002 1.7000000000000004 1.0000000180025095e-35 3.5000000000000004 0.0032500000000000007 153.11000000000004 3.5000000000000004 0.074280381704781392 5.5925000000000002 345.02000000000004 208.00500000000002 3.5000000000000004 25.671934882672794 168.99500000000003 0.19246854488797685 5.4425000000000017 4.1650000000000009 98.875000000000014 239.03250000000003 89.00500000000001 3.5000000000000004 84.00500000000001 95.429090909090931 350.00500000000005 3.7500000000000004
decision_type=2 2 2 2 2 2 2 2 2 2 2 2 2 2 2 2 2 2 2 2 2 2 2 2 2 2 2 2 2 2
left_child=1 3 12 7 15 8 -5 -1 19 -9 11 -8 -2 -7 23 16 -3 -11 29 -4 -12 -10 -13 -15 -24 -14 27 -21 -22 -19
right_child=2 4 5 6 -6 13 10 9 21 17 20 22 25 14 -16 -17 -18 18 -20 26 28 -23 24 -25 -26 -27 -28 -29 -30 -31
leaf_value=0.08380258183859321 0.023115146237763451 -0.04341223047180668 -0.030226726200682674 0.036732361780691052 0.00014212044815501091 -0.027590315929737798 0.00078441611297819691 -0.048053424607577847 0.040552271655775185 -0.025989233827654532 -0.02978002248545247 -0.001812092818911034 0.045129186015705328 -0.0079107207059716661 -0.036058940514402435 -0.070844005630377613 -0.0096998462780235068 -0.013050451685234823 -0.023942803913400219 0.010027189898879124 0.0050512030988644407 0.016644071412790791 0.07732387381291414 0.02785587463458555 0.030189593558134234 0.079183467586023654 0.00039741235877415956 0.04775210679527022 -0.037631377109571644 0.013590823757281136
leaf_weight=1217.5829841184604 13370.180818427587 29355.34691254163 4178.6164895499824 14999.541618144256 13396.483456920367 13549.540138329554 33435.768574819609 10305.516045761877 18452.103685111273 17739.813564140582 11818.296737711702 3697.5910269794986 11090.165403911844 5554.3321137720486 3683.2674092582311 5400.6612264284631 9546.9527736628079 7261.4739486173494 14478.913491112471 8429.9644096409902 13129.125670520589 17073.010545445955 2011.0975458780304 7341.57780502073 13674.023283184157 4762.9322198480368 24121.249647092773 3917.3840571424225 2447.1819994396647 18611.707074881764
leaf_count=4330 44380 522654 31360 102447 90501 117181 318976 202725 76154 276960 118939 25201 32457 43682 49538 107494 133128 95512 197532 59640 122584 101936 8887 61934 85485 11011 166929 23153 33456 205486
internal_value=0 -0.0760123 0.124808 -0.0142082 -0.252514 0.0659789 0.0666663 -0.124846 0.13001 -0.13958 0.0218513 0.0928594 0.338686 -0.0958345 0.0136636 -0.329265 -0.292895 -0.093237 -0.038944 0.0318253 -0.114975 0.242275 0.241625 0.103628 0.302258 0.461645 0.0644186 0.183583 -0.0137429 0.0508619
internal_weight=0 222527 135524 164828 57699.4 106301 95212.6 69615 76172.3 68397.4 80213.1 52818.5 29223.3 30128.7 16579.2 44303 38902.3 58091.9 40352.1 40647.2 27394.6 35525.1 19382.7 12895.9 15685.1 15853.1 36468.6 12347.3 15576.3 25873.2
internal_count=3471652 2652297 819355 1798520 853777 731507 815975 982545 459172 978215 713528 438549 87848 272335 155154 763276 655782 775490 498530 281082 274979 178090 119573 105616 94372 43468 249722 82793 156040 300998
shrinkage=0.12


Tree=6
num_leaves=31
num_cat=0
split_feature=9 9 11 9 9 8 11 64 63 66 11 63 12 34 61 8 11 11 63 12 11 63 61 78 5 9 7 11 65 63
split_gain=2881.34 2832.84 1347.85 1128.71 933.408 799.995 734.301 636.869 615.255 494.802 470.617 517.988 425.678 418.315 397.652 516.12 400.151 378.237 439.535 364.576 360.067 288.666 283.126 266.64 265.232 258.483 253.693 249.828 275.638 242.998
threshold=0.13045948511787467 0.13040948511787467 158.83500000000004 0.011550000000000001 1.0000000180025095e-35 1.2450000000000003 220.79500000000004 175.00250000000003 165.30725960796423 2.3846708046996237 99.995000000000019 87.280523973509943 1.0000000180025095e-35 0.02044283807208664 4.9525000000000015 2.9700000000000002 409.01000000000005 114.00500000000001 109.25149877411791 1.0000000180025095e-35 140.00500000000002 109.79689252679491 4.7725000000000009 1.0588611885215038 1.0000000180025095e-35 0.27225000000000005 1.0000000180025095e-35 119.00500000000001 13.693016640090127 288.52203826955082
decision_type=2 2 2 2 2 2 2 2 2 2 2 2 2 2 2 2 2 2 2 2 2 2 2 2 2 2 2 2 2 2
left_child=1 3 5 4 -1 -2 8 13 10 23 11 -5 24 -7 -4 25 29 18 19 -15 26 -19 -12 -6 -3 -16 -10 28 -26 -17
right_child=2 12 14 6 9 7 -8 -9 20 -11 22 -13 -14 17 15 16 -18 21 -20 -21 -22 -23 -24 -25 27 -27 -28 -29 -30 -31
leaf_value=0.08293010237913058 0.058044645015881524 -0.084895892575596599 -0.049151757766760812 -0.0051793063454096955 -0.081953103945253 -0.0069005312310558963 -0.019788906169282857 0.05071066269600228 0.014104778140459975 -0.0092769917126652515 -0.032538716006900607 0.021199630155767542 -0.011511301498830256 0.0041668749930278848 0.006932257674438772 -0.01033464154978506 -0.055098762839196874 -0.03326065912668983 0.037672211689536363 0.034783996125552434 0.0093412260635914821 0.010315823427277517 -0.0045731255718992805 -0.035886366645619214 -0.049660413400849576 0.046650141907964987 0.047307010616709069 -0.052072506271667214 -0.019565129270720044 0.011383457986223229
leaf_weight=1127.8511165953823 7789.6122591197491 2006.140649923298 2560.9238975459593 19731.660792788141 2102.8987891170545 11070.63127997343 18080.530835030717 7778.6895846223924 5426.6924174430314 11479.337417292991 6240.4482302988763 23429.620183374034 7885.8276034385199 17399.07361210807 5483.4322425900609 24674.879996678617 2331.4372311531333 2437.5028897456359 20386.191595001146 8270.5803693037014 19663.306816242519 20963.500288815878 31758.95424027968 13483.894220307062 7007.0432333900244 4162.1215737345628 8629.987998198194 13879.88023728499 11834.661546984484 10594.378905288613
leaf_count=4330 19731 49434 19781 232049 53553 59899 217453 37770 39462 185045 72730 200093 102397 108834 28392 214302 33761 15528 100875 38814 180567 123572 307918 250665 137601 14613 54655 265406 208438 93984
internal_value=0 -0.0768115 0.107274 -0.0161642 -0.197894 0.17647 0.0223619 0.14932 0.0518587 -0.235133 0.00465957 0.0761287 -0.306091 0.122874 -0.0261935 -0.00532806 -0.0583101 0.151655 0.204266 0.117047 0.165385 0.0480034 -0.0764647 -0.351176 -0.353735 0.200925 0.287631 -0.331883 -0.256502 -0.0316945
internal_weight=0 203769 145903 161155 28194 96095.8 132961 88306.2 114881 27066.1 81160.7 43161.3 42613.6 80527.5 49807.2 47246.2 37600.7 69456.8 46055.8 25669.7 33720 23401 37999.4 15586.8 34727.7 9645.55 14056.7 32721.6 18841.7 35269.3
internal_count=3471652 2561796 909856 1798520 493593 505023 1304927 485292 1087474 489263 812790 432142 763276 447522 404833 385052 342047 387623 248523 147648 274684 139100 380648 304218 660879 43005 94117 611445 346039 308286
shrinkage=0.12


Tree=7
num_leaves=31
num_cat=0
split_feature=9 6 11 64 8 61 11 64 11 11 12 8 11 11 61 5 11 5 64 11 69 67 11 11 9 61 11 34 5 9
split_gain=2525.7 1621.86 1173.36 1147.26 1130.71 1003.14 808.757 796.813 600.996 579.051 515.862 432.427 419.854 398.4 394.974 389.141 284.859 284.583 274.477 273.751 267.295 246.276 233.744 216.646 198.233 195.541 185.849 185.681 183.106 186.889
threshold=0.19765000000000002 3.2500000000000004 143.00500000000002 140.00500000000002 3.0650000000000004 5.1925000000000017 89.00500000000001 85.00500000000001 307.61500000000007 229.00500000000002 1.0000000180025095e-35 1.2450000000000003 69.995000000000019 69.995000000000019 4.8425000000000002 3.5000000000000004 109.00500000000001 1.5000000000000002 203.45250000000001 206.00500000000002 50.69848484848486 3.2500000000000004 194.00500000000002 39.755000000000003 0.36695000000000011 5.4425000000000017 189.00500000000002 0.022529354162438266 1.5000000000000002 0.35855000000000004
decision_type=2 2 2 2 2 2 2 2 2 2 2 2 2 2 2 2 2 2 2 2 2 2 2 2 2 2 2 2 2 2
left_child=1 17 3 6 10 22 7 12 18 15 11 -2 -3 -9 -8 21 -5 -1 26 -20 -10 27 -4 -19 -12 -11 -7 -6 -13 -30
right_child=4 2 5 16 9 8 14 13 20 25 24 28 -14 -15 -16 -17 -18 23 19 -21 -22 -23 -24 -25 -26 -27 -28 -29 29 -31
leaf_value=-0.075228977408550973 0.055931275251218507 0.0093063105678859101 -0.029974857396051477 0.049779435895032843 -0.04422884626079493 -0.00098400008202062191 -0.023055458254334974 0.062389652897195183 -0.048295229496511549 -0.050800398404941126 0.043470499193719821 -0.025740656837077228 -0.020413150949601867 0.020206007174296787 -0.0028012882704813121 0.020686895926953774 0.020083508534055092 0.012800315069838843 0.026521239238417139 -0.0011463002296654959 -0.0093138927514353625 -0.052579060680122761 -0.059941782685493036 -0.03122737291149049 0.081628595461893799 -0.010627792524982603 -0.021596316752436076 0.0053496362380045749 0.011407602641469797 0.032791081632758706
leaf_weight=2029.3798344367242 5304.1758511746302 17154.773261715367 14901.581850658258 6716.9802441828651 1151.8279104097746 16110.925021041359 21971.640725812467 3994.7225521990913 6240.5291231171577 2121.3075133049861 5101.5576305238064 1285.6002558324253 11378.942511592759 16884.092196340731 37652.707381555636 28502.93022453197 15317.327794624376 1695.1142114170943 8145.1072638736223 13944.977791524638 4295.2081955118338 1246.175232459791 5052.1766190950875 28494.648890871991 3259.5512441201136 9916.1944880355732 10365.84645252733 18095.13488420425 13784.002955479897 10343.601897544228
leaf_count=47655 12671 209052 191542 42767 12781 168595 278973 29957 100965 23874 15683 6532 142545 154110 391579 169727 125141 26677 70705 162186 62210 12030 74993 453599 7125 108816 124389 143139 65458 36176
internal_value=0 -0.0551965 -0.0231499 0.0348732 0.133613 -0.11937 -0.00716981 0.0874107 -0.0538666 0.0485269 0.266429 0.206313 -0.0211549 0.235845 -0.0855859 0.096831 0.242968 -0.264101 -0.00684726 0.0754014 -0.270317 -0.00818027 -0.313229 -0.239547 0.486791 -0.147877 -0.0755457 0.0196621 0.151932 0.17158
internal_weight=0 242347 210128 131071 100112 79056.4 109037 49412.5 59102.6 61033.6 39078.5 30717.4 28533.7 20878.8 59624.3 48996.1 22034.3 32219.1 48566.9 22090.1 10535.7 20493.1 19953.8 30189.8 8361.11 12037.5 26476.8 19247 25413.2 24127.6
internal_count=3471652 2857640 2329709 1374124 614012 955585 1206216 535664 689050 470367 143645 120837 351597 184067 670552 337677 167908 527931 525875 232891 163175 167950 266535 480276 22808 132690 292984 155920 108166 101634
shrinkage=0.12


Tree=8
num_leaves=31
num_cat=0
split_feature=9 9 9 8 11 9 9 8 9 21 5 21 11 12 7 11 11 80 34 5 5 63 11 8 11 36 11 61 66 35
split_gain=2432.12 2413.34 1183.13 1093.58 649.328 630.976 672.327 494.288 448.088 436.525 433.212 358.698 414.805 414.767 321.337 347.09 316.511 308.126 335.466 298.007 287.259 271.752 294.239 249.488 241.191 241.01 223.387 263.309 205.878 205.173
threshold=0.13045948511787467 0.13040948511787467 0.06235000000000001 2.6000000000000005 289.00500000000005 1.0000000180025095e-35 0.0018500000000000003 2.1400000000000006 0.39905000000000007 1.0000000180025095e-35 2.5000000000000004 1.0000000180025095e-35 174.25500000000002 1.0000000180025095e-35 1.0000000180025095e-35 77.00500000000001 178.59500000000003 0.13502190644446369 0.057695628446508267 2.5000000000000004 3.5000000000000004 141.97276501937986 144.00500000000002 3.5450000000000004 119.99500000000002 1742.8819540431407 129.00500000000002 4.6400000000000015 2.3758465701487519 1291.4142647058827
decision_type=2 2 2 2 2 2 2 2 2 2 2 2 2 2 2 2 2 2 2 2 2 2 2 2 2 2 2 2 2 2
left_child=1 2 5 8 10 -1 9 -4 20 -7 -5 12 13 -3 23 -16 19 -8 26 -9 24 -17 -23 -12 -2 -24 27 -19 -21 -20
right_child=3 11 7 4 -6 6 17 16 -10 -11 14 -13 -14 -15 15 21 -18 18 29 28 -22 22 25 -25 -26 -27 -28 -29 -30 -31
leaf_value=0.082133921966778628 0.021014807898885379 -0.04393413762240006 0.030879046308190217 -0.016288215988161246 -0.027335037543730307 -0.081959391168285725 -0.041711962957379375 -0.014714332776934449 0.049576290914922501 -0.016302615942185114 0.020852723803625555 -0.018540361312282365 -0.0761958634788064 -0.0022802810480855276 0.052242327059005132 -0.0014992180996380286 -0.011357857800653617 -0.010294652769410917 -0.025656660542594276 0.02451096118542043 0.03925726803306169 0.036847720472098576 0.001317985488311922 -0.0031735551691945067 -0.0075914789321679726 0.028129695451373941 -0.011044492144395525 0.012433735384794212 0.0037908184412832661 -0.0059077017557603584
leaf_weight=1048.9459982551634 16716.467775713652 18337.615890040994 14179.99469775334 9408.5592242255807 8124.5761041217484 3052.1746436422691 3868.1788706313819 5369.3651297800243 10637.477286398411 2814.5068297768012 8055.7407697439194 13152.728191738715 4469.1575544192456 4253.4749930081889 3808.1150450985879 11291.67213835381 12147.397010006942 11033.284725322854 17415.874578231014 16957.201186235063 8918.6854433640838 10248.619847580791 12303.786185457371 27265.283188389614 5670.5460939072073 7962.484655587934 20959.738685486373 21864.302041743416 11701.612041786313 13476.102034620941
leaf_count=2227 46913 67746 40788 30633 27665 12803 14526 16792 21739 10446 22912 48341 18681 13191 9778 35034 38106 36109 56896 47822 22158 27508 37362 84637 16998 22317 67393 65790 36074 42102
internal_value=0 -0.0719191 -0.0155586 0.100484 0.0428566 -0.0848134 -0.0934106 0.0940254 0.235705 -0.421188 0.0672292 -0.290326 -0.356229 -0.30087 0.0908549 0.146303 0.0438121 -0.0716659 -0.0590282 0.0933053 0.175295 0.119878 0.168919 0.0191796 0.114651 0.0989026 -0.0113349 0.0400277 0.133844 -0.142097
internal_weight=0 196102 155889 140412 98468.8 95533.1 94484.2 60355.6 41943.2 5866.68 90344.3 40213 27060.2 22591.1 80935.7 45614.7 46175.6 88617.5 84749.3 34028.2 31305.7 41806.6 30514.9 35321 22387 20266.3 53857.3 32897.6 28658.8 30892
internal_count=1041487 635833 487874 405654 297846 308292 306065 179582 107808 23249 270181 147959 99618 80937 239548 131999 138794 282816 268290 100688 86069 122221 87187 107549 63911 59679 169292 101899 83896 98998
shrinkage=0.12


Tree=9
num_leaves=31
num_cat=0
split_feature=9 9 8 9 11 9 8 5 9 21 6 42 21 12 11 61 11 9 12 33 11 61 11 55 65 11 5 11 61 5
split_gain=2006.31 2000.22 944.897 907.904 715.647 554.999 475.875 484.072 383.451 436.021 357.363 336.845 325.82 305.733 295.751 265.909 242.453 228.907 228.291 226.716 218.656 215.56 215.696 210.903 204.793 189.964 196.527 185.596 184.697 177.459
threshold=0.13045948511787467 0.13040948511787467 1.7000000000000004 0.038750000000000007 189.00500000000002 1.0000000180025095e-35 3.2400000000000007 3.5000000000000004 0.0060500000000000007 1.0000000180025095e-35 4.2500000000000009 0.21652644860752115 1.0000000180025095e-35 1.0000000180025095e-35 171.44000000000003 5.2825000000000015 520.72500000000002 0.35855000000000004 1.0000000180025095e-35 0.106972149958575 257.02000000000004 6.0950000000000006 315.01000000000005 0.75000000000000011 18.127067702837955 174.25500000000002 2.5000000000000004 92.00500000000001 5.0025000000000013 3.5000000000000004
decision_type=2 2 2 2 2 2 2 2 2 2 2 2 2 2 2 2 2 2 2 2 2 2 2 2 2 2 2 2 2 2
left_child=1 3 17 5 10 -1 7 14 9 -7 11 19 13 25 18 -6 21 -2 -5 -4 24 22 -17 -13 -8 26 -3 -12 -29 -10
right_child=2 12 4 6 15 8 20 -9 29 -11 27 23 -14 -15 -16 16 -18 -19 -20 -21 -22 -23 -24 -25 -26 -27 -28 28 -30 -31
leaf_value=0.076745069895073903 0.027819166079120154 -0.060712391557539241 0.025868624952202636 0.0030580014208378991 -0.035810904760661101 -0.048322319888460488 -0.037390662094764174 0.029915426365105809 -0.014967651724729322 -0.0069367350086989993 0.04273027249005372 0.015856536073748387 -0.016584138098957504 -0.01314413418606513 -0.032837096263503285 -0.00035207601892335821 -0.062349973779810559 0.057886519707773663 0.028545210205316255 -0.003782100688784967 -0.028575442414861492 0.032381439681347074 -0.033611012643511351 0.094398779279209283 0.0019624894234022165 -0.072759439644066837 -0.032991755447152847 -0.00078758122359475651 0.024731907008134497 -0.00067169363071191044
leaf_weight=987.74452063441277 10741.95121351257 5294.4319000861142 4210.1419841395691 22998.002905077301 4471.0753823695704 8519.889070446603 2027.5095644332469 17705.305622644257 28253.79271526821 6461.1624628314748 5888.368204144761 28192.003164035268 12944.273322741035 4994.8774440665729 2689.6744508109987 18427.118444970809 981.92849234957248 5578.3530552200973 6494.503045193851 31183.229459897615 4565.8147468026727 2405.5070355078205 3311.0448522996157 497.69776170514524 30124.847002254333 3309.7795261712745 12472.81982495822 5306.4237565994263 17459.816860861145 22492.825291966088
leaf_count=2020 27486 22287 11879 71092 15381 34035 6955 50551 92678 23044 15491 82801 48362 16332 9352 57303 3796 9754 18728 97863 15567 7175 11574 1042 92838 14917 45031 16450 49159 70544
internal_value=0 -0.0660918 0.0917065 -0.0146316 0.0615274 -0.102313 0.0528917 0.11649 -0.11354 -0.254145 0.104744 0.0631792 -0.268235 -0.332678 0.043337 -0.0738125 -0.033712 0.317713 0.0723544 -0.00204273 -0.0334667 -0.0137652 -0.0452959 0.143697 -0.00430886 -0.385426 -0.344004 0.197601 0.156453 -0.0719713
internal_weight=0 192337 138655 153321 122334 66715.4 86605.7 49887.5 65727.7 14981.1 92737.7 64083.1 39016.2 26071.9 32182.2 29596.7 25125.6 16320.3 29492.5 35393.4 36718.2 24143.7 21738.2 28689.7 32152.4 21077 17767.3 28654.6 22766.2 50746.6
internal_count=1041487 634333 407154 487404 369914 222321 265083 149723 220301 57079 274685 193585 146929 98567 99172 95229 79848 37240 89820 109742 115360 76052 68877 83843 99793 82235 67318 81100 65609 163222
shrinkage=0.12


Tree=10
num_leaves=31
num_cat=0
split_feature=9 9 31 9 12 9 11 9 5 8 5 21 12 80 9 21 12 11 78 9 11 5 33 21 11 61 21 33 11 11
split_gain=1676.89 1755.37 830.678 658.373 574.832 460.652 390.848 360.421 339.757 325.441 310.413 308.439 471.553 255.745 255.726 253.356 268.915 252.511 230.891 224.488 204.639 210.429 192.441 191.613 189.26 207.036 188.162 182.611 168.786 168.314
threshold=0.13045948511787467 0.13040948511787467 3.2599999999999998 0.045650000000000003 1.0000000180025095e-35 1.0000000180025095e-35 239.00500000000002 0.0010500000000000004 3.5000000000000004 2.3500000000000001 3.5000000000000004 1.0000000180025095e-35 1.0000000180025095e-35 0.2374868417407584 0.29675000000000007 1.0000000180025095e-35 1.0000000180025095e-35 129.00500000000002 1.0350535872755822 0.092750000000000013 208.00500000000002 3.5000000000000004 0.086281280193236706 1.0000000180025095e-35 141.28500000000005 5.0725000000000007 1.0000000180025095e-35 1.0000000180025095e-35 275.33500000000009 223.00500000000002
decision_type=2 2 2 2 2 2 2 2 2 2 2 2 2 2 2 2 2 2 2 2 2 2 2 2 2 2 2 2 2 2
left_child=1 3 4 5 8 -1 10 23 14 -5 -4 12 18 -11 22 16 -3 -10 -9 -15 21 -21 -2 -7 25 -20 -6 -17 -14 -18
right_child=2 15 6 9 26 7 -8 11 17 13 -12 -13 28 19 -16 27 29 -19 24 20 -22 -23 -24 -25 -26 -27 -28 -29 -30 -31
leaf_value=0.074208153765286181 0.024336277548463348 -0.043524271642143383 -0.0051030243368666017 0.017737060815759355 0.049631384354438486 -0.08181500825727725 -0.01772403429448562 -0.060661104340382063 0.049455438368941271 -0.028720804124075884 0.012265781623972948 0.0027620872058131411 0.0061979826684255765 -0.0032260986913279321 0.020205452072397764 0.014197274928742879 -0.0049847067760270319 0.016601092185848966 -0.019262212181223509 0.005378715185271046 -0.011595821849126765 0.03308567544878474 -0.0064462912064913664 -0.022963971390729056 -0.033014320492593535 0.011547008075671236 0.017460935556450029 -0.023256604068096841 -0.048609071699959878 -0.084576527012154887
leaf_weight=925.23704588413239 3546.1595493666828 20149.932163237594 24159.752979995683 24267.441904244944 10650.834086876363 1472.2199915377423 12474.535109187942 2160.531753635034 5652.0278548710048 3866.3364137341268 38243.202234360389 22103.687103607226 14148.525894031394 29996.54212705791 13796.301961496472 2264.4607034742367 4425.4873677445576 8429.5441906638443 15014.382064021658 7899.2615509415045 3824.4421942513436 7937.601175040938 16551.329459454399 1774.3471948383376 10381.076941404957 3957.3436968359165 3514.6942589879036 10613.693358339835 852.67394946096465 414.97803472261876
leaf_count=1845 10396 81554 77554 74223 25354 6977 42506 9135 13465 13591 116014 72689 43591 94908 35756 9089 14479 23827 52037 24255 12608 22269 53698 6770 36406 12116 10042 39507 3083 1743
internal_value=0 -0.0606016 0.0847808 -0.0121854 0.170249 -0.0805499 0.0138175 -0.0896189 0.117901 0.051759 0.0461467 -0.0741619 -0.120382 0.00816373 0.0635609 -0.253046 -0.311829 0.248483 -0.189849 0.0274967 0.110551 0.160725 -0.00831776 -0.415081 -0.166464 -0.106847 0.347294 -0.138744 0.0254298 -0.099483
internal_weight=0 188450 137018 150582 62140.9 72790 74877.5 71864.8 47975.4 77791.6 62403 68618.2 46514.5 53524.2 33893.8 37868.6 24990.4 14081.6 31513.3 49657.8 19661.3 15836.9 20097.5 3246.57 29352.8 18971.7 14165.5 12878.2 15001.2 4840.47
internal_count=1041487 632875 408612 486503 172538 244649 236074 242804 137142 241854 193568 229057 156368 167631 99850 146372 97776 37292 109694 154040 59132 46524 64094 13747 100559 64153 35396 48596 46674 16222
shrinkage=0.12


Tree=11
num_leaves=31
num_cat=0
split_feature=9 9 11 11 64 61 9 11 5 8 5 6 61 5 11 11 11 8 64 63 11 70 65 66 11 11 61 61 11 34
split_gain=1509.02 1005.11 853.533 588.696 792.153 546.407 460.555 425.612 419.279 450.714 388.715 298.949 268.673 264.499 396.468 247.95 244.31 224.931 197.706 193.547 263.724 201.323 190.723 198.665 188.299 180.75 187.516 174.532 187.185 168.285
threshold=0.14625000000000002 0.13040948511787467 139.00500000000002 109.00500000000001 106.46750000000002 4.9225000000000003 0.13045948511787467 384.47500000000008 2.5000000000000004 2.1400000000000006 2.5000000000000004 3.7500000000000004 5.4625000000000012 2.5000000000000004 109.99500000000002 80.00500000000001 184.01000000000002 1.2450000000000003 78.00500000000001 160.05439072105534 219.00500000000002 40.750000000000007 24.53959234460461 2.5884724857685018 79.995000000000019 180.00500000000002 6.0750000000000011 5.0425000000000013 296.98500000000007 0.082489703015783858
decision_type=2 2 2 2 2 2 2 2 2 2 2 2 2 2 2 2 2 2 2 2 2 2 2 2 2 2 2 2 2 2
left_child=1 3 8 4 10 -5 13 12 -2 29 -1 -4 16 -3 -15 18 -7 -13 -12 -19 -21 -22 -11 -24 -6 -14 -27 -16 -29 -10
right_child=2 6 11 5 24 7 -8 -9 9 22 15 17 25 14 27 -17 -18 19 -20 20 21 -23 23 -25 -26 26 -28 28 -30 -31
leaf_value=-0.016146007581759294 0.0010296899165749998 -0.04613706575320297 -0.023251677627959405 -0.031550171103510855 0.053554024610712209 -0.0029328119496538712 0.00042461415405475796 -0.041818706759031217 0.0292272867413477 0.0045064584235310935 0.0051137276709134396 0.04397921045156665 0.023394539978656138 -0.0059089186260344604 -0.050411328816445028 -0.0052847573551887666 -0.025135913323024485 -0.017638597909800737 0.032401227613463271 0.013290946298773747 -0.014047794578807919 0.019618864116681355 0.029853080444992096 0.010673444456839321 0.021866850562678442 -0.0035075097890452296 0.035908172039113909 -0.017717953908667008 -0.064515833854068144 0.057316435244466071
leaf_weight=16908.267269586679 14977.535025195219 8801.0497275106609 7570.65117599722 12386.902980721556 3259.288478509523 33311.691409301013 10572.90223194845 4083.2259908653796 6001.7646277733147 11362.267595848069 8800.8233853424899 1803.0912348534912 7639.9291897541843 12181.945472856518 6221.8780306703411 13260.905226411298 9089.7066150223836 6901.6766231143847 6792.9388990085572 20455.291197459679 12748.005347062368 3189.9400356672704 20497.286534195766 12619.087875826284 16206.758149160538 14784.81029147096 1964.0685213324614 8411.5240789074451 1445.9003181243315 6444.5538966394961
leaf_count=59955 46276 38289 25635 44823 8866 108754 34176 15532 15375 35238 28576 4072 22817 43480 24818 44140 31469 22868 20085 61379 42786 9893 58375 39077 49025 47606 5991 32333 6771 13007
internal_value=0 -0.0539842 0.0867537 -0.0134207 0.0576973 -0.0691611 -0.180373 -0.0352528 0.157596 0.196764 -0.0141396 -0.00992687 -0.0160485 -0.232885 -0.185547 0.0563604 -0.0641718 0.0209078 0.141855 0.00642843 0.0355938 -0.0607534 0.149588 0.187955 0.226642 0.0675307 0.00924674 -0.288643 -0.205299 0.365066
internal_weight=0 196125 124571 148489 65229 83260.3 47635.2 70873.4 71902.5 56925 45762.9 52668.7 66790.2 37062.3 28261.2 28854.7 42401.4 45098 15593.8 43294.9 36393.2 15937.9 44478.6 33116.4 19466 24388.8 16748.9 16079.3 9857.42 12446.3
internal_count=1041487 667506 373981 487639 210647 276992 179867 232169 207348 161072 152756 166633 216637 145691 107402 92801 140223 140998 48661 136926 114058 52679 132690 97452 57891 76414 53597 63922 39104 28382
shrinkage=0.12


Tree=12
num_leaves=31
num_cat=0
split_feature=9 12 5 31 11 11 12 65 11 11 54 11 8 61 64 11 61 61 80 5 64 11 10 21 33 8 11 61 64 5
split_gain=1419.66 898.422 697.94 650.128 597.356 526.161 403.864 358.475 338.4 304.455 300.086 280.828 268.212 250.51 248.589 243.157 320.778 227.968 213.273 203.393 187.518 254.766 179.932 166.715 164.258 162.627 155.883 165.322 154.924 151.68
threshold=0.23065000000000002 1.0000000180025095e-35 3.5000000000000004 3.6600000000000006 139.00500000000002 143.00500000000002 1.0000000180025095e-35 12.045297731214687 339.01000000000005 104.99500000000002 0.17748273802040401 357.71000000000009 1.2450000000000003 4.9225000000000003 127.00250000000001 94.995000000000019 4.7025000000000015 5.8225000000000007 0.24567300529292738 2.5000000000000004 135.00250000000003 234.01000000000002 6.0650000000000004 1.0000000180025095e-35 0.20900464572192515 4.3100000000000014 105.00500000000001 4.6225000000000014 281.11500000000007 1.0000000180025095e-35
decision_type=2 2 2 2 2 2 2 2 2 2 2 2 2 2 2 2 2 2 2 2 2 2 2 2 2 2 2 2 2 2
left_child=1 2 5 6 10 7 12 29 17 14 -4 18 -2 -7 23 19 -17 -6 -5 -9 -11 28 -10 -3 -20 -18 27 -26 -22 -1
right_child=3 9 4 11 8 13 -8 15 22 20 -12 -13 -14 -15 -16 16 25 -19 24 -21 21 -23 -24 -25 26 -27 -28 -29 -30 -31
leaf_value=-0.066111658840358911 0.047026588568619222 0.016507624699554128 0.0032112527192369256 -0.027518213919198477 -0.0083215383132087071 -0.05768425184212353 0.046789641249654422 -0.01095259323897123 -0.05310713947816123 -0.013977238911405827 0.029310273794878227 -0.042596035095906856 0.013606253932693291 -0.025682637912041485 0.041415245727081482 -0.038349760776846216 -0.010889413996724138 0.020260405170860255 0.023162551652972901 0.0093641359636136463 0.0090750007645750939 -0.015656575020072616 -0.010353193020512155 -0.0057370381665355361 -0.022195677480530737 0.024433475480141367 -0.001527540741785529 0.028509710369447275 0.062393280566483758 -0.022919242041152761
leaf_weight=1259.9576066788286 3997.8436274770647 20091.023832075763 14857.053611550014 2638.578930888325 29235.469900566386 4524.104581436608 9268.5667473450303 11997.500996093731 3463.9397312090732 10527.761644591112 11099.179664116818 1839.1648864047602 25904.931765127927 16266.884304202395 4589.7937096208334 6283.8483631839044 24876.54227867024 4650.3005319349468 7812.627529097721 17344.059527622536 20863.217183159664 6700.8980235699564 2428.6692665941082 6374.0815289281309 1110.1475194077939 2021.6587281739339 21164.798438944388 5352.1437281062827 812.66745411045849 17393.647024468984
leaf_count=6025 7856 61730 49122 9258 98930 18931 22417 44162 13974 35777 32661 7288 75405 58939 12572 23984 85562 14899 23237 56714 66090 22969 9144 21608 3942 6282 68930 15793 2159 65127
internal_value=0 -0.038762 -0.0784775 0.115907 0.001841 -0.130273 0.20743 -0.0938706 -0.0751296 0.0564121 0.119869 0.026029 0.150746 -0.272249 0.130242 -0.0575207 -0.116161 -0.0365801 0.0445276 0.00873482 -0.00247889 0.0397569 -0.296252 0.0928408 0.0650021 -0.0685133 0.0286989 0.164596 0.0924916 -0.215554
internal_weight=0 237662 167703 79088.8 65734.6 101968 39171.3 81177.2 39778.4 69959.4 25956.2 39917.5 29902.8 20791 31054.9 62523.6 33182 33885.8 38078.3 29341.6 38904.5 28376.8 5892.61 26465.1 35439.7 26898.2 27627.1 6462.29 21675.9 18653.6
internal_count=1041487 807361 584456 234126 218730 365726 105678 287856 136947 222905 81783 128448 83261 77870 95910 216704 115828 113829 121160 100876 126995 91218 23118 83338 111902 91844 88665 19735 68249 71152
shrinkage=0.12


Tree=13
num_leaves=31
num_cat=0
split_feature=9 9 11 9 6 31 9 11 6 9 66 11 64 64 61 5 64 33 80 33 33 61 33 46 11 5 11 11 5 62
split_gain=1414.42 1287.73 815.01 786.431 496.539 349.528 348.406 295.992 292.765 247.5 239.708 230.77 384.579 221.669 220.96 210.618 203.886 198.149 271.411 208.096 196.647 202.846 190.44 190.362 181.828 209.47 180.381 160.655 183.778 151.258
threshold=0.13045948511787467 0.13040948511787467 161.00500000000002 0.030550000000000004 3.2500000000000004 1.3900000000000003 1.0000000180025095e-35 129.00500000000002 3.7500000000000004 0.010350000000000002 2.117906734740334 79.00500000000001 123.22750000000001 78.995000000000019 4.4700000000000015 2.5000000000000004 156.0975 1.0000000180025095e-35 0.16858608025590152 0.022066290935672521 0.22850260822510821 5.0925000000000002 0.065468098195850158 0.21543681775678761 199.00500000000002 3.5000000000000004 119.00500000000001 420.03000000000003 4.5000000000000009 1.3545592648920513
decision_type=2 2 2 2 2 2 2 2 2 2 2 2 2 2 2 2 2 2 2 2 2 2 2 2 2 2 2 2 2 2
left_child=1 3 4 6 -2 -6 -1 8 23 10 -8 13 14 -7 -13 -4 22 18 -3 -19 21 -9 -10 -5 25 -21 -14 28 -17 -20
right_child=2 17 15 7 5 11 9 20 16 -11 -12 12 26 -15 -16 27 -18 19 29 24 -22 -23 -24 -25 -26 -27 -28 -29 -30 -31
leaf_value=0.061147691369669591 -0.010404483655228249 -0.034604259580391657 -0.047239828071743893 -0.013600429551673912 0.042337943584569951 0.016602922966319655 -0.039682642268056102 -0.018044648206046929 0.02642909754594519 -0.0077516276282754903 -0.0141100617110246 -0.042495300817254111 0.034174990995722077 0.044678447949887484 0.0043705143251327617 -0.004438818058815624 0.043333104644795464 -0.050843445480229434 -0.030584819814541229 -0.028939103925317455 -0.032263463382069646 0.0039835016753050111 0.0068050602976548026 0.011482842480166771 -0.053213821224146786 -0.0014212626455991156 0.014738223888208384 -0.034798388258004048 0.018249335894609673 0.036308332799115904
leaf_weight=879.43919659405947 9224.3031560443342 2425.6309063279768 1578.3409853726625 9352.5428637089208 8278.6222569607198 9477.7213360220194 8893.1923631802201 7577.8276316057891 11143.895703969523 30526.09613342653 13106.924291057512 1539.3602531068027 10674.340126640163 7132.3431513011456 23289.241886485368 32457.707109176088 3805.2546121515334 6129.8419897155836 627.83904599770904 15931.674938204931 3046.2939735259861 29183.731971241068 19858.082738546655 8142.7597830099985 3103.2220167350024 5336.4738298091106 19565.491751277819 2112.4910473609343 6102.4183867799584 2071.53523030621
leaf_count=1905 30829 10758 5884 32217 18892 29006 37510 26132 33771 103663 48406 5535 30284 19491 73839 106298 10613 26399 2934 62789 10797 94606 63969 25816 13938 18931 60226 8126 19006 8917
internal_value=0 -0.0576696 0.0785996 -0.0159331 0.132803 0.158156 -0.112484 0.0400283 0.089488 -0.122984 -0.203874 0.135622 0.104379 0.239023 0.0120602 -0.0357665 0.14253 -0.228061 -0.0455976 -0.258642 -0.0249085 -0.00460475 0.115583 -0.0159365 -0.216967 -0.183731 0.180097 -0.021782 -0.00700108 0.171944
internal_weight=0 181142 131432 145516 89181.4 79957.1 53405.7 92110.4 52302.5 52526.2 22000.1 71678.5 55068.4 16610.1 24828.6 42251 34807.2 35626.2 5125.01 30501.2 39807.9 36761.6 31002 17495.3 24371.4 21268.1 30239.8 40672.6 38560.1 2699.37
internal_count=1041487 634071 407416 489405 268102 237273 191484 297921 166386 189579 85916 218381 169884 48497 79374 139314 108353 144666 22609 122057 131535 120738 97740 58033 95658 81720 90510 133430 125304 11851
shrinkage=0.12


Tree=14
num_leaves=31
num_cat=0
split_feature=9 9 9 8 11 9 12 9 21 31 12 64 34 6 21 11 65 80 33 11 63 64 9 61 5 21 66 11 46 70
split_gain=1129.29 1190.12 629.818 615.932 297.288 283.297 282.158 281.337 347.774 269.918 326.178 266.746 238.665 217.605 212.609 208.644 251.373 182.508 175.25 168.75 222.659 199.316 165.459 156.408 149.139 146.6 144.983 137.449 134.748 130.711
threshold=0.13045948511787467 0.13040948511787467 0.045650000000000003 2.9700000000000002 208.00500000000002 1.0000000180025095e-35 1.0000000180025095e-35 0.013250000000000001 1.0000000180025095e-35 3.8100000000000009 1.0000000180025095e-35 208.41000000000003 0.062704030265382252 2.7500000000000004 1.0000000180025095e-35 154.00500000000002 28.05362945823116 0.12238449801670744 0.049835818442020584 127.00500000000001 109.25149877411791 105.92250000000001 0.0014500000000000001 5.5125000000000002 3.5000000000000004 1.0000000180025095e-35 2.0466384180790964 420.03000000000003 0.12632791296285745 15.250000000000002
decision_type=2 2 2 2 2 2 2 2 2 2 2 2 2 2 2 2 2 2 2 2 2 2 2 2 2 2 2 2 2 2
left_child=1 2 5 6 11 25 12 8 22 10 13 17 -2 -4 15 16 -3 -5 28 20 -19 -21 -7 -6 -14 -1 -22 -11 -9 -16
right_child=3 14 9 4 23 7 -8 18 -10 27 -12 -13 24 -15 29 -17 -18 19 -20 21 26 -23 -24 -25 -26 -27 -28 -29 -30 -31
leaf_value=0.095899724384590351 0.003496257280354343 -0.037972153935604672 -0.037794105523963714 -0.030623761504980824 -0.028776834591788671 -0.066042510401391211 0.035621923945373245 -0.0078970796939333149 -0.0032818351385703066 -0.003154862403830937 0.026303072963771566 0.027917258343146706 0.015716840228211293 0.0070180215680276702 -0.026284447804519748 -0.054788029114519889 -0.0087336819872540702 -0.0038441744256980655 -0.013329564815776703 -0.052976065621051796 0.032381944417305929 -0.00083207875481856278 -0.027097288693572946 -0.0044578368626503806 0.037289017787647448 -0.009373216887531538 0.01050915828711968 -0.057118422471557323 0.010154845531501687 -0.0011189266672360007
leaf_weight=546.32009696960449 17394.761313870549 11175.685536774341 1624.6163404835388 2210.567140978761 5271.2560720937327 1781.7325223940425 11196.30724035576 10579.170559098478 10457.638814874925 21287.504355640151 14424.590885900892 7046.9604194518179 15106.758049830794 36114.620499206707 5684.1648819071706 4941.1081823885906 6860.2987395375967 10363.578186323866 18238.627185244113 1108.4080091286451 6599.3583749458194 20564.596972138621 13965.884312001523 13814.958000119776 6697.9823229759932 283.76818111166358 13045.115497956984 697.99309480935335 13590.578364686342 6267.828514161054
leaf_count=940 55325 46623 5994 8082 19051 9127 29177 37062 38197 70889 44106 21009 43467 118390 23118 23076 26371 35050 62079 4316 18982 67680 54497 47449 17218 846 41383 2824 44310 24849
internal_value=0 -0.0522588 -0.0119718 0.0701507 0.0155849 -0.0804152 0.156747 -0.0874802 -0.168951 0.0521022 0.0912807 0.049717 0.116647 0.0423152 -0.217795 -0.27412 -0.223913 0.0257407 -0.0370761 0.0378196 0.0863927 -0.029346 -0.262821 -0.093272 0.186345 0.498198 0.148964 -0.0407634 0.0186961 -0.109277
internal_weight=0 178522 143593 130421 80024.8 69443.7 50395.8 68613.6 26205.3 74149.3 52163.8 60938.6 39199.5 37739.2 34929.1 22977.1 18036 53891.6 42408.4 51681.1 30008.1 21673 15747.6 19086.2 21804.7 830.088 19644.5 21985.5 24169.7 11952
internal_count=1041487 633298 489261 408189 263002 247058 145187 245272 101821 242203 168490 196502 116010 124384 144037 96070 72994 175493 143451 167411 95415 71996 63624 66500 60685 1786 60365 73713 81372 47967
shrinkage=0.12


Tree=15
num_leaves=31
num_cat=0
split_feature=9 9 11 9 9 5 11 64 33 11 11 33 33 5 61 8 11 61 8 11 5 33 5 65 11 64 67 63 5 11
split_gain=1112.87 990.415 591.581 485.277 341.804 283.396 355.332 371.027 263.404 260.831 221.396 215.108 212.012 212.777 197.566 189.901 196.096 197.904 179.185 169.046 214.717 162.597 158.854 153.511 150.68 190.045 171.198 148.681 147.532 146.274
threshold=0.13045948511787467 0.13040948511787467 178.59500000000003 0.080650000000000013 0.35855000000000004 2.5000000000000004 159.00500000000002 172.97000000000003 0.14721124718014825 63.005000000000003 265.00500000000005 0.092904891874868792 0.08725399305555559 2.5000000000000004 5.5724999999999998 4.2700000000000005 89.995000000000019 4.9925000000000006 4.3350000000000009 119.00500000000001 2.5000000000000004 0.088285281385281397 3.5000000000000004 29.801125088109405 296.98500000000007 244.04500000000004 3.2500000000000004 249.85564531138152 3.5000000000000004 279.01000000000005
decision_type=2 2 2 2 2 2 2 2 2 2 2 2 2 2 2 2 2 2 2 2 2 2 2 2 2 2 2 2 2 2
left_child=1 3 4 5 12 -1 7 9 -6 -7 21 23 -2 -14 29 16 -15 -18 19 20 -3 -5 -10 -11 25 -4 -26 -17 -23 -8
right_child=2 18 24 10 8 6 14 -9 22 11 -12 -13 13 15 -16 27 17 -19 -20 -21 -22 28 -24 -25 26 -27 -28 -29 -30 -31
leaf_value=-0.020263907183646155 0.027124735688304404 -0.038207441901781401 -0.0066631717745889198 0.024729671968114104 0.050810082441959135 0.024779809036516821 -0.019533828607184157 0.033137386102369513 0.011244488224359157 -0.0084668817957935759 -0.021876588099676419 -0.020334451749039029 -0.010181804728672521 0.026754401354685257 -0.0033872408352613186 -0.009295163291347287 -0.0059714865007046104 0.016114741552312434 0.0040579507653036315 -0.038295644333022252 -0.01122124167569067 -0.0018526651676205508 0.031630148902583824 0.0065719525207980044 -0.026784803934765091 0.01691801500778161 0.029537298981692824 0.022892930818040731 0.016674032004335426 -0.05723499691560411
leaf_weight=17013.134157431778 7889.8677231203765 6361.1842088876292 20136.507672023028 10648.901850005612 4580.268349789083 5126.1701619261876 13547.526347402949 5017.5590093079954 14067.910756436642 17081.126460043248 2943.6421666056849 9067.7239757962525 9580.5122178774327 11523.587653273717 12645.734407504555 10587.247714362107 9351.9945890819654 15497.845444934443 2869.3947341953171 12152.161902972497 12887.221262691543 12952.264775997028 9107.698328088969 22832.308861784637 6610.9347566762008 6506.3806849657558 872.49421085417271 2560.2395410463214 11811.834396714345 1671.425380365923
leaf_count=65289 22763 29341 67652 33299 9997 16410 48624 14916 42147 60787 10800 32120 33605 34007 44084 36871 31111 47889 12498 52838 48827 43915 25865 76250 24488 20359 2918 7925 37176 6716
internal_value=0 -0.0521156 0.0700951 -0.0153575 0.110761 -0.0508258 -0.0277086 0.0161388 0.204105 -0.00795875 0.0807556 -0.0304626 0.0720447 0.0514356 -0.120804 0.0778479 0.115084 0.0649468 -0.204728 -0.226592 -0.167997 0.102701 0.160594 0.00108127 -0.0427502 -0.00744483 -0.16809 -0.0250211 0.0581332 -0.197563
internal_weight=0 176629 128873 142359 94747.2 104003 86989.6 59124.9 27755.9 54107.3 38356.6 48981.2 66991.3 59101.4 27864.7 49520.9 36373.4 24849.8 34270 31400.6 19248.4 35413 23175.6 39913.4 34126.3 26642.9 7483.43 13147.5 24764.1 15219
internal_count=1041487 633890 407597 490386 292180 365196 299907 200483 78009 185567 125190 169157 214171 191408 99424 157803 113007 79000 143504 131006 78168 114390 68012 137037 115417 88011 27406 44796 81091 55340
shrinkage=0.12


Tree=16
num_leaves=31
num_cat=0
split_feature=9 12 11 9 9 21 9 9 6 11 64 11 64 8 21 9 21 8 64 11 8 49 11 64 61 66 63 15 56 61
split_gain=972.483 640.492 516.561 480.496 368.644 352.208 373.605 257.899 255.448 232.225 281.734 229.128 295.54 219.678 215.837 210.574 224.283 207.62 180.849 169.366 151.698 151.076 164.017 143.684 142.986 135.258 130.064 120.228 119.504 116.136
threshold=0.15285000000000001 1.0000000180025095e-35 109.99500000000002 0.13040948511787467 0.029850000000000005 1.0000000180025095e-35 1.0000000180025095e-35 0.0029500000000000004 3.2500000000000004 89.995000000000019 92.002500000000012 257.02000000000004 136.01000000000002 1.8700000000000003 1.0000000180025095e-35 0.13045948511787467 1.0000000180025095e-35 1.2450000000000003 108.00250000000001 165.13500000000002 1.7000000000000004 -1.0000000180025095e-35 189.00500000000002 178.99750000000003 6.0150000000000006 2.4971937517702973 166.53385983447791 2.5000000000000004 1.0000000180025095e-35 5.5325000000000015
decision_type=2 2 2 2 2 2 2 2 2 2 2 2 2 2 2 2 2 2 2 2 2 2 2 2 2 2 2 2 2 2
left_child=1 3 8 4 5 6 -1 -8 -2 10 27 12 -4 -6 20 16 -5 -14 -11 23 -10 -15 26 -20 -13 -12 -23 -3 -9 -21
right_child=2 9 11 15 13 -7 7 28 14 18 25 24 17 21 -16 -17 -18 -19 19 29 -22 22 -24 -25 -26 -27 -28 -29 -30 -31
leaf_value=0.086810445663860869 -0.0042884280365052601 0.027006455614969383 -0.0080208163945210704 -0.034833489383821914 0.013613611962532909 0.00012461472347871021 -0.060776911233819217 -0.033875830731042174 0.046864739121455092 -0.020437982420578031 0.050135942301777064 -0.02226617415755424 0.056153295290076691 -0.036065709451551645 0.0061640025581967649 -0.0059420230936639536 -0.011899185702743984 0.0091836470853185331 0.005665914352615372 -0.022007120462744851 0.023537096040374579 -0.002627613204816563 -0.015353809112057604 0.032357160072231446 0.0080402506128012721 0.014027387513088591 0.013882562010428409 -0.00091611272401097993 -0.014075022723866395 0.0015687168322073479
leaf_weight=420.84005872905254 5943.9166057780385 2908.7892506448552 16969.334298572503 17665.011897290824 13848.553580116481 13623.543819080573 2774.7631491916254 7079.3231409629807 4825.202254912816 5294.5225309990346 4059.4788161106408 7844.2495877728797 1400.9483601376414 1969.4166570324451 9083.7332725469023 9379.8185221443418 9479.1096844822168 39638.196865180042 14565.267320740037 4685.0119965737686 24885.43444465287 25679.130054524634 10430.243730571121 3635.1688492996618 3120.9869588534348 2404.031471805647 9369.5618475833908 9269.5317518459633 11757.547041898593 8345.6799681857228
leaf_count=785 20167 9186 55919 79657 46127 49366 14492 28395 10771 19191 11356 28530 3013 7507 29125 32529 39791 126923 48929 17026 74764 86803 37240 10946 10662 7909 30098 32176 43529 28575
internal_value=0 -0.0437625 0.0733133 -0.0812276 -0.04437 -0.125213 -0.203352 -0.221654 0.157 0.0468467 0.137648 0.0189951 0.0440802 0.00262939 0.186583 -0.178992 -0.223642 0.0899961 0.000436633 0.0294706 0.227842 -0.0296808 -0.0178755 0.091813 -0.113488 0.306367 0.0148379 0.0478486 -0.17947 -0.0574537
internal_weight=0 188644 113712 133477 96952.9 35656 22032.5 21611.6 44738.3 55167.5 18641.8 68973.7 58008.5 61296.9 38794.4 36523.9 27144.1 41039.1 36525.7 31231.1 29710.6 47448.4 45478.9 18200.4 10965.2 6463.51 35048.7 12178.3 18836.9 13030.7
internal_count=1041487 681613 359874 496319 344342 136567 87201 86416 134827 185294 60627 225047 185855 207775 114660 151977 119448 129936 124667 105476 85535 161648 154141 59875 39192 19265 116901 41362 71924 45601
shrinkage=0.12


Tree=17
num_leaves=31
num_cat=0
split_feature=9 9 11 9 11 64 5 31 5 9 21 8 11 61 11 12 63 5 11 12 61 11 64 72 8 66 46 11 61 11
split_gain=879.671 819.965 486.937 412.53 289.826 350.352 281.411 247.802 203.258 202.409 254.528 198.787 196.202 193.609 183.689 183.645 180.701 172.98 210.928 172.528 161.454 167.74 163.327 148.47 145.021 140.23 137.748 143.804 159.666 135.832
threshold=0.13045948511787467 0.13040948511787467 157.64500000000001 0.017850000000000001 115.00500000000001 117.82250000000001 3.5000000000000004 4.1100000000000012 3.5000000000000004 1.0000000180025095e-35 1.0000000180025095e-35 2.7400000000000007 520.72500000000002 5.3225000000000007 362.02000000000004 1.0000000180025095e-35 174.89494517121975 2.5000000000000004 83.00500000000001 1.0000000180025095e-35 6.1650000000000009 257.02000000000004 244.04500000000004 1.9873216797267437 1.5000000000000002 2.5014275040308314 0.2420256921694072 59.995000000000012 4.3625000000000016 231.66500000000002
decision_type=2 2 2 2 2 2 2 2 2 2 2 2 2 2 2 2 2 2 2 2 2 2 2 2 2 2 2 2 2 2
left_child=1 3 6 9 5 26 11 24 29 -1 19 15 20 -4 -15 -2 -9 -3 -19 -11 21 22 -10 -20 -8 -7 -5 -28 -29 -6
right_child=2 17 13 4 8 25 7 16 12 10 -12 -13 -14 14 -16 -17 -18 18 23 -21 -22 -23 -24 -25 -26 -27 27 28 -30 -31
leaf_value=0.047995656135699123 0.009832546215012462 -0.038155053493001148 -0.015989238294416647 -0.0034468721123680482 -0.010300517140923126 0.035834906808578176 0.063359031206022223 -0.0034377703957840251 0.0020383059874739509 -0.030834746979541496 -0.0015022823136317755 -0.00021679359941226319 -0.052017524089202453 0.0052180771329329734 -0.025205260282334378 0.035212721821698691 0.024403237960452701 0.0046027573903190053 -0.031658733970939087 -0.00629570601737934 0.044364541686674634 -0.016978764125606449 0.031148093223201043 -0.01087536135308487 0.027324822392628813 0.0073048886990794825 0.034008263644971296 -0.03583710219378012 0.0096567214409676253 -0.044318141567167173
leaf_weight=753.30463487282395 21668.248445305973 7793.0041891366709 11599.923815780319 20592.064798585605 18097.615834094584 8031.4920000899583 1793.4055717308074 7246.6971798259765 25141.744821894914 13486.052880442701 12801.330183985177 24936.869251298718 953.02493060845882 28297.19655492343 3172.4326577195898 5078.9121800325811 6227.3624589322135 4918.3774748947471 11964.073012557114 5986.3645246224478 1304.6112582879141 5894.4954454749823 3118.8158979453146 8527.2266592988744 16672.916449971497 3626.4246056396514 3195.5738275470212 1204.1826348304749 13468.70892004855 1867.1220229980536
leaf_count=1775 66489 37881 40473 72166 63632 23770 3861 25062 85077 58600 47013 85305 3992 93535 12345 13543 19271 18691 51406 20898 4283 21362 9437 35509 47564 12177 9813 4591 44591 7375
internal_value=0 -0.0461827 0.0635247 -0.0125537 0.0177123 0.0730501 0.108018 0.181838 -0.0314486 -0.110195 -0.122225 0.0623463 0.0129648 -0.0228207 0.0178332 0.122221 0.0784675 -0.187414 -0.147243 -0.194222 0.0250794 0.0118051 0.043869 -0.191887 0.257113 0.224897 0.0269481 0.0912079 0.0491319 -0.112535
internal_weight=0 172726 126694 139523 106496 50118.4 83624.4 31940.4 56377.4 33027.1 32273.7 51684 36412.7 43069.6 31469.6 26747.2 13474.1 33202.7 25409.7 19472.4 35459.7 34155.1 28260.6 20491.3 18466.3 11657.9 38460.5 17868.5 14672.9 19964.7
internal_count=1041487 634039 407448 490552 362266 167108 261095 95758 195158 128286 126511 165337 124151 146353 105880 80032 44333 143487 105606 79498 120159 115876 94514 86915 51425 35947 131161 58995 49182 71007
shrinkage=0.12


Tree=18
num_leaves=31
num_cat=0
split_feature=6 11 5 61 11 9 35 21 11 61 70 6 61 11 64 64 11 5 11 64 11 61 21 11 7 33 64 62 11 65
split_gain=885.025 885.273 617.638 544.371 467.808 432.034 361.01 326.886 259.277 373.41 228.417 225.618 222.593 221.154 284.556 205.311 196.986 192.332 150.981 155.466 148.989 146.069 142.76 149.311 134.79 129.828 120.668 116.326 114.831 108.425
threshold=3.2500000000000004 135.00500000000002 3.5000000000000004 5.1525000000000007 307.61500000000007 0.19535000000000002 1624.6806250000006 1.0000000180025095e-35 69.995000000000019 4.5500000000000016 40.750000000000007 2.7500000000000004 5.9750000000000005 202.01500000000001 184.02750000000003 70.002500000000012 68.995000000000019 2.5000000000000004 99.00500000000001 98.875000000000014 93.995000000000019 6.0225000000000009 1.0000000180025095e-35 520.72500000000002 1.0000000180025095e-35 0.13831000000000002 127.98500000000001 1.7111706477633188 178.59500000000003 66617.565458252982
decision_type=2 2 2 2 2 2 2 2 2 2 2 2 2 2 2 2 2 2 2 2 2 2 2 2 2 2 2 2 2 2
left_child=7 2 5 28 12 8 18 11 15 -10 22 17 13 14 -5 -2 -13 -1 19 -4 -11 -12 23 -6 -8 -7 -22 -19 -3 -23
right_child=1 3 6 4 10 25 24 -9 9 20 21 16 -14 -15 -16 -17 -18 27 -20 -21 26 29 -24 -25 -26 -27 -28 -29 -30 -31
leaf_value=-0.058573122472170315 0.0011542794124169743 -0.016203783181302452 0.016317925102769842 -0.0025213281215073326 -0.034236374033679809 0.03127542051479576 0.00023105436981872389 -0.0023899215713230949 -0.029974198914549281 0.0071030400075127974 -0.027163461940988298 0.0040439104559742527 0.027506790810173831 -0.0078675996634716104 0.016880184825623267 0.029963769676824396 -0.028130836444742981 -0.040976473072188116 0.021132782174798918 0.048395876394106377 -0.01173467498561701 0.01990367235683161 -0.0128108103772236 -0.085939481112127264 0.017873594814715212 0.011240868671841691 0.0048832790775702687 -0.0039454703042520172 -0.034375664117742663 0.16655049134059677
leaf_weight=4646.5499756825157 9820.6624469701201 17278.169662771747 3041.0495912563056 25133.518051952589 5200.9569999839878 6034.1868470218033 13122.363021816127 11723.101512865629 7970.2315451903269 16964.223477885127 1202.4467476652935 4356.7036662320606 4729.5485054780729 27244.202670433559 19173.12383715529 5601.4169427510351 7320.453427628614 2746.4150155098177 15722.570283992216 7937.2764696558006 21697.863308983389 1922.3858530353755 3842.8080567955039 961.65490912552923 11926.393896992318 20782.186858775094 8834.0537385074422 2226.8229021693114 7121.3470300906338 71.224435895681381
leaf_count=22037 36062 62941 9429 87645 20872 15932 45054 45644 32297 59375 4818 16173 15127 97028 62311 18164 28334 11850 49589 21856 80671 6941 14948 4486 38052 65203 31080 9106 28337 125
internal_value=0 0.0194415 0.070058 -0.0469688 -0.0108384 0.0232461 0.158391 -0.154223 -0.0176297 -0.0495437 -0.18462 -0.228038 0.019221 0.0052968 0.0489164 0.0969999 -0.134245 -0.341553 0.239312 0.329529 -0.0158767 0.0475334 -0.258964 -0.353388 0.0720218 0.131358 -0.0576549 -0.203869 -0.179361 0.213887
internal_weight=0 263336 149454 113881 89481.9 97704.8 51749.7 33020 70888.5 55466.4 13201.5 21296.9 76280.4 71550.8 44306.6 15422.1 11677.2 9619.79 26700.9 10978.3 47496.1 3196.06 10005.4 6162.61 25048.8 26816.4 30531.9 4973.24 24399.5 1993.61
internal_count=1041487 908343 502764 405579 314301 338784 163980 133144 257649 203423 52190 87500 262111 246984 149956 54226 44507 42993 80874 31285 171126 11884 40306 25358 83106 81135 111751 20956 91278 7066
shrinkage=0.12


Tree=19
num_leaves=31
num_cat=0
split_feature=9 9 9 11 11 63 5 8 9 9 70 64 21 11 64 11 8 10 31 8 12 62 31 5 66 11 12 66 5 61
split_gain=815.263 652.331 443.624 428.198 265.437 278.33 254.211 218.5 191.237 189.136 182.55 174.571 171.387 163.849 166.543 160.874 161.011 156.429 153.452 147.236 143.285 142.316 141.961 141.567 139.831 134.198 131.599 122.094 119.3 118.462
threshold=0.13045948511787467 0.13040948511787467 0.013250000000000001 170.00500000000002 159.00500000000002 151.42385816020564 2.5000000000000004 2.6750000000000003 1.0000000180025095e-35 0.11515000000000002 15.750000000000002 178.99750000000003 1.0000000180025095e-35 90.00500000000001 105.92250000000001 231.66500000000002 3.8800000000000003 5.3350000000000009 3.04 3.3150000000000004 1.0000000180025095e-35 1.3293795429947106 1.95 3.5000000000000004 2.1597041372459533 59.005000000000003 1.0000000180025095e-35 2.5014275040308314 3.5000000000000004 4.8125000000000009
decision_type=2 2 2 2 2 2 2 2 2 2 2 2 2 2 2 2 2 2 2 2 2 2 2 2 2 2 2 2 2 2
left_child=1 2 8 6 5 9 25 20 -1 18 -10 13 15 21 -15 16 -3 -6 26 -19 28 -9 -5 -24 -12 -2 -4 -7 -8 -16
right_child=3 12 4 22 17 27 7 11 10 -11 24 -13 -14 14 29 -17 -18 19 -20 -21 -22 -23 23 -25 -26 -27 -28 -29 -30 -31
leaf_value=0.044618209877823035 0.0184020303473241 -0.028223670880588629 -0.0013000850352321213 0.022189383155359989 -0.018461513975678429 0.023863248485478047 0.013067437220983734 -0.012285266819341396 -0.028411804030731323 0.022437517377597384 -0.030967405802704327 0.026309830351572847 -0.0088063246519417548 -0.020796146235805529 -0.036027676676218749 -0.065630624173598634 0.0059240047919510742 0.010902856862512416 -0.011176295945418368 -0.01014821743969815 0.041321985366261881 0.023029806115007122 -0.020620296325149716 -0.0017294306358275021 -0.00098637292126303364 -0.0079727381004902585 0.015149521614565297 0.0053648707769444418 0.034600711588504647 0.0073288564716873167
leaf_weight=719.38388879783452 3587.3572842348367 17301.962215431966 27489.381434845738 2782.7091460339725 12270.737654035911 13302.826221234165 13290.151365290396 1907.7179134450853 12119.146854368737 5276.3183954050764 2899.2960304410663 8086.9441275764257 11223.61265462311 4033.1964480150491 939.02639834955335 1464.3249205325264 2231.9215523005696 8331.8914887206629 16037.551038923673 11216.09654092323 5459.6389755383134 11380.324794024229 7387.592407843098 25296.245626276825 9877.4920142502524 12223.279022554401 9382.9032067526132 8437.3229612428695 5176.995906803757 22565.51908500772
leaf_count=1774 11770 76839 97778 7805 45373 41865 39714 7037 52073 17228 12739 24904 47690 14915 3578 8223 9839 28487 57812 40103 13723 35996 27398 88695 37395 41946 30839 29194 13439 75316
internal_value=0 -0.0454 -0.0153424 0.0612563 0.0118519 0.0426179 0.0984118 0.123362 -0.134032 0.00650737 -0.148801 0.0849704 -0.17345 0.0582995 0.014204 -0.226809 -0.202577 -0.0653618 -0.011468 -0.00969084 0.201728 0.149491 -0.0315597 -0.0500768 -0.0651489 -0.0164111 0.0240069 0.13915 0.159373 0.0464935
internal_weight=0 169582 137360 124117 111745 79926.3 88650.2 72839.5 25615.3 58186.2 24895.9 48912.7 32221.8 40825.8 27537.7 20998.2 19533.9 31818.7 52909.8 19548 23926.8 13288 35466.5 32683.8 12776.8 15810.6 36872.3 21740.1 18467.1 23504.5
internal_count=1041487 635251 492660 406236 388679 274716 282338 228622 103981 203657 102207 161746 142591 136842 93809 94901 86678 113963 186429 68590 66876 43033 123898 116093 50134 53716 128617 71059 53153 78894
shrinkage=0.12


Tree=20
num_leaves=31
num_cat=0
split_feature=5 11 64 61 11 64 11 11 64 69 61 61 61 11 10 11 11 9 64 3 11 9 65 10 11 74 11 9 33 64
split_gain=745.257 890.95 501.378 435.737 472.952 351.44 332.938 313.032 317.675 249.132 239.502 223.608 222.489 204.381 198.753 197.852 181.456 179.126 177.361 176.99 170.789 159.78 134.377 132.628 129.268 128.157 122.203 117.4 116.767 116.693
threshold=2.5000000000000004 116.00500000000001 115.00250000000001 4.9525000000000015 223.00500000000002 210.91000000000003 59.995000000000012 71.995000000000019 78.00500000000001 40.818043096273009 4.2825000000000015 4.6325000000000012 6.0225000000000009 89.995000000000019 4.6450000000000005 169.01000000000002 631.0350000000002 0.36695000000000011 60.002500000000005 214.50000000000003 357.71000000000009 0.13045948511787467 29.479704778283423 5.1250000000000009 339.01000000000005 0.95179152638494735 154.00500000000002 0.27225000000000005 0.24684682028144814 178.00250000000003
decision_type=2 2 2 2 2 2 2 2 2 2 2 2 2 2 2 2 2 2 2 2 2 2 2 2 2 2 2 2 2 2
left_child=6 2 7 -3 5 17 18 8 19 24 -8 14 20 -4 -9 21 -14 22 -1 -2 -11 -12 -5 27 -6 29 -24 -13 -19 -15
right_child=1 3 13 4 9 -7 10 11 -10 12 15 23 16 25 -16 -17 -18 28 -20 -21 -22 -23 26 -25 -26 -27 -28 -29 -30 -31
leaf_value=-0.0056961079437242877 -0.0048738263544879272 -0.021544618737207449 0.039890033370434501 -0.013989397738879023 -0.019035859116347965 0.020301156036830192 -0.046945349719592099 -0.0095674530035807191 0.038112716637866008 -0.007212255296947888 -0.020251895445063322 0.0036558826487581141 0.020228535415038124 0.019229927070214287 -0.064557816416605629 -0.046904208319459878 -0.041472836500765858 0.033882598598652988 0.028100417471557195 0.021137111445505213 -0.041654803280168955 -0.0013755254793993666 0.0059588923690369585 -0.020685485644974251 -0.04715151556724289 0.00060043833957614174 -0.0055059107114902705 0.023120177900489491 0.0063582574728625035 0.050537987644594003
leaf_weight=7550.7225217972882 7942.1878430629149 16935.784767785575 8386.1871866760775 11304.095929019153 10990.728313682135 15109.021517736837 4157.8423173825722 10102.686884534545 7182.8541678925976 13314.188135949196 17090.84774392494 28955.740923671983 6089.2211350351572 16127.084553584922 1042.5299883373082 2748.2089629950933 766.62237613555044 3202.9755813740194 3167.4176052985713 7139.1646619979292 2458.4207012639381 10423.446502876002 27634.013217177242 2749.6138760019094 3022.7707148073241 4860.7504254011437 25954.191248985473 5282.6400141306221 7312.5923262732103 1930.3066964317113
leaf_count=30292 29548 65677 24379 42769 41488 49144 18244 36594 22049 49025 71707 102905 21561 52730 4426 12095 3300 8795 11227 23010 10709 35570 95753 10427 13066 16938 93604 15075 23972 5408
internal_value=0 0.0216932 0.0933592 -0.0288761 -0.00878792 0.0299978 -0.118094 0.0464945 0.144528 -0.104646 -0.166024 0.00109696 -0.0396312 0.198661 -0.122995 -0.134959 0.110574 0.00207559 0.0356457 0.0618847 -0.105062 -0.109259 -0.0175198 0.0385541 -0.209436 0.149568 0.00334758 0.0555748 0.123141 0.188359
internal_weight=0 245796 101702 144095 127159 90516.9 45138.5 70397.4 22264.2 36642 34420.3 48133.2 22628.5 31304.3 11145.2 30262.5 6855.84 75407.9 10718.1 15081.4 15772.6 27514.3 64892.3 36988 14013.5 22918.1 53588.2 34238.4 10515.6 18057.4
internal_count=1041487 862352 343489 518863 453186 314037 179135 244034 74607 139149 137616 169427 84595 99455 41020 119372 24861 264893 41519 52558 59734 107277 232126 128407 54554 75076 189357 117980 32767 58138
shrinkage=0.12


Tree=21
num_leaves=31
num_cat=0
split_feature=6 11 5 63 11 11 63 11 61 70 64 11 64 63 65 10 11 64 9 80 42 5 15 54 44 11 55 9 42 61
split_gain=746.05 737.323 415.475 390.005 363.845 282.697 281.226 268.91 253.131 246.185 216.066 212.6 206.68 188.816 180.511 173.707 155.247 154.472 140.164 138.794 171.12 131.036 137.286 129.268 129.131 123.783 120.313 115.645 113.647 112.605
threshold=3.7500000000000004 128.00500000000002 3.5000000000000004 137.02268953366323 249.00500000000002 89.995000000000019 88.533498824911888 84.00500000000001 4.5625000000000009 39.750000000000007 244.04500000000004 43.015000000000008 90.002500000000012 46.218134698275868 66617.565458252982 5.0450000000000008 307.61500000000007 89.995000000000019 0.13045948511787467 0.44385230922492835 0.1850066976285504 1.0000000180025095e-35 3.5000000000000004 0.23161558473388991 0.12834316670056403 520.72500000000002 0.75000000000000011 0.25605000000000006 0.22422729515121978 5.2525000000000013
decision_type=2 2 2 2 2 2 2 2 2 2 2 2 2 2 2 2 2 2 2 2 2 2 2 2 2 2 2 2 2 2
left_child=5 3 15 7 10 6 11 12 -7 25 26 13 23 -1 -11 -3 19 -9 -19 -10 -21 -13 -23 -2 -5 -6 29 -24 -22 -4
right_child=1 2 4 24 9 8 -8 17 16 14 -12 21 -14 -15 -16 -17 -18 18 -20 20 28 22 27 -25 -26 -27 -28 -29 -30 -31
leaf_value=-0.010287662416459148 -0.00062843601545764505 -0.02548949444254079 -0.0060768953716068023 0.015974974849714919 -0.015453239493638088 -0.046329471232862372 0.012556500457682642 -0.016765223061250254 -0.017576962092771944 0.0076531306048321307 0.025207850249168946 -0.062608262381826235 0.030361149386543562 0.043321736085820586 0.14736175564280629 -0.0072384134710238631 -0.054854508096117569 -0.0029517462882206425 0.012833709482232286 -0.014529095094998789 0.060103766942037645 0.0013824291092578819 -0.02381126844197622 0.018574669814280319 0.03183518233585543 -0.051480942133693086 0.060721829093150367 0.0049150464736587955 0.0078991362822419461 0.0066719260942844994
leaf_weight=1866.6436142483726 10840.331928707659 12937.564780959394 13977.147513706703 18677.204578353092 15059.055317927152 3849.6465637837537 12023.858863997739 6717.3008542135358 23793.073490632465 4885.9577428100165 7736.479922243394 771.33293925737962 8770.6335506988689 1898.6510139591992 132.23649353720248 18024.304869831307 1286.4763470212929 20962.823336979374 13178.23039348796 6196.7751730815507 700.70829453412443 7044.1128996205516 12052.861095445231 9403.6696684928611 12371.647557963151 1516.042462868616 521.2885378934443 2405.8977857325226 4169.0576042435132 34714.489086640067
leaf_count=7531 39312 51220 50206 61401 58592 17079 42437 25190 91950 17977 24941 4153 27503 6391 224 66610 6032 79051 41731 23504 2005 26670 50287 31272 38317 6865 1380 7767 14434 119455
internal_value=0 0.0309532 -0.0258593 0.0926152 0.0127929 -0.0835117 -0.0217565 0.0511299 -0.142223 -0.0976924 0.0547252 -0.0802052 0.124739 0.13919 0.0960454 -0.123961 -0.116147 -0.00110181 0.0261275 -0.103442 -0.0107174 -0.117405 -0.10269 0.0690188 0.185887 -0.156479 0.0302456 -0.158455 0.129283 0.0250595
internal_weight=0 210426 109505 100922 78542.7 78059.1 38063.4 69873 39995.7 21593.3 56949.4 26039.5 29014.6 3765.29 5018.19 30961.9 36146.1 40858.4 34141.1 34859.6 11066.5 22274.2 21502.9 20244 31048.9 16575.1 49212.9 14458.8 4869.77 48691.6
internal_count=1041487 741247 397470 343777 279640 300240 145236 244059 155004 83658 195982 102799 98087 13922 18201 117830 137925 145972 120782 131893 39943 88877 84724 70584 99718 65457 171041 58054 16439 169661
shrinkage=0.12


Tree=22
num_leaves=31
num_cat=0
split_feature=9 9 9 11 11 9 33 9 33 33 12 66 31 9 33 33 12 64 21 49 67 11 66 34 61 35 5 78 80 20
split_gain=806.673 620.764 532.581 382.421 221.811 215.076 236.883 205.568 203.277 196.855 173.581 210.425 166.096 163.261 152.916 150.773 149.113 141.185 139.614 139.419 119.591 131.801 117.82 117.637 114.545 108.742 105.277 104.481 104.367 101.601
threshold=0.13045948511787467 0.13040948511787467 0.06235000000000001 195.36500000000004 194.00500000000002 0.46350000000000008 0.32949288256227766 0.0078500000000000011 0.21181818131101815 1.0000000180025095e-35 1.0000000180025095e-35 2.3519259259259262 2.0800000000000005 1.0000000180025095e-35 0.050493270270270278 0.10140976479915433 1.0000000180025095e-35 164.79250000000005 1.0000000180025095e-35 -0.74999999999999989 1.7500000000000002 119.00500000000001 2.2306907378335956 0.08654956532766378 5.6225000000000014 575.22852528089913 2.5000000000000004 1.0323627984918309 0.20844950801855067 712.2700000000001
decision_type=2 2 2 2 2 2 2 2 2 2 2 2 2 2 2 2 2 2 2 2 2 2 2 2 2 2 2 2 2 2
left_child=1 2 4 5 7 10 -7 13 14 12 15 -12 -3 -1 -4 -2 27 23 -15 -17 21 -11 -18 -9 -6 -25 -21 -16 -14 -5
right_child=3 9 8 29 24 6 -8 17 -10 20 11 -13 28 18 16 19 22 -19 -20 26 -22 -23 -24 25 -26 -27 -28 -29 -30 -31
leaf_value=0.042785751792553464 0.019150853238986826 -0.018032659990672724 0.029724083855699194 -0.017214735833007023 -0.03252430686464039 0.039478217878714361 0.01027764660618352 -0.0011109226301599863 -0.016529245602451021 -0.024989633994727867 0.027341340477861475 0.0060427574295787399 -0.0080566564152477014 -0.031654729975363387 -0.024115088876605777 -0.031404319577750618 0.029783692080568289 0.013271916443684511 -0.0070011091540837043 -0.009602102700505941 -0.017055064827106305 -0.05214330933336276 0.0076303678060631068 -0.036773982405580781 -0.011117048825384798 -0.0078192572054955403 0.0057983188812808055 0.0045571630350631576 0.048366831526679352 -0.00062296300509723994
leaf_weight=603.30057573318481 8325.8889551628381 2520.3971713851206 4984.1165565261617 7594.1066090576351 6956.0684330472723 7361.9280448239297 8828.9832858783193 36046.609845437109 4611.4733587400988 8677.3392719868571 12824.053011909127 14018.242885367945 727.19270031200722 7450.2193951806985 1954.5825747195631 1769.5090197082609 6352.948473174125 7827.8586006183177 6005.1055641490966 7841.8790483525954 14546.377516088774 3712.7905669775791 7670.9115045568906 2669.0205489117652 7566.2433682470582 6312.4887097738683 34300.510700986721 27354.078907717019 1300.3041187548079 17788.45595146995
leaf_count=1543 25937 11946 16313 28493 28320 19296 27927 132120 17045 38679 38507 47839 3979 35217 7959 6849 19871 26758 23889 29178 63987 17954 26643 10615 29156 22855 116108 96565 6249 63690
internal_value=0 -0.045112 -0.0154782 0.0623558 -0.0662439 0.0914215 0.196483 -0.0418848 0.0625928 -0.171493 0.0698748 0.135253 0.0205268 -0.149347 0.0817671 0.0362321 0.0626088 -0.0132527 -0.172303 0.0127818 -0.203985 -0.276363 0.147418 -0.0348379 -0.178293 -0.137217 0.0243842 0.0219421 0.23368 -0.0466571
internal_weight=0 165849 134365 120654 81436.9 95271 16190.9 66914.6 52928.1 31484.4 79080.1 26842.3 4547.89 14058.6 48316.6 52237.8 43332.5 52856 13455.3 43911.9 26936.5 12390.1 14023.9 45028.1 14522.3 8981.51 42142.4 29308.7 2027.5 25382.6
internal_count=1041487 637663 494869 403824 310473 311641 47223 252997 184396 142794 264418 86346 22174 60649 167351 178072 151038 192348 59106 152135 120620 56633 46514 165590 57476 33470 145286 104524 10228 92183
shrinkage=0.12


Tree=23
num_leaves=31
num_cat=0
split_feature=9 9 9 31 34 8 11 80 11 63 60 21 72 33 6 11 62 12 11 53 44 11 63 9 66 61 9 70 11 12
split_gain=681.186 519.132 436.168 368.815 229.942 188.195 180.054 161.698 153.12 271.108 151.224 138.243 135.783 130.429 129.251 129.188 124.095 121.96 119.035 109.616 121.275 113.291 172.918 108.211 105.315 112.897 102.915 100.6 99.6431 94.0894
threshold=0.13045948511787467 0.13040948511787467 0.047450000000000006 3.6600000000000006 0.11536333590398921 2.5200000000000005 269.00500000000005 0.2374868417407584 108.00500000000001 108.05068181818184 4.574817045961626 1.0000000180025095e-35 2.3031544957774472 0.072499432892249541 3.2500000000000004 53.265000000000008 1.4415997782739682 1.0000000180025095e-35 286.02000000000004 -0.74999999999999989 0.13081431310407718 199.00500000000002 3582.5046554159144 0.65675000000000006 3.0653010033444823 5.8325000000000005 0.0078500000000000011 10.250000000000002 56.010000000000012 1.0000000180025095e-35
decision_type=2 2 2 2 2 2 2 2 2 2 2 2 2 2 2 2 2 2 2 2 2 2 2 2 2 2 2 2 2 2
left_child=1 2 8 4 13 29 7 -5 9 15 26 17 16 -2 -15 -1 -9 -3 -12 -7 27 -22 -23 -6 28 -26 -10 -21 -18 -4
right_child=3 11 5 6 23 19 -8 12 10 -11 18 -13 -14 14 -16 -17 24 -19 -20 20 21 22 -24 -25 25 -27 -28 -29 -30 -31
leaf_value=0.009715905361263039 0.025499584192602821 -0.029553615454192581 0.0092087158720264625 -0.024825215248255636 0.020401845072049073 -0.03260068743068379 -0.018301289607942178 -0.015888838072114653 -0.036506053254230356 0.01269124321527128 -0.0012496497392139418 -0.0080619753357719422 -0.037373688981454371 -0.014714619566265826 0.0082414460583456594 -0.016065973906440347 0.046083005168496609 -0.0061841565032191379 -0.024894248898694907 -0.021616798404582884 0.014930275094708862 -0.013965531292476204 0.13022378641849461 0.046212602627007132 -0.01296511112403617 0.027137824897581365 -0.016102449638345718 -0.00056326112415077529 0.0086001856120214108 0.026651126262506597
leaf_weight=3436.7881918032654 5622.3214783072472 16127.567677831277 18180.550250040367 2959.970494301524 16286.619561103173 1406.5793729741126 6947.2499443474226 3710.7326654158533 4912.9327854830772 10964.943193446845 14676.063990597147 10904.551899597747 1104.4087321069092 3913.8895956818014 35240.612695380114 14771.049903129227 1052.6453466396779 4054.3656584452838 3879.3986047348008 3845.134559049271 12571.183695528656 3532.3001594943926 118.76105498243123 2755.869676746428 5987.5609462978318 1208.4870066102594 13295.408339794725 21803.223644626793 33156.684138789773 5935.3487424682826
leaf_count=13384 16793 79092 65013 11534 48983 5615 27515 13996 22203 38761 54103 47864 4474 14752 116625 60515 3351 15814 16276 14446 42420 13044 201 6290 22253 3896 50993 78571 113669 19041
internal_value=0 -0.0418526 -0.0147013 0.0572521 0.109252 0.0418527 -0.00184225 0.0194139 -0.0725337 -0.01835 -0.115467 -0.158219 0.0339697 0.0700255 0.049492 -0.0932088 0.0425031 -0.207279 -0.0517612 0.00235518 0.0116398 0.0793328 -0.075317 0.201342 0.0582409 -0.0515235 -0.180245 -0.0311042 0.0813928 0.112635
internal_weight=0 164416 133330 119947 63819.3 67393.1 56127.7 49180.5 65936.6 29172.8 36763.8 31086.5 46220.5 44776.8 39154.5 18207.8 45116.1 20181.9 18555.5 43277.2 41870.6 16222.2 3651.06 19042.5 41405.4 7196.05 18208.3 25648.4 34209.3 24115.9
internal_count=1041487 637356 494586 404131 203443 238351 200688 173173 256235 112660 143575 142770 161639 148170 131377 73899 157165 94906 70379 154297 148682 55665 13245 55273 143169 26149 73196 93017 117020 84054
shrinkage=0.12


Tree=24
num_leaves=31
num_cat=0
split_feature=9 9 11 9 64 31 8 11 6 33 12 65 11 5 60 33 78 66 61 8 61 33 21 11 65 71 44 8 5 36
split_gain=615.477 444.858 363.936 334.962 247.737 194.797 179.257 163.739 173.172 151.508 141.56 135.197 133.982 131.757 127.29 126.545 129.25 120.106 119.228 124.377 109.117 107.404 115.488 110.401 129.977 103.945 99.5818 96.2338 95.9844 95.0532
threshold=0.13045948511787467 0.13040948511787467 143.00500000000002 0.025450000000000004 149.00500000000002 1.3900000000000003 1.7000000000000004 140.00500000000002 4.2500000000000009 0.077093662391365322 1.0000000180025095e-35 18.858554863502601 179.00500000000002 3.5000000000000004 4.822983594864481 1.0000000180025095e-35 1.0290276373441187 2.5334305150631686 4.8425000000000002 3.7500000000000004 5.3725000000000014 0.022066290935672521 1.0000000180025095e-35 199.00500000000002 27.042057267161734 47.403580235899021 0.12496160095187493 3.9600000000000004 1.5000000000000002 1430.5998912784864
decision_type=2 2 2 2 2 2 2 2 2 2 2 2 2 2 2 2 2 2 2 2 2 2 2 2 2 2 2 2 2 2
left_child=1 3 4 9 6 -5 -2 8 13 11 28 -1 -13 26 -14 16 -3 -12 -4 29 -9 22 -17 24 -23 -22 -7 -11 -8 -20
right_child=2 15 18 5 -6 7 10 20 -10 27 17 12 14 -15 -16 21 -18 -19 19 -21 25 23 -24 -25 -26 -27 -28 -29 -30 -31
leaf_value=-0.021651133805510543 0.023929396633105698 -0.022069638166729952 -0.035154323414864963 0.016329858439473072 0.028905130951918784 -0.011878193408614495 -0.032151642026550249 -0.015816426596439788 0.015521399002910044 -0.035668052879429389 0.023371566502971879 0.0013416150565396673 -0.035838555360935678 0.01081113501672081 -0.0026066479497272358 -0.050159446641699232 0.01842261354180506 0.0035660335292146722 0.00059043156065901074 -0.0053829892489070325 -0.016741472996791833 -0.023837564041084929 -0.011905481008643196 -0.040358048136026288 -0.0036239593752889938 0.0042380529908638016 0.0038867475376016111 -0.0040604521384487212 0.0027386990383930802 0.018904926298638845
leaf_weight=7576.8013486217242 9704.4009075593203 2030.9118933454156 1474.0251676915213 12248.459405247122 10536.250705242157 13693.866036952473 1171.2409523632377 11922.735451806802 14185.990677556954 5024.7797490665689 10111.767056308687 20318.375049652066 3134.4620648985729 10691.21740141511 3559.1406755088829 3287.0182988736778 2559.892267962452 7875.6753491619602 10957.090115553234 28830.111951796338 4533.5131330033764 9414.8532633846626 1769.8322648149915 2623.0301184090786 8983.7435131324455 13542.858420533128 9934.6854772688821 1941.9455442382023 32225.045719890855 6524.8251674054191
leaf_count=34441 26074 10349 5783 42537 32404 51417 4799 45118 48411 20534 31052 78622 13801 36882 14380 17398 12096 27415 37799 105850 16956 42597 8197 13556 38393 48874 35283 7030 112770 20669
internal_value=0 -0.0403858 0.0541149 -0.0152129 0.0992091 0.018817 0.0747244 0.000488107 0.0364279 -0.0895723 0.0511198 -0.0623746 -0.0291601 -0.00193409 -0.151828 -0.148898 0.00377188 0.122638 -0.0134361 -0.00446576 -0.057553 -0.175845 -0.307029 -0.144128 -0.116536 -0.00844555 -0.0436684 -0.224177 0.012527 0.0620265
internal_weight=0 162978 119410 132309 71624.4 90753.3 61088.1 78504.9 48505.8 41555.5 51383.7 34588.8 27012 34319.8 6693.6 30669.3 4590.8 17987.4 47786.1 46312 29999.1 26078.5 5056.85 21021.6 18398.6 18076.4 23628.6 6966.73 33396.3 17481.9
internal_count=1041487 636872 404615 494286 234514 325478 202110 282941 171993 168808 176036 141244 106803 123582 28181 142586 22445 58467 170101 164318 110948 120141 25595 94546 80990 65830 86700 27564 117569 58468
shrinkage=0.12


Tree=25
num_leaves=31
num_cat=0
split_feature=9 5 11 11 65 33 61 11 11 54 64 6 11 11 61 14 11 10 66 11 64 11 56 61 5 11 61 54 66 61
split_gain=570.099 459.813 504.825 447.099 323.957 297.956 226.022 208.913 198.988 223.235 210.478 188.503 182.088 166.25 164.689 135.575 161.131 124.374 112.27 112.057 101.718 114.736 98.7777 96.4358 95.4323 106.572 126.388 106.253 96.9593 95.3119
threshold=0.26745000000000008 3.5000000000000004 206.00500000000002 109.00500000000001 10.299800393603002 0.14432218259483326 4.8325000000000005 169.01000000000002 109.00500000000001 0.19966365783557097 149.00500000000002 4.2500000000000009 169.01000000000002 59.995000000000012 4.6325000000000012 2.5000000000000004 420.03000000000003 4.6650000000000009 2.3758465701487519 71.00500000000001 285.01500000000004 152.00500000000002 0.19972886318325103 5.5500000000000016 3.5000000000000004 98.995000000000019 4.7200000000000015 0.39455582069481693 1.8765694772786974 4.2025000000000015
decision_type=2 2 2 2 2 2 2 2 2 2 2 2 2 2 2 2 2 2 2 2 2 2 2 2 2 2 2 2 2 2
left_child=1 3 8 4 -1 -2 -5 22 9 -3 -10 13 24 -6 17 16 -4 29 -11 -13 21 -12 -8 -17 25 27 -27 -7 -26 -15
right_child=5 2 15 6 11 12 7 -9 10 18 20 19 -14 14 -16 23 -18 -19 -20 -21 -22 -23 -24 -25 28 26 -28 -29 -30 -31
leaf_value=-0.018422872423386565 0.030608273421000986 0.0072025251593414085 -0.014183751246548273 -0.033165072855709223 0.012473752205004048 0.0061978528598513379 -0.010991623216163628 -0.02604973720266111 -0.0058698990147596159 0.04028849431066308 0.018433744318399066 0.039126409996627837 -0.003346410077776809 -0.047770175025963313 0.0010613277393158752 -0.020855142369301392 -0.054607363510663892 -0.067332882997435464 0.015574669431542745 0.009486698065638061 0.050661027129809334 0.0027506964613516834 0.005809917070844349 0.0039495861832784928 0.039541780304991267 -0.035856499835538583 0.003321239960963133 0.032153502438887316 0.014522718106442369 -0.010087358458727529
leaf_weight=13819.200856591575 9057.0686848405749 14537.572271334473 12787.179625072517 9671.6261896551587 9384.0988034829497 6552.0135602094233 19664.566117497627 11559.896576955449 19198.646809745114 6347.1806088136509 11257.28081351053 2180.440161973238 16503.50418451475 1046.74768111296 22155.942950110417 2919.8351806742139 1600.5488401991315 632.40352763235569 4624.166151817888 11863.928629771341 871.21229408495128 16760.023864292074 6749.9460252472199 9854.5566286090761 2867.400225173682 1390.2508615097031 7856.8004565313458 3499.1614004522562 10358.262801497243 12732.011884620879
leaf_count=60410 24715 51928 50689 42709 35628 21853 77249 48198 72155 19193 38261 7182 59923 4849 83452 11945 7684 3093 15661 43652 2704 61070 24949 37444 8058 5012 26623 10614 33535 51049
internal_value=0 -0.0228474 0.0270813 -0.0642818 -0.0155042 0.0884161 -0.139798 -0.104929 0.0700973 0.141505 0.0321653 0.0162637 0.0575658 -0.014689 -0.0451991 -0.0893889 -0.155956 -0.128399 0.249216 0.117648 0.0861183 0.0755236 -0.05574 -0.0142265 0.100986 0.0559633 -0.0213267 0.127244 0.166484 -0.108198
internal_weight=0 222219 100758 121461 73814.8 58084.5 47646 37974.4 73596.1 25508.9 48087.2 59995.6 49027.4 45951.2 36567.1 27162.1 14387.7 14411.2 10971.3 14044.4 28888.5 28017.3 26414.5 12774.4 32523.9 19298.2 9247.05 10051.2 13225.7 13778.8
internal_count=1041487 851154 368734 482420 289315 190333 193105 150396 260972 86782 174190 228905 165618 178071 142443 107762 58373 58991 34854 50834 102035 99331 102198 49389 105695 64102 31635 32467 41593 55898
shrinkage=0.12


Tree=26
num_leaves=31
num_cat=0
split_feature=12 9 21 5 11 11 31 63 9 21 11 10 8 5 11 60 11 28 11 64 20 9 80 21 39 34 66 33 9 5
split_gain=568.997 407.381 240.165 238.475 272.758 228.715 226.7 218.791 200.28 199.448 213.837 177.419 153.142 140.962 128.456 119.566 119.419 115.845 109.912 144.649 117.036 109.448 103.608 102.548 148.602 101.036 89.5232 86.1804 90.4492 85.2039
threshold=1.0000000180025095e-35 0.15285000000000001 1.0000000180025095e-35 2.5000000000000004 99.995000000000019 265.00500000000005 3.2599999999999998 103.4665020790021 0.23335000000000003 1.0000000180025095e-35 485.01000000000005 5.0750000000000011 3.9400000000000008 3.5000000000000004 299.00500000000005 3.9903715205889125 93.995000000000019 29.500000000000004 170.00500000000002 162.23000000000005 1293.7350000000004 0.025450000000000004 0.34146338438830554 1.0000000180025095e-35 2.7500000000000004 0.173463408265181 2.6107650669004694 0.41912017381236311 0.65675000000000006 1.5000000000000002
decision_type=2 2 2 2 2 2 2 2 2 2 2 2 2 2 2 2 2 2 2 2 2 2 2 2 2 2 2 2 2 2
left_child=1 3 5 23 7 8 13 -5 17 10 11 -6 -10 16 15 -8 -3 21 19 -13 -20 -2 -17 24 -1 26 -23 28 -14 -26
right_child=2 6 -4 4 9 -7 14 -9 12 -11 -12 18 27 -15 -16 22 -18 -19 20 -21 -22 25 -24 -25 29 -27 -28 -29 -30 -31
leaf_value=-0.05011306289952009 -0.005091153274631585 0.014476749721567412 -0.0023019026185870151 -0.0051000505468555019 -0.020955082307694287 -0.017949775741932062 -0.022962054949370918 0.015976944370212937 0.039652133091369786 -0.00015958255213362573 -0.074715710128967883 -0.0078183106612912286 0.017670368778004639 0.022283344363894175 -0.025439323213268999 -0.010680891204461054 -0.002249231796004841 0.037149110076109097 -0.028107989059848612 0.018510258002001932 -0.004549024953906698 0.017775195937646707 0.005780815489616036 -0.0073426591208023105 -0.043202273550431824 -0.010957798754978583 0.0044573599651105801 -0.0085816818048201939 0.076434321423015469 -0.015040298248500285
leaf_weight=2675.4760999241844 7287.1742561892606 11484.180494728032 23252.506139125209 15340.76977909822 20687.910599639639 3461.05769474525 3157.445719556883 13164.580901580397 6474.7850461453199 23193.77531889407 811.22460952633992 8237.0745357298292 6399.4583526425995 10272.009448099881 3362.1654830654152 7364.0776931447908 13173.056061035953 2098.690180182457 5052.426861866843 4720.8946184613742 7680.6562953575049 20286.232891262043 21723.319246336818 7685.4292264119722 1807.8922785958275 2743.3197534102947 11416.898769573774 1743.2518333923072 399.84220914170146 11217.742604485713
leaf_count=15165 27144 37596 85890 60991 86073 13548 12395 47465 17262 91134 4229 32273 21443 30786 14228 27996 44805 6566 21309 16713 30438 68006 76941 33599 9476 10303 41184 6477 1012 49040
internal_value=0 -0.0305123 0.0674703 -0.065428 -0.043919 0.0998375 0.0299867 0.0385548 0.114552 -0.0773495 -0.114666 -0.105672 0.214285 0.0872333 -0.0261184 -0.00664529 0.0461047 0.0803161 -0.0500459 0.0146561 -0.116028 0.0687036 0.0133652 -0.156264 -0.202639 0.092274 0.108235 0.125874 0.176791 -0.158188
internal_weight=0 192812 85563.2 122276 98889.3 62310.7 70536.3 28505.4 58849.7 70384 47190.2 46379 15017.3 34929.2 35607 32244.8 24657.2 43832.3 25691.1 12958 12733.1 41733.6 29087.4 23386.5 15701.1 34446.5 31703.1 8542.55 6799.3 13025.6
internal_count=1041487 742652 298835 497905 390625 212945 244747 108456 199397 282169 191035 186806 46194 113187 131560 117332 82401 153203 100733 48986 51747 146637 104937 107280 73681 119493 109190 28932 22455 58516
shrinkage=0.12


Tree=27
num_leaves=31
num_cat=0
split_feature=6 11 64 5 11 11 61 64 64 21 9 61 11 70 11 64 42 5 11 11 10 11 3 5 10 61 75 31 11 49
split_gain=549.758 560.487 394.593 307.395 265.693 264.403 244.657 214.383 202.888 187.192 166.166 148.596 144.404 172.601 140.244 138.877 129.342 138.549 126.191 123.349 117.294 107.166 103.808 102.982 100.146 251.995 97.9996 94.558 91.5392 88.4858
